function [Y,Xf,Af] = myNeuralNetworkFunction(X,~,~)
%MYNEURALNETWORKFUNCTION neural network simulation function.
%
% Generated by Neural Network Toolbox function genFunction, 30-Mar-2017 08:16:03.
% 
% [Y] = myNeuralNetworkFunction(X,~,~) takes these arguments:
% 
%   X = 1xTS cell, 1 inputs over TS timesteps
%   Each X{1,ts} = 14xQ matrix, input #1 at timestep ts.
% 
% and returns:
%   Y = 1xTS cell of 1 outputs over TS timesteps.
%   Each Y{1,ts} = 1xQ matrix, output #1 at timestep ts.
% 
% where Q is number of samples (or series) and TS is the number of timesteps.
% INPUTS AND OUTPUTS USED:
% input_data.dat
% output_data.dat

%#ok<*RPMT0>

% ===== NEURAL NETWORK CONSTANTS =====

% Input 1
x1_step1.xoffset = [-100;-100;-100;-100;0;1;1;1;1;1;1;1;1;1];
x1_step1.gain = [0.01;0.01;0.01;0.01;0.0952380952380952;1;1;1;1;1;1;1;1;0.285714285714286];
x1_step1.ymin = -1;

% Layer 1
b1 = [0.71360782970878311;0.96605114800720715;-0.5905274404288533;-0.53801351828718569;0.66980437719849117;-0.39825317512867753;0.84635078242679906;1.0593859782748591;0.77298633966420782;0.83935120868733126;-0.50676285660024201;0.68344960912632569;-0.61272284888797568;-0.49688861025240894;-0.48818448614554039;0.10387815706096078;0.60815728751753295;-0.48355593941363473;0.27429387409801897;-0.21002269378646946;-0.18943194562666635;0.1426873403067766;-0.49480745574403934;0.30225944541384941;0.32193892312220312;0.52893213316732191;0.377710633545568;-0.4332575236544185;0.41633246530566576;-0.064682976648082396;0.21325616175629986;0.52109745190372769;0.021545230118512813;0.11782804712091474;0.3390422789008643;0.10004961997859908;0.23304657289867839;0.12149260082541612;0.17532633854387775;0.23754000159082275;-0.20064824900043257;-0.23528736343312842;-0.25651974105048947;-0.14034088696772071;-0.037775851791374;-0.034844095417745066;0.050839408541182962;0.011931991010729162;-0.35132783242561128;-0.34631941122710397;-0.14822638882986275;-0.085632973793943662;0.026813625859015949;0.034908996757890484;0.10585673295747293;0.20391459049002564;0.10766595861884722;0.28256011829029187;-0.045610632063001921;0.037232880671651057;0.11015915360190022;0.021058951408822402;0.73238991287093103;0.29353172666541971;-0.46560556417245991;-0.28765184079802286;0.43900408653691742;0.1931886970685561;0.38221073908744224;-0.0094383271317601096;0.37070683536963661;0.078633972095097482;-0.34714653988245109;0.037373814180199638;0.29932130190785777;0.52206126692738664;-0.27188332602828336;0.46878945204517131;0.33610982625864699;-0.54133741557628612;0.52915858962623241;0.72288189444965834;-0.20062934704079663;-0.26894880214619366;-0.57380588474076344;0.87403433804565822;-0.69692364505162208;0.49531909605432978;-0.71556603430264543;-0.39229286721980305;0.74348118146158404;-0.45812600342765836;0.81829518925774991;-1.5224020903287434;0.85034420783911457;-0.49669322713483938;-0.75291116355907761;-0.37775462616443289;0.1493472520814095;-0.67486497810438661];
IW1_1 = [-0.19525672470960215 -0.21028393219964417 0.15045281842009961 0.11748120335043727 0.50712115536108981 -0.084723662967511895 0.0084549746196685132 0.10805378145754596 0.43367495698071112 0.0096307789481485696 -0.046659744075539362 -0.10281399100462789 0.13722511213697974 -0.20534147177709572;-0.02081322995339048 0.13625354460583033 -0.0051883825553002867 0.10007333599314022 1.4431251139428631 0.19416710581231478 -0.024340499734069352 -0.0083913903908949036 -0.039993154198071368 0.019387204617592729 0.015458688921027582 -0.06524497778350255 -0.0066438615705468589 -0.17458348851331718;0.21511054625981788 0.083962501254633184 0.27294707362113896 0.0095542818670311287 0.61113534771223565 0.34501845131473247 -0.015940057482876337 -0.016513192473981794 -0.10772109022789945 -0.028189908592755622 0.005654480458549235 -0.1108512533957187 0.081293188106784584 -0.44407752009188117;0.16395568601183311 -0.057552062956733381 -0.071936107146185632 0.047412608697359165 0.29389541707010114 -0.95533902404759852 0.27239606027950847 -0.10653500937693407 0.12482046264969947 0.055339352973388732 -0.083759130525057582 0.15800351366190635 -0.26962416351572993 0.27641903361935177;0.06914530686775594 0.044276729885661559 0.05907166868697955 -0.094847925906588804 -0.34621831646009871 0.10440791434946697 -0.10808695211353574 -0.1858963348963617 -0.076448908024496817 0.17542373355054555 -0.16716473633400278 0.00027771331569311061 0.21838752475723466 0.94249768626635289;0.041944327782479786 -0.65707654303030782 0.22542355363156577 0.1509683362759566 0.1738910483783975 0.059829794084522575 -0.082287618702746743 -0.0015960033663646117 -0.18949522614830802 -0.33476877288704066 -0.11174977643705238 -0.2106503085132482 -0.093022077813021367 -0.073175132360038739;0.013981127230064913 0.01908118069918668 -0.17799782401964134 -0.061257574027342089 0.13269255188386511 0.019915304797957282 -0.10995723569902982 -0.31945976924233432 0.16063575219459908 0.15596384739846569 -0.16606221318231512 -0.35988147422834788 -0.29108011291885089 -0.45664399850610093;-0.21685434913287702 -0.11274602867782113 -0.010585072476299712 0.041836796480246602 0.1130021115996527 0.59488977439948054 0.29635005942448139 0.044506368331068268 0.044640713131427576 0.20287451783723673 -0.021065104146702904 0.089714036322489699 0.052184961561994751 0.69366579592064048;0.022893768131275725 -0.086168144087335613 -0.046652897892834312 -0.075245551322220008 -0.16948326867366051 0.34461937248721036 0.38416913414126169 0.38107439698320478 -0.16039952123805071 -0.15175481068267765 -0.12392144276007357 -0.14856599147551947 -0.33311252229160548 0.5840964628344002;-0.079475338996079128 0.090595304163862828 0.04162006168012404 -0.067050159111693583 -0.050595271372181665 -0.059990352811980847 0.073601981632803362 -0.02975062410054485 -0.28324737088552904 0.17426153648439136 -0.064222559121224529 0.198272745520608 0.50431314263196614 -0.69935611799811137;0.025951109416915953 0.25541194455014005 0.29711472100198894 -0.12792114567343335 1.0329286979202033 -0.0014197704292988535 0.058090845185275852 0.040473669693202548 0.0055628970748135519 0.17231520428408678 0.0642072536586831 0.097527579033478834 -0.029096916376454857 -0.12504058515190566;-0.07502250105398256 0.24835748891860457 -0.28218106448125735 -0.26201511133052641 0.901085817082242 0.034357001834356908 0.034042839786261769 -0.0053233009803864105 -0.093793609668557751 -0.11656720775091683 -0.1254229071443575 0.0011049060816145384 -0.11828193957317679 0.020864479866662154;-0.10913626100229393 0.79802961266074512 0.43710291201249862 0.062613151208229884 -0.68361012403376864 0.038830526167851036 -0.082281164642967933 -0.1049443242236251 -0.014432882822377409 -0.028080154239649952 0.020564328955660727 -0.047793878715544566 0.047879370445388363 0.022298327494099251;-0.043592127863093161 -0.24926119014551029 0.065751458491018641 -0.27751675789839525 0.003809203339560471 -0.092825270229855039 -0.10533483858026393 -0.091718184138182696 -0.23314485558308906 0.21333616077655507 -0.12391435726973613 -0.22064460775349878 -0.48464784345697615 0.35647625246240749;0.038533492963838838 0.16848807434847668 0.00049390029771011592 0.10414699837450905 0.084660897637687277 -0.19885531646086665 -0.17002561623977711 0.47148417928043823 -0.23096158634942424 0.57650935291531324 -0.067539671477681862 -0.23336824475069462 -0.018102493257871031 -0.27534443800949771;0.09824268613518633 0.0064847970139504489 -0.010926994408669332 0.152328024967743 0.61701991334361295 -0.93208764454871007 0.061944457044345057 0.022393201485329091 0.03163105745849034 0.014344954068349835 0.035249741181631038 -0.0086147218661615996 0.084296890706299976 -0.84723653479044514;-0.17516311396185172 -0.064731233941823729 -0.0677277055286582 0.059742301999721713 0.9195427880393765 -0.10961632543560916 -0.10938450789841138 -0.067454556225618967 -0.14870644318442394 0.24171921789928091 -0.064456942815442078 -0.055776551442823397 -0.17345622114892348 0.1767981552098937;-0.088933300117523914 0.21966986431349445 0.28509230029230687 -0.41780418928493901 -0.58324840608771644 -0.43147305431241384 0.22170856180031925 0.20872263018765402 0.22915917216383105 0.20205207530833133 0.066527331531546052 0.094141168427378449 0.18389793228794005 -0.36191300237911689;0.026903439795406547 0.10386654015577979 -0.13695699878630979 -0.036378478171724155 0.1542883770059702 0.11677021871619624 0.063812244453500588 0.092367555911630067 -0.256433433423705 -0.43763284872068509 0.1600892418495232 0.033247220864616914 0.3075888171764265 0.11114015588646858;0.71884201260913572 0.80747277548707697 -0.32950481759694478 -0.1093228610901273 -0.3418982777928799 -0.10008717155271671 0.16675747770136862 0.13476109799985383 0.023867220109617508 0.15915841248635995 0.086976029507558214 0.092448665021483134 0.079002908713406247 0.066593035219125934;-0.025275235925203719 -0.018269208104853191 -0.017717895054927577 -0.048723398867793033 -0.031586734059218351 -0.0093436819739173803 0.066145718857512498 0.06919390208104452 -0.42150582619662236 -0.30335169355425706 0.21806064456728108 0.15319432091910273 -0.033158454849244103 3.3389518045432327;-0.34224480572147453 0.59341578076699253 0.84432707943049035 -0.29339561332022335 0.17025464206521024 0.0077991971880083466 0.014756294935958142 -0.19321550034937626 0.072487342264008173 -0.097980431092859005 -0.12987856149371257 0.0027854554783799238 -0.035027719824524114 -0.18396083688657244;0.17445666107926919 -0.053704318774887683 0.022922649443226594 -0.063537439594733569 1.2104550744601537 0.029902615342380274 -0.0065561214716079686 -0.10824726037384672 -0.014855101033282749 -0.18674333786000671 -0.036775159330778094 0.055252621006534039 0.071372573177369503 0.11745528548025408;-0.1796810705590339 -0.01278140286705336 0.012596480984599505 -0.032199023930905415 -0.1558426529061509 -0.099285037198809392 -0.024255351489143883 0.39311083955136411 -0.36299160342624082 -0.012644145005926793 0.075213094993496987 -0.088933217462511815 0.10393369700854463 -0.72950670524003136;-0.16728712354278832 0.063700290931908612 -0.48524061523142376 0.12828741428774545 -0.27042843751101725 0.13066221861343685 0.09231959059044012 0.034376490370378529 -0.013465249339731545 -0.27519827063952218 0.42863124385142432 -0.0065127099253529689 0.0037203623259108422 0.86407486345406981;-0.0014051868766961405 0.11776072607265607 0.047402285239099722 0.0078292381432905588 1.0860836469695283 0.023633639550642443 0.00079776102549356941 0.050582107067437106 0.13990898489957546 -0.06559913659143235 0.069629912467472577 0.13378726351721726 0.074014889014820173 0.027131181993581912;0.0093619474214401647 -0.15621582482164806 0.044196131521518731 0.073047317046514612 -0.16983303367799962 0.0011094338163770171 0.044579993009854137 0.052027807546147865 -0.040436680641041528 -0.0047124817093747049 0.070181406027606447 -0.32338252336021939 0.92745381347994349 0.8671732752537108;0.52976965885488014 -0.72703360381547522 -0.15099989789008836 -0.23407710353115765 0.093973573124545282 0.070246995419003241 -0.10834160753835455 0.022309173644511338 0.01019615150934673 0.10512269283005919 -0.13780747149945724 0.1455114085873716 -0.090483625418556771 -0.001471070487599413;-0.27915435860943555 0.40908644679954304 -0.092139660040954516 -0.8628850320245347 -0.045935181542398847 -0.18545385334933015 -0.18045427330560868 0.01939180714270548 -0.13676642383615847 0.12625831241260632 0.080035438412320803 0.040400744603165555 -0.16327709043195002 -0.20505706265222029;-0.22000404392698658 0.072342219679831954 -1.3980009490568577 1.0636515395882462 -0.29046048970784055 0.038373728248472599 0.034071000517799904 -0.04895107925262418 0.049908611172664888 0.011627156393209616 -0.043117326406291387 -0.05377700313935764 -0.010827295633492372 -0.04127241589014919;0.083611756399882942 0.15128766820388601 -0.012547331461569439 -0.019825538842216755 0.031176906112077931 0.23958330200060135 -0.092960261067311395 0.10205304183595652 0.73428833100233359 0.044262123682526959 -0.123097669827339 -0.062472987210004764 0.067342362971281239 -0.21773913966888217;-0.59276778885381998 -1.1147110206278255 0.27497354095824783 0.15106234703142418 0.029113959955274701 -0.011367243905026261 0.018105707927327845 0.051519731005031773 0.0064767795834663336 0.053526437795678242 0.016124548183142559 -0.0022116230887602607 0.028394857947943556 -0.019615013991694217;0.04295653556828332 -0.071727741591762373 -0.035716260595498373 0.11184873173705295 -0.1287075211091413 0.065332511320471409 0.15233762874532686 0.019186316221389416 0.098843555319914164 0.14838406069452881 0.01134184504450598 -0.019869394285860886 -1.0097529248878909 0.41247229464674645;0.017378762821899291 -0.024495204525201944 0.014571534899658286 -0.0046561170091102841 -0.016067510708890519 0.058318104687209632 0.050145243454080078 0.11333522207141085 0.0035501507845976145 0.03873652667898473 0.10745949198975172 -1.4226629066083254 0.054106233580648297 0.4883550402279227;-0.040319339760481895 -0.64959876661097571 0.21665353357047756 0.060828814214386975 -0.26613352085354663 0.12598150982547004 0.22376437219002937 0.090351155287836132 0.25170091604021189 -0.14851723268748271 0.11113834503934511 0.050418115970180484 0.1024114307344218 0.10492443307839412;-0.18221413312072265 -0.052147399214903647 0.13739360814859333 0.31850957226286453 -0.77502782443328988 -0.042230071032783756 -0.20276204121129895 0.20915949223699132 -0.19953011114629374 0.036878193205420767 -0.0039280820691076912 0.074738439273499671 0.098693880577009174 -0.055085960476610255;0.13248912925249517 0.17871422493793909 0.12953887479661691 -0.32506000969830351 0.65628349037285505 0.0013200701577613669 -0.13018984358498317 0.17923688207249477 0.013478420233503572 0.12871207093223386 0.13433499590981382 -0.1538193387145658 -0.18470018796701954 -0.058113888460841728;-0.19005954920781185 0.020574302641301386 -0.0427314493532477 -0.32257807277293638 -0.12305683763232089 0.23121853849637852 -0.56453783417946302 0.12507706244888986 0.13665876599009066 0.15976990762073245 0.24770905633238144 0.30872529184467534 -0.5743236006046204 -0.044746102849579708;-0.12346889053479679 -0.18775844378617071 0.049474531320343976 0.12367472532869049 1.0039009514867758 0.26025816142277763 0.12303995712182446 0.18091759237357591 0.0054832032809091127 0.018632538297549101 -0.022366279320696059 0.051911026088493531 0.081209181349083503 -0.39026839379802636;0.027475078235467958 0.095206009799802788 -0.010875212242138721 -0.029277581450467445 0.088076047132890634 -0.063524039399723606 0.017841973450768479 -0.87659319062674834 0.07570725875736975 0.012767994280914526 0.07659551388157243 0.12662820711619779 -0.0065394123167745047 -0.71202840111579857;-0.019389321340375562 -0.029667744158719579 -0.019579468366902459 0.058524782699526899 -0.063031062934226598 -0.066386506415401267 1.5150470082088661 -0.1012981480749568 0.010102336635970842 0.011694197167661189 -0.085730656161546806 -0.0045291986236070062 -0.082440500715270273 0.45480658976838401;-0.15076713070462106 0.12047730806039132 0.41261769668038806 -1.0325113570020164 0.052886036015996341 -0.0049983236335214096 0.16881774318584683 -0.14025792524216377 -0.087015276370829758 -0.1324468518916711 0.17041496464901548 -0.24948952283252279 -0.24187964714885579 0.27045431396655523;-0.066690564685446985 -0.13594213580815548 0.0024458094110872677 -0.17446144146303977 0.18528190561693492 0.063378926875174726 -0.092974995208758751 -0.14811827845422532 0.13198286618744764 0.035776111428679487 -0.5008193625591294 -0.2768462556465488 0.18505087280609767 -0.16802824193101715;-0.012319021631239076 0.13343871638979013 -0.14603257137309816 0.27192078222403249 0.89174169907843737 0.0098468081463122768 0.086241664593546583 0.049276312905625813 0.01043499190080756 -0.018416547098018321 0.17143833174959416 0.17480391723480029 0.075700080971201997 0.18273021130968203;0.058092951557515038 0.91452687988974624 -0.45500336124540675 -0.40579703084796465 -0.2568241658755851 0.20375093108342143 0.04571452594924505 0.13849943107651685 0.1005157329559713 -0.0087006597202998678 -0.10180812474972098 0.11862116134155568 0.12210144756914913 0.25222942165223761;0.2209444730297552 -0.70943943369715445 0.011284400260816318 0.12521845508818114 -1.0165695352172059 0.1165140007060237 -0.049279136063007503 -0.014638428837390244 -0.053811887999653779 -0.11210385145628074 0.047354756782843309 -0.046846781025938755 0.020939878176678695 0.060942423573401655;0.012551492974697718 -0.16299104235121367 -0.026902542997675721 0.42905427290331943 -0.85289635505090788 -0.091870391264488441 0.031391781601788987 -0.089806131244961757 -0.019085844144339691 0.021920544185415357 0.0088480011983605063 -0.065611230649853358 -0.071234082605824922 0.14645471117631045;0.12631610192888554 -0.12244222673247862 0.020417752824819693 -0.20825491769075719 -0.74955691257547796 0.16029487233932449 0.079316223815920753 0.054782688025151342 0.031151718721600049 0.045049120807780958 -0.10667068642035339 0.16731787580529955 0.2207161934303164 -0.051445496614731336;0.023805939000966218 0.20843046653932687 0.18877991038579697 -0.13950118506320613 -0.86402329399294275 -0.015781607367240692 0.087747339803143559 0.074553129931574813 -0.10437314454783052 -0.020816145777678433 -0.14607711592990774 0.053870908932192561 -0.23805445176310117 0.11898837794799635;-0.32695632208250502 0.69021178123477045 -0.28588578496426809 0.1872367384496596 -0.41124053665568283 0.051325541980016411 0.20927718920350569 0.010129031777699365 0.11878978265434846 0.091755164104567508 -0.063767845315633107 -0.064635305152272643 -0.10118812430688982 0.098409854160103449;0.17518394812325186 -0.19849560819456286 -0.18575955252669679 0.089539070337338794 0.49262901651316082 0.0024391294395895149 -0.081535241898996039 -0.1083911400015409 -0.10279787604645045 -0.078257514221876226 -0.19009796052042321 0.15629360635751499 0.055559421755060172 -0.77903065861743637;0.35667747475811118 0.060703867391291862 -0.042826796337249028 -2.2005851429307071 -0.11448984992792706 -0.045558187187873682 -0.045039464842377371 -0.045326958443730379 0.093622469860493746 -0.078934607656613476 -0.065242191852537712 -0.012633463336686789 -0.12717334336765435 -0.053911975010392146;-3.17106797967479 0.04028950742269221 0.087527829095568846 0.055196796669753349 0.011605127260596553 -0.0076590194849399064 0.016308841277605807 0.060170956581909407 -0.012408336132874951 -0.0074698882337648938 0.021460964435180502 0.040081245842112624 -0.009186863252323943 -0.037725026477437355;-0.43324862982102541 1.1640125609782499 -0.046695809079753653 0.5124079289715664 0.12117798648428742 -0.074107900855373804 -0.039296658157352733 -0.056656058144585283 0.01958379453264604 -0.11898201187257806 0.010271180686520531 -0.14476564836146183 -0.23396922368243631 0.17351893395658566;0.11489083512861098 0.073140870545400499 0.0030150237940434676 0.081671675166227337 1.009192657084413 -0.039652557342823205 0.043314033163733542 0.02297829134314662 -0.02880370280668923 -0.070910799440787473 -0.062114555307679148 -0.088046220517970744 0.23426423610915639 0.64158955517457361;-0.031677267538022608 -0.051458501173472324 -0.052908665828404346 0.11351418931041303 0.987469554822898 -0.058744712579474903 0.0028406452470558989 -0.1653771204443486 -0.16702418950451939 -0.14453840700265086 0.034241188621143455 0.11709907096199074 0.028361420054833539 -0.281624232216381;0.07453357406444347 2.0800259319704626 -0.020683409013346872 -0.13237524437032913 -0.039849828405117957 0.018432695297303219 -0.05616063118687064 -0.03968925930753435 -0.036521933424678313 -0.077197706245930045 -0.015653060756454527 -0.036336089447374945 -0.011198464961677803 -0.056415311892357677;-0.072870552035128794 0.073524192726226761 -0.054753055519040091 -0.032008996555277287 -0.017550746393583571 0.059565895898039817 0.21956142085093264 0.099437362979345134 0.054679226364686286 0.053679306425883276 -0.92802432905590826 0.0093797686350354757 0.10882663016921133 0.84716964450408294;-0.062578997044678619 -0.35080448877191844 0.046019151447911709 -0.22543897590643411 -1.0765194379558356 -0.00034073777097302097 -0.02030422693180544 -0.054897352233148143 0.016703388759615773 0.029224675652935517 0.04223876500870815 0.20205507302178494 -0.10472620702497386 0.43185179441638011;-0.067414142076324804 -0.29221419806077542 0.75305864947410517 0.2229202096548962 0.20506235774082981 0.24700148023245866 -0.29161470322182786 0.025815582250271373 -0.14176612061354774 0.166357504898968 0.017114258663433819 -0.0047072585531350635 0.23178101258201664 0.31687114903049468;0.099840437018415037 0.15909740890858759 0.089752305909439306 -0.031342232744616061 -0.049733150188002437 0.021129979767668811 0.13630253206953499 0.044089020579759851 0.22212612443033197 0.12728953092573017 -0.26781852231971642 0.31810117848419556 -0.58771364316461694 0.25777037347976617;-0.019133682225443736 0.094673648677316605 -0.13018222222435177 0.4134288866287984 -0.30281811456045699 -0.21778559651169965 -0.2521592280993496 -0.026432566940468017 -0.3293656284869671 -0.006118338372540672 0.15790063177889327 0.105897187842835 0.08910175337924793 -0.83362206289370577;-0.030382307294741336 0.0090885531433389649 -0.082589813727551684 0.26837743676385556 0.20832247989417377 0.10924165693283192 0.0080633528948626538 0.058832426186184103 0.045074241876983091 -0.038406608730836851 -0.075878133091080421 0.029141262397409273 -0.9106071050117116 -0.67535719282011697;-0.073310540549942169 -0.092827348168941934 0.56850446136665911 -0.27271927418028485 -0.24116419012496404 0.16217264998285791 0.038257394291241829 0.23870092723795805 -0.022528611413715365 -0.39473149246072836 0.17723798310364536 -0.083985286749414717 0.13028960077147769 0.12728246047886452;0.018620616478248718 0.0018685286604558846 -0.17283515933589041 0.16630946665545487 -0.81817475250633864 -0.13485640187738532 -0.0010237725518355016 0.051930106562344917 0.20572643503646224 0.15715924310751264 0.06856655501239646 -0.090939906336678963 -0.085153401751583396 -0.057433158808662718;-0.20425036188095652 -0.11104986458398862 0.16763953501994758 0.065995019575371822 -0.90707043474350391 -0.2611444877657168 -0.032730798284380323 0.012722100902528444 0.0091787653697203639 -0.1478730993053248 -0.03955581767187874 -0.12188445319833979 -0.11466491624049929 -0.35360267164149883;-0.015813987343402107 0.14373003185241279 0.035866030728833126 0.07457168364348557 1.0413145150221093 -0.14745932017831731 0.098290611410204828 -0.026049449254762932 0.013116270273201258 0.056223677373445628 0.12149820593656847 0.073805385979957783 -0.12035848880171093 0.4782118246518019;1.0512744906226377 0.35924528297519165 0.5465915997837274 0.22110676294522072 0.036876765516346333 -0.0094324574675150267 0.11206534081645655 0.066069355743608241 0.0089162265084046909 -0.017397402623987358 0.021056171575204417 -0.010270920783424908 0.13903395783722342 -0.017308663911699381;0.056652090254707917 0.10719644516441686 -0.065335554329648132 -0.01817402307772668 -0.15582974522234416 0.012743350382670734 0.056608215551575199 -0.047067482928152861 0.075811075650706605 0.078913244571888558 -0.25604207537074491 0.78110772375192361 0.01303797629160694 0.1532237794111091;-0.21324430499074465 -0.15772435644480817 -0.24610586785238561 0.52608596027736854 0.26806230331501163 -0.35051204784301115 -0.24294872810719167 0.11837420722139252 0.19269516986133281 -0.20226762912952911 -0.27524404462622593 0.051099996385673502 -0.040584491056896328 -0.023846706053658028;-0.16805651898472021 -0.0015012431394577225 0.1304089379518763 -0.0046075486895316795 -0.2703785823693734 -0.53556996543876989 0.031181582707751967 0.06454714755097711 0.15799839336630356 0.072725817619770858 -0.095118557608940515 -0.020384569813017721 -0.095050470579035554 0.97472786178743598;0.40221356409753733 -0.47108997518267842 -0.44907016039996489 0.13389723819526084 0.67603362319062443 -0.11060014238462758 -0.0061184508940872835 -0.015766228104927706 0.03836412612102362 -0.15748250491412946 0.0033985060203927781 -0.085011281959690529 -0.039966020984892756 0.12996186620289349;-0.18443771019438476 0.33000993724452332 -0.016518022904848755 -0.1072955369594215 0.7410856336343723 -0.01412926509463933 -0.11336323363926304 -0.022354204517581709 0.009078020399776135 -0.063841865282264584 0.059351807486469295 -0.0072266350620106791 0.095378191427187384 0.17871297064271274;0.027170412575892131 -0.062075759097389008 0.30098979630045403 -0.055616117458642388 0.081904227991373854 0.26977917070080415 0.022873593855880888 -0.24377049083263574 -0.059788098103890151 0.018660604777740619 -0.10137290787540557 -0.019360127233384247 0.027712922127335997 -1.0723379288836399;0.14134092455472036 0.45697326997581306 -0.51735856765866051 0.18956381552407933 -0.5427570498141806 0.11009087276608449 -0.020377670087213279 -0.011983717004864728 -0.17118482829804574 -0.066768472808072299 -0.053839886194227339 -0.074198827312297863 0.014854916747700493 -0.15632770216417849;0.073656110266751354 -0.32139182255858711 -0.03186192531554187 -0.093894089495114713 0.15289577896474496 0.15432002298456157 -0.052969925366948563 0.009577563855396428 0.090162020502434312 0.14941299038373676 -0.018093888097027395 0.26049395235782913 0.3240271586064617 -0.68061440737029377;-0.2285889297087578 -0.16691958657073858 -0.27396177916318332 -0.33834636545929514 -0.35111125812618393 0.1008090504752291 0.25909662750248574 0.023050785528593923 -0.016029539139468679 -0.31683403185887865 -0.051858974634767865 -0.18109098847463267 0.34236590929755262 0.0018386256442567488;0.011938657759577437 -0.075268453686518869 -0.10799812330685574 -0.18871690276069028 -0.24303096653944017 -0.085585815688535766 0.23728013050619082 -0.20269235287556644 -0.031459899235097934 -0.34336274020666652 0.10828365884918015 0.20941914969079503 0.14748618716384335 -0.46442538141767209;0.026349271416960762 0.050818868744999995 -0.010206054404389309 0.10589333826982622 -0.15214380210074366 -0.24662813451283158 -0.32299161217115196 0.086485767132012059 0.58733587234328244 -0.016720645475389651 0.1599012173871163 0.031650311742982683 0.16102925511199939 -0.55383662796403399;-0.0089971700110516965 0.053234335748416815 -0.06855013271249806 0.031320281082472104 0.078593247329646732 -0.10221982966328534 -0.15694018124927517 -0.11317160292978072 0.92907730664574717 -0.19594777389960494 0.12499277073452775 -0.25281651809784245 -0.012657916998338023 -0.15822255330643253;0.069066892313833395 0.28669131000549619 -0.09585295530425339 -0.020908667346243092 -0.4558774275544486 0.1131018691777859 0.012260912530955162 -0.044720014993046231 -0.014955586976062429 0.026707090368892364 0.0052744979900058685 -0.0073190873412811918 0.70798891111381912 -0.94802096067125741;0.00076813292874375392 0.01490313071575813 0.32126252303805697 -0.1926760868511628 0.98198807784551323 -0.099290382938983207 0.039888122627544494 0.01734656945678829 0.073696270950020085 0.080241985824706874 -0.0085613086356253112 0.013564082593066797 -0.07381101996598223 -0.2125093947526995;-0.075630880279300178 -0.52029523595107618 -0.012165567980712831 -0.3261200778982849 0.3728404730178741 -0.12105570886926749 -0.0096400451338588249 0.17008825691087642 0.090538170489521994 -0.28492943466630782 -0.097107877297455292 -0.047804886237872643 0.15145026693960761 -0.078032101518498417;0.12965163529468363 0.062512498714885498 -2.0202590658742987 -0.67851530472021393 0.21169285698261173 -0.036270377002891853 0.00028877418085306966 -0.075649130123402311 0.09441631754463653 0.052598196560417601 0.027498401845690162 0.0059334168529218889 -0.0026615558532444637 -0.027863095733904355;-0.32082995764175837 -0.22655736697739184 -0.21177298139901773 0.31838775657870455 0.49128152621428123 -0.061520951895026099 -0.090295945068276595 -0.11855614606911886 -0.19236446349722933 -0.003401312949430628 -0.16616133670144306 -0.097700106142057402 -0.058438782661051958 -0.14046160920794323;0.0075047921215791102 -0.12284752649279147 0.075026077420569479 -0.009673700047645787 -0.075980585213626439 0.033782848952434073 0.031591854429747102 -0.21291303043218524 -0.020921324111012062 0.98817578047049759 -0.09321368270394377 -0.037104135709424911 0.079486765416978869 0.26558954916207583;-0.19799775218543325 0.05304725287063753 0.21305254218766165 -0.1402628484607745 0.074157626633478954 0.25178435737006716 0.31836705408951693 0.2448312949007391 0.36968187461910124 0.209616794691457 0.082703238649527125 0.23610861458231988 0.34821002637770848 -0.18143342367493626;0.28879215119933421 -0.1563586644028083 -0.22408522463213548 -0.045374166936904027 -0.23198792605049778 0.063439801074138866 0.41952533846291196 -0.053465202893852308 0.17615577423184781 -0.018175542499316872 0.085932795537131929 -0.37805262588889083 0.225946271593405 -0.36072422476497878;-0.049448727791787668 -0.053726108704722268 0.0086487087056520418 -0.016763647261657404 -0.03779180701935312 0.038773056750034972 -0.017341067945485962 -0.10878130379192714 -0.078281911009227184 0.25630999480803451 0.40139046358282993 0.072275455935286601 0.037626562993977458 2.3270212531043697;0.017654022541539176 -0.044241449190496079 -0.24040016871826919 0.12737672996724358 0.91484039749079016 -0.010226888745133634 0.16753376518637556 0.12105149082739687 0.11365372519596653 0.12464641349466324 -0.090094490571618863 0.051598067965680242 -0.070052564298305114 -0.053057871344974805;0.079019965114321883 -0.03291052521616139 0.0063455402684751616 -0.039276043473266374 -0.31961231589997502 0.069627127306403927 -0.0066331541431282701 0.10679248322850526 0.088591703564873683 -0.12880007741977545 -0.85306183704837257 0.068778522788008251 0.028147162909661169 -0.31040856628885855;0.40592171812072081 0.51401584999862193 0.12898680171213778 1.1456103460711939 -0.057034897933428044 0.052553049552882078 -0.015235006638968804 0.042792082457213131 0.091881123386220148 0.19611390792256511 0.101431542702404 0.15081428088984336 0.089816920361654715 -0.041472735403018456;0.051784675846530674 0.0011883567742632945 -0.0018985985082041854 0.04962955813603602 0.035594404410019861 0.0030717238947127507 0.1642918404675229 -1.1995843172616565 0.020261077121304819 0.012559254631871207 -0.072488870538389594 -0.018716422690640517 -0.024582550969901574 0.39158260153822844;-0.0019925362996506728 0.086436560506783222 0.012889091968436501 0.015225118119018178 -0.037775056941411908 1.1297061772853767 -0.14494736189604651 -0.18103223565457338 0.009754733278837014 0.076110451646239613 -0.039793878847223657 -0.014479014061048961 -0.031272092116498784 -0.77814470161336757;0.17625587205526252 -0.042177881363885603 -0.13524950893764856 0.27035930482474269 0.72039498371855071 -0.16206898597733779 -0.14074640838175115 -0.13343292374751511 0.01904845648666505 -0.095988319780162507 0.023321664375478428 -0.044598047567569736 0.038418830712691032 0.19309135989380544;-0.29297889350912032 -0.1696549590143821 0.95158598432161312 0.98335629943703484 0.04880951226206362 0.019912594512385123 -0.026380544129102752 -0.060902838894444401 -0.015272660496912192 -0.025077301548709376 -0.0027263182216303345 0.020540835549435782 -0.02858515938592468 0.053859889930597427;0.10134294458997926 0.14890509275346267 -0.20552710803247018 0.078722148436554507 0.064358066115937501 0.03062456161392374 -0.084840967432507478 -0.037332183825224477 0.010353462597915877 -0.080037366792769807 -0.085987899218860547 -0.15124769637222998 0.9888422319246406 0.12435377102369841;-0.04292262629564883 -0.10257885253737456 -0.27682457799788696 0.043326282740132262 -0.39833835322455846 0.10629483150449495 -0.0023545257642984293 -0.12954297392816461 0.082116687376731182 -0.053759617037810216 0.16505403785681197 0.012370305190098605 0.027411720376190527 -0.023731896831848249;0.12874036545138209 -0.10916714007938282 0.13512389743696337 0.15877468467185063 -0.30905221330664823 -0.84344884512666207 0.20443559618551818 0.067293953549439289 0.017124817795002537 0.14829972250102039 -0.027048660366005655 0.0068560895271478689 0.13924315166230741 -0.38500224398133687;0.020020420767676076 -0.52145472090134137 -0.32207565302061741 -0.04379701200293707 0.36397362159441676 0.10274929882076723 -0.0039864138440249284 -0.090003968580071703 -0.0060275827958428327 0.27508526595412841 0.19680094485746427 0.044434610756412911 0.1529011145002003 0.13358232350309582];

% Layer 2
b2 = [0.23549841216105719;-0.17657134792237203;-0.23032035427774525;0.2726832473184812;0.30368533481319188;-0.17017845836553069;0.0010492142019949179;-0.15208835090921491;-0.085019379737087314;-0.20954884573079743;-0.36215088942944107;0.12191090491086091;-0.19181107020151311;0.098066897771809838;0.4900108721808788;0.16203077812802297;0.18568921921122505;-0.036642160160596453;-0.28992540024637997;-0.20411978176852708;0.0053803446698682889;0.049471640159235948;0.029747763809376375;-0.14262448558860422;0.078493992819760369;0.04426751995175409;0.14912889622314079;0.047597871185950331;0.10206073457511872;-0.22872862128504598;-0.062313518895802306;0.14677881567123297;0.048879864571496276;-0.11048732022178932;0.14355613679513027;0.082892185643904562;-0.090521551614778345;0.0096823370184625814;-0.079147378203974397;-0.019830238366681355;-0.24164935880553828;0.0016501670841974649;0.10660724587351667;0.021640086730986417;0.068090340414058398;-0.34268338449995134;0.043575777561742086;0.11264164019530537;0.14336371894738606;-0.054548335213044273;0.035513824128641756;-0.051608169935232623;0.23684962950348765;0.23136571850774781;0.1253884756857129;-0.095314355188328925;-0.18525510798895417;0.10941917181724434;-0.33135310145079605;-0.41950523400085127;-0.037939672663025364;-0.1109098352770841;-0.017457098699785865;0.14381080326488277;0.22463519368319987;0.096827963420417357;0.082157713221497883;-0.036804696468919179;-0.20460245534990462;0.069464181876261369;-0.23926526403379511;-0.1399704647857426;-0.56354386688641933;0.13480299090305012;0.10231001156100548;-0.16681297144206969;0.11173583407830998;0.12082088361561415;0.059828041526576774;0.15922029142468569;-0.36364989215390103;0.081034368005322349;-0.10856097487076051;0.24236911687049043;-0.0058006996830269513;0.10901724397566734;-0.11776636897293384;-0.11794658080152876;-0.096923538308397061;-0.25903678873193614;0.11265513691105609;-0.075065539960798497;0.17397767571448272;0.087789886450176352;0.054929946018809468;-0.13359711544612735;0.22521692481880459;-0.35915486467887819;-0.17162968096455225;-0.16423439983910465];
LW2_1 = [0.11471756672072914 0.15542993333184102 -0.28747925638912497 0.13250358295257353 0.17668981307460044 0.01553325360292955 -0.096575763316928132 -0.0068556505658756437 -0.0051959926928965769 -0.15552260576790156 -0.1136906451805263 0.053782701585427577 -0.0088671244427553173 0.026977341772675301 0.10646028600651197 -0.086810468688326661 0.07912276686225729 -0.034626596810787225 -0.11870323863209958 -0.1571213036416991 0.076850878284267329 0.019551751047807132 -0.17041337555010974 -0.19152314267631329 0.005042157853858237 0.030175061156339802 0.3540024076357815 -0.028919258232369661 -0.096450690349845297 -0.091176341229547528 -0.091681818359007294 0.2517894722136258 -0.12757535224808833 -0.22280010089376551 0.068251939776176718 0.078870581987057028 -0.013221490531011022 -0.0044299872817608419 -0.10056146879811648 0.039304865218662936 0.033969296453227306 0.21678961816588083 -0.089307278249992142 -0.092652756686278606 -0.22134690682492128 0.034162423647302397 0.084449705306289882 0.083261892022202647 -0.016967914627235084 -0.26778834439465155 -0.062828130355744624 0.11145929765509562 -0.20520133168768784 -0.038350754248973336 -0.088020515287127371 -0.13616513422675089 -0.10980165179148281 0.0072611930842536527 0.15543620156358642 0.17445443611862751 -0.082314793587350374 -0.14317356866937991 0.25453782757742421 -0.035856953678478326 -0.13715854342984599 -0.043012124665443623 0.17392171775459789 0.018299975863019537 -0.1547177889111043 0.12323016734865216 0.053095041543630213 -0.024170785488348289 -0.029141374814871709 0.026705523903826214 -0.064933071044022114 0.066642598283307292 -0.10214176952070864 -0.062972181324189067 0.10926671705391279 0.099986640165414475 0.0095032402846993973 0.11066430325589929 -0.10740901425306365 0.22233027234784739 -0.0065466799043289543 -0.20644287948866549 -0.1371373364495527 -0.10272207628358526 -0.34987933792347259 -0.094315474809422553 0.051503570532371569 -0.057078711890201923 -0.092809873028906378 -0.25445102626860205 0.095525374348534475 0.081586862443306388 -0.021244186858686002 -0.17378176048854163 -0.0763933733523873 -0.16775332808875282;0.091610657767507195 -0.05343026440609553 0.068538672610674214 0.019711752470611639 -0.18928055026214546 0.086124894137808494 -0.046272824705040468 0.13485876851279524 0.013537804166941765 0.025673873764390343 0.065109541995784864 -0.090082681929460673 0.029897539808025717 0.08146094014818904 -0.090557919000773882 -0.11793485072520557 -0.041157632408218528 0.13896165662606275 -0.051425833197010669 -0.023028708297137396 0.13359678785896234 0.15216273905840855 0.050211259252374414 -0.020654431815545885 0.027415810657556557 -0.0069012298961816368 -0.20824257665705631 -0.044603086999323485 -0.014209762635524936 -0.078322477508192129 -0.060682785685881931 0.00036475302875368991 0.011268618168587839 -0.0060329445278667695 0.0048958609028979796 0.040884299115104127 -0.081095391938926759 0.0074755917853270041 0.041884768587771515 0.13806064934826198 -0.049464638605945112 0.067712078095665998 0.059998512234798192 0.010807602648639397 -0.11767493821521749 0.0027894136208838462 -0.020249898637540176 -0.060420812038829645 0.0011532631506327921 -0.034549641359755502 0.03935904508753528 -0.13657835246779521 0.17873696778185555 -0.14496382445531353 -0.038994574007952414 0.086572249867751833 -0.24102186580512081 -0.18688015874641728 -0.060535403158398698 0.19280909988041692 0.029029574981689121 -0.0068634454506346712 0.19500292229052846 -0.060685190738698734 -0.0018359129034373753 0.020496306069491845 -0.029518438103763416 0.071975697760929019 -0.022763014480322353 -0.1121322641516275 0.067707573898320619 -0.034864705104452116 -0.00088817050582833709 0.0030472175787790538 -0.053634554066236954 -0.0074840174022272844 0.038299991443136762 -0.06335910892888158 -0.0019197013229986883 -0.26980932856276985 0.15293208357704682 -0.070634094963180974 0.12699764955874415 -0.24364896751372542 0.10782417037452306 0.066433700811088348 0.082697044039394318 0.028571597447509849 0.11405614879625044 0.079051497058077902 -0.083947955164109161 0.1082135489720851 0.012752466095635202 0.021950491915921008 -0.081295139585585915 0.085045340536352571 0.088139010506517956 0.077655561267476164 -0.02516996863094342 0.034964735194521195;0.056688877531610386 -0.091414827278823746 0.10573836460025689 -0.18071156372543457 -0.0014600477522772799 -0.10496088187122861 -0.073722728249143499 0.024102711748416984 0.21821972529666517 0.049442768671218773 0.05489273835219291 0.014731890379366518 0.18347584361406022 0.029939642999629243 0.13560846655668166 0.014262256392149085 -0.11169294296611421 0.17046579048690941 0.12153042882076685 -0.25189105341243506 -0.17012592587837622 0.068813773682602095 0.13123876317611935 0.004848850956190468 -0.050789294844709149 -0.072473222508333421 0.10892402506577691 -0.15336879861233563 0.21870606374074028 0.044776410984432614 0.21480331691146598 0.22984052861797308 0.15120235159569273 -0.18628831167493271 -0.097730428903137725 -0.0088860090657847165 -0.11118575171972651 -0.055267548426566906 0.0015173135495059719 0.085009336049359965 0.038651071205192546 0.065185999212645257 -0.11020891979610468 -0.012227104017038084 -0.12613085861578752 -0.14737139771833102 -0.063692369576672639 0.047579682044917665 0.13014068944284884 0.030115115472017531 -0.16785825410919769 -0.036660501434598279 0.9286725573056297 0.057561704015686915 0.036366124031764847 0.1300811584919295 -0.074680958458051019 0.034526668384077031 -0.12222383015413492 -0.043798081540027747 -0.03383665193861294 0.14316184614535299 -0.078397827595843586 -0.37254408046527115 0.04694867132782729 -0.0011545033508192164 0.15279890345599095 -0.35918499981910695 -0.22668837721594776 0.18401901858134512 0.048241109703808037 -0.029413949623140818 0.12729785830305876 -0.023462601312779031 0.04294666779028062 -0.032669713080673228 0.0022477260864023504 -0.11762651523530887 0.0034179940919172717 0.012755226432199097 0.042360202044061893 -0.14158586526066635 -0.069523635919773286 -0.079116682686213732 0.33000105294689813 -0.081919137425279051 0.1137133039566213 -0.15927601370568917 0.30131524493577022 -0.090478463136160092 0.038765386049527173 0.060234645914204639 -0.052403113436671415 0.22300170192036733 -0.2864627633157476 -0.18000679419566756 -0.020177358465841119 0.021337351853701229 -0.015373216822569874 -0.13633090164837292;-0.049357282412089712 0.13093343316960812 -0.14925618628441537 -0.027827075435138845 0.087432306028271387 0.060692106152358663 0.18119535410879098 -0.18140200222082034 -0.29962246956690047 -0.245236872395628 -0.22814824989461208 0.053796372689077929 0.065584439888529494 0.11601544781946098 0.10792477224277404 -0.36064188013459941 0.23899289072156912 -0.15105569645431327 -0.21999033111702998 -0.42571760387541646 0.32204936827172265 0.085447773606122393 -0.22414059439613984 0.090984225004423394 0.060583940692491955 0.029730431193149619 0.080931407103630407 -0.15888960762537543 -0.14876145527692297 -0.17100494494909224 -0.058294465107712183 0.14991307497195894 -0.18055370639870222 -0.19489762734983102 -0.20457083487599972 0.083888921884606948 0.092933869773647884 -0.10522766792324927 -0.020048884488826753 -0.19922617624528496 0.22408637712613333 0.04964210843457878 -0.086751379264305845 0.0035434681488642605 -0.25300767240603839 -0.0089417283835443416 0.038900002283912924 0.019532381784571999 -0.0840986437337196 0.042267544270945076 0.192351607617224 0.038756895700276905 1.3183454834009591 0.0034168658620321399 -0.049332304219699967 -0.045475461696276268 -0.24734362509102797 -0.089905039887150096 -0.0043596406060723864 -0.087072126055051727 -0.1141829775512976 -0.10004614163641716 0.085973203709636209 -0.2485783078863486 0.081761889627607165 -0.033520639414226394 0.04132821107079937 -0.27438249364535794 -0.0043982996659947277 0.12363202772589257 0.050225447528763012 0.023545493978879575 0.036865677296986928 0.11224560554309441 -0.085930471995386296 0.001626180269176135 0.027577215878543122 -0.0088700574549251034 -0.074504982229727179 0.13310700081180393 0.031770981321264144 -0.052203353557801875 0.055282002278147391 0.047713777568485639 0.035307794713112933 -0.13746549903090807 0.04455881519505682 0.058502972841320972 -0.31075733079698986 -0.0031879944874988984 0.022051750495109407 0.062840379258180132 0.12252420547085265 -0.092401063500379507 0.041098597182277478 -0.10823143228159011 0.082792130671064737 0.02528384579492534 -0.00065750619563661669 -0.20347966540431994;0.037650223941106682 0.077662124283619988 -0.15117450027576476 0.020727638221594059 0.097656258515249686 -0.0020618614629120619 0.026479649030910688 -0.16905716320659384 0.049967393170309696 0.0019058551412111735 -0.29321454482788345 0.07355606947797548 -0.094704975816804551 0.099194831678302203 -0.075672198095151647 -0.13426250005033771 -0.069594308125709381 0.10425227945656758 0.048825025537838115 -0.039508967728299864 0.24073490479356344 -0.070141470957461954 -0.28329544363409626 0.059361852010614932 -0.083728275205153704 0.012094127711184247 -0.15531124620744366 -0.32061647992490794 0.09195588897542431 -0.026824172876415277 0.10212111122926609 -0.07674896045390471 -0.0972342738489647 -0.24876401230950621 0.099461134200574286 0.20172093113264394 -0.011500355034112123 -0.030021910731663447 -0.047498166000363586 0.0081355930123389649 0.087867714403039365 -0.17906869568577502 0.087724182369020784 -0.16617882786796676 0.14056931024783847 0.079792673621850427 0.1545263481559373 0.075752849018024052 -0.035028247815350036 0.036477335504586129 0.020093282595975804 0.13569647061161177 -0.098165209045764298 0.20055166661446786 -0.10296650197116756 -0.070806717878893033 0.058053936283882029 0.0098274364499710363 0.24094888306152371 0.03814527923637092 -0.10455178014965764 0.27938797792088943 -0.078156660337735759 0.17770102866499293 -0.0079450630690155802 0.12308796817755355 0.0093147018562304684 -0.10655921494152927 -0.1755055207276367 -0.21037410253468283 0.025064038552580419 0.005556428178068824 -0.2025400561198567 0.052708976372196258 0.090810519012878038 0.10391673407651737 0.04888978474362831 -0.089749058239768434 -0.07471570659013943 0.16324560018984699 -0.069224514731811543 0.061497647035386085 -0.13293738937331948 0.0090100726902756553 -0.1117292831668711 -0.062842388639205007 0.033795996546483617 -0.0060509555514291595 -0.10357368419491017 -0.34097343894780308 -0.027378958594850927 0.090974025631714972 0.057677452608656511 0.10998209889137507 0.083664198127632122 -0.034860337409837593 0.12661453701044786 -0.078544162590586261 0.10530626464609734 -0.14762154141879527;-0.12450881572058028 -0.53562562450903439 0.19859173082033496 0.032364057144531659 -0.15182541063512439 0.015337457372049119 -0.095626809147862327 -0.36446020701044141 -0.074763793777588336 -0.086719313851515753 0.23336231550890654 -0.54661450530525091 -0.14857389520227071 -0.01383006106560984 0.18062001825939389 -0.40076676220084151 -0.28336110024483668 -0.1106513355304222 -0.070631559139979913 -0.013834936560556134 0.24118883008011588 -0.16677007913693651 0.047639184380481349 0.086281496373769015 -0.009346646757949181 -0.22442816191713966 -0.11114130865449721 0.18557085084387817 -0.10262626442935913 -0.098005599790339057 0.023057234392030446 -0.081229129966539151 0.065275250868118292 -0.13541586422516072 -0.049710631930984593 0.20017491905377433 -0.043615831752331087 -0.18509350420583809 -0.42431678448040794 -0.015329617179109538 0.039486187391942998 0.15435653439669947 0.098665229692599624 -0.052751713344886826 -0.11005890920817092 0.21417940897600604 0.2267961046288231 0.035929664740595786 0.064630240882950885 -0.19517206326524553 -0.096260322956110284 -0.0085504802547430557 -0.67164601125671586 -0.27434952457045264 -0.025266226310368532 -0.091802125262065645 -0.2694242507979463 0.10133466174279011 0.16311618955497703 -0.10008582041263303 -0.043515528811428422 -0.12577662317588498 0.069366699631308759 -0.26102854026691791 0.1976008900066917 0.24186463914603032 -0.15014757196247724 0.11784631718276048 0.0041126669838446117 0.071893870299670731 -0.13429135858638647 -0.012713559728000205 -0.12052328739463997 0.29668360475811428 -0.25016258639278349 -0.10158970900184637 0.007503420918595711 1.5531462826571716e-05 -0.020131564036805202 0.018271621335027292 -0.0056833008201705093 -0.29046569327091809 -0.085254940689605554 -0.059457613491915071 0.041468336046011425 -0.018725882617835678 -0.0091741448932505781 0.20616520101903191 -0.086472022491052833 0.0033418034834108825 -0.062929150933674544 -0.12730382595190165 -0.077996204980727929 -0.048852108763359124 0.0049744343714900174 -0.037745701002764073 0.096581365219834014 0.210219576774862 -0.047294126510678235 0.23507904601842375;0.061936684333557632 -0.094142940122489624 0.075657262522983243 0.10960426801077634 0.1339594480835308 0.10200570627362271 -0.087326870389755687 0.069220195440894944 -0.044546169080012035 0.16070363974568183 -0.13935784216618016 -0.17053027147043526 0.12402452887963711 -0.1119715593477851 0.079634717689704343 -0.13173974722497228 -0.12221825163901623 0.0024826623209196217 0.081396657764221059 0.080405849423060061 -0.26718795950777796 -0.030432806584348885 -0.11359288482305109 0.089709543350364074 0.11531050023105628 -0.2192635009007988 -0.018373569995998602 0.015202521166183194 -0.21172922246958037 0.18581289651758487 -0.0021311556983729845 0.0043324955089040287 0.029543210101427547 0.021644754539012091 0.10159747785438207 0.24059581721179263 -0.055407926612352297 -0.098753851844509549 -0.15443956957508395 0.065692031390326464 0.097857358929275121 0.19857851640038249 -0.2038769032647561 -0.11547955411471655 -0.11103753533892341 0.27816264809667518 0.25740015093045143 0.17577120001986105 0.25987393930033004 0.062370433727154985 -0.073670650499904802 -0.027511383918918601 0.094256296444778967 0.014219008247810598 -0.24436325496833672 -0.19227151086676006 0.048223052192764661 0.076308581152106592 0.29668694212234403 -0.10034410677000778 0.080161593616938046 0.12437601866366395 0.061325708196362252 0.093997608694684862 0.23188054887635445 0.15957339674459078 -0.13758508977358325 0.032847005368157559 -0.030769855991006172 -0.016759085677790605 0.080312820190229187 -0.02424467924538069 -0.16151917526851239 -0.17297090720787686 0.23896106937719502 -0.023360989859252758 0.071469479002863587 -0.095280684679816804 -0.012097755190033565 -0.085623136786719109 0.06080748994979928 -0.16363435938805498 -0.13506487092985769 0.11081024754904262 -0.082343555769179427 -0.03688839147689827 0.14270281099526549 -0.039917775523871296 0.15524708957718286 -0.033926745325650806 0.0063406737644904855 -0.023121070961732368 0.043280281031309119 0.12732902647887867 -0.032988863060350516 0.043140058924042136 -0.076988063852224092 -0.0013580948498173118 0.060837718545955363 -0.071537949009473606;-0.18153920887132521 -0.52417686157201704 0.027082874188362315 0.078375790260513695 -0.010606837822006013 0.29499545272217581 -0.088960334168078928 0.015201316839623764 -0.046497495787650577 -0.25520631690680312 -0.0026910623443188613 -0.32998385774974526 0.25843855579424663 -0.033285830724906776 0.075230366710190094 0.057642981478581261 -0.4045903947424086 0.15449609195785016 -0.13695363621368895 -0.056732004364355125 0.0092224711392109825 -0.1029807219209169 -0.024475310288085111 -0.022950692270528934 -0.042902628828298206 -0.35134732785706158 0.089028702326230391 0.2454862713296409 -0.15481236819855504 0.24146538218578237 -0.17616584419262241 -0.13135684532559719 -0.03458700698013286 -0.10632319359555983 -0.012159948193946684 0.10559571690806166 -0.14929580699791148 0.12637822509029242 -0.38090541600391864 -0.17835177738602007 0.1201673784286153 -0.10595067331334944 0.010732133759518248 -0.13279738024370746 0.22742178406086683 0.15087190903292064 0.14793100811927851 0.14301221136898118 0.17934489260738676 0.10735337148743221 -0.055512921134068145 0.053411042110227736 -0.056340047661279785 -0.13444838392003108 -0.14767408227333648 -0.15669922490549348 0.052534377379436462 0.12709759667573545 0.1492475248163137 0.070986841477054988 -0.078227396366397778 0.1350207319792249 -0.11797944054911226 -0.082380443088780911 0.2788820547779528 0.23631919376488081 -0.32722712794278241 0.029597736809286592 -0.075309003440655997 -0.051143482516661606 0.12397219734274642 -0.072926108589041722 -0.23979023947809766 0.071881658087590339 0.035782090476031876 0.21991181009612373 0.18452885164695279 -0.19364226260639963 0.18392269759812627 0.016269630298491416 -0.10845672416312321 -0.20054432586110571 -0.14040622942288808 -0.28033019533660825 0.08418292786629937 -0.087343504492152613 0.0029446825767959774 0.093108047302413496 0.21614373777660009 -0.04250998846348495 0.070573349924125714 -0.26572786889409977 0.10960341524494699 0.081315674471165222 -0.28206209340736282 -0.033469319147588966 -0.31103856803653618 0.163203485755466 -0.11826769234842159 0.028569511585056408;0.12856626960577905 0.1929303147201995 0.0044907490870689619 -0.14333188984286602 0.12449146898167147 0.27860627658498172 -0.21184203579422162 0.086719509144779452 0.19341368531867523 -0.10776643131141272 0.1219639989966127 -0.10820600166170549 -0.11392734305639264 -0.015693030974472551 0.065755596222656865 0.21760763850169379 0.30313870341332427 0.13581134430825773 -0.14027367410518091 0.20525312239504581 -0.09934900471240482 -0.21586948334947725 0.29850121188015971 -0.034552116866466066 -0.10074053465667461 0.16768511442154929 -0.07100653818382191 0.38500406802711534 -0.30903280699623259 -0.07473035548901405 -0.031177624411560322 -0.034735966481187187 0.084132370681575572 -0.019270570765010826 -0.028771841990719041 -0.098313139875157052 0.1490280743260646 0.010773629895434532 0.063731073143442951 -0.0077153729387032591 0.083907965635544909 0.061045202912327567 0.17936661277695612 0.17939298722016619 -0.021511481725756312 0.1110711833756257 -0.093058601526881085 0.052457482449947357 -0.19589315774341554 -0.086938792956675962 0.16686615756513576 0.29445628983024891 -0.21770528412687021 -0.25415099324364948 0.14340606868178718 -0.10292160735763003 -0.34362941133642905 -0.17546552175643254 -0.0059883465189917847 0.056054908585861894 -0.040368216497212665 0.1393152015759363 -0.056456489527909499 -0.057442852745180163 -0.083989216511520512 -0.043628240778291777 0.11455029985727938 0.049840653828942733 0.015575290097102809 0.089230143457954089 -0.06844040351605965 0.30389318116357594 0.079127397914802403 0.22285101117855532 -0.1868219289477358 -0.044130690833108173 -0.11862637829466194 0.17178776443160318 -0.16545642460622018 0.065858351997313658 -0.017080549123609141 0.21551055613314399 0.34080294979551956 -0.0026414913702313739 0.25530447088059433 -0.087899206884964914 -0.07383389490780197 -0.17304040106390131 0.24441689376723097 0.16179117511362753 -0.11796593999549372 0.052850236670072805 0.0040920179433665809 0.10234658002688732 0.057378638038440538 0.056778295903840363 0.12220710004733941 -0.069853975721253792 0.0087920828072000929 0.39643071705979427;-0.14113320029065018 -0.27447665639391305 0.3678515197283983 0.010528074536759285 0.046394839268092611 0.043101197359728956 -0.032713326887749632 -0.014790713187759937 -0.040680588045804614 -0.13194120499428502 0.087733940881963859 -0.2543483287908303 0.014162432620075249 0.069148033602178402 0.081993573713724066 0.0073989101982599838 -0.17099936794852696 -0.0010208408483105985 -0.01797843858395853 0.086889608082241221 -0.24145124687960501 -0.1647435836893672 0.11597393181120147 -0.011676439576103337 -0.10010518941935991 -0.085119682195572824 -0.024491922266589541 0.052260622842524543 -0.18297224722162281 -0.063060526345648446 -0.051181199897916217 -0.12732229583897964 -0.04389598562455465 -0.19127974641928605 -0.042302544568171729 0.038795620855393488 -0.072466187339900567 -0.051532878678027555 -0.12702584880983053 -0.06101740357420652 -0.26317412205605284 -0.12146056286583845 0.15421234018251742 -0.019003194997925434 0.16088168570582681 0.028023090831421894 0.10053420750946211 -0.025680649596456395 0.051502251698655813 -0.033933337446729252 -0.014646736858473347 -0.023010276779887023 -0.031489114452045233 -0.0067342384633726849 -0.088738569747136592 -0.070557081328243357 -0.022605131094816724 -0.0044159432133217824 -0.042570909031515204 -0.058455529154619365 -0.056493975627146954 0.096977604427487749 0.055085439567102157 0.016256786559575746 0.029770415202749742 0.091953593242476053 -0.20436763677166822 -0.0034281217830066783 -0.23649956782033768 -0.12211557930220861 -0.015524228470603665 0.1081373046145683 0.0030232643132628457 -0.19604897738440907 0.088610042254588212 -0.15063218684551219 -0.060738458432487985 0.10600931268987748 -0.11593172781207776 0.027001440015779057 0.079978144120920067 -0.20313604537966912 -0.2027208352597005 -0.097237721657350146 0.12114190014576424 -0.0089880380973166255 -0.29944986330651663 0.012433467428824885 0.12474450955334675 -0.00081898339766837286 0.019186278425139636 0.070540622225368138 0.27632179787717848 0.11999120837830327 -0.0040663100585095931 0.11939810596251965 0.1077377376346234 0.02378595611409777 0.18848797811267434 -0.13441293332339568;-0.017430913635859517 -0.28930929244459636 -0.097734043744914165 -0.014032279515015478 0.17607466607019504 -0.055088353320309327 -0.12454384910952858 -0.11692857318238319 0.17140317866645785 -0.078389566840104855 0.14092047791535831 0.049008026606842892 -0.020027483492389014 0.059790699185066472 -0.20558462841063174 0.20855119202229083 -0.13914651416766541 0.1261348979889409 -0.096980086972012033 -0.057794247861982763 -0.13927486298637659 -0.081059617395686345 0.16950077353559331 -0.32455413078294715 -0.097308667352272921 -0.066706071488321556 0.076000622635584159 0.063794974009408992 0.17448091372806285 -0.02902029626944061 -0.094556051204458688 -0.005254016357321198 -0.11134235022068939 0.2488822804602995 -0.11568356925066092 0.046298339642094864 0.0017643577211467543 0.15501560751769683 0.027987350035350262 0.034485061622084485 -0.079214540284440998 0.22356404734484236 -0.054797511539194793 -0.031573900829055944 0.14125055426729768 -0.2070710609440044 -0.15856788730067406 -0.0063317914098658199 0.057612259828193901 -0.0044144354322139942 -0.14837110769390097 0.3046215473790459 -0.15874740062949697 -0.15108169882406253 -0.097607676222489809 -0.01684780741721335 0.083087027977531758 -0.01331614088368074 -0.030155276574357359 -0.0068831236213177504 0.26636841520070476 -0.19464659366068471 -0.12520176051989729 0.36428333875373314 0.11482255108486467 0.14118448375465603 -0.1943899290756432 -0.0035410114896206033 0.05042902563371799 -0.10711581309319275 -0.15076590500901332 -0.2353620742838344 0.36679188430515491 0.080683747619137047 -0.18438249138498544 0.035645406244586751 0.027633356076626932 0.0090597699556466144 -0.084451798900564576 -0.012380741359068376 0.13020390244984478 -0.19400587722695781 -0.053952992376827172 0.0043364838679957806 0.069144167602492451 -0.11257879995864685 -0.11780085624626425 -0.15714168581396587 0.030525328380814027 -0.12530507338832542 0.14157081331594853 -0.071386563108653642 0.089557872183410034 -0.2773492287580655 -0.4515228154000927 0.063600001331295661 -0.11625242905559975 0.11849023011207106 0.01534566984749283 0.1258874734953416;0.15757684673089214 0.11288792570276654 0.040949117494427215 0.06441135698503006 -0.012845745133837469 -0.024547816044795421 -0.20595199560321834 0.08088446632948168 0.087509625859670689 0.1288467495514867 -0.036730861623254389 0.052649913540278606 -0.020627957161205759 -0.044271822548238818 -0.059109339694453221 -0.16005718182618989 -0.016235290572691109 0.075326273412040165 0.078457754286389569 0.082406642547049561 -0.0069381025738063104 0.11123178186435431 -0.11313067390646961 0.041242282599972299 0.07331669371601901 0.13238389052080302 0.14992794234106807 -0.096764291584635037 0.22024513954260469 -0.17713609132292277 -0.0095404969169481657 -0.013601952208083301 -0.03401094026924073 0.021549306819969857 -0.075902098580746161 -0.0044795461808398267 0.14770847777408938 0.1299599258509149 0.065686839162570704 -0.040401563494314736 -0.12125213420505554 0.24071208209022238 -0.11197798796967554 -0.019981720340195311 0.13580939764541772 -0.087510628440274713 -0.01176371209388246 -0.01851535001139399 -0.071840650212883481 -0.019919788213112716 -0.07967741100741968 0.13724483032118517 0.059164536352022574 -0.016667223128682879 -0.032080511107360057 -0.10851646828649752 0.059323697717294878 -0.0073570761100256897 0.049288258045142225 -0.022995042831556987 -0.0057499448382627161 -0.13021883932419268 0.11398094540084253 0.011456626388710917 -0.036315159576839819 -0.061940210525839569 -0.016980619583218438 0.060206054249868315 0.23628390421336012 -0.0071028970545750619 0.042415116588464759 -0.13260142021310617 0.079374942077691427 0.072541510563115613 0.070867922513241768 0.25204356268262273 -0.0089863033836683863 -0.16478483672519786 0.0048095977243844002 -0.16752275548928014 0.14389023970465423 0.15826551144730192 -0.11261349814701969 0.080677624938131756 -0.13349057639637146 -0.099326474332797982 0.26931218566995541 -0.0099963580418542686 0.092705492489172286 -0.16391171416952996 0.05456514024283643 -0.0014606548475943023 -0.077712681835099273 0.056338374752565694 -0.097198818194404152 0.085398697447563315 -0.0010183858790854543 -0.11575762781231365 -0.0080657508962516215 0.05318272152702614;-0.063116978351787784 0.00041330515827601332 0.050111784347673466 -0.035010646516066099 0.068859115926876713 0.027524677556920597 -0.01235961336085944 -0.026030549311595635 -0.10567302672313719 -0.0144466458614464 0.12657544259548328 0.0028633998364980835 0.0062697265175906767 -0.0027405872480996659 -0.010918336014760366 -0.012342616920655216 -0.081028222837533748 0.10531492443128133 0.062567683478114852 -0.056970228896158479 -0.029461946342425493 -0.096329025908232072 0.069399361177631375 0.0078956913319396665 -0.052120195619546575 0.016039315820410835 -0.028530416059324548 0.058460798835134532 -0.11125030434436352 -0.11337212605153023 0.14157353395161101 -0.051376129143260327 -0.023606252252869518 -0.25169707445632467 -0.05340341961475005 0.015475225725594297 -0.12836515773469945 -0.06768915849241619 0.036988586606096281 0.010015766438200648 -0.076619217765790726 0.019301782741514201 0.0073047526500132146 0.071412103203127769 0.028340875604926822 -0.0065842711904510309 -0.039078203856133906 0.016974472065693656 0.0020536620587367238 0.055660611861946159 0.082187177820086832 0.040472710929282257 -0.10490963841464036 -0.037072114597892121 -0.0063835086244467005 0.082121564342278075 -0.16063177161767073 0.10495436489004067 -0.049402594972660863 0.10088567331794371 -0.081223254123530694 0.058902091484738545 -0.09475332884900603 -0.039980456635158167 -0.022791009069027979 0.02808378074000864 -0.020849354003269299 -0.11158992028849614 0.13685033109423025 0.045665740172002575 0.035808465102451205 -0.057825013865643329 0.027065178034533871 0.076901176246134489 -0.02920778662234836 -0.037034855833817035 0.094422270866010113 -0.12665518792382477 -0.10048623581246802 -0.083834514616735564 -0.043710066078995503 -0.071164956118303438 0.15439780362008082 -0.016487044572674008 0.16034786231281267 0.049000611309395217 0.17202131478701282 0.072957078488831817 0.0090257054633100485 0.060608159846724699 0.11926316608188132 0.088171076313390717 -0.093737360210148765 0.19812156730090219 -0.11255081295275621 0.11472580164770745 0.030407407397618758 0.071654108287734553 0.13417869650204986 -0.00042245090725236551;-0.069475981207593018 0.14305666152975299 -0.30618131724887376 0.02857747139085396 -0.067659136337481857 0.054245693653517141 0.11291973013758384 -0.099341146574117023 0.11706969013352912 0.051578820695637038 -0.13455981612850043 0.19168168121708187 0.047070049823894046 -0.1048460447929911 -0.1427657453986568 0.096867731696465675 0.024246238718567795 0.23775392662138337 -0.033761554744298157 -0.067795421898038472 0.057268162000385703 -0.12611292767771631 -0.086690736082298464 0.20022344181565588 0.14527909837446101 -0.016747934272339619 -0.30058101424690653 -0.05782292462082729 0.028208931318084197 0.0281904761004554 0.082872915426824095 0.09766654197603003 -0.052502421649830822 -0.066864445813862708 0.011951661451418769 0.016023462673078703 0.031750191797415811 -0.071383479931118363 0.031810138122822768 0.020275802583145045 -0.30140752507430474 -0.12360654352747755 0.0055470273423976878 -0.0028728166140308312 0.12551617333276049 0.012490280306958278 -0.0076388870425036634 0.1478972192446972 0.0034414474724202416 -0.11886512683456903 -0.026758315779096525 0.015911215655303654 0.05320802028623095 -0.16489415117318132 0.036995126365831306 0.019504144635127771 -0.08799443619632398 0.037879773508720987 0.16961742698523347 -0.065677839731967835 0.025945175352858216 0.1196015927195378 -0.19760590952409193 0.011038750510792011 -0.033627924635884952 0.0040721501741164722 -0.12424358874580536 0.10827403648518087 -0.14494483735812597 -0.088522557791438916 -0.10216898509511936 0.12096751277291953 -0.14774537659504089 -0.014724337052961783 0.12946761610570579 0.11228902913234139 0.17997093121838817 0.13596694377367985 -0.020424931546208537 -0.099831706626221581 -0.1194457117640341 0.038026035737657789 0.02297404139430002 0.35313924462162855 -0.14164923762807125 0.1264441180603538 0.13634003231705089 0.079173408043437588 0.26718346978401131 0.134903604486595 0.083747429950942295 -0.073974377801886856 -0.015728360842669591 0.22545901195276644 0.038145170964038626 0.094394412893392246 -0.20326576885488243 0.14347274155465906 -0.053636770761937506 -0.032507966895597068;0.50713793899592607 0.44604640695145281 -0.21260719881854317 -0.027809529509815602 -0.30459741852951205 -0.26830365158297165 0.48426974560667063 0.12127895609125637 0.49852147014720694 0.70040074118723972 -0.068784000071172385 0.016988874190668739 -0.15575198486944689 -0.35882841432752111 -0.40083291845431823 0.18759053794585642 0.14472116443707392 -0.017438751099227663 0.087405365001022639 -0.016862404684347954 0.63296908294441911 -0.090182158134449075 -0.36692602294622811 0.61330323266363085 0.22884111070037211 0.16150236118534209 -1.9200135786213577 -0.12669508836741217 -0.018538928036263461 0.010010509091472736 0.079493465470644037 0.20804960493798455 -0.68575932117968719 -0.12105496823551874 0.14411920628871366 0.17826899669423152 0.20910667338900979 -0.061666149105814201 0.30942980889129434 0.24878009506729565 0.068830999287161507 -0.21041349124328917 0.29135242763105357 -0.21785116530344645 0.052964372498046981 0.068144646651776469 -0.00034346108431861392 0.1834918592326755 -0.15295674005659599 -0.14530411581804412 0.088249850569901742 -0.12789552638963889 0.087868426366447122 -0.058796387999691599 -0.3797933266249619 -0.14093617579813397 0.043900776180120595 -0.28945745752115942 0.076174534919380921 -0.01005677829886323 -0.30707756661651814 0.22854716045539114 -0.11415849773398543 0.12848484064507013 -0.0076708865137222601 0.17121963681159469 -0.13164069133096468 0.20037155175278501 -0.090279303543184933 0.14825838587804388 -0.49977928396103583 -0.082118201153097453 -0.40576574223350242 0.46693254506597576 0.22758719623665891 0.70302483653312664 0.09447047726920664 0.1704632345608087 0.23630786380385227 -0.24588324906422479 0.75687496925715581 0.45056226517748693 0.011139052455169598 -0.045256977967880328 -0.19021724448210262 0.26471848392983327 0.020465049718878317 0.22983222027040323 -0.11101500632757913 -0.18047691300881508 0.032749728255346541 -0.15048691648084725 -0.023316285756160612 -0.30932644115570657 0.22340926357217333 -0.11518853720435179 0.71779557027878949 -0.2117295778084835 0.32516817735059173 -0.23875849897862869;-0.23270583528551989 0.13850045510741782 -0.14146825610802699 0.012524538097593426 -0.25480379935095215 -0.084355533256946835 -0.14042130810914163 -0.14194742288213799 -0.23239476667224343 -0.07723816488669652 0.017383408341380333 0.23673458344694309 -0.129015875661395 -0.085498463204316172 0.14311243166910026 -0.19472730838087235 0.11551348097852392 0.016814713293330716 0.012047938667727284 0.10554534764836056 -0.054142898262763542 0.1990506623927181 -0.033131130797039901 -0.20648884425864955 -0.2413446869706132 0.020366069206176313 -0.10527743683910371 -0.036512679061887578 0.20651773451601441 -0.23708029238563502 -0.029854279228240427 -0.085843053857443133 -0.22390320140540154 0.13426660365160811 0.16061832848517449 -0.19337225148700288 0.17021130004686899 0.062081075252058519 -0.042921086893396118 -0.20005296835327041 0.13713423402433453 0.28375153988884128 0.14411822161595816 -0.15853335128259075 0.091008978463081758 0.11057247069836403 -0.030561740489129876 -0.027560058993752606 0.19153714291182172 0.03277701225705399 0.16707098354040556 0.55324249818403426 0.13237430779264334 -0.071712759881172108 0.062009493065368695 -0.0013682995651801233 0.013159848136823747 -0.15037759748985333 0.19343002629144238 0.25962978374379664 0.066631189213638253 -0.076986390073926964 0.040723038210160038 0.16321661412855476 -0.072936257807769772 -0.063474497926288273 -0.11491201106132259 0.11093056299204127 0.16506546390196938 -0.0020794646107424801 0.12321117803995228 -0.021019084864342761 -0.11311665734779745 0.04799041420563542 -0.078220981405339354 0.08853182646245128 0.10670941790159334 -0.021223226065692314 -0.16053647529090989 0.11196775078633275 0.0027936476743785359 0.14440897568515054 -0.032425348511185018 0.10876367410175379 0.0083253549069768652 -0.018580531810784857 -0.062888905343493159 -0.099951164763354916 -0.019103621369107687 -0.19874194349630306 -0.063039329883829806 -0.4150911075371293 -0.052336095477591618 0.20088126667763595 0.095165313717681665 -0.077872688346996635 0.094921783230458967 -0.14001949552318299 0.011001002634449716 0.17635249608453088;0.12457018133769755 -0.041491033656164113 0.0099297059439420379 0.0017212894742965835 0.058311600844475162 0.044648716456870595 -0.058809410980667207 0.037300000129506537 0.080222687373754931 0.30271281578429482 -0.15731620174323854 0.022337108202231004 -0.05901135088453368 0.13587018064491826 -0.090079519253880719 -0.13577545221690612 -0.18583426601377978 -0.01623277630151386 -0.067157419941787908 0.14438858510626121 -0.13329772811805296 -0.053400047910355165 -0.28482541322649291 0.13520306161754217 0.079664943342800248 -0.088791436108613397 0.1946002621861801 0.1121719929558251 -0.1049902022982494 0.017538929123637075 -0.065456062092776962 0.011315604769445424 0.03371089739877374 0.086515791819479868 0.16266222316222514 0.219679689794367 -0.10052708173342809 0.01304445349438745 -0.11559251157960432 0.12572558274535411 0.035680870940387056 0.075167041608189378 -0.18660991356673035 -0.12465936737761489 0.090564948274235266 0.2586153236452623 0.18845284569491991 0.13925977458987912 -0.025290152748928568 0.019978631678040183 -0.14696869079406027 -0.021626321929930165 -0.26988885839269161 -0.049460149005574071 -0.13560528650035183 -0.082365857593089301 -0.12652198940191375 0.097436369826702562 0.21691858215687751 0.0045831585832532551 0.035128563196870376 0.019547341308187326 -0.1316432529190511 -0.10967019603799036 0.14868444134702602 0.16603028930702471 -0.16728607257506553 0.12960292662195064 0.11074861935183332 0.029915196687212969 -0.093188065674945461 -0.0061242528885749083 -0.3563738968804106 -0.011260063729575701 0.16425013521351423 0.11493987815923534 -0.11953863413357597 0.23174490832161151 0.24567010204199072 -0.065549027035932031 0.003710529237225695 0.069985483155187184 -0.084143404547469505 0.073016825577908187 -0.23781157175975648 0.024313329214859673 0.11850024042183185 0.045440700848177612 0.30374705551939601 -0.25166270426346021 0.12286052632605611 0.17228470598333431 0.035838404573205737 -0.10442621871722631 -0.067645012196782067 -0.07359129114923052 -0.19313636238510401 -0.081234470860543709 0.065376680184656755 -0.10687418337754573;0.3731587068126242 -0.17946008373571729 0.092833044492717981 0.052560834621462535 -0.16442354672873219 0.27312446691962511 0.024593400111083016 -0.12351091626104856 -0.015739581418454957 -0.21059651474888055 -0.24973608558551991 -0.2303407020132992 -0.69196878437725939 0.041146530920901869 -0.057147158560973063 -0.12540476471171424 0.070022345896893226 -0.017145242546212466 -0.31568308388938365 -0.4757008208108271 0.016862083930679228 -0.44180644683551046 -0.19423829303089202 0.027393333024152793 -0.22738786681004791 -0.037194931424583702 0.048678509223164787 0.44583094386765154 -0.26210819110018263 -0.25812654779874744 -0.089949155545963499 0.6430785223698251 0.07728018157819512 -0.08969505184199382 0.42843527631516098 0.17983374567309662 -0.26174432092274952 -0.077858898001603769 -0.054419172548987732 -0.037195914925072918 0.19221631930279717 -0.043532283809007026 0.20862779869654599 -0.083040124126544462 -0.80279625417927636 0.57279966516712533 0.21243173983022146 0.24829826929757981 -0.12178264278925549 -0.64401574875288758 0.071383251981190887 -0.17856508877893562 -0.19910279583254759 -0.46282897307996212 0.059772860884847151 0.024343526879145413 -1.5012754774056678 -0.088092712327152115 0.283905483626467 0.12787313231128944 -0.20936841445065058 -0.25776083240421643 -0.18172956727868586 0.18338599457781424 -0.034783367784408978 0.16017647238615443 0.070688538024607839 -0.4447646829290362 -0.047759191091138499 0.10966079830945785 -0.02984382113425408 0.30416116949939254 -0.08297218674747113 0.11646529873925159 -0.21258029896004646 -0.050831060177429034 -0.0519525985076284 -0.042933412727426415 0.053463887326374415 -0.25015136511024255 -0.15102229284370564 -0.11548606284257419 0.28091175750883146 0.15318233702624215 0.15993251853639093 0.072876183563136354 -0.14938429044905488 0.19738763827962857 -0.20147027793896177 0.036687973902497818 -0.11659009894223761 -0.25823329573264098 -0.053161019720149895 -0.054766315598420247 0.17126912678714742 0.13976187242947419 -0.32878155371970114 0.10645106225000066 -0.2455796371205366 0.40501492746157836;-0.2631553610542175 -0.55835812846860378 0.0072061472925560848 -0.077103505778529785 0.11160624558167263 0.13860085439912351 0.11584467072483876 -0.15204697847156248 -0.13443776745214872 -0.16103731904183019 0.22697901890297073 -0.26011927207938734 0.27467131350117541 0.076799587535999456 0.056970878069751492 -0.0034218992868226958 -0.29286580175797411 0.067736780166182023 -0.13503416925604816 -0.16188746858000824 0.098114947736778174 0.06776814250481078 0.1718574411001077 -0.18237513443657175 -0.18284839053278762 -0.42928812601996147 0.18943950353790673 0.099078214728468186 -0.11410726452568105 0.087296587567496906 0.044174363687925607 -0.08076904481259467 -0.024726400660768411 -0.056917510866722802 0.032804407482698535 0.16873526824627422 -0.0060252397478581911 0.0091440311778637519 -0.29840116837625236 -0.075552257813109022 -0.013266880338356567 -0.16049578965999928 0.020352446396341685 -0.038110794009247752 0.094453852823967607 0.084236833521323287 0.14113298264332824 0.035055007412440484 0.2181148035787035 0.17391934519746083 -0.076994627858375422 0.030515827323196756 -0.13143465132707557 0.16371817422252027 -0.28832944003929373 -0.020619635687406476 -0.11115347148581041 -0.026077012213053492 0.144180910399304 0.11643854543992757 0.17766695993243717 0.14145885384218237 -0.14045552088052318 -0.10016739892609142 0.19157847857491395 0.34595800465543125 -0.1683740235773411 -0.07706526614549869 0.024219280128008565 -0.35419310033714707 0.076777111608513138 -0.063730737485411304 -0.017854505060237273 0.14151371939157104 0.012484152304076779 -0.13671954802535941 0.090173820166202789 0.026944820178533984 -0.028932147742471589 -0.029883989348459272 -0.16973449143165137 -0.41621669109589554 -0.070221581811242856 -0.092137527325299964 0.16414813633564146 -0.19950105578968552 0.027945664660659054 0.092161737466388019 -0.11083494473541471 0.088832129804882545 -0.076107966782721845 -0.087887335487553411 -0.1219935390809774 -0.12134063011338821 -0.36199559814485976 0.17840828142948464 0.048986327443525123 0.19381610410688127 -0.068510188466349986 -0.076656834670986607;0.040907637427324769 -0.27048632187481658 0.13918860326941296 -0.042346337493043576 -0.0061969611556069734 -0.17409845348728326 -0.083287497136879926 0.30041807860280201 0.095791614981016557 0.099127133667737441 -0.12255827362928506 -0.093796996106838754 0.053580614065797547 -0.098523867788505484 -0.14543168114752963 -0.19156886949598576 -0.32477186669862468 0.24727738550277295 0.17525922151994072 -0.032306856572382393 -0.37970780275224936 -0.12751733143397004 0.040856126408021783 0.13963568337449531 0.058038254607807059 -0.22744745466124669 -0.20695299857313254 -0.08608379056795272 -0.10673839814966846 3.7627185398317504e-05 -0.085090081608358445 -0.15427826442319198 -0.1189223791700585 0.16497843945158247 -0.061760566555969384 0.10546659645187396 0.071614446323043493 0.21077775042684202 -0.044690077831929804 0.043597042189245476 -0.12271266743560469 -0.08781053861124305 -0.0783648472896009 0.013712143521675905 -0.10528234258591251 0.11251792151210362 0.07168317534857882 0.062783888852098138 0.15493578416036818 0.039629897979850066 -0.073369762583110162 -0.017377945233761048 -0.0028128529101341948 -0.13845659612296857 -0.14950559001812053 -0.10368376238183769 0.070200279731745308 0.1897208596925285 -0.060009829130716418 0.018771216200988605 0.099431138916252798 0.11288567284533088 -0.016980100863451544 0.15870206087089389 0.11772443532915403 0.21756948371171647 -0.11772894242639594 -0.06484119324775095 0.14257098230674672 -0.10158802263403509 0.1107455815109297 0.027748002447152156 -0.12102027764660341 -0.082796114973963386 -0.020330863402861395 -0.25890610001738446 0.01538144147451098 0.11431399526411998 0.087338572179171028 0.076105176409280342 -0.0035993975593248072 -0.023224441759415966 -0.0073461877568950385 -0.34192908968426633 0.16925555964242675 0.47907362031845491 0.088786568368400792 0.12619461512955107 0.43351384784495489 0.18660380789579706 0.038092056223107455 0.15919355556903056 0.1811430607773534 0.1505512158810472 -0.16933219630273069 0.064053635604554585 -0.071355294085001769 0.069424983995959283 -0.054817358926243162 0.16695708439621063;-0.066786560145383728 0.38312622264484625 0.27658775275335201 0.11065796838545602 -0.22067756489444471 -0.31209665239047729 -0.0788226156788773 -0.10893208258926987 -0.29436730450165205 0.052609272119194452 0.16426061227444988 0.060168000536637498 0.117411440713781 0.070173423299806026 -0.092763363925527711 -0.13485429494446316 0.037716794135475309 -0.026174916836183976 -0.1260095068979695 0.051225000606206952 0.12249085426777913 0.55557993677457163 0.0097027751760772156 0.00481620382370016 -0.3251644475644031 0.32268527419281129 -0.10136176758909009 -0.041875212956518755 0.11912103797165764 -0.64898745762242294 -0.066042311259204914 -0.28292538326479783 -0.18317928475243511 0.19372808612640707 0.081124714036212117 -0.11161231095537967 0.24390272279668987 -0.13448395244985958 0.12524740676133511 0.10786536169926868 -0.019228784826810626 0.36955361397902864 -0.060846225911606273 -0.25943622288281282 -0.13697153217919381 -0.064613016317951966 -0.19924422690304572 -0.048005095666111636 -0.044173626520076698 -0.0064403218078639569 -0.19630754980893303 0.29488833413652199 -0.056657600656632168 -0.11621676731583287 0.054917200873536798 0.069412983078195573 -0.11638029991306721 0.056285052917262483 0.1410869104994438 0.13428055457150312 0.0017963112585638625 0.0036624444799988757 0.046145437636242535 0.12572297952552866 -0.22093853059478949 0.052845453785698993 0.24245411176568543 0.095708417658703249 -0.030050953151907908 0.021791354309373373 -0.1176250221071644 -0.29701561033360113 0.019060052404925278 -0.027804173999245303 -0.42980776987249297 0.024733880880963292 -0.081030855377061839 -0.26949353051900105 0.18096559511872345 -0.25400778745221392 -0.31874666081698511 0.35605640897208946 0.2311671557855704 -0.57726794915873958 -0.13563522893548721 -0.1147977993315511 0.19389383173368563 0.011104783081107961 0.12267392266004405 -0.1802458717411094 0.20291112995851607 -0.10759580547341056 -0.0058656241720306136 0.12080458721672507 0.1141943949716939 0.34625519807131322 0.01988425528847701 -0.10519941996928674 0.14583958971531907 -0.11663764871086339;-0.1828730813888729 -0.29023688665612196 -0.010842473699073202 0.087306952797382389 -0.00062480996197566627 0.0043439762659897557 0.052089373788491627 0.019996859363147795 -0.018914672308657798 -0.13149227723046655 -0.21227948636933591 0.014191982176787519 0.16087820764312685 0.0033140008176696569 0.053356656870619766 -0.13710988963418572 -0.17048154331200818 0.10847050435366237 -0.08202375326610338 0.044209589238930216 -0.039758069833745947 -0.032321052200886699 -0.18410737759865678 0.094134802597553746 0.0075459351784353795 -0.21469058697134666 0.17302718739267439 0.11400661659797266 0.31565904017902435 0.21893251071409003 -0.073356835208261736 0.144881445040003 0.030031750562760338 0.066706398390140254 0.057254229834864334 -0.021948901201765833 -0.1313165098225933 0.081323965790675246 -0.12040411888211944 0.23616379478142274 0.18220701616170698 -0.070888743693722472 -0.11628885484301719 -0.14550544109573355 0.038274813174098143 0.22914686356473762 0.089121609050110698 0.14728137930743024 0.17481222628368379 -0.031918818007731678 -0.14026141621847518 0.18092405179167706 0.17654709650915493 -0.32375608838584063 -0.36028839628240034 -0.13001187881875972 -0.31500759028246839 0.075380243234194788 0.26342743825134962 -0.0085698312978381586 0.044789161288086896 0.075489130759525014 -0.17561954697710244 -0.0050140540653227086 0.15738787522883868 0.24520067864557074 -0.15650456602658197 -0.16769505060208401 -0.023158036705996553 0.16466936034391064 -0.12437998215608323 -0.29149169105615846 -0.10567907040497378 -0.094103158377586593 0.024119608091959076 -0.1298043658012358 0.23406009503682701 -0.078968205242751777 0.082405295512485932 0.029962034641403578 0.034105226618653402 -0.19213704824411817 -0.14189334588086591 0.3733781609316158 -0.019879303930851588 -0.10116082370245884 0.10684067624292033 -0.092680023352670532 0.10272910458457073 -0.13293065166833234 0.12387988421845383 0.11464843366503996 -0.00048096810435269567 -0.13987837813166942 -0.10676843229185966 -0.14055414714273168 -0.0013510571349430564 0.1825936939087483 0.022638293510518447 0.1369780260772408;0.014454646933546087 -0.17140278118669425 -0.17259933680843226 -0.075725755953707397 0.02386060677043185 -0.10916569753104115 -0.032931955928771968 -0.067357869227127568 -0.050133075677473819 -0.021434922684137391 -0.025872282621966176 -0.079370643946768488 -0.16889249053943756 -0.046401975888310854 -0.040127103095940517 -0.02036746083413218 0.055363516611662424 -0.091551269659118542 -0.070774854496644349 0.26824474510178581 -0.063209285599027332 -0.31804674081175149 -0.096178283224213942 -0.019822855068543158 0.24445917667444 -0.12224110461771558 -0.0055522261239189232 -0.068443656497943192 -0.1063807372343754 0.49543067213939251 0.21067677442836094 -0.19357219956170271 0.11615485641783871 0.091910041438495654 -0.20288435382725864 0.13105723518457951 -0.099223458976723342 0.0064613057983834944 -0.063766982338482409 0.05074644528054903 -0.053983241355010328 -0.074916529439522456 -0.12185120178756491 0.068633935150787168 -0.2495503329558752 0.042648128054292064 0.097662505515619141 -0.017902684615207113 -0.11693067023024532 0.13553306455844238 0.070980359861662484 -0.51056714338879139 0.16324051355437516 -0.05061284861495411 0.030842333925743828 0.056302501455056074 -0.015592826575743643 0.1847093546301706 0.001908765055788507 -0.22285634017834738 0.097526504907419917 0.074223226274275605 0.16847484318419043 -0.047335618698801679 0.16147897073854656 0.1400788961866975 0.064811424804445697 -0.2203996830115805 -0.001874233510665003 -0.047470940819273749 -0.067308870314675043 0.065179333156911337 -0.029323565364407798 -0.18636802678317504 0.14301930624310949 -0.093340993057059382 0.1008245823822337 0.18214375530635707 0.044985123633395865 -0.1661944974778726 0.20330443015319752 -0.28046488890379229 -0.12385747710485791 0.46301905089216622 -0.016371556208177186 -0.069947354071984241 -0.050700581734131063 -0.054454436849315675 -0.14767631759718311 0.060521634873319761 -0.11770108102001288 0.029873272231923244 -0.12494305843796522 -0.074193347184339078 0.057500466915016681 0.6459413417283224 0.28199109068372163 0.061703402436704115 0.0055874542735754092 0.074794229579624616;-0.049476716646642209 -0.016254296371160746 0.015028388933209146 -0.31338946905108095 -0.033273318859557338 -0.068036208330836581 -0.18704417131618634 -0.055420041202834454 0.057305248743205972 0.096172171882742505 0.16705200906187001 -0.023089400870370154 -0.057285925299786919 -0.14880405065204272 -0.017461164481796715 -0.029163834349050413 -0.079798361177035412 -0.23924023562502397 0.063083457101542534 -0.096439043181359485 0.001474451822757046 -0.0044415811761023948 -0.0023080019196546476 0.19040276728935585 0.19891359158582123 0.039796824972977617 0.091601629778763974 -0.026384490702243114 0.10895634605787967 -0.078898389009697242 0.099362731904905077 -0.31698871480381369 0.15001983807156266 0.077988606854956635 -0.04305743812473533 0.00082268611216825016 -0.013906694114904449 0.062686379072186035 0.081262647464591609 0.13592232243509461 -0.38107292445871005 0.12383041185809328 -0.10411813690048127 0.023498621309703836 -0.16676490396685426 0.033635773750660493 -0.035607699423414858 0.085022310229268344 -0.062180813460684541 0.042451706420381645 -0.010938029144888874 0.34303504453247513 -0.087048633404034501 0.1317562607947857 0.043182191495704285 -0.012034252095611743 -0.035377613135719119 0.15974779308390671 -0.13209747244505374 0.012196611055622187 -0.012720005043104015 0.20360802529251751 0.073557713496161511 0.12883511015491436 0.059629438392175625 0.15185699281350906 -0.094840564351719364 -0.12748627751315555 0.29516284096976947 -0.19904174251883602 -0.051276290278489775 0.0088785857435628116 0.012708946557181579 -0.12724335707277476 -0.11178743750293595 -0.096926748408893093 0.057191767269491461 0.12603138619863799 0.20369808699778699 -0.037987591106192112 -0.048321778062393968 0.083129449366326935 0.11489124267635883 0.033242222831967781 -0.0038039333342900382 0.28492936977266448 -0.2803801664895299 0.27592164928298724 0.051989175853033774 -0.039009707332773563 0.2627557253459043 -0.0028325319766011152 0.10270433934489892 -0.26385377407825367 -0.045612277175472005 -0.10406962661853045 0.036843872332082604 -0.06768629904185193 0.19437767193493266 -0.0061134898399562657;0.036917803368672827 0.26448000333769434 -0.14295941778052818 -0.056338940291100106 -0.21914594995792838 -0.098316083359799827 0.029885369961797914 0.039240133470136752 -0.17718342415153615 0.10344026047259713 0.031343006877276244 0.24954288185622359 -0.14790806856514174 -0.029130002049095334 0.11884886530655613 0.38311271426903037 0.20502416331709533 -0.0005960035433899511 -0.10000581751785825 0.10219395882111156 0.21574210803354027 -0.065014960524963222 0.039935032344197582 0.036705695582735516 0.04035348328675676 0.19190600155365276 -0.15315693960094923 0.013067883901865735 0.017879932852411691 0.14396759600821862 0.14395954973733679 -0.014206365587964245 -0.044806864786573017 -0.0056643263958727772 -0.0093654808925882939 0.11502385653376127 0.017834311171484232 0.12386509885604577 0.12256907406076943 0.018145423314590022 -0.097541587994159268 0.20161593628951846 0.13818593717070274 0.17814455829767653 -0.0056650536467438848 -0.15454110698764095 -0.11982246774894882 -0.023926209558208615 -0.15260971375918644 0.011375256582539959 -0.057776180844439647 -0.21936760112581066 -0.097926903836716941 0.085276786291430623 0.028987377819808185 0.11841602788908483 0.11058167899990701 -0.0067478932715954046 -0.071144038246040028 0.14748810543261179 0.034487151456325908 -0.0052444958844083912 -0.20121250812511313 0.029133176159156175 -0.1215322345710034 -0.25338882607501401 0.27386051733343941 0.10700395100570191 0.049755959481368718 0.10375109163766565 -0.060028559852760364 0.059908145310657475 -0.027741958607185958 0.027031530686100678 0.10048850638607716 0.10935516607407904 -0.085716736585860806 0.19363722642586395 -0.16752542840214257 -0.02023653816137945 0.024040859603877075 0.29153930246741894 -0.054860354396906778 -0.25734114993470397 -0.061027217132527303 -0.15954759622990292 -0.049552516073383117 0.17893451741750674 -0.17687135882311478 -0.016563010209999698 -0.26389127240530941 0.080874827035304797 0.081272327545341597 0.16129452583544704 0.10445365145464985 -0.1138504341142329 -0.11468385588951031 -0.095004999348574842 0.25448494513270575 0.17880237958100206;0.15953572174794742 -0.024647858241250667 0.025819856216750765 -0.16689041872739246 -0.019696503839246579 -0.12024694242946407 -0.03351435581035591 0.29820771027315146 0.10346475746867637 0.27674779542739159 0.0064818054722332284 0.06144469647454507 0.061141480608681353 -0.33143253250766364 0.0041231428903757928 -0.050576325333914866 -0.084685478576976725 0.045728765760365324 -0.071375325302580089 -0.13354322368714236 -0.32543578359483571 -0.19832486295452728 -0.15087887728489158 0.20825279955975673 -0.04369762987245554 0.087895854711098134 0.0028056108517235737 -0.15253915825744646 0.1088889256467889 0.073576464855711357 0.12914335075475636 0.099302660122276232 0.11189535588937821 0.077510680999596696 -0.034711325408313246 0.083493651349964407 0.048524452279106067 -0.064863083380604314 0.078484515363177368 0.10858228643566357 -0.055001570538461199 -0.097936119486545362 0.025587718062741977 0.011884265081976538 0.096070433567888178 0.0006378369132552734 -0.039896589653959084 0.085520829455532327 -0.072745253080239491 0.032972410200216601 -0.17512517110159312 0.082146422390708171 0.30171244629481475 0.1066358517532698 -0.089542516958332402 -0.06071116203626345 -0.18081274442807202 -0.065943332143822669 -0.0068221151403290341 -0.0069788158901225436 -0.0079021041554837006 0.092651511874977235 -0.048666965458231425 0.072639799239660796 -0.047635983073539889 0.13936086971860642 -0.0098234872056889074 -0.12158664042167788 0.098521098814276828 -0.14820945015633871 0.10464499782949499 -0.10063364848872576 -0.053016328663775335 -0.26949366153769799 0.028122075238331223 0.096250370425866802 0.1683843994257741 0.092800373599491448 0.059964141914557671 0.019625126954395205 0.030020380112684403 -0.01558286988053305 -0.061941768922029974 -0.051812519297746218 0.11173917349304904 -0.095742195988345311 0.16880679423194928 0.039465501638267744 0.57193404985510854 -0.04778804535680637 0.12224978473628838 -0.068527246249136517 0.12213593520901038 0.075070435107206901 -0.086723638604574854 0.025352215702372796 -0.15925263552807212 -0.018942036351450829 0.15371672220102744 -0.023263274823905514;0.13907270064251803 0.073493609080842112 0.12166963502383152 0.24144396100512694 0.26286105911201391 0.046250765310954428 0.12013193270107418 0.10587419074658742 -0.10434770381088734 0.096703042357559749 -0.051554842075288022 -0.083160214868289603 0.075924291545296924 -0.19687736360607858 0.11639440800080732 -0.025580746159604373 -0.016502136631442867 0.10449285848779982 -0.031166103205208032 -0.0074368559073179682 -0.065466001019263864 0.051222146850164206 -0.10148157582447508 0.16784679811425207 0.10799336109023736 -0.012890739140375956 -0.048311995222203342 0.10494641407897254 -0.15824699002752907 -0.06611698213472865 0.049608739744934766 0.086515377657771772 -0.1396493716974698 -0.071185831424093154 0.0055766037621524638 0.086215758135274836 0.044281129657990491 0.019442322796649616 0.067865024309563635 0.037726755510541908 -0.10015967260705581 0.19797921188109432 -0.10135602099370909 -0.067482944324083513 0.0045032849168368961 0.10010481139621641 0.1236474096212347 0.010100912089931937 0.074710660048530858 -0.030326027399332819 -0.14917116637684794 0.053771814830492815 -0.35219189304211662 0.06431296146194293 -0.044169149480208905 -0.099236046206929204 -0.020267826711480474 0.16333574239692311 0.10146733276242717 0.073127254947485509 -0.00039397116161773288 -0.1386261426938509 -0.039991986735130262 0.10970411850637976 0.053280720309939224 0.048167911187682148 0.0062949990923731923 0.032006484902297398 0.046991132760094527 -0.09064967891274503 0.033987397037767264 -0.14021694568111712 -0.083142676624751666 0.04398340092654697 0.0049403210684649639 -0.10841617531706869 -0.0068629844382541057 0.13059794135166891 -0.031946916204159605 0.098366249833267042 -0.11254470978130302 -0.028922445009351212 -0.036389201462768493 -0.36376583918496019 -0.25630813736759006 0.028820389187555431 0.11585918271530804 -0.032425210339691979 -0.18407797818171287 -0.065528784929875405 0.11958129737989209 -0.020996507677775021 -0.034688318560692835 0.11816458460391872 -0.048402565741330145 0.017159522406568664 -0.096729288387174608 -0.069299385321076309 -0.066825872339969436 0.15016815903941236;-0.0033543813081615146 0.31915387931280664 0.036283775644049034 0.2454133845146014 0.086127841979043912 -0.093147550645153357 0.026537288025553166 0.16476032528824477 0.27477706748388997 0.094967878213418372 0.046692554051024883 0.17052918967591249 -0.082897143905035775 0.070748539745562625 0.11547761535953534 -0.084116749198724097 0.10833237821753335 0.062205360072040264 -0.076024527190743388 0.00318315925368645 0.086092850632363424 0.129083684065392 0.080392363397782982 0.21517423410140454 0.052531965371935191 0.15434790511599286 0.15363646806152131 -0.099078683840279319 -0.032057732571241469 -0.093247597281371455 -0.035953225422661356 -0.028816015544205448 0.019688173877180356 0.021414342521561422 -0.043899284722833512 -0.054886405782590408 0.0072644315711499841 0.16052246348866939 0.12672495580580001 0.12134053360499972 -0.10574710394395202 -0.15711211490258312 0.16496680286821486 0.088065806161457857 0.026607341411639531 -0.062646673137009445 -0.095182170259659707 -0.13812613187786454 -0.19557680635006927 0.05647979085746168 -0.16455194338994436 -0.12673820251201429 0.16355269789617488 0.33858575656168843 -0.019159308726076869 -0.05618354390510865 -0.022037066619154628 -0.025288667305638019 -0.12395543413858962 -0.050748582006260382 0.088466373337156276 0.02745954228791677 -0.06446044366293302 0.070577638828354841 -0.039572752246732949 -0.045710221107862464 0.13711275483735649 -0.12887675708041293 -0.055558982470607442 0.077681834093930063 -0.090391380752558939 -0.052413929720457525 0.026978476051892478 -0.022148112492834784 0.032748886943210431 0.046885105509905212 -0.1003185792899192 0.036744558154912045 0.085110158755782483 -0.12971095625406784 -0.14601371717257788 0.22122897701197958 0.0189504239599145 -0.20376203650377159 -0.10519897694167113 0.058821679825783277 -0.061080587310828285 0.022743082996573866 -0.13339250779955844 0.11194076275335421 -0.16864562068013317 0.060268315998913642 0.15058391932333803 -0.19873059811954857 0.09291729002045479 -0.11042204992977181 0.10444665291950959 -0.057869400641627503 -0.055673238659183763 0.15184313696672158;0.097082957000139122 0.098817280334547203 0.1516126288218077 0.14332474865049555 -0.019714510984490827 -0.01567592531853463 0.18141138654116448 0.2989634327091053 0.13363742309292817 0.085979609258500816 -0.051044760950371207 0.087857158417161393 -0.25764174783210947 -0.095622289817806863 0.22271500472209146 0.15570902757930682 0.14366489679840649 -0.1881958892629842 0.094235625235076517 0.11866777753539845 0.16775216975657994 -0.053909797618904749 0.044333266902366025 0.029442878239021242 -0.06366843351494636 0.23034116559254711 -0.12710618376193553 0.25827062819226709 -0.22908208027095994 0.016518958118826383 0.065209798365570212 0.11751247130609882 0.0011120922430115075 -0.090820030996776588 0.16044133041426961 -0.14773237409780784 0.081376312833472117 -0.10062692053669645 -0.085964590761375304 -0.067507452969873011 -0.022309443666850032 -0.27428916320565222 0.09901744273977349 0.11678385638337171 -0.13613127645910036 0.013316049910405739 0.0085902491166132029 -0.011760759669311146 -0.20243994047931144 -0.52250596369296287 -0.042784700878531368 -0.14767312600295746 -0.60542418854518865 -0.21957233873999032 0.14715195116849006 0.046529826017614732 -0.15819873900396819 0.012516569477557886 -0.22019590119184426 0.052910059395957859 0.13843467842858553 0.14405444340273701 -0.033395730636157472 0.017559754824235586 -0.31870980487638972 -0.24194717760272383 0.29762370644734487 0.44351572511714338 -0.10290261554205148 -0.14410120854473504 -0.12494475714738572 0.20307307808413852 -0.0070622760571902241 0.035242615423542963 0.13406376401608172 0.079333347797719861 0.087248070966659624 -0.15682114579094494 -0.0056024611476188776 0.15806996613939375 -0.11057408352621031 0.28381917430785403 -0.15045214176030144 -0.093943786450712552 -0.21171545070618683 -0.085424530013924915 -0.12594161161023182 0.029537639958120795 -0.16553132487640068 0.068218039825517232 0.016235985020581857 -0.084332643746379415 0.071969828369719477 -0.11306216101569742 0.24469408413011093 0.16317518956455856 -0.14997567514293078 -0.0062401740346447613 -0.023926237757033859 0.20103262707899086;0.083597510416888218 -0.040220256698831468 0.14618090705925621 -0.10976410651050435 -0.18957503558679037 -0.072252108783352045 -0.15122261852037699 0.16841403618174741 0.12019180743858816 -0.016809939362190433 0.1925484974140643 -0.14213514737963021 0.090717830453588666 -0.13517569498617482 -0.084316261601578124 0.23849227766833947 -0.074013118420565099 0.03176997836578474 0.14662952140420765 0.055513875649592481 -0.029627102906101824 -0.058110411907565725 0.090861493773989929 -0.063632198772965456 0.030488881299169535 -0.053959411996566641 0.15919365742120109 -0.017484339519247181 -0.19563836013726824 -0.09188391864417797 0.15168763484509695 0.087698764265402934 0.20570922048414386 0.046523205521290217 -0.012277915151493781 -0.019165545385314099 0.033044156060996012 -0.13728626875820391 0.072759429081783997 0.032479068722905902 -0.14427153005528651 -0.034341856674848861 -0.087602961678482652 0.010208585392241046 0.0030291768414658147 -0.11115935010203459 -0.073576533491968216 -0.11233369316184909 -0.06888011848308194 -0.01144802663322262 -0.002062369567708468 -0.14277243582401067 -0.19190014058244234 0.021055975411550513 -0.024947377094405736 -0.013485013223658185 0.073282504605887519 -0.088915577916145502 -0.11045620606789835 0.14514866086625317 0.086064424125128963 0.050205435457281775 -0.069786525737658062 0.12284681957997844 0.028441163668654883 0.02503905279384187 0.020269236485884176 0.065680928740366656 -0.0077305970755746972 0.00090803326643421306 0.10624324097860384 0.024938739608908606 0.14120006063465307 0.097621276076059207 -0.0547070788015269 -0.093634751290101154 -0.069312181011830093 0.17264520899482622 0.002363310887645468 0.14035362851794714 -0.029418887798661558 -0.056422444444988507 -0.082648316204544325 0.06903325608897326 0.2386103619621078 0.099660662927384527 0.067853861775285698 -0.13132950663628659 0.26556386428302742 0.14170003033791026 0.15131605527767805 0.01812477798203882 0.096252593833705283 -0.03611119020894904 -0.099314271630022571 0.24981271520095941 -0.0070893824531230182 -0.019862001005789911 0.17585151143725136 0.12168541110635556;-0.19421479627771723 -0.2275211604056504 -0.072878654077411106 0.0039992748983402673 0.16252497442431413 0.19087183953123824 0.1016289791832188 0.14376423666835808 -0.12655613290711779 0.091008012113539427 0.17768636603655644 0.082367871128983444 -0.13958464224997352 0.33125211704871749 0.013857929731706062 -0.26013978166822183 -0.084846277947743631 0.13722497278650536 -0.053836043302421872 0.015473558708793729 0.060428450540980304 0.13549829439771863 -0.0062931900401079132 0.10525776804095918 0.0071728803832859563 -0.082775128965161551 -0.028845779382283401 -0.050584661944775546 -0.015251049831636707 -0.15686375964216176 -0.10179095661408323 -0.041638750639566458 -0.044269698069745546 -0.098237944591816964 0.0053087728870049927 -0.056132657606715299 0.030949470808861131 -0.17569448145806491 -0.092266821585028705 -0.036236546169754712 0.019007824726846614 0.098109638487283671 -0.036324279979358928 0.03342522643071922 -0.04838884459739258 0.082609823272500493 -0.084924788436654006 0.097755308007642205 0.024907588804179679 0.006737256645907087 -0.034543710250963207 0.27642147632897462 0.050393682109263337 -0.085181989198892902 -0.13310863156035763 -0.14524577214498324 0.17211848734050847 -0.076058448859270975 0.076176355317095087 -0.17149249430110833 -0.073740429979659836 -0.17755307579299898 -0.38216201217109752 -0.062966820196940554 0.068110299968241667 -0.030253495896179816 -0.038071461771002922 -0.091111390161006778 0.094418763499665687 0.14843921507143146 -0.068091323024802849 -0.19943140359460176 0.0094347250475155329 0.034510971004759812 -0.12692814495289384 -0.033241196598913524 -0.012740212801445239 -0.12724687296065945 0.069858045228940721 0.090210524066863237 0.10729306214924141 -0.085169758919892882 0.042893642926520599 0.35203603425564262 0.073356814757981628 -0.11192672508680909 0.078174199621595303 -0.12097758882919073 -0.31102894603457015 0.025558867614039926 0.04245153493230585 -0.17348189626858346 0.052665400315518938 0.042714146075739742 -0.15410926841169131 -0.055874888519936834 -0.17118397963013032 0.13679879838813711 -0.19054778423173238 0.14269993924860616;0.012453058980265535 -0.052369426908656577 -0.14355833128657619 0.24966866163164764 -0.068231960381733514 -0.032580445643411039 -0.01365806080546735 0.01644710636199874 0.10868801481322529 -0.017269724581179712 -0.15815436758135776 -0.033020995054945296 -0.00045975670992259908 -0.077729376859140956 -0.038695056706120383 -0.22924608117907858 -0.084053051895303585 -0.0098017681638713182 0.096416091119870276 -0.15921214864414396 -0.088032115624181825 0.19721878421840933 -0.25922640451551182 0.18502533589428058 