function [Y,Xf,Af] = myNeuralNetworkFunction(X,~,~)
%MYNEURALNETWORKFUNCTION neural network simulation function.
%
% Generated by Neural Network Toolbox function genFunction, 28-Mar-2017 13:43:29.
% 
% [Y] = myNeuralNetworkFunction(X,~,~) takes these arguments:
% 
%   X = 1xTS cell, 1 inputs over TS timesteps
%   Each X{1,ts} = 14xQ matrix, input #1 at timestep ts.
% 
% and returns:
%   Y = 1xTS cell of 1 outputs over TS timesteps.
%   Each Y{1,ts} = 1xQ matrix, output #1 at timestep ts.
% 
% where Q is number of samples (or series) and TS is the number of timesteps.

%#ok<*RPMT0>

% ===== NEURAL NETWORK CONSTANTS =====

% Input 1
x1_step1.xoffset = [-100;-100;-100;-100;0;1;1;1;1;1;1;1;1;1];
x1_step1.gain = [0.01;0.01;0.01;0.01;0.0952380952380952;1;1;1;1;1;1;1;1;0.285714285714286];
x1_step1.ymin = -1;

% Layer 1
b1 = [-0.56252601455576334;-0.26432001861884891;0.38000668289322803;0.5180649530197633;-0.44688542684299737;0.67021938388733093;-0.37045600476457846;0.34156876593730162;-0.36222182125530661;-0.29736229375228462;0.3683546557525183;0.23547594344990991;0.31640506258112322;0.18258988474675292;-0.38113522479711065;0.24113058540118487;-0.27363248897080633;0.32930318757981247;-0.11017517574538112;0.46996254063444776;-0.28194610248910118;-0.26605990441162913;0.73223723195208434;0.077091793500372513;-0.36066745303476211;-0.13177149629566193;-0.27232255755490148;-0.43576826489971632;0.042431621423836496;-0.023955557466277935;-0.037074194464963142;0.12234665778461883;0.056278116008380605;0.13328949341698532;0.06202793270540357;-0.28410016204572802;-0.0059902667913964;0.026675197931378854;-0.038782899035740573;0.10727039904228124;-0.086107175017283169;0.012845988951790255;-0.00071376267275964243;0.033747952834388049;-0.078660908488589712;0.032590156754877482;0.018850402858340623;-0.18278663968358622;-0.18565962429507513;0.1924843221296231;-0.29172610854220477;-0.17224326498056527;-0.057460183740417566;-0.37559177134778654;0.24795411270346646;-0.26632900214086358;0.32620409188647453;0.3135872675803123;-0.11064372314180247;-0.11173360910431496;0.54261529941573594;-0.048331924404690266;0.4859121907540469;-0.21428407972181621;-0.73233821632473084;-0.32627845739487404;-0.21580680790661033;-0.4268479053836079;0.40732748586969841;-0.34727923358349139;0.57999675351788738;0.40848847456495929;-0.29655287370539413;0.44658098117850281;0.63478470198526582;-0.24828979528375156;-0.73929807382461266;0.70987970652649668;-0.4553182844671973;0.75221737768321373];
IW1_1 = [0.019815674815647468 0.014119039906834569 0.018021449972414425 0.059478244119622645 0.032552212709062812 -0.10102952646994799 -0.091087522804926366 -0.0054929503720162701 -0.016649052018427972 -0.039478119851226047 0.657177409899659 0.090118572482738774 -0.21049340480596632 -0.1796933175540002;0.036960692744476435 0.022494948016233113 -0.23491924333517578 -0.10871591058994041 0.51792875925902826 0.014066174824290149 0.0011492485549522969 -0.054606422316326432 0.00042839501079675144 -0.053215120307299434 -0.0046686726378569734 0.40270190112553067 0.044641396018578465 -0.36458730578185183;-0.24245783027803122 -0.31177808233572568 0.71967733141985291 0.4122459870258065 0.09313021815227375 0.13206597006994963 -0.051548478057672653 -0.026438232886250454 0.077562556506561853 0.013968984492243096 0.022870892479764499 -0.15030390121436044 0.088955451525115095 -0.090039093482031957;-0.021027342435378293 -0.083268495368031228 -0.34402565956381875 0.19711285372071238 0.13668012283286357 -0.030087382395799969 0.045799457439652927 0.066873394354581561 -0.08624162567888502 -0.10327275309527742 0.040230593568553311 0.066630195759772554 0.022023250483213325 -0.008893153619796328;0.007384458855168613 0.06455241976225011 0.10208271366628237 0.043593286087399624 -0.45251456834682058 -0.14124279553276073 0.019847226711291042 0.059380171532913709 0.054519921177420397 0.16020445415537463 -0.031108226342168113 -0.020870463084447663 -0.23207762204200577 0.63164384239128679;-0.043123010861646167 -0.044422472421678676 -0.039780932787026005 -0.10984821084841336 -0.15095962737720439 -0.43260834596682518 0.1934050777819811 0.2646630293204123 -0.1213432991228318 0.018754121216763921 0.024548320652969271 -0.047975222370268779 0.11041755864613997 0.070394240840842157;0.23314802126789658 0.20876021905349182 -0.24494142355856285 0.038214860153846196 0.13606827024289714 0.20690891735006331 0.25255482127726891 0.086059417452275064 -0.010711836010796741 0.046232369329555663 -0.067041126842611445 -0.15881545904062136 0.13921003955453815 0.10549988706739435;-0.50490791978220528 0.34628811472873194 0.18161756790852143 0.01698668592160376 -0.14864904949840355 0.022832669327489057 0.0022191288422324733 0.17048427960388213 -0.092446053332247147 0.15155120916984346 -0.048057020367488566 0.12006255118574999 0.083914507004220457 0.16397064012397447;0.10934927214527497 0.037295251711438625 0.100343700330338 0.044008619207134704 -0.28331400420634711 -0.15908232586233212 0.070805186283360647 0.14782414841093672 0.0047641281401119718 -0.34114255019146572 -0.14197239688338065 0.047878817617578527 0.028893931699804976 0.06293460372361491;0.21210658341171612 -0.38761817995591458 0.39662736080053757 0.020846291722002235 -0.028395224075829426 -0.1491580952693437 0.10263879153884804 0.22518024289430083 -0.024656159547709243 0.0016578239292842269 0.1319712829171715 0.033998908931582743 0.096743606063698362 0.12253456835270769;-0.0054710124486955745 0.11073931612610105 0.17868486133336933 -0.2810733462302335 0.026371924321691116 0.19013606717932874 0.046242940616507265 0.23200905351052417 0.044513562394920519 -0.0018591162000948344 -0.10973989436639241 -0.021471787875962791 0.39097936971935726 -0.00081304016073622913;-0.076900170634088383 0.17686074212484487 -0.14626325013405353 -0.14741895412789824 -0.3897549626861751 -0.32674378832770568 0.12523976609170479 -0.10329615805234314 0.10439815742701224 0.029147448811529055 0.06352771154762929 0.03771901082761233 0.031436354398485918 -0.27475285854629627;-0.50488981954650025 -0.60612000289144841 -0.64338233856183391 -0.73610761314152562 -0.20862407454505996 -0.025267368923171499 -0.056161122544067278 -0.029308241494855978 -0.079729545008067643 -0.067792927960422689 -0.015807246201085014 -0.057784408876943361 -0.054126704477899662 0.0095055292876819551;0.056354788870947331 0.14735458171718521 0.085021956777185603 0.11673514183116718 -0.77491635116035995 -0.15885636020576469 0.010389124985434938 -0.052929829104063394 -0.065012011288084481 0.014887862742798654 0.018698429199617058 0.037921563775506574 0.039284276356006606 -0.185034706247348;0.25447297588774459 -0.10834031139117291 -0.45919666684784971 -0.069993242994796978 -0.45547161728515473 0.10766436860082491 -0.055241631995408276 -0.0034746176585559434 -0.004546545288096936 -0.028709331027250561 -0.07160118578908059 0.071064379396947985 0.11893581299241046 0.2038789926491219;-0.38881272697110419 -0.50107736385755819 0.19279005588903073 0.32726029199420531 -0.031501201027180174 -0.011477361023963399 0.11724549617761421 0.094048647348126166 0.10623028395314622 0.069079758395552693 -0.0026594990032014995 -0.14749567471998529 -0.077653635582244071 -0.29745077688878946;0.3819818077066674 -0.023025670238852752 -0.20256301863833234 0.1016666779583449 0.034140227427436408 -0.17338127888105331 -0.078621573649904353 -0.15281404705192653 -0.14478333045170316 -0.14717938722896215 -0.14584868457952657 -0.13320419775599743 -0.2909025961762669 0.052783144536078394;-0.10637054189580732 0.020080718639297446 0.17954523059456645 0.28193643075726538 -0.080638866855018601 0.075407158765240165 0.03533779076644903 0.0065336772078678218 -0.0047407676075026583 0.031086255303096659 -0.13223364925038991 0.081094747885841811 -0.57828106710477167 0.33176498608353905;0.31747099562109832 0.24186476840296747 -0.46023989973631663 -0.50428573424485645 0.10999220280205661 0.0033588509627375512 -0.16258299191597791 0.13049168639741721 -0.0090713099309140868 0.0061557461137692164 0.10680401661037313 -0.24609955475583686 -0.1230615666059076 -0.053679261107894324;-0.062000935266499767 -0.21532969142975411 -0.096073180527113763 0.026448524649666537 0.76844552948041644 0.095683747954797546 0.10473856307589399 0.091306180772372944 0.0079533088425983792 0.054091308653724211 -0.012236071290301086 0.026070543615830645 -0.020644209045004788 0.27638378773567729;-0.11183863944120143 0.10703544010338323 0.56352356710694762 0.42566768138528355 0.17567521967875457 -0.089384805157111738 0.073918251909056751 0.087351312206868315 0.047270141642414408 -0.02265877426248453 -0.023736746247287801 -0.14060626697275697 -0.0029114789179301294 0.055431087910194493;0.37215202928005559 -0.28368775782562172 -0.33327445495699431 0.14276571855135628 0.082423177993088972 0.15375752362676573 0.1434914010454571 0.1495140676126307 -0.022937500204075083 0.052028365119661184 -0.029382980554358219 0.026484157452773972 0.11812708407242409 -0.046867219289252367;-0.11063331698027944 -0.096792326657938993 0.04473178670800889 0.15587857218327777 1.0729112837585659 0.053915622271093748 -0.10614303583908689 0.011917005086838444 -0.0066277619488217645 0.023059195429453672 0.011140936362501623 0.039950846302894888 0.031016116803754844 -0.017863903900027987;0.4574236947469128 -0.19052724643394581 0.69047104996252329 -0.62576482822921531 0.045735419294783114 -0.044482887269615509 -0.023739591006807208 -0.019631469138968394 -0.069965544855590187 0.00015173298283497342 0.0047212004310791473 0.031737228116811081 -0.013108209310285477 0.087605239487202557;0.049352390674367419 -0.27386990074624662 0.44056654030281167 -0.038916242961194308 0.25424765698807555 0.096598794511926961 0.28917418682831425 -0.019049166674584415 0.0073678966289667733 -0.039243960075926974 -0.078160373002414768 -0.0093916295178126229 0.087712047196059795 0.08282813509761143;-0.15408617476800945 -0.73196995405121335 -0.16926802823533271 -0.23836378825359694 -0.28341335292800274 -0.19856755350302457 -0.02567469078012799 -0.10315184862128261 0.0046431826396623214 -0.046396783872526978 0.1056672104487897 0.079304283636772249 0.18385764457321782 0.46390878090951898;-0.030466546486035685 0.24381564077894283 0.22871827878435158 0.08024653556009656 0.55317909508974761 0.01288234656779407 0.026972964399496722 -0.058086192310181341 -0.10163019643776032 -0.10227663343136523 0.0031953654086817915 -0.15727758114515306 -0.099646480136996188 -0.33495993090687198;0.20449599678973596 -0.042073390867205802 0.068588212098093099 0.23080098207957905 0.035240096868641796 0.11541243559646903 0.24821149917957655 0.039116255990748985 -0.06867047066584632 -0.078578588040126074 -0.16716466449999046 -0.15775651194462889 -0.15407822469439467 0.58481389492597069;-0.35668231389621879 0.4960777247859891 -0.10317633843863186 0.51580008883679185 -0.19472346941989369 -0.2226326045939358 -0.2022631998117865 -0.22402984319925209 -0.12045160726209168 -0.026591885040832746 -0.11186494616886984 -0.16981640902687778 -0.037125591402672922 -0.079736861411856277;0.43568412523406108 -0.22554478516139406 0.5332915075065694 -0.34432352669538618 -0.040135881818972888 0.18403276598934512 0.095182675200278483 0.048181787031848888 0.02817326653806496 0.085773619449164146 -0.037728599232291729 -0.18138931641937392 -0.064101050053761779 -0.26891081566749792;-0.30189612408652217 0.027998420767212671 -0.20367943157178314 -0.2207616912375451 -0.66010601120875045 0.039572120017972195 0.030754565729877757 0.0022373833122134403 0.015192559093479888 0.00083743512371983243 0.0065585691173870022 -0.11186338428729124 -0.069593261936585715 0.19767474582618025;-0.24535102407144557 0.071835158679558531 0.029884499335716533 -0.37879879624658713 -0.14054938702500788 0.14602412147433355 0.22814170215649959 0.17547942962946844 0.089238710619147149 -0.052184872125573038 0.16255124589455178 0.10435301289181466 0.0084673072212656207 0.12426501459641288;-0.075555003843973539 0.32741292836010538 -0.26292828931255285 -0.16787549266049395 0.44805461484021702 0.0056207657766495327 -0.022070672135870922 -0.0553977898892795 -0.014678942245002708 -0.090208381008288457 -0.063974478362732207 -0.15348233340835946 -0.21690397832122404 -0.26876506129956174;-0.44057401499902804 -0.18233206939889757 0.29897236268739685 -0.33939131456875926 0.42188943033077703 0.036067410698932649 0.026336888080909716 0.026052245014965461 0.019506363603893427 0.073057529238272509 -0.063829625788287478 0.077165724987993456 -0.12458585100287752 0.054779198983930355;-0.54967792021848727 0.24133530028946532 0.33022603548750207 -0.50348174277172908 -0.047335891308513206 0.032965039906554285 0.11213244002613436 0.029443699727357282 0.053208567447471808 0.0162535917884126 -0.041004802783283945 -0.089507352245559432 -0.086121225773650431 0.2595351405471123;-0.048705033705343438 -0.22375395266381704 0.13808039307008524 0.12429905515880289 0.68643891570096749 -0.07345929825414968 -0.039739454538294472 0.021129993696284814 0.083294014366553912 0.0064882247513831709 -0.012984894562941048 0.0045932427164486166 -0.049836256112907221 0.1490662586389048;-0.0144151216822584 -0.040072264125797077 -0.15565289209289218 0.055882148852518944 -0.43592441664048298 0.13328885553077988 0.029315951767489069 -0.44268858471169609 0.040002989434023667 -0.088709152530475066 0.076849004310450553 0.032630232121104753 0.058625947078300912 -0.23170062538468203;0.035433226579712616 -0.16967986364061355 -0.11442247706574438 -0.015098171299328835 0.65715966497108691 -0.12956668077563283 0.17858586228216899 0.058851339928310036 0.013329432415367624 -0.061117557022610049 -0.022222399610168048 -0.088827903680755202 -0.044588563966992567 0.19406753421534542;-0.061162868337969557 0.047132209996005335 0.098410054553775064 0.018229003886293962 0.50192573822198105 -0.22931680816105646 0.11768112935496676 -0.063374915413317079 -0.24310201471557502 0.0627918338248111 -0.0041314999208441798 -0.00086429273601071354 -0.07947719097886842 0.15494032254358092;-0.21945170170252781 -0.32368855815614012 0.1072923659700608 0.3260135456456219 -0.38611739753303481 0.054582624781699417 -0.020040841858298214 0.010671754304257665 -0.092287274833897481 -0.011560230913463381 0.073454953852696944 -0.089192645308192972 0.075389604594731527 0.12453776587694423;-0.91392876929525935 0.33051213729451751 -0.095074416377404158 -0.011762961535675191 0.30784652381477523 -0.060324444964199773 -0.036639372617774946 -0.079951778126713849 -0.0031549813949923629 -0.0021655394251866604 -0.093294378054558452 -0.047150867297315907 -0.059506601566609953 0.056806513473557425;0.18978462090331627 -0.508797332183761 0.17305620671060926 -0.25179251971594929 0.46230983841147449 -0.14225470603804263 -0.20214726825513019 -0.19756407266147361 -0.14287203960936917 -0.10713979864890044 -0.12199179468996901 -0.090453923156709609 -0.0074963334729120949 -0.14483634115941071;-0.13265674624919424 -0.19481951069164341 0.3518361589780033 -0.025673592632713901 0.037171166827271299 -0.04421395677661101 -0.01172427468979015 0.045968789138659386 0.049614990789236091 -0.38952261913511677 0.1289579974230774 0.24406869608293139 0.17585147125163691 0.031406704100338349;-0.018380001818515502 0.13470128116405511 0.50909922874484048 0.041151925302463491 -0.69262745702942652 0.022683902609148137 -0.0081520055597584518 -0.062628113281971071 -0.041570385639806376 -0.078019804520950933 0.062165365295808232 -0.08448193961721083 -0.013769630017888095 0.048279617032717874;-0.1461920875085311 -0.82113315962620648 -0.11897459922533223 -0.37928079273087356 -0.27359284877704887 0.15083983790213626 0.10052405111443942 0.057699823795877826 0.0031869410323075824 0.010372013902355112 -0.043989731449507775 -0.032033583029696833 -0.10797220212195689 -0.32290806248144305;0.031279901212739526 0.69034983359580715 0.47394541217933606 -0.10226348284111923 0.1966697623549882 0.059498039791175163 -0.083700397765627668 -0.1791109841846189 -0.10798912757676137 -0.11461260055463267 -0.074667535460114842 -0.050661761122607042 0.050165465955647325 0.055483540313653379;-0.15285809225934793 0.03305827570794051 -0.04123917663183925 0.10369605372337194 0.58981578620906494 0.011906802149909763 0.014029766247215858 -0.085325849450808497 -0.042176705112339792 -0.038366714476581174 -0.11769644955727743 -0.11756747137806191 0.29375988539123382 -0.33171451108385569;0.18670392656221846 -0.20216457011468675 0.11036594928175622 0.19676924352011849 -0.77204056509391594 0.086241908906072973 0.044343067354745823 0.047361753223493626 -0.024285502242763209 -0.03744419859562214 -0.036554076911745705 -0.011191263941396603 -0.021996053553629335 -0.15238273353758292;-0.059586665928854192 0.14258778546881021 -0.25361117486396662 0.40210897589153854 -0.20198103432688108 0.11868941544706081 0.34387333160387457 0.0078359227529274517 -0.057402433779549782 -0.24369390089955334 -0.012281535302011412 0.0024000255987078056 -0.0093816939745339119 -0.034369409976722436;0.125639259033446 -0.010252811467827749 0.090781277800502158 -0.12633625145142577 -0.22137648158854387 0.011733041707829272 0.23391780766667297 -0.55007252216374991 0.20887601452338314 0.080324925195346175 -0.034100103050627835 0.10002185044972728 0.034755698251998056 -0.088630039506807895;-0.19327958069232457 -0.054838200146659702 -0.48896277048053632 0.25159381814543252 -0.51473509610293999 -0.056787840283112713 0.042248784625072047 -0.019667941020195954 0.17651710111405322 0.14147462049137549 -0.10943606118497283 -0.0062659332145439629 -0.014564774532132622 0.010966955772447355;-0.055694417162703784 0.0031873342854312572 -0.37963380261687574 -0.79587572025912567 0.10320591218189833 0.031373790980642198 0.063921499946894569 0.16113441661973019 -0.18380495184797099 -0.1210017476067273 -0.0070518054030436639 -0.03236888273524454 -0.057270342382580171 -0.013499597976194568;-0.25598208631419705 -0.14131041351131771 0.0028729711927046181 -0.076742292587297867 -0.69667328591869748 0.028423318337892262 -0.16264322897481345 0.10643878121857826 -0.08411738594834095 -0.0073988919087288243 0.039697158970579807 -0.070438418170720829 0.061856857241660283 -0.063479364607755606;-0.13940604181169175 0.026334627605060352 0.20618291403808933 -0.26172207370699507 -0.65364846566055024 0.0012966664530452 0.086654319347178446 0.0088175179008186267 0.062010789978743354 -0.058117256968564512 -0.058146621059614517 -0.0036341833504600226 0.10795774451625691 -0.038171759884276034;0.19390673692229515 0.40126005749195226 0.14301765165552785 -0.20925024728484626 0.60312236724052537 0.012783580939969483 -0.012711169054183347 -0.066033195892165317 0.23240112146596287 0.012804798695187058 -0.006937056784005911 0.053453849167884739 -0.028520537294637383 -0.0028171922134105037;-0.089244535440513167 -0.33167594324116489 -0.085718475764942736 0.0057400176466417142 -0.12389976879369317 0.10069535832971406 -0.16501444016370903 -0.012423976238261679 0.19143335191270852 0.038833024258318902 -0.082375209031637073 -0.3875194479375505 -0.30410835155436278 -0.14311640736333622;0.16497867470208608 0.25502384481807516 -0.18188853308984496 0.28444294511513657 0.55764520895032443 -0.015746841447044399 -0.0050787872278198606 0.022315898466311476 0.028753664417151666 -0.01367925522820132 -0.013963860493527118 -0.032933229410829837 0.027915358934621236 -0.075960044482668673;0.12717594711574809 0.029153327526185192 -0.031411938497453377 -0.18057348503758916 -0.16740494356654256 -0.36493497506292361 -0.39294566436093337 0.055797368415985836 0.20783899976490891 0.088540898721683067 0.19570693776181258 0.042692661301886189 0.19053920440974492 -0.27055271661055763;-0.039732774348248401 -0.14151861894191448 -0.14457808394267532 0.058891995917655857 0.85837474789398804 0.013781457562756318 -0.058107352501134017 -0.013939570758505162 -0.028915816664489915 -0.035426149142286416 0.24817757718979475 -0.026018979334669592 0.13277379570586412 -0.18085249938344702;-0.50077709720527885 0.065267764046952656 0.0061197323671866692 0.26257016543846257 0.35182398108060836 0.0141887943971805 0.12048398280019579 0.06318105026395035 0.12750167364285761 -0.016238167141674587 0.020538587591642805 0.16375801818552738 -0.063385665069426875 -0.091323948579416503;-0.013064504301786966 -0.12232970773312005 0.028969830763810923 0.059810747527616281 -0.31801018818287941 0.12465139865347384 -0.084772845714439202 0.093547295833164359 -0.30273023562083962 -0.30131774808782225 0.096206225321202279 0.11252813236967704 0.1955953922825352 -0.050105989428846864;0.01525116483789293 -0.16492086814514578 -0.54958151704463598 0.60412263979592573 0.26111631095289461 -0.022396025991384207 0.11550532693380001 0.083449386851364743 0.077633718403867097 -0.013989579025391084 0.020237891463465295 0.0018651555117800314 0.080523045876865845 0.11303500274538267;-0.038330123154247428 -0.27001086652222622 -0.054447362197193268 -0.058700233315567674 0.73454655776491318 -0.17469645894483374 0.024654475046134647 -0.038227794143249484 0.049056467499441626 -0.015836081947764858 0.067385602710119702 0.075916540052890183 0.13358010693219968 -0.095911730764419223;-0.10617436145634113 -0.09894772319931408 0.46360019345844228 0.24589027334365793 -0.45825466982452118 -0.083534011040820186 0.013921498670310388 -0.030679277610539034 0.065261631701889977 0.21921016622831699 -0.038675019132103139 -0.096436502916074057 -0.033871049693077422 -0.1629096592350929;-0.072790562104434117 -0.062521721768569447 0.061347213705308212 0.070130718175935011 0.024866621471858606 -0.0041082095334489515 -0.025266030314722153 -0.33761534875317428 0.14675898446138166 -0.27669098659142016 0.18089623779357308 -0.12306631347311442 0.28788471831787771 0.096672202984797104;-0.029535151346921272 -0.054609235323684342 0.056457787482312512 -0.14949705070595126 0.32534054008620084 -0.17290547518115615 -0.15244595772442365 0.14704732178937188 0.081880788908905169 -0.24003369613171149 -0.20510439573946218 0.12227351271415167 0.078503278467478607 -0.13760844139324224;-0.89794761679212798 0.38996490071845519 0.063209264519920608 -0.39583753665194954 -0.22192324238876884 0.17466948527642065 0.12983405083781741 0.085022183361079182 0.073902384021928044 -0.038612343945000405 0.08960463692455059 0.015220546076305208 0.10734613434920262 -0.092268610436491177;-0.10460717735952899 0.035971975223405034 0.0028010565781189005 -0.043824220020915683 -0.96083076855761052 -0.15220605009752208 -0.041990239663849224 0.01187674732385482 0.021726487997957351 0.020068471329035113 0.05035125771160863 0.086740420757613984 -0.013954437682383278 -0.23842516575123207;-0.041053017805084302 -0.018559078646710865 -0.071455061951596968 0.0001229805475769229 -0.094434699319340773 -0.070032672625185741 0.20746539576386483 0.080958466327869891 0.10295247972127852 -0.016694156523497941 0.1936494284540797 -0.61693407654084476 0.15729791246131819 0.095252529457561935;-0.10917339471510996 0.042994303593842167 -0.33367617677474148 -0.25903771466418035 0.11571438330332803 0.29851215952572224 -0.043687015789783769 -0.21372738117343731 -0.2211222309686981 0.16126053952766667 -0.0038266151405711504 -0.1569564955705767 0.019804479094199835 0.12561154234333333;0.079570745854374458 0.049962865408659483 -0.00231976313920921 -0.15006662839485563 -0.051033476880986112 0.26363441406057697 0.27150291894026202 0.083027064634493442 -0.05214433634148545 -0.41154526716726875 0.17313485093819961 -0.13342837931111762 -0.14546314474092154 0.10042690788452788;0.82691415259552259 0.81853561805535435 -0.0082340373289485295 -0.052623298348507819 -0.094731967626730529 -0.0060275895124654536 0.072530645988682224 -0.0009441161729988822 0.025731363390525428 0.038562843051349126 0.017008367869789032 0.036812861844550064 0.018282030240203612 -0.0019436827788461698;-0.1822131571546444 -0.57247319269666608 0.61816058333356827 0.73223271060026685 -0.07341221971058573 0.045405266151522815 -0.032133390772885358 -0.14653232470091335 -0.026504943874290313 -0.071023069987620369 -0.052203379372049032 0.0082910584520949366 -0.039403023552661197 -0.083437242615390386;-0.025859656486092411 0.13106468679667557 -0.072443586549096634 -0.023718073418575198 -0.53847141090658701 -0.10768687593350637 0.029812479955651765 0.076590503738292834 0.091296432241509407 -0.2892869648534041 0.0095182736707863941 -0.020832893863589476 -0.04437191728209755 -0.095241809195015736;-0.01599720382042755 0.015214835229318938 0.18745798286889834 -0.19054572180658261 -0.34628755202994443 -0.25430412170090211 -0.1163271600059843 -0.17599982406291012 -0.12438011523398994 -0.17813716627281975 -0.11084518919016283 -0.11238401994987117 -0.15689403163465698 -0.1944576596827266;-0.20035026468618508 -0.047863340643857215 0.42811929238303836 -0.31894337013507273 0.36367943064841407 -0.057542334297438463 -0.072874989065783033 -0.12461788873727388 -0.16727247192307526 -0.053559814115545834 0.041397224448816043 -0.013643994989037603 -0.079844506692048553 0.14353183597938471;0.011234074543015789 -0.035103033311107638 -0.055094029735143088 -0.087181398935159235 -0.029351485181004288 -0.26115212459202675 0.41279900275820125 -0.12624541155389099 0.24343727540130888 -0.057155273794599226 -0.062555073479461779 0.21207904042532602 -0.094988040570424676 0.048931445992148992;-0.0032089735986141434 -0.088781218003454093 0.027504702748183452 0.060190785137739761 -0.075477215388588662 -0.15106838215654664 0.22361709887010761 -0.22212210173758548 -0.47725475368896852 0.20890740203041558 0.016555850915588907 0.035688253641994544 0.14298287829612422 -0.21430804922725072;-0.28850605602258189 0.055133272477898031 0.29148030531418334 0.033580455748063398 -0.11214960502965914 0.0048973363483534194 0.081571107378940355 0.060635232707410898 -0.20182996899864114 0.29454146192071967 0.23947807815887001 -0.17176451105611923 0.088914363266498708 -0.076431947557425578;0.021899061628002956 -0.014545458600425897 0.3954622763817805 -0.22027159223881804 0.73476394335043671 -0.041092521687910541 0.0090225155665940894 -0.010511198337231362 0.0029390431724670516 0.028024653429457192 -0.059999596845787428 -0.056692026999974721 -0.094888645333099778 0.088197448508573639];

% Layer 2
b2 = [0.38569261384668602;0.39248174470712777;-0.44748425160907651;0.47571275956630743;-0.33064197875982865;-0.32622557213226638;0.28875023850403353;0.27734396400773254;0.30231908880812153;0.26941137814995575;0.26165005308800904;0.3428939293928428;-0.24882436286698476;-0.16574156112832278;0.28819588725356587;-0.11792139739769997;-0.093034231173701062;0.14600921813833387;-0.17197086102356668;-0.1445383993832792;0.20162100882918069;-0.14662206170545483;-0.1791694663518934;0.17691484245802835;-0.16126505125419716;0.25327527099852193;-0.12111963084395136;-0.11006956238216181;-0.10139988678551667;-0.34389296994980573;-0.33764141581909168;0.004517426282432205;-0.078990561815128507;0.043926080119219856;-0.069245430656906359;-0.089271987510665271;0.12853312822979071;0.033914394546929502;0.085056902824099515;0.019447754882841433;-0.064575361871843276;-0.013344083353984274;-0.073028258526645004;0.11025577993937628;-0.064311618691555286;-0.041448151997190007;0.095504184237414677;-0.081371454358901196;0.015497309052563892;0.034107608276582012;0.44022097865556925;-0.10136069991518248;0.023006518075977873;0.061296350169500288;-0.11770208540115447;-0.070699692578479786;0.22231578998174689;0.19392478360266799;-0.22804848486214702;0.3424869978396044;0.21366913084616412;-0.19271477930962308;0.17908601625330495;-0.25354385341568991;0.38802272608367727;-0.26741865930115705;0.3259274281729736;0.3007858238278559;0.23957847514673963;-0.18795331759508643;0.58667042232188005;0.30669849127542487;-0.34409756553504839;-0.3170210525225019;0.36356188165267861;0.29598891589378912;0.2818738419197;0.46321432502393178;0.35389587770939868;0.44027089059259622];
LW2_1 = [0.022367419669833379 0.036493560425124957 0.12051331216531552 0.05096328044219748 -0.11749198003536186 0.010622863868046312 0.07807384493497331 0.010697592150434266 -0.10710597628644775 0.026342265880966963 0.018422020380983076 -0.050493201636448333 0.14809246864177769 -0.075816731923896999 -0.12847176582943329 -0.0046191853209268264 0.04357209090894279 0.023873161246051766 -0.020286697798739779 0.21853795643727988 0.05405040769093912 0.054283849759050005 0.34272670763741808 0.0099017369922389971 0.14115554649861256 -0.03176347659130644 0.10091759753983157 0.075754993455906375 -0.039630260793234388 -0.040414045653577077 -0.061115263389521411 0.059499655541778766 0.0062838034936385919 0.078671355236416551 0.016941748255380223 0.01748459937100328 -0.052260239686388738 0.024959453883074474 0.12947684474444343 -0.13007186452068448 0.15043818607173204 0.031953060702108078 0.091049103175938631 -0.055706527663706158 -0.040865230086350179 -0.056423501183776655 0.18900257338734228 -0.15384788106150016 -0.061059087457107586 -0.10957684497546158 -0.14695579264845421 -0.050554189772023084 -0.067935383209391464 -0.22677648848594784 0.1788914378676805 -0.063678192999587935 0.082839411896901832 -0.033246494056872099 0.11085426446855021 0.11610872173091198 -0.007398923335718355 0.014903710657474079 0.13120739453942637 -0.067566334746476969 -0.063563727305198783 0.095376432996907068 0.12247640957643142 -0.29095467754127236 0.026086897449101424 -0.011346616050022868 0.1401631361589438 -0.035856676568839979 -0.032229838607639678 -0.073471498727960327 -0.16830162549233238 -0.057229764426958832 -0.12141910345075875 -0.009022611699263345 0.099689126926406621 0.16086983478350525;0.04393025217565915 -0.012619518279739495 -0.092015662955194588 -0.053306348761603374 0.0020701632478418021 -0.024009177331106676 -0.012015923922350812 0.13495668699714575 0.10662720179218384 -0.042146251578257778 0.023803327046162639 0.010639001706385452 -0.056578104911853888 0.21512701179268459 0.10864607100455438 0.043342957599325181 0.04511916125049107 -0.082928881113798952 0.071111894968196476 -0.16289490196818479 -0.026982726940543229 -0.045404741348757979 -0.06304865296271113 0.016340755871685608 -0.1390926007865011 -0.21294893404153245 -0.10717132597768793 0.080371908175349241 -0.034606136488149669 -0.02633926530566981 0.10607074174485201 0.019266752026792702 -0.018275270083634547 -0.094570164943997198 -0.014859904687918415 -0.22365482448474713 0.070076524655784525 -0.10538478005846404 -0.036196192503187112 0.10512251214651962 -0.0010847627937771102 -0.036618732652560562 -0.086277769151181266 0.1927668646331803 -0.13442830587997526 0.13563650571001876 -0.0041692903446712004 0.07640798679749744 0.065425949560882726 -0.10287488551826747 0.036427027472837298 0.044797570546546241 0.1556723248250905 0.031537858367905361 -0.037050288949157559 -0.015166646750206646 -0.061711983879473735 -0.052169011672549379 -0.15970326100658469 -0.12918104947143058 -0.036346397523174548 -0.073598878746014798 -0.13247862663116347 -0.025077792343896052 0.059142181353483182 0.0095352883195766805 -0.087343653192808443 0.13771784824503142 0.046661176364277641 0.13614110244636451 -0.053437875042254668 0.084292113544441202 -0.085349672781085753 0.071328348732529273 0.064141724409637724 0.042381525707813894 0.10005706162474372 -0.14058482987897211 -0.0073026143087805209 -0.10099517438281737;0.025357761517844402 -0.084647326470718293 0.027311225504623587 -0.0031677505643633239 0.049501898827867236 -0.14440231936368456 0.029549745554243854 0.0071984637348912819 0.080281891383882004 0.078552370726917176 0.040279461452835702 0.030361505461726352 0.051971485740705266 0.12990486299105419 0.21126807382145485 -0.087406290902591333 -0.0085677924374038747 0.053116931147540514 -0.021080939238627895 -0.13426097878752491 -0.098852756270620831 0.0012220802318169931 -0.38381923129080675 -0.12704382374530018 0.030260130868198513 0.05828895640536233 0.018880861585735854 0.015750523597356628 -0.00046771391118737319 -0.016663169517655771 0.16287060483804636 -0.034116085317835117 -0.088253328219496482 -0.074740399033420751 -0.021127707108148604 -0.016441989214165627 0.034388627680941301 -0.18371749058836367 -0.1032909473648335 0.091007711215897347 0.052357920348487533 -0.035465574507104317 0.052635725474753557 0.073422080211681479 -0.065856420528404763 -0.042772951875803454 -0.0408922469115056 0.15198402988278686 0.077738786179128341 -0.044326572070195358 0.32065592511765606 0.031412624933114176 0.25821286644926739 0.34212604464269414 -0.31281796864196787 0.042469341780534749 -0.26373646843576176 0.056963671198651582 -0.1637754879050756 0.010036147160206338 0.079941948338709726 -0.052603277190442284 -0.29773451209969848 0.18257411488877007 0.09977181530087921 0.091059161721148432 0.070219656771321207 0.20124200411608048 -0.040049206967177273 0.041138942831087197 0.050296910622656094 -0.21088927126934379 0.016063644616760395 0.014870649682564147 0.0069064011313552109 0.030294947214331319 -0.034626831835018093 -0.028240325958000842 0.16394785148343941 -0.27157267388719747;0.087699887784106631 0.080184371424346992 0.12206541784556074 -0.062692982999601188 -0.27624030958512108 0.07170735694835069 -0.13887028915775318 0.10435495095098958 0.036906170890650569 0.077246456741027536 -0.12328692203057236 -0.17139056289152843 0.071657924129810341 -0.15180342028270991 -0.078190846888154308 0.28219210035121256 0.095400505481297609 -0.032285244676505273 -0.14606010276863576 0.1292153652980447 -0.043686147103023473 -0.028746186568164737 0.20228422709894209 -0.093134411451606669 0.055037256647448754 0.37189000925398452 -0.10352453440595327 0.13987152984111734 -0.096280407995421396 -0.028184833065562468 -0.0079456521577574261 -0.10244581614650042 -0.061950854584322208 0.11390919393678407 0.0011790189862250743 0.052610441800254225 -0.01177425128791415 0.16254011018812109 0.10537123998246502 0.10502836924955955 -0.0064035101332665179 0.076409798870784626 0.024401521574415129 -0.041584254373187288 0.34061237590167548 -0.17648443197997613 0.16509571891843158 -0.15978816138764795 -0.062352426495860813 -0.02177584018925581 0.012610311912850163 0.017128999293154441 0.016930258094804636 -0.16564737635612883 -0.0036048866586071114 0.085594923929142308 0.031429055935088365 -0.051720971290164328 0.11844546313831389 -0.032321779035916702 0.0060433728085574987 0.017555229358992036 0.17680349847339769 -0.024076770342175539 -0.053699418702850631 0.14763176432987121 -0.13299579535370057 -0.19678428783666202 -0.00096115545102100006 0.10158066555038016 -0.089680144382765295 -0.14446830314198453 0.22673891082519287 -0.033015040825226938 0.032141559679283407 0.10187950737773764 0.045171349467167832 -0.09584086845085503 -0.041304615273636762 0.17547405511172881;0.048111705212924426 0.0077099982525389698 0.050797328556286714 -0.0045289808371884177 -0.12067222934117336 -0.012415987314166762 -0.079732352321853009 0.016114567319107844 0.0030979613172962628 0.17012294689110533 -0.055795709927648901 -0.0071621316426720904 0.17790617643415671 -0.19828973294917562 -0.0014231567434041814 -0.056671264090093376 -0.016075229753440341 -0.070472868798452784 0.055514477993192084 0.17267126594595217 -0.0055578897013262071 -0.064343672485238937 0.11664345828765274 0.055455551764280894 0.018947220355552383 0.049883197470837297 0.15435390597793391 -0.055477297874140068 -0.052190501074579475 -0.10373340243207746 -0.2046554301284513 -0.11463589809867007 0.07508219316453911 0.092838785024037598 0.080161267377859002 0.14155169493290298 -0.083247089996706394 0.1084277011267944 0.088312655203135554 -0.059708110104532058 0.0099823534472270829 0.02880492400438673 0.095057288297265799 -0.090648438742501766 -0.19506437044119235 0.064690281735288915 0.021675071033040425 -0.19111236918586455 -0.084097978723521802 0.074970394637855889 -0.077257606150226615 -0.040946451095243294 -0.088254246467504419 -0.083167664716553485 0.060600381642098328 -0.13596658951214083 0.13079965913439495 0.020498899889595822 0.20918796033223694 0.04166433596329186 -0.023037161894653498 0.024740812759343526 0.048249895509409869 -0.037504762204131736 0.0037970790243594338 0.10199984187938926 0.045264511647986873 -0.15981783286029089 0.024155410348293268 -0.089123520749079824 -0.099790166754083864 -0.0046071397509053098 -0.017212619858538777 -0.094700416317487837 0.024593005521572831 0.0965498541248897 0.15429354619122113 -0.013096577150072978 -0.14685775770516402 0.1168098579654018;0.01757727294410177 0.1501022519305944 0.013241240695615168 -0.045856461122366313 0.043015426703707803 -0.0080085523167352391 0.096732816837588428 -0.088195732990429418 0.037213425449765351 -0.0042049075525509199 0.043404858083020671 0.015905488602392055 0.071095066156999315 -0.15745158742983154 0.025615196322485732 -0.046597441719082457 0.036963103255268852 -0.095555854954843866 0.032568297333981845 0.0044902692990780625 -0.012215767819044649 0.036068267767582929 0.037541167976759986 -0.057930866978078963 0.019755886480111968 0.012671443802385282 0.047701175200963605 -0.028746550168201504 -0.0098631788972729905 0.045146170332650316 -0.016013269310555009 -0.071584947516938419 0.074261423903429297 0.068642006160043359 -0.0394197059654205 0.038805768533775348 -0.034511586993641888 0.10743355694874716 0.049133357150982576 -0.14612215239440951 0.0077713341286174374 0.10529599942492167 -0.049334333772936459 -0.15355540262380468 0.044216281201634289 0.11933692294712034 0.062486126199773333 -0.11898366927129522 -0.037231458675449365 0.11752637642887298 -0.067431299812955717 0.06260313305838465 -0.1329011450012943 -0.071597604458171399 0.092863311500136742 -0.068513700850677178 0.084202603149735503 -0.029751644894850666 0.1347391403559112 -0.024774828553193382 -0.13844768010060216 0.040964150547954797 -0.049092451129653485 -0.073185031768597919 -0.0032913319093864895 0.010675512985474228 -0.025346634426934102 0.007297572956271571 0.091393244327650613 0.038868514378576705 0.022891068655037827 0.032915215996204804 -0.030226650842032948 -0.072512745895012082 -0.020717397418869493 0.025315628391654514 0.094977297421232385 -0.063308057675893925 -0.029724138780793729 0.011264510053729818;-0.13405932961045075 -0.16136597147185766 -0.0064151833669996144 -0.045608454482870736 -0.026810052609069216 0.095300475911577684 -0.14393958253633374 -0.061314965176495526 0.014626179919452791 0.00367402551538101 -0.061861427696761208 0.07745284964664198 -0.068603510884517077 0.05420079131786467 -0.073402309063585885 0.094055975334531139 0.033101150073586473 -0.00067413694827559312 -0.036783932605171231 0.098153957621833335 0.0039605472906126078 -0.04207626118086135 -0.016583278546958912 -0.032263201284241434 -0.066226441720164064 0.058537022986070095 -0.021578677481884495 -0.00014929577910202806 0.11137729030451267 -0.022291598571714425 -0.013131040730624377 -0.0615879645926714 -0.011446808817584697 0.023098565201945778 0.075932143557463166 0.053237144696263741 0.066328129109758341 0.037864711098796328 -0.087606102708868427 -0.0072159504115328022 -0.058834099591717627 -0.0039457945926217319 0.015870691045413107 -0.037557259100105246 -0.10002931571233969 -0.0078109151138632642 -0.059816767842819342 -0.0001591530512366526 -0.050745141643811213 0.076702957611234218 0.13324453926542482 -0.13310542784178725 -0.091031719299899422 -0.042543944302926691 0.0045718566475363414 0.05289666558143441 0.018058140266762841 0.035545136411858309 -0.0020745630107301509 -0.0010133689441819344 0.042999282196717718 0.052106341655476257 -0.012748623974356967 0.00096919797354581773 0.011031906927666934 0.0088447610598762876 -0.098993809068570207 -0.011490260640152494 0.13418490299747429 -0.11866453341765928 -0.051286547007534752 0.018243179429933861 -0.096712129707649377 0.073516542613719899 0.023712460100243627 -0.093776274722092143 0.045073669217786799 0.12818528809780708 -0.16298001550316463 0.056706514255949789;-0.0020331646300718272 0.0054648776775998104 -0.033589659076864391 0.011175852297154733 -0.0091179025014231415 0.043116254621858016 0.0068981777979503778 -0.0078678218847913935 -0.0094968706270189586 -0.017015457416681128 -0.089350957680546045 -0.072852988545021508 0.10804673444782872 -0.029138363137555034 -0.0067404262876352133 0.012783467266118984 -0.036973666341386748 0.0025479630476729692 -0.015009456945183516 0.11364563459763208 0.045315193791127549 0.009905117144340423 0.14780430744191286 0.027153110836533389 0.022878915721079196 -0.068242910884628666 -0.024933758039183511 0.1173028605308097 -0.052146315385764259 0.043279068923515664 -0.013102200863580767 -0.0059800138804432419 0.093281127791090226 0.035843232340198171 -0.042568761801998541 -0.054024064485205019 -0.038487151544595054 0.087873677843010659 0.065561434421519071 -0.090328139039080796 0.064546284275698793 0.11018654613911028 -0.10540561764504373 -0.12414445884653115 -0.011276508636714684 0.0080362007765450889 0.065311082470079024 -0.11823310919815827 -0.036999510882196038 -0.025203474453628995 -0.045221363304365471 -0.047450831372368996 -0.050015332949881731 -0.16412503489934366 0.11028799941329095 0.022926586956810203 0.067763212003178516 -0.033322956254214123 0.033893815987607774 -0.018530926985256782 0.01460017251680522 -0.075342903253845461 0.037347973544760271 -0.090561140957156616 -0.04777950047784086 -0.031315616205318413 -0.068214657178844104 -0.054396124777871639 -0.027393632580529476 -0.051763017269116744 -0.0078708294364832568 -0.056502660716329499 -0.024375715368489155 0.017973713359073346 0.062608774026438885 0.042910094576096874 -0.041180704285131875 0.053448070232059358 -0.01191809837945406 0.021823920746484905;-0.046624364353619711 0.066800888540001574 0.061788961167680817 0.063812485892532994 0.012591473939071248 0.093801096196421352 0.0040600936143601147 0.11715984825239761 -0.0065441941907854123 0.034780242349902082 -0.028222561566850778 0.03448314482662742 0.11058329791402854 -0.021642841132283111 0.015907753282559986 -0.11572559294020224 -0.051860667748553933 0.012039498558250442 -0.12446250815917898 0.095399706440055909 -0.10826545379366326 -0.066096281661533154 0.10726512092016209 0.089524324672791242 -0.03343127238442628 0.15772960017400414 -0.13213721111388513 -0.0073629531749035467 -0.041409417526177855 -0.10186628683542885 0.079184818279620747 -0.015332487033154329 -0.080416553558206386 0.016100360820401199 0.0010889802386937725 -0.030707732993504405 0.046661512347520091 0.034139062408246199 0.0065837103319923785 0.041688407916029319 -0.013295397331491732 0.032016338126240218 0.078432882354312672 0.044369467687402471 -0.16759278627378521 0.10160319049418078 -0.013567152394839407 -0.01930332010797561 -0.01693750754516982 0.080937712177476362 -0.039765071527227386 -0.092915332695742869 0.039944687703163069 -0.0273564993602258 0.012393529534713295 -0.16174750363691667 -0.060985618750640305 0.027383318315406989 -0.028260887636759102 -0.072494647844361396 0.0034749295375841407 -0.098702153382984395 0.052329587479699027 -0.14401244868574781 0.081429417377615124 0.012203164312585595 -0.12052006250541623 0.013923787883276174 -0.088179280546357 -0.092445791150199449 -0.030998475753853266 -0.0068080688012552891 -0.075741954842583725 0.025238091007761428 -0.00056025348099961268 0.048415487003129393 -0.020940464609847838 -0.065762706608557098 -0.056734029841728532 0.007682767291772908;-0.045092591540118965 0.0053996567729874181 -0.034588001597667513 0.040178557759403245 0.076665534622907011 0.052349188053027011 -0.027734034860713838 0.013958971237253774 0.00017308641888421613 0.027184086852979052 0.027252060509472441 0.068367625306584814 -0.012357547994146312 0.029182828146298259 0.040044036727349026 -0.036330339557344077 0.023826945424349277 0.027400881826743679 -0.086504494207928107 0.07296353552644147 0.029110048505697279 0.0051853704907442455 -0.023492277041000445 0.069892537713291292 -0.12096633757226538 0.04749116091235582 -0.014355805475531981 0.026977134552988381 -0.011242357305358608 0.032671115977322945 -0.048078764579131988 -0.049156292308320131 -0.0836975440586612 0.016347878386300037 -0.092293060408630764 -0.00050761087105541045 -0.0046751946602223357 0.042164778281248469 -0.044121944595192843 0.069711473175895725 -0.04330921719689599 0.024446449219569743 0.080252802995428807 -0.0025982522735466577 -0.072248289573303065 -0.026786058756690177 -0.070251794395155651 0.00099863445988710754 -0.0014824840398316042 -0.07976076664248187 -0.050576240100236113 -0.008553002563204664 0.012957307839901594 -0.062320009248715065 -0.0064986319620798753 -0.06298601791812683 0.016418716040465062 -0.0023425537833929671 -0.031819583703571921 -0.061446803007392713 -0.039285356886078857 -0.037712985618139051 -0.038147977878949996 -0.032710370392961777 0.013433809607724716 -0.019215966776615155 -0.11147936774739306 0.010210910011543733 0.043929380430332961 0.0050577264100445116 0.074876742803657581 0.043449026033192804 0.060184723663873889 0.058188861466495281 -0.019152063048866796 -0.048438569281313078 -0.053370846308027325 -0.02386059304179149 -0.06651861617381627 0.043614314151986196;-0.01303157665585993 -0.079207181488841885 -0.052592177860823958 -0.0099204318696469642 0.058810037847436956 -0.052008694646612952 -0.048680778888565666 0.046628547582176383 -0.069461419616648812 -0.015289079254345615 0.091915906963314031 0.08163649657738771 -0.0090966221805911778 0.051573154695589582 -0.022606494301096094 -0.02488532758138676 -0.062501504851738887 0.014834514857670251 -0.0003133760523078297 -0.043387502166660964 0.051262716131871874 -0.028098916434538164 -0.019466893546218056 -0.045509304490248405 -0.079521429118965398 -0.10628909949189459 -0.0088941240271275066 0.046919485645188254 0.13720321358025003 0.057390388453453671 0.00067971174579833406 0.068760307071872265 -0.025937645722259185 0.016119391155470886 -0.048829242344763019 0.0075071954045964904 0.022021516139208001 -0.010189163163308019 -0.080538566636930126 -0.023682242545436511 0.01980096634630844 -0.071884397418024729 -0.066770660962974321 0.038274069568183453 -0.1358835520957947 0.003491275964383539 -0.047111785289835263 -0.0064491665582174706 -0.03097995981910175 -0.063554732242218873 -0.03083683015539106 0.073822065433118048 0.037692552843228283 -0.029842187869758098 0.021731587909178701 0.045600190870417966 -0.031680879647092632 0.073870223227149492 -0.04520691525182547 0.03217569191061443 0.025993789159348836 -0.016584927625213509 0.013836582128829232 0.10964993921461447 -0.010570781628911861 -0.020846355628181865 0.0064700747341547762 0.027612458258641247 -0.026683614931203883 -0.030635219259188298 -0.0028831987348175016 -0.034445425863039225 -0.067245517891795809 0.085861222591033973 0.088852459589803715 -0.045217955086920399 0.022220463452066443 0.0042916424601830531 0.053618100009080981 0.029564819421370233;-0.075318767150917162 -0.03368114046190461 0.17960197522339685 0.027955779113113897 0.012886408046736833 0.0040947090806799013 0.098026423819701267 0.016555376930607747 0.10736014814256843 -0.0032072705961497402 -0.070245643891919327 0.07582620591375161 0.036479508719394108 0.10203498272206095 -0.013389147308436886 0.10616781062554426 -0.16625134109556813 -0.027899086765356983 -0.018183496569235621 0.071508899024036426 -0.072511452667204629 -0.012293476355813656 -0.046407856975669064 0.12389435818163444 0.046049901581152977 0.10929325074066081 -0.17556047536751179 -0.0013400038667116137 -0.14821409621253859 0.091696866162415666 -0.03251770461942529 0.042401606462897777 -0.06479981015985832 -0.12944613791103987 -0.020747330518634106 -0.12071076760360762 0.030190827592673823 -0.16129543079253947 -0.080818937011373687 0.054447819900508204 -0.19100096018958768 0.004301014276909253 -0.027044525097018272 0.1862163611891971 0.096227184764904841 -0.024479044266934872 -0.22066374357190774 0.026753157057998214 0.0094200182776181807 -0.010351818471423592 -0.078401866919301677 0.04232722623140292 0.068890928163256884 0.10652207358970459 0.073082119302039866 0.043020258120114278 -0.099203418249863298 0.032946501707096724 -0.22019219727368494 -0.1054287972266207 0.072177974580741808 -0.16988276789279153 -0.0040067989556434808 0.041949515790520225 0.010644280736676597 -0.066773579719800816 0.0403328364656333 0.088139317573988032 -0.086926534860150451 -0.032322685984821499 0.0071153164543762805 0.19112181507672626 -0.095232582405802374 0.078539026887263136 0.13067615301155389 0.015604263222150453 0.032846607910145514 -0.016035363769245786 0.054341990763729892 0.14025084441153174;0.058207090980143997 -0.11730345596551965 -0.020548229868117916 0.045137185421729654 0.039511394153289962 -0.070093770806772954 -0.020766573822410653 -0.018841902215876012 0.057595524269818253 -0.010283725941119344 -0.017164666229327399 0.014836919824424999 -0.0846208960679629 0.10040610614584881 0.016571288744964146 -0.067055088869030707 0.18104073583987484 -0.072646721780408319 0.016858749152242575 -0.061442396050916441 0.0094319594247238483 0.074378859579363743 -0.12083418635278081 0.067602807908506743 -0.028606246584713422 -0.19444785016818453 0.11382036432150035 0.0412907996864375 0.067205084887972222 0.12703420648859232 -0.0031029663012770207 0.042133484039275013 0.087686586417238421 -0.098784842696634637 -0.043484591744215095 -0.028687889334752501 -0.058638077619291455 -0.026976193206247161 0.015688093097451915 -0.053181046726222703 -0.051525793446495632 0.10721282406555491 0.063502887937988389 0.074323290675510467 -0.17512738993154431 0.024206663345490126 -0.067686616771364672 0.039069379312823158 0.075788058881770481 -0.018492529979257721 -0.067028046937774755 -0.045433933194806271 -0.0066420883166578596 0.07618153145082962 -0.010952682298127649 -0.12390932155360639 -0.032284925667036286 -0.022215944235919688 0.0072064062125218997 -0.058876861633148682 0.052975063507383874 -0.027626624513523063 -0.13567383699204438 0.041111751473100637 -0.029363340999912467 0.011564915263148083 -0.016725496622504315 0.046930078974281676 0.086925427799397922 -0.067627402750494267 0.019838953997523438 0.10920995256284395 0.053101120731095172 -0.048023772975516132 0.073927558030102689 -0.066116186147427522 0.036187678497644926 -0.013017793612821085 -0.041865327526037596 0.01186343943984291;-0.095735420452936218 -0.037959972462277253 -0.089227127972477518 0.0086682185896647182 -0.019067922554997178 0.063516198693334289 -0.11584680599189309 -0.01961597313391579 -0.00018441049374907315 -0.19784525412825338 -0.052341560427170232 0.085384281589324762 -0.0039348908774097411 0.073655000496207171 -0.093134027155673246 0.037221783718386463 -0.015091262150148239 0.016829257572992012 0.078974364298754193 -0.050370866857485798 -0.083057239955794615 -0.11560307318411364 0.11372478185678531 0.025285466314351947 -0.043684360227115276 0.010831793562133235 -0.0076134715390133688 0.0016934240500216244 0.11915314255799903 -0.005315812401313175 0.04731625507062464 -0.031549463223529937 0.085297312643051626 0.076237703509604696 0.047813223638048352 -0.13163060129954515 0.084361771113628872 -0.083835325139816064 -0.13841977192215771 -0.0062621027376042852 0.06703113844806928 0.11836879394809197 -0.059342702888371457 0.084723030312560135 -0.038047095747528896 -0.018361808199690677 -0.0043851131529009805 -0.097843216054323279 -0.020673190914782522 -0.022107763846812206 -0.022765467060776014 0.17486332029970011 -0.043890778455191411 -0.089568571278976092 0.035812144596317035 -0.075046237391076326 0.035863150180001628 0.017212074330461773 -0.12528098950779631 -0.010336601030221911 0.062965058991174924 -0.083705778222810376 -0.036989823293742757 -0.069096038035985144 0.042876276389926617 -0.071320679012829902 -0.046458105613928491 0.049110763949582616 0.035065362089423784 0.065361722276803175 0.028971420740487367 -0.079052075632515664 -0.13142067964201443 0.055828033751973691 0.20413310998256937 -0.050499967901209059 -0.034301375042686197 -0.013482401601584704 -0.04951918230481054 0.08325972075383116;-0.012871367037685688 -0.015495512090162821 0.051132693756988465 -0.012878428539519926 -0.1640190568643696 -0.0016360330514229992 -0.012030107562165718 -0.022716781781082964 0.097691304465786832 -0.081665722842145183 -0.095589719019953154 -0.030374434766415024 0.13067988438991499 0.026589471278505604 -0.015165888134154509 0.062142131449307608 0.027344391859067445 0.1017575658620824 -0.0082249781817239596 0.1325586464561051 -0.036662587523086251 0.077315448645421586 0.16386132828270222 0.048340124857170971 0.044894598770506458 -0.21096511939114099 0.0074338129527465957 0.076204653464678487 -0.14905306132681079 0.07020719601137361 -0.041843174215817326 0.040205379566497043 0.039364038084482501 -0.0084712794708256874 -0.041717515354382444 -0.047573658430958558 -0.079378590751575842 0.078297401115888787 0.038622795301652101 0.025924510737057066 0.036659880110639288 0.043192120658827611 0.10069294763982274 -0.073540572630049997 -0.035901054889204552 -0.075890007971487164 0.061995866447640699 0.057178362687547592 0.077942956111265935 -0.063889694717977299 -0.014107783417093405 -0.039262896562402748 -0.094248839473139792 -0.072604927632180807 -0.055775541570670481 0.071696821887293177 0.062059075935097179 -0.017107510499116411 -0.048991128478987213 0.16967237531122492 -0.041982160709711905 0.11688840549235781 0.16951822277047401 0.011855136016784599 -0.12239666858707046 0.029070092308286197 0.068579464572952692 -0.13287323553269836 -0.0015180137640416771 -0.11543805836040456 0.038450964033292782 -0.038118396206701551 -0.08618143975318944 -0.047770731018045895 0.031623526336591726 -0.008268041260257146 0.062400352351314435 -0.0061962143507305568 0.054411381079255493 0.078031411428963707;0.14885574370387789 -0.024061311442204081 -0.015054216397326165 0.041053124507422233 -0.18280004719313753 -0.14977768389552859 0.061638510484449252 0.0026947017387754435 0.10657381168733873 -0.016882986186316239 -0.1096783348499782 -0.017493994263150573 0.038033419285808494 0.11479688694657859 0.12596384667923963 0.087926595651024272 0.03976677651892839 0.0045314332864594513 -0.076313301486888863 0.033609772353825888 0.00180639895460969 0.13395449934770304 0.10740642582193123 -0.20507160174037886 -0.081152742906111464 -0.10987603916165894 -0.06452557065068748 0.13564320062626031 0.25495524823233867 -0.14364203345089172 0.14248766812701383 -0.11816080199749542 -0.036388548778928609 -0.19099347218651919 -0.16966009114202898 -0.098428603384356481 -0.047582519411609583 0.047174533336654806 -0.022165365370926185 0.1203178966686438 -0.11258614571326549 -0.18272823659135745 -0.079406361893229443 -0.016189093175664009 -0.17563775086298503 -0.1216971456581822 0.099131792964328849 0.19253740114790524 0.12894364165923838 -0.20472743897128634 0.088938287204288702 -0.2137745932695955 -0.047676806972223568 -0.1538026896158658 -0.13043097388532879 0.024291144690106507 0.20477765986415006 -0.21468547460533247 -0.075879949187247164 -0.092852097881957682 -0.044199406822865453 0.2902994071399313 0.050497244171910406 0.057874008982498094 0.13283640206585204 -0.03205404840253874 -0.018609625560739196 0.052618503262279459 -0.15379388623857237 0.031191355690568686 -0.15117611412363555 -0.1961273982035264 0.11202322477962628 0.026752039977398445 0.073132160641885297 -0.1134029739995927 0.11415190525311188 -0.053336526337339138 0.076169459964065836 -0.18464315998352074;0.13898473371201289 -0.13381836504889721 0.14574745027727073 -0.010231827081321688 0.049396953822368111 -0.10264457496048224 -0.097945499647405621 0.084246211478353566 -0.065135599974609187 0.056500691495504442 0.046883055218002567 -0.1448735211659827 -0.22277091636743906 0.076289194700735238 -0.17035899836910759 0.18112147890738894 -0.048926723711260223 0.055795706988081513 -0.20901653060749609 -0.10068658591300181 0.23316198432513741 -0.13311435140153136 0.054224561527791003 0.032704415981634385 0.034528520347325259 -0.055556220814297869 -0.0050147350041385187 0.095934006014540468 0.054085905374833952 0.11248188215601718 -0.057957574013387712 -0.15629331489925022 -0.1389721838195388 0.086375681620530803 0.0072891606750317391 0.011501374037398511 -0.032056135520807702 -0.014366122506911667 0.05728624989978879 0.14526511548272542 -0.12515262326708804 0.13140145233576808 0.069700030231615293 0.174125690655101 -0.078834512246861096 0.11591471930798383 -0.022098637120105784 -0.01346056405209326 -0.012755270957128681 -0.15714508881757713 -0.076914169380977893 -0.19667408452762322 0.012019335739434709 0.043327320410331167 -0.076583081136691641 -0.066744927120925793 -0.010243846609969031 -0.11297831117115155 -0.071123068424382471 0.011780555707708943 -0.046145695930601284 -0.062256081054918339 -0.018240005929917303 0.24641651232549047 0.092730091012207375 0.037807941141581279 -0.077483580359173118 -0.0098182108595135098 -0.12875061298250792 -0.16782895504557194 -0.053589847558090438 -0.17914164553598119 0.29667074898762685 0.14149527271413379 0.059106926826768373 0.11895165696598099 0.035967539330337174 -0.037770243443824417 0.06275209168340283 0.011017605305786122;-0.027037693986795681 0.1019203819013528 -0.022597146839714602 0.0080551145159270306 0.030048187657117396 0.091870317128362244 0.12982057080734116 0.0068681243695117569 -0.060956352414298275 -0.025507696704909689 -0.027828360856579065 0.080259663730074399 -0.086995983368265875 0.092024924579069134 0.060329762213890394 -0.011325695621925135 0.027028610236792244 0.084070945263255731 -0.05962636815759069 -0.10856289596431001 -0.019406076841721076 0.099191259822951836 -0.016131520241987281 -0.024467353899101915 0.084171430128715016 -0.080287638204401907 0.036304041272882143 -0.058151694698731909 -0.036843881996805619 0.07419376128944373 -0.028965746520988146 0.019986765084914385 -0.051114654910182744 0.046375074740539889 -0.022940139192411117 0.018201441534691869 0.071851604365569213 -0.087643314446882642 -0.064837415354278977 0.048892355448658574 0.073555087460665594 0.051352424533865668 -0.032315534183951819 0.060043413141048829 -0.0611792563140642 0.012027862894654795 0.033519793176663093 0.044190596784920121 -0.031035274209375133 0.11832656517308078 -0.0028022064368070057 0.0034502754051828231 0.052636293611780537 0.062240649562071711 0.011833653171090038 -0.015819554592053576 -0.051833843706560585 0.02774177620772899 -0.08049146572169541 0.028243091461886728 0.044464517466185044 -0.02802726704715303 -0.063922698652674553 0.030790082029264206 -0.060895794020547636 0.0071759443888630842 0.048854249604954707 0.020611791291627046 0.013617717079345767 0.10766729125886586 0.07675879899191429 0.13524989068287435 -0.038196747073625872 -0.078526798924904898 -0.12374592289869438 -0.017511740817940758 -0.03334265856521846 0.034438209788688126 -0.027992719475605804 -0.079040916555947346;0.016821304694034023 0.076986605564965657 -0.11061100149227517 -0.088473206332154442 0.03373654174940021 -0.027095326351939068 -0.046824190449543078 -0.022415106720651015 0.0063029701665091335 -0.098277469218370814 -0.067275355635230988 -0.026809963285260821 -0.018964618668251536 -0.058168418917442309 -0.053863412577984229 -0.092897680575581829 0.1666549688752729 -0.062490129342745455 0.033870046989847968 -0.042832639298398686 0.072498898414757151 -0.10602463780661522 0.010859582183433324 -0.029808605853259455 -0.015371645601419603 -0.14144327656169906 0.081969134815533376 0.14443370139215977 0.08105516900611498 -0.025602506496654683 0.048685385728061255 -0.044234993059490704 0.058678835577259614 0.06656442528998921 0.038349625569467992 -0.071471991588631087 -0.036789031919589973 -0.0034952821470095128 0.088652227499788835 -0.13467732916217415 0.14472493028449968 -0.026019331262934695 -0.040381553426731422 0.041589430129993152 -0.14140195781778783 0.10829048065055435 0.021688209402413398 -0.08529509132894128 -0.07508437711810044 0.0081385766597674696 -0.069966308414459194 -0.068149837704638214 -0.10768201917509931 0.033078443274569561 0.15332798435217129 -0.051035601072639804 0.019352142798368752 -0.041561247874497609 -0.026228855142798355 -0.068318071693892327 -0.048054534150349826 -0.10758698619059537 -0.096339024093942682 0.0063215232965463429 -0.033778375827049428 0.038702650905862265 0.02185589643478645 0.057917565681611584 0.041589768830309792 -0.016084856963051807 -0.067143188837688716 0.094618451054120839 -0.15084918209762166 0.03071597852643471 -0.011223997862522473 0.045049141632722313 0.021405595346952647 -0.0082730985935768695 -0.049467506080142123 0.080132920121464002;-0.044714280217869308 -0.2040000230989118 0.075173870499920803 -0.014724326269415725 -0.0080424004908757809 0.054081251117080856 -0.14905335094865768 0.039867395276261867 -0.027935787596310456 0.092413606334600357 -0.016383347805783495 0.071411114735349501 0.21595002008721517 0.080755263375722655 0.0076678947046700191 0.050163849267988281 0.048781489752360838 0.1224944882390244 -0.06705895784710611 -0.039766974885132103 -0.11032153153011549 -0.022705035630434182 -0.12719855588107279 -0.09210378550314216 0.097058060678896024 0.014282265922388536 -0.18257479844446101 -0.10111841755333162 -0.074206368047626925 -0.01671647747302428 0.12772748803219033 0.088784670371746199 -0.14426897231101496 0.029445439655641645 0.19116558361802344 -0.0091027006330363959 0.039881647746676185 -0.13661510548196129 -0.11186098414299107 0.060416009668998932 0.067035315326276934 0.0076514552553984894 0.045719439107839488 0.015814500828827217 0.10774990797121038 -0.11360354139767335 -0.1571836264972809 0.17786334748847049 -0.0022794796211698986 0.030400658526860191 0.15797061660277431 -0.049915742482139654 0.21214132011306983 0.18144463373819611 -0.08457331655489092 0.061900707947409567 -0.21247791757509477 -0.10494419233395928 -0.15514397388649007 0.17193139192805126 0.063886191084744984 0.066412521108574971 0.043523128207421852 -0.023590138705397626 -0.06648918994045766 -0.07713462041608557 0.053826777634982038 0.036525120602079159 -0.031675794814925891 -0.097467039534250205 -0.0097292892201167117 -0.14602998670977721 -0.0061957172230834474 0.1187601403039493 -0.014945164884091405 -0.050951417244968579 -0.048399657498307637 0.076814125103648864 0.027545243246115615 -0.081745207773914183;-0.11036736700289211 -0.14400255359710065 -0.081583953215693811 0.029715770820723495 -0.023344076827505982 0.085164760766810524 -0.059547885993876684 0.05897535415763714 -0.045982601725799745 -0.045788788726398709 0.0090326860731501177 0.11999871153976494 0.0074908038452384746 0.055894977959362414 -0.031087134012755875 -0.014002459982461789 0.06020908506344673 0.04529135353609344 -0.0071963108461713119 -0.09246932478223209 -0.065230658173964118 -0.12186849444000351 -0.089002108651292489 -0.0092710580596044589 -0.12075185944392966 0.073170870120299367 -0.073990699228990847 -0.023669063338215352 0.072922488789240361 -0.015824279750016101 0.10277794085830659 0.030766249880406896 0.078464609617353867 0.045274048683971953 0.0021826617902149007 -0.11027005067168758 0.086820106032899233 -0.024736331441082293 -0.11324745200920223 -0.043093142568372676 0.089799113712645151 -0.11356339632730907 0.056721637907187407 0.052144541819300061 0.070736586920837313 0.03205599215720592 -0.13328505878362001 0.037178540476472385 0.032256294504130457 0.059900727228506631 0.027739559482639165 0.070266481274594936 0.011343019431819965 0.061452160920805209 -0.043946110597157861 -0.076999267771576174 -0.068869548271013908 0.098065227726060536 -0.1224838338027105 0.025873412025983516 0.03251914187612627 -0.10442279469726133 -0.058546287084149544 -0.023325280606932074 -0.08402470748360881 -0.095069975428901859 0.014589939045036348 0.050713728196810776 0.078627146390967101 -0.057228725517585843 0.11946271166329359 0.051759511071046038 -0.011581570201080115 0.15627174274758726 0.033701441087089758 -0.020052292557134681 -0.050708553562488393 -0.072282264079445296 -0.14803814430887685 -0.079856998387780626;-0.030334799908853446 -0.098637492088275686 0.016232424133094836 0.063501092928790845 0.067773304429619735 -0.006665140334090853 0.048888816936769129 -0.042285056834194701 -0.010316131090143191 -0.076622071957122173 0.038665753699661784 0.027603111819462307 -0.10648811789148789 0.10345661086874387 0.13641961348638368 0.048707761947258371 0.07767240709598347 -0.044954964073372544 -0.010111210547547267 -0.16590018170699147 0.0054698601127391834 0.046142255698681668 -0.17483881803332582 0.019763651617735065 -0.0696787699256258 0.030928111812047798 -0.073259738684538681 0.010484781868441503 0.022743975463583546 0.022033771365344845 0.068512472529296348 0.1180608447595491 -0.1116394463266811 -0.090445909501649963 -0.030285394212247137 -0.11414472061863126 0.072771204213823257 -0.11712622543974958 -0.1649577085090988 0.015426749558780385 -0.016662011158066189 0.028287720434709968 0.07403698071478905 0.054387531518999506 0.0047805546174126629 0.1315779619316072 -0.096704049234848613 0.11354534761333443 0.088278961231361003 -0.048442848716427282 0.081929364635606503 -0.033806830391428233 0.12973246556114659 0.14311831915228751 -0.04325100623689665 -0.13657004841619871 -0.14925438114793066 0.12017498598707878 -0.10005715076799514 -0.040222633450978637 0.12032266456051108 -0.038602846126557677 -0.081898527907415933 -0.036155197032754979 -0.024244163973907898 -0.013683803700633419 -0.087494517969783706 0.20469965856943179 0.044371726276501502 -0.014395867078398987 0.050609300307787347 0.015602899421243745 -0.057664553578132667 0.088534197526148911 -0.080475575010927058 -0.054669289713165946 -0.099880960014805537 -0.02307806787764034 0.028010947170512186 -0.063325486332654266;-0.034226776228972529 -0.036051770729207705 0.096219941091654618 -0.1218500655965051 0.069709078033408395 -0.084256171357693102 0.067952271778676188 -0.033589350863184736 0.02749085628724467 -0.038679881424160144 0.071711140852674674 -0.077119430407091211 -0.11945896304565547 0.026881769715532359 0.020040186166870769 -0.027783823761984142 0.0050736599169588113 -0.027486060837055942 0.00124471551605584 -0.064037531484350416 0.012852009520139531 0.11697291080268689 -0.028276445912862651 0.032527450384939954 0.11670885522812161 -0.1240703434493234 0.0054736119369757407 -0.007701458283761225 0.0068157872178167484 0.08690373151537191 0.039447366466055282 0.052459880470360411 -0.049963566790943159 -0.0077966912010443302 0.08380070243570624 -0.0057296996666860939 -0.049251779986785579 -0.040257597207577094 -0.067372951193475542 0.027144415250570913 -0.0078970615913591634 -0.02216736519960899 -0.08220349006562444 -0.0013265762786508351 -0.022447230762736217 0.066270831633345656 -0.10073379692754281 0.0847330309722273 0.022158982131519022 0.014346677833881367 -0.019143997527293281 -0.0463088219129765 -0.01630971424949457 0.01504280080021099 -0.039190178084467737 -0.061241301725145865 -0.025950612063415722 -0.01427480437663203 0.017778107180407253 0.039527135669195454 0.037206296734753737 0.061623607411845173 -0.10052314443444767 0.12252989833828781 -0.03872615921444978 0.07136531352900137 -0.02872833422710418 0.0068283222093070434 -0.051459988798192725 0.022411170492065837 -0.015665919238094256 0.068286454840377417 0.086089990709704606 0.0040398649832256734 -0.039645923762520352 -0.025600123169723842 -0.073978445664059381 0.058463621418739356 -0.015340422906746507 0.020394550496773384;-0.088358991309335944 -0.095180983517194492 -0.019256409370141257 -0.012246734923355349 0.16506358098828258 -0.060886174725946152 -0.0094480264118704371 0.031205234826584095 0.085628826083718468 -0.016327501166097234 -0.050513882242292446 -0.0028287429387904755 0.11679275231017125 0.066139794623325573 0.062593552613355863 -0.027869483810335462 -0.090533027297371754 0.016538459366959843 0.043049057687638906 -0.10152194384986686 -0.036440702382593247 -0.049752825093511144 -0.10435298596463254 0.015716407921976917 0.0590329822054112 0.10203451845737617 -0.088991179085290625 -0.004313545376625082 -0.051243675803508713 0.079545324714606944 0.16497743107772897 0.023129818553999228 -0.066040640239287726 -0.091763318562111881 0.097069038625761009 0.0055362658349869141 -0.044091174576806565 0.030190430818556432 0.016692059163426629 0.064717087971273915 -0.089510462537544994 -0.082122191356338442 -0.07606940924264137 0.032361126950103646 -0.0066332161072150822 0.01348590041103752 -0.13157187765919356 0.06157578602245134 -0.0088937494134215325 -0.054723276832105219 -0.0061131697908026255 0.025738486789890457 0.03747485271643719 0.11424755078583269 -0.085966831406256036 -2.9399485790330875e-05 -0.081678781232600195 -0.10931804792186893 -0.17795803729230542 -0.036135967576375418 -0.062419301216966767 -0.00088695367635942442 -0.084696344282157374 0.040193068457574442 0.049529612365407573 -0.0073776870171433084 -0.080588217795122707 0.096204279104775831 0.00026185691400481929 -0.0003131936522631573 -0.089863068249723566 -0.011869511991380982 0.022429687160038899 0.041027045768308387 0.035709069071383548 -0.049407744838307899 0.089487042908318035 -0.113861855315705 -0.035021562867381867 0.08366526941442666;0.061891913899267799 0.070491460010235402 0.017189321631975712 -0.002767262344236303 0.064907528953147997 0.0074476314796764458 -0.043402294521287028 -0.044079950612385337 0.0011521999746722097 0.019649336474942547 0.012095874010577079 -0.021718342963425601 -0.07694460889682686 -0.07725402293631381 -0.013743188711084401 -0.056701535771287427 0.081821124353227748 -0.067063254763404759 -0.00081295225867013309 0.081442603115730622 -0.055172590339076004 0.083779519998313665 0.09032501224263377 0.04489022418980778 0.10135981108035216 -0.005828258986552334 0.011205953618239162 -0.11041349909584071 -0.048033820169427324 -0.00074582734162845568 -0.079853082466284489 0.024667609798979973 -0.04211108099734976 0.082259281469425474 0.043760361574068214 0.066573939336648111 -0.055037613768480063 0.091510730915889266 0.062100066596273956 0.023612802521088994 0.032408642963582514 -0.067196529516507092 0.055723325418210658 -0.098433847771226879 0.08883437387435443 0.011703176479148777 0.052069787831791482 -0.037671877748183681 -0.036127032187937086 0.018895792145153006 -0.00087299886159837733 -0.064359957594948683 0.0019905529028228022 -0.091941013411710917 -0.052710902657925454 -0.026840949481958296 -0.022574083565313447 0.013162609585709714 0.074265111158483818 0.062980621389297525 -0.017821614006465234 0.068636896962157801 0.01913058699744653 -0.041162595398676248 -0.054842564551586141 0.095727819734310785 0.0431454171670193 -0.088138206760826732 -0.12837220884252354 0.060269024721983103 0.03416134083553321 -0.021566881901149502 -0.0078959745488708013 -0.047649739348567872 -0.032031216430479112 0.065878313963730381 -0.086919241265378769 -0.016749571305341215 -0.011049633134914342 0.02529954719752835;0.070006327713514435 0.057994995203714352 -0.1060992956238162 0.066739814348605125 -0.032665611411153546 -0.070016694188038381 0.12231724245363046 -0.069384096480097857 0.038280842683110813 0.0060955515847620819 -0.085700685143515656 0.095143831024005796 0.13073871459501871 0.15700591419701138 0.13586688413149134 -0.17530367382339121 0.15637513302500061 -0.18174062207252917 0.26942551934373971 -0.056749882880107336 -0.14829160514397385 0.064079240704883605 -0.027062998756029428 0.058950863007008622 -0.028850775340893357 -0.026957993721939629 0.015805452367111103 -0.014222103014818039 0.012300434562233347 0.16100052705434156 -0.012903970508290386 0.036728379942969049 0.029152500941350853 -0.2136091474431209 -0.11505297256252592 -0.14620040946041535 -0.069418981472340324 0.056237681021976002 0.011395155667888471 -0.046287323621931123 -0.1450067493703073 -0.071210101412313001 -0.18490474951355174 0.050744129679572619 -0.030305788753385094 0.031664447006580054 -0.14444173492313167 0.071530972686932565 -0.0094546811957891379 0.095297157982767292 -0.043777348149325379 0.073004655052128525 -0.11223665416886978 -0.039943271213748438 0.17828014870577105 -0.065053061789205252 0.19988296375067058 -0.0076001199062770402 -0.011706383261397869 -0.25189477208121275 -0.11072426420174246 -0.081663413620096145 0.070279999507629587 -0.11894312432639188 -0.050788609802722873 -0.0020022417994626771 -0.18014050205483775 -0.025276532853291438 -0.050587445912171944 0.002825726223820998 0.080733440437156592 0.52453795616042431 -0.36572905429365521 0.0088359272829262817 0.022623165723468848 -0.12199650643378175 -0.023987241415202636 -0.089171176950310446 -0.11698978064903719 0.038794112035258198;0.089101872971155752 0.084549253991259954 0.011663008397928885 0.025274413744220028 -0.10183128334166267 0.031043728673489385 0.12448969325652293 -0.047292011310890072 -0.028700996927320466 0.00032769916700808079 0.010968541184462896 0.074791209463001523 -0.15022897436600682 -0.0081406581499855624 0.010734050533977165 0.025079658505212116 -0.09228189602246939 -0.121874530765506 -0.037743815586799345 -0.050750841097380942 0.048102972103676589 0.081447845015140408 0.089474452367673193 -0.094907304431411793 0.053081462406861221 -0.075770638592486686 0.10183784962979109 -0.14635112885542342 -0.045847098007985511 -0.019676816098259511 -0.10741373815040745 -0.10444821191153329 0.034442824748480295 -0.088590411558393006 -0.055241497177333787 0.10584093565354882 -0.0098012374581969951 -0.00054011296666321316 0.033235188651187589 -0.058464538969125651 -0.03815909817293963 0.061172629788890404 0.072901309202640818 -0.053780240424368263 0.016341426429561233 0.091774327496484009 0.13573028971688708 -0.042758095028103127 -0.010146831383554157 -0.016805104844484466 -0.025567762545106457 -0.024083811261660967 -0.12280981140254708 0.040178972954460303 0.010745985723708327 -0.13687316438249655 0.085416573922608402 0.074178905710745313 0.12762791302043788 0.076360589427572276 -0.038194258683158205 0.14170134958739819 0.0058775433691654125 0.051350116677157429 0.030675839262774014 0.17706564205243855 0.048476068756704099 -0.0009727660214384952 0.03840658784293921 0.02208828045176792 -0.16756770140676169 0.053808802690976321 -0.11438846899007514 -0.058578592708177731 -0.16599878334503768 0.010495159136194646 0.01656483558712795 0.021678437147162267 0.076786904634287237 -0.0094419280944628668;-0.0090391002656464662 -0.061020778878840179 0.047174301531622519 -0.025505121453036603 -0.024735463328445912 0.071327600024968699 -0.16477051706958556 0.023844220063025882 -0.025181260159706363 -0.075632280189576018 0.022807321607095993 -0.015939579270206439 0.050674927951440622 0.099121561904734923 -0.0024115358299968649 0.065897135489978692 0.031357949007090685 -0.027229406283000576 -0.014940761933165172 -0.099006836224915282 -0.077003292527073455 -0.085326506549712813 -0.12088195186502455 0.040965177376239434 0.0029729319958200443 0.0007417171225088077 -0.027371335668036817 -0.014221046346642967 0.10654682656637589 0.07647831297902942 0.019329847725854235 -0.0089710177511780273 -0.049452459088459071 0.001650703023296966 0.051442719404656875 -0.10247361013481496 0.10813508043859926 -0.10550345283695015 -0.054590955583563167 0.040416793390810099 -0.0097438861897897189 0.0040153932491840084 0.042955323020613632 0.087055510845151243 0.0028312297732791519 0.041971893233896579 -0.0089881022747027497 -0.0018725195548058024 -0.050523104637591285 0.021621970316478927 0.022048756090719393 -0.056221507604242903 0.12528612286442317 0.063249510598346298 0.017814530621725857 -0.053929878686152906 -0.080321050402550928 0.020273955088908568 -0.05222775160540867 -0.042128397287358996 -7.1185771716642782e-05 -0.15713213933564743 -0.036789594477793369 0.017589370478766578 -0.041752815085160828 -0.042094130785784618 -0.045457832735169859 0.02945311327058223 -0.035053289966957051 -0.10733374440666371 0.070079255713369953 0.027572832758377578 0.10460219907240259 0.12150673580319711 0.16671067550662241 -0.029325570536821638 0.019252713009534472 0.00071308356478022225 -0.036809021150104766 0.034591621556183366;0.079757413562655713 0.099156355926722464 -0.091730474254184902 -0.024257763293340711 0.058758547951260703 -0.071934454202489048 0.086759364618374857 -0.052935427007006999 -0.041120847062147477 0.0020068614079298418 -0.041218061693137492 0.099722197299759993 0.11773629445260153 -0.13164115981445332 -0.031410427754759974 -0.094808878727675544 -0.076258445004468961 -0.14270669742151512 0.087684301211991 0.038467974725978404 -0.059045150339894444 0.01267885257428771 0.079871391186426943 0.015771200482586126 0.076223393237936185 0.017483054329396366 0.042399376318213972 -0.062903338357743116 -0.18831317313638787 0.090911775115178436 -0.085201877167326953 0.085723115100388242 0.016425964845939802 -0.022911266275209681 0.063367546137144876 0.094154541216531593 -0.11930952140475448 0.15541759133408339 0.14896913353469057 -0.11335131977227292 -0.050082856360823103 -0.05329361591855751 -0.13270775965363799 -0.066401915525136385 0.028988887798470787 0.038133952890059754 0.024423297298024543 -0.048966532797326129 0.059980766724176286 0.024856160046195723 -0.10092922965304175 0.17863048663963871 -0.1417919901335413 -0.083263969320811482 0.069762112830594039 -0.049482256189988083 0.065635664700643623 -0.1108797808348992 0.091892103053376445 -0.012403103737007821 -0.16589336585263281 -0.065935994930849215 0.05829950041966566 -0.0039429844425931983 0.14316437593161177 0.02451023698130133 0.062165427815437324 -0.082225199568475432 -0.059600637672449656 0.10869822320630411 0.010850014754974319 -0.082467472480396223 0.0027845974299936602 0.039146031870599472 -0.0052449634940912523 0.0254116771428794 0.055148076873739141 -0.098454392277069563 0.095866281525577815 0.05841408655189307;-0.061893596443866175 0.0051406742919210824 -0.0016744022406237848 -0.039809822454686734 0.03788055746153178 0.15558228118247025 -0.049597176571610536 -0.00082281476371829764 -0.12792990846463625 0.17268457635337317 0.013662342541361913 -0.12834777305869138 0.25772538181093579 -0.28174374040596728 -0.061453917140603172 0.22088611912863482 -0.083086220024518889 0.1870321020244832 -0.13159090346589145 0.057422447468164578 0.060174711810968763 0.087237238633846442 -0.17952455942438653 0.21453141246616281 0.11707911622100454 0.2807077182738586 -0.0060527174796797612 -0.0079450376219395002 -0.24335415614910993 0.12703274219848995 -0.040189385852782568 0.050645306839670744 -0.15814954630367595 0.17657507178720602 -0.23784418804877894 0.28329185888752834 0.093779433490332548 0.11674615129300391 -0.027408147011810328 0.10069738302322975 0.063275379732354656 0.37346451448216866 0.17724759935547274 -0.20322544283960151 0.21120150128186357 -0.33190788751547884 0.023593695743480528 0.065053446839870868 -0.10902918117670198 0.2295403453973299 0.15960480938857244 0.06801004538246179 0.12052051046806674 0.10050199845886015 -0.30146037670191822 0.17906452534913303 -0.18602969712832321 0.16385600831094455 0.17848657816742744 0.090692477561500881 0.133102875684839 0.20258746231756869 0.0042135657930790762 0.025741138905403953 -0.063554386829667603 -0.045534687332107408 -0.16447293880191713 -0.054554254739423422 0.025582111204040556 -0.075864883003361847 0.061586313533472499 -0.55552279866080945 0.40747429677251257 -0.10344798104423272 -0.094346066913617188 0.085469410182719238 -0.078858999868626906 0.12382042018907684 -0.031942936251594396 -0.19782741091019071;-0.023191668147868324 -0.067364795150840207 -0.087475007440985089 0.045839028665699583 0.16744484604635904 -0.003768527595813663 0.059402492942337848 -0.18188713261209322 0.011971217830116395 -0.034937743923265714 -0.015101499823192395 0.002006123921255903 -0.26818979057353798 -0.077687081464719629 0.13268820382263763 -0.030709132799597576 0.11568669216882693 0.030080090138113729 -0.11608628128923629 -0.11026941039081935 0.043208734629031749 0.11602918011719805 -0.11128270412733174 -0.25482433745454902 -0.20068243275607342 -0.028887918487236385 0.027288655761594321 0.11024967201861531 0.13388379187220928 -0.19125112543463574 -0.034715699621485956 -0.16262193756489166 0.011430059281196442 -0.11838180735223823 -0.14720104840874243 0.15211980353732346 0.12403725366207631 -0.077091351988649012 -0.18488810862639626 0.10143301170737776 0.020740102285690291 -0.12232942404538474 -0.10397709653483381 -0.047538302611290752 -0.10983623882970869 -0.22855841380175079 -0.10743830847330688 0.19598092259663136 0.1502959871461248 0.051035386233209974 0.33985423340835863 -0.085400398193879221 0.11136503021831434 0.077276933657633107 -0.25216859059365782 -0.044892593239617883 -0.0049918086684831347 0.041510810929278101 -0.032565460615973707 0.1542243607879869 0.15979310523263143 0.14259349515603828 -0.16230893072068564 0.017845033626277949 -0.094778044519016239 -0.041556970415740947 -0.10013739577211919 0.24096740369543457 0.040809463647782172 -0.074336783108500101 0.057024048588702358 0.016631403919655317 0.072195096501662892 0.034385437922015955 -0.18683229760578754 -0.026632273007294108 -0.085802441152110429 0.046857418580520255 0.045695008796205028 -0.50922944733034392;-0.068250707437520666 0.1698784393143577 -0.036706267255034321 -0.091860236291516892 -0.072540282851563373 -0.12334303082168858 0.103912240518083 -0.062081789039413984 -0.021475558835318716 0.068029764061240644 0.055779517195802313 -0.064089678481943788 -0.020458423481719022 -0.23746508372464892 -0.1420782356230145 -0.022939286809440438 -0.061884398227811159 -0.15298603115850845 0.11324568851707863 0.0034511216155224921 0.11540586238306 0.080793544022203775 0.10665405166582012 0.026668605982099049 0.092394932129251608 0.029567608051705128 0.11290821057810316 0.040914597279543698 0.020422655392507857 0.11556696673869842 -0.15767830671653629 -0.013417508781410717 0.12423038877665628 0.089637232745189199 0.055947747867902624 0.096335887363218395 -0.16614746423425214 0.089416782681774692 0.056933201666813552 -0.12239453450224633 0.025971614251986401 0.04832285632934441 -0.010451868221088879 -0.13093515689817162 0.1814515632799035 0.017711101691561194 0.064934468182800742 -0.17959925335395743 -0.11538363963466663 -0.072515165075047114 -0.099056690083688725 0.13205081110876726 -0.086449416981403598 -0.074570235718686456 0.12140775706702028 0.13060256094555642 0.10300820720435543 0.045222359977502818 0.18906818713122769 0.01845587950284118 -0.15168473500699459 -0.055377697218894274 -0.0076123261154421506 0.058723476693215343 0.12396490679213051 0.12667297813779593 0.14571521929893547 -0.064511080497264089 0.011434640714124153 0.04269064089936421 0.031217713095498555 0.00082859274481844906 0.014324407581330576 -0.051466712672762815 -0.035076861188379591 0.03229122671383014 0.11032875281974014 -0.031078111034819257 0.0022298593687651875 0.098509618394258008;0.14370389867290065 0.15629246764641316 0.043140766307026943 -0.15903644612074033 -0.04875614578220016 -0.062619175461972057 0.061229571613482608 0.077456525644048924 0.012875706289462149 -0.067193496271775399 -0.024922645229783436 0.023724995553968807 0.085887495620010412 -0.047042279348875185 -0.10667017956220755 -0.070976052950828067 -0.038260492884931087 -0.17022043842658957 0.014860778160571929 0.038605910192285098 0.055610054268213721 -0.10324363520488866 0.25525888828211812 -0.06927984214438701 -0.040573310226687934 -0.20889552420284294 0.22409631581258374 0.12442355956243514 0.27879953461396956 -0.1138792221922664 -0.023777418543356011 0.037270009553521062 0.23800107353041428 0.17228467825026722 0.090148732398117062 0.079714334388255467 -0.20322187750725196 0.11363954232204249 0.21479013459537774 -0.11616720078421096 0.41380737198238821 -0.080679929880033821 0.072412796444756358 -0.1574262548854691 -0.20105612473015902 0.16450322562489483 0.275543568916088 -0.34359349031738445 0.023617090211779216 -0.11451174061439316 -0.087674698036962317 0.060888271744295182 -0.063690858211466778 -0.091624472088410791 0.12965602255108691 -0.029357298160750878 0.12723776854208479 -0.18185367759976515 0.16344110573082798 0.17599053482725072 -0.074175611110057271 0.058947945407803216 0.062423815926417277 0.097163620771566178 0.13841433798864605 0.091593148014047082 0.35369831724498901 -0.11367752461840543 -0.15117739588019313 0.09921804304710985 -0.12540215023682466 0.1801691783652325 -0.26272424821326607 -0.14393155213563472 -0.13328021378650962 0.12243050173578456 0.044995403009438877 -0.21383815795897906 0.16236330133671212 -0.0031513680199131209;-0.12866994025817421 -0.14159806105313302 -0.0094343016236852657 0.017963408963752436 0.019344387537938084 0.083437455239271721 -0.050662646478758011 0.044242449130944259 -0.0095153460761259832 -0.059440497097465336 0.058394651813049446 0.060414501630629031 -0.081372130305937207 0.082314825417177342 0.06653590976943384 0.10171799289826787 -0.051093489636400799 -0.0069688938431352408 -0.11611905030959416 -0.041453088639003224 0.017422922344875354 -0.060226979675882579 -0.038429656868769486 -0.072267194908593665 -0.028532734325690409 -0.054062340777149456 -0.073635677025157997 0.030958627475196673 0.029725152732141154 0.028696160920691095 0.13198769880175529 -0.06038521462952872 -0.020865969097110776 0.01629221044701561 -0.087150484746493256 -0.14011087729199187 0.083020895897319591 -0.13694825240141595 -0.1262012264623828 0.082715233211992797 -0.077264000305549391 -0.083048263061350408 -0.064954891102646781 0.067731002918556701 0.021270207003605511 -0.015575107779816268 -0.0009599936624884465 0.099928939368001693 0.094710490110998538 -0.012117835519676757 0.067930134588826449 -0.095301772712315574 0.047608430531108074 0.086204875521880567 -0.030840582576572375 -0.01243675533263526 -0.030362851995621436 0.0078336347661069564 -0.14889308057111375 0.018670344414929971 0.12019957848751939 -0.0675655589776223 -0.11315115107175679 0.042602591162679289 -0.078732358282051551 -0.029962051189789264 0.019617267518012335 0.0552513013480503 0.11782458528874326 -0.028733708353478236 -0.021645187286234453 -0.010801555049537528 0.099528275614510636 0.15020202594762802 0.08997331960591945 -0.085833249352965074 -0.025612666440877011 0.079883761585529262 -0.056813169332556847 -0.069215016908219976;0.09294920851314907 0.047914535568444556 0.07859251052695343 -0.12541200773690375 0.13358135545080063 -0.15509679107828372 0.092172018328680633 0.0091466810824822279 0.068905580677661921 0.10340706189284554 -0.013314822854593199 0.061249862518578835 -0.059959526711502432 0.0080266945841938851 0.11416619738688526 0.0097301766741203916 -0.0040347143932214788 -0.046677066501189655 -0.12047623058586605 -0.067717688327208841 -0.0030598585411728526 0.14846103687377021 -0.26758818702382564 -0.0071990671321953588 0.12439703792518228 -0.00078174923708061684 -0.067924709788093576 -0.20313443231508396 -0.1059546264491089 0.045083140673997879 0.08013204401424856 0.10591020264127013 -0.12071607545470198 -0.053576827735061894 0.11347972205079256 -0.015410865395643313 -0.09336537272080106 -0.14965173715811617 0.047114969143067863 0.030182591391756036 -0.081515980764688425 -0.025563234978339615 0.032699200556888172 0.036399349885659994 -0.02957345751106125 -0.053829837035447678 -0.096481896075467047 0.17190222169477221 -0.02316654466191469 0.09955588775528483 0.119286538936987 -0.1020192226531858 0.079509403844227944 0.15558286664113918 -0.22075566782933356 0.13213839327782761 -0.2003163172838886 0.030957456269416234 -0.069982960059807489 -0.040386636943930687 -0.095313903427919774 0.099699504259554331 -0.12080439782373718 0.14205850632699746 0.085251585413780334 0.030557662925174117 0.25667958456851081 0.11554214142511707 -0.1425239500757132 0.017338175294999324 -0.1135324088438369 -0.14118824287532566 -0.026355284885010977 -0.12388710932833823 -0.24023641829004466 0.057476543558593864 0.061501889008109288 -0.16899524289473103 0.095450778254169616 -0.11826027537906909;0.098214254101544315 0.20364589897182683 -0.073075502300755477 -0.0069758085753855673 -0.038765661624018538 -0.058370499802523047 0.096102723600495182 -0.00056311792792366263 -0.029116169540755216 0.013521230394606303 0.082778582644591592 -0.096915987689208144 -0.056535815730108283 -0.16137470126833853 -0.072355226628417812 -0.10601009150133564 -0.019109994933541475 0.044799526943997608 -0.022033906955562423 0.044448083199737191 0.061202691742202102 0.024454746260198931 0.12377613145907414 0.033979408647415284 0.001583156966233127 -0.071849220649728401 0.10763929442176039 -0.014778931343742816 -0.090047721904590261 0.023945836981099165 -0.060934497689823376 0.043678826837775034 0.21296650747406468 0.02031421406215107 0.0074231942000864068 0.10832225986352098 -0.17618136257264216 0.056889140979266527 0.13659278578719047 -0.057446332939361883 0.0080177812477333806 0.011698934104920372 -0.055017461935291459 -0.13209623691576147 -0.0051025339857987293 -0.069321845717090949 0.11717756568059105 -0.079388018259689982 0.0059227331860194085 -0.074422534170526411 -0.10995907415463012 0.12341438043402006 -0.054114069810960917 -0.093911825259874224 0.077459421188978375 -0.11052640858334148 0.098300167278510001 -0.12628762431921614 0.25773681553855837 0.034864426610829086 -0.064126269156065868 0.023238478392789856 0.025781132736922185 -0.088683811865454931 0.034229544136879668 0.06905754797977276 0.0024735155153156794 -0.19377378535215548 -0.058090671466814583 0.11884345856695643 0.047430366933111694 -0.21610529576741577 0.08640690392940778 -0.19340197288444302 -0.056104842260940258 0.012962617699598302 0.076800255791028241 -0.030834481259045039 0.059566622497488252 0.12529800981611808;-0.024281150015355257 0.065249802891677242 0.060094910607518044 -0.017103545792597586 -0.010066194316271902 -0.028706967618388559 0.052569650502136828 -0.011014969756624362 -0.013341712869012094 0.018944471780012441 -0.052599462550958188 -0.11374472485944161 0.078711316729474595 0.0064656815346629815 -0.098208663607375082 0.060604689399846493 0.075656372245744841 0.021333689329410307 0.013616904910797343 -0.056610325385154335 0.075727736446810412 -0.096064798059370377 0.010610758491848008 -0.022482210457370016 0.048492753598796637 -0.087438780448325731 0.091117383988640915 0.25370408408425982 0.10745302982548463 -0.050131483317158727 0.0050331544930047531 -0.064843886271972184 0.08912849398921234 -0.0014301457091807446 -0.0040735781786819499 -0.043149617033952564 -0.04841879614980827 0.023194609701126821 0.051161072630405799 -0.077709339078809669 0.054708103357800748 0.16433549020930316 0.024661017286729269 0.084586414423431344 -0.041492826837804683 0.11944800864779832 0.020461054636201976 -0.07172104078063618 -0.067500668875845216 -0.14469499309659617 0.03152230499450509 0.11720821430887587 -0.0027102658774243223 -0.075120328902491512 -0.030634418522004776 0.032690666626741201 0.081366313155618097 -0.015675788439713276 0.024885363493088564 -0.044534716976741648 -0.14159689731374206 -0.014672196762896208 -0.021889412093970495 0.017293954811885684 0.037552510965091629 0.089302785046889863 -0.099650871450762166 0.010429698199611892 -0.064696856519839016 0.031141621026705146 -0.061820076493495912 -0.022137382325463934 0.075144497116347186 0.079884364775346911 0.19489391950859014 0.040776036594138747 -0.011061511849647841 0.011846068622581316 -0.0071182554336847847 0.040592291582146119;-0.058971817431848421 0.072741573496464193 0.030631290401582176 0.067062050066961004 -0.059414156852176707 -0.010329906484843443 -0.13269804017159448 -0.27492789225405967 0.0064794012585525839 0.26842028422894126 -0.093882502702711437 -0.21889624840877339 0.23213403439731803 -0.25227313391925288 0.22487779462307886 0.11381183443287267 0.16169723018417329 -0.0058487698417395775 0.082398896468950392 0.10082090634248596 0.06622857524263831 0.24795431749016764 -0.041411724147846225 0.146226114761283 0.23105123492010343 0.1576823931922548 -0.077689986519200005 0.09629848140029533 -0.44396735009119848 0.32077589105265703 -0.18308988224469783 -0.13381713004674095 -0.23707382145523936 -0.080138378788588704 -0.30975019155002376 0.21535861746976817 0.1086255072704885 0.19716574682331306 0.042608007364382007 0.044355959338753637 -0.40795840843501319 0.35003803943746781 -0.029865169182287876 -0.082057892406337624 0.25115643872455912 -0.29114079408537574 -0.07600012238404992 0.18108203415328133 -0.083084300349576812 0.096831558885072735 -0.04408776994934669 -0.065359858873444573 -0.053397563506718329 -0.10375309120260801 -0.073996893302010078 0.080211338814183603 0.054918824953082625 0.069000766236153602 0.17973873222170267 -0.19707005254449392 -0.12562058265672338 0.078040675695560793 0.29439595819604558 -0.02158936517512881 0.030947306672992413 -0.0024913622794667484 -0.51984955264004606 -0.26230772293218446 -0.0014186378147116965 -0.011573382903124204 -0.065594801884201026 0.32153469997887923 0.29129690008706999 0.057016985668673331 0.0022280269571040151 -0.047359999420956894 -0.0085560744411846516 -0.024943913077449687 -0.033431770526138715 0.13108218096060772;0.040097130087413009 0.083961076362625287 0.03631095625278518 0.016954172899012715 0.023953466871582087 -0.095015603242740068 -0.03786514763690562 -0.097377108601433865 -0.036741070392115951 0.00012971139097600151 -0.069027962025578399 -0.12490264621699075 0.069901602747649186 0.023892297516396561 -0.0025912613689062407 0.021736609190424205 0.043832042677793587 -0.27399383462726173 -0.042070181733102313 -0.06937706413413168 -0.022502513634944796 -0.038591168702160984 -0.027066179479179747 0.026705247781545063 -0.06471043679088273 0.026744002194684879 -0.0181125010977372 -0.012122954318527198 -0.041481602001734112 0.018643142934270433 -0.011717510339172468 0.033317835100503602 -0.042262984142957441 -0.020634361322116712 -0.010717446982576878 -0.020547986603419784 -0.045978893810820404 0.011365555565091784 0.023270929731985933 0.09322426646018131 -0.10619139444968935 0.047464105320386196 0.058417452644101801 -0.034683744220941587 -0.01574228130726104 0.088903131540633118 -0.01364263575220119 -0.083671494781763195 4.0454107923499526e-05 -0.061672534150127377 0.003908524434275534 -0.12055460825496749 -0.072219198883087837 -0.0048403075264859628 0.022013914144775382 0.044128278896773343 0.036277205062016732 0.0900808349336195 0.024234077790657445 -0.022798050561609978 -0.11166678931004688 0.062968612089502204 0.055635955363978737 0.058231067085533571 0.18340528857615102 0.057004283672167477 -0.047488699570522826 -0.054740910676924173 -0.12116821367691133 -0.012487192265496222 -0.036283410691452252 0.0022558589668115496 -0.01716830010060779 -0.045523589624553266 -0.11512813543399948 0.0058913520211311392 0.23858826245640638 -0.057172933328321837 0.098468219132415963 0.022119114498705267;0.11662154466338685 -0.079598181216199021 -0.11735436378789975 -0.012272442160277003 0.11229096776920708 0.14051256677709828 -0.02195265216857974 0.052361864625590157 -0.060355929068611779 0.06620469832852359 -0.048624603093610205 -0.042533959623537745 -0.039956690014090954 -0.020086350493123697 0.070236939902856482 -0.052273824051416687 0.095476755655781995 0.034978925620709929 0.0095833992231580886 -0.076356371663476807 0.015534667463288455 -0.030266428294097179 -0.18373342727318262 -0.050621369693952402 -0.10686800840512527 0.15426999114409892 0.026874613778030056 0.054960740160415487 0.034520326922338841 -0.016808111909171124 0.027948222801356584 -0.0395314940727787 0.033684112426919412 0.02079437265341319 -0.0046389258247325604 0.024801588496646043 -0.068975264661225347 0.027589153271996309 0.19332029969857009 0.040171868107099169 0.05169860152989831 0.025638719936450456 -0.10358820996009176 0.038665338588682131 -0.038140126187095856 -0.12185067853174683 -0.038327421156088358 0.0083097324879533845 0.0053531800354122781 0.017858138494629555 0.027618781088652729 0.062857323078340396 0.081380804963546299 0.070436805202865341 -0.17079983194258111 0.0497563882585845 -0.077749380859744879 0.048568913138709834 -0.1060253491722509 -0.071011252827533344 -0.096117103549359997 -0.017899101637143627 -0.11964994605288855 0.16700836963049187 -0.015298422564048187 -0.041729076257561989 -0.032384245926188999 0.092490629726812212 -0.11839502514375501 -0.024943956104142219 0.065535086476911378 -0.077738734273392757 -0.020492865692107967 -0.10478187723513555 0.0059438125159084528 -0.0088514051478724345 0.047990943577894969 0.040214205024264364 0.1531436465862378 -0.10964037651108355;-0.11017819325460335 -0.1614712691368593 -0.09882443745379052 0.0083447792090716004 0.047222384840731248 0.033537675625674154 0.037224778993661049 0.22471478111789717 -0.078846640027345247 -0.18851539653123889 0.071325535681669286 0.16227348539703951 -0.11602250801351623 0.11318769446150256 -0.086439239567346851 -0.0058960952240389919 -0.24744405196010641 0.15254029875384398 0.021585572335163394 -0.057191232922040612 0.0020436421275818809 -0.21416336551300583 -0.036309456661695869 -0.06936792142336555 -0.12647127970983402 -0.12184565212136529 0.097437384715689523 -0.1534099163271557 0.20825948122078064 -0.20370519784592531 0.15501649046036731 0.20201951953330705 0.13835626294521924 0.10170890583508187 0.2458293738034513 -0.15785485548838471 0.093002711292322515 -0.12967847743754146 -0.049649844823466446 0.024351194374496295 0.23663494721295339 -0.26440761460300144 0.073492987546557101 0.12973326464867202 -0.14091846991494811 0.12782859641389038 0.093858628065809427 -0.06086827663270284 0.061447489309972271 -0.043746209717069467 0.067313575678447105 -0.007057417842532227 0.038229500203858083 0.20607105882759294 0.0011160432456551669 -0.10928925172434176 -0.048164021710778812 -0.032662056085663332 -0.11809363765029553 0.071923651021287047 0.029686515509917896 -0.018025711258104572 -0.075810606916708656 0.054082219147094289 -0.074843833459527082 -0.12450594645969705 0.30552483489338983 0.21211278216039273 0.04284937471239017 -0.067422175504392848 0.092817339939328322 -0.2714639946020187 0.00040695936595575255 0.080825911673270676 0.095875773153684354 -0.023179185898263503 -0.13620503652536151 0.10084214320683836 -0.040820837813098448 -0.23861554415447134;0.043941318694599552 -0.096990241565507243 0.074318896245437555 -0.045543599964948833 -0.014612264476773754 -0.0083430921460105473 0.061646980264314387 -0.071520625650695627 -0.0020331591415083741 0.014678965927941311 0.019343047267074687 -0.01978196269204131 -0.082506978116473687 -0.11931677460994725 0.034275293924965894 -0.0050179456439549894 0.015112415036871489 -0.081326395612637409 0.031837101575083057 0.04278893653700367 0.1580412182910946 0.03890446184055367 0.10802907278340811 -0.012739487624526155 0.017505408949811885 -0.091364731982653033 0.08687251609090392 -0.0489168079936474 0.031844810499286128 -0.05539408354409385 -0.096554488601715241 -0.065834724206232889 0.12323597254661932 -0.02458772821748216 -0.019129995257224162 0.083233218431914002 -0.14506636854907634 0.16260013152318417 0.086058210132268095 -0.030522821751876362 0.047651948459324633 -0.022357177365928307 -0.0093824536435265209 -0.11383709506848358 -0.19785369524743956 -0.056214407230076979 0.036283408660028514 -0.16061322977275577 -0.047298887281594724 -0.07519166448848498 -0.037636326933040476 0.030209025412531398 -0.18292453596240701 -0.086415748444217802 0.0072426324051741292 -0.020769203156483732 0.093037032198061864 0.036638914523053061 0.16970958939901409 0.0029955458025983745 -0.049664192846680458 0.080730720995335015 0.080451394179161639 0.068235541408205147 0.091659455184515376 0.09747715918553386 0.029511281355535719 -0.16245255138961492 -0.090598674127724294 -0.0050280268594424067 0.037057022189733724 0.11711144907173532 -0.0079838090603227708 0.069361639573850678 0.056884899427072602 0.044121306222356084 0.00073940483953731644 -0.011631925825438474 -0.12029300440338267 -0.033697218754349521;0.0044373455417846845 0.063694284778050017 -0.013879260925658533 -0.06776966323509262 -0.048568550275352722 -0.074386542111231205 -0.05232318802336472 -0.071328588616013738 0.044286306994336451 -0.020433304729510174 -0.12134801002821795 -0.028458439458666007 -0.036617081752736529 0.0018633439454785849 -0.00090787108518192465 0.017635953284360899 0.11760975216579353 -0.061862337216102889 -0.037862899362161091 -0.045271385754796681 0.035066938645996047 0.0060565867704025439 0.0036212915717670456 0.04856759464036501 -0.030533521737212372 0.017492412613840554 0.048971716236353602 0.1041732527254505 0.0054166710293551143 -0.010585473729532842 0.04684061410639187 -0.014519147744656048 0.048083619619850686 0.060008767246566043 0.021827513255186459 0.060963066417382056 0.0079315672781970978 0.010726927682125183 0.066202788456771952 -0.02232274634994634 0.046636542976603065 0.010587749377726108 