function [Y,Xf,Af] = myNeuralNetworkFunction(X,~,~)
%MYNEURALNETWORKFUNCTION neural network simulation function.
%
% Generated by Neural Network Toolbox function genFunction, 08-Apr-2017 16:24:44.
% 
% [Y] = myNeuralNetworkFunction(X,~,~) takes these arguments:
% 
%   X = 1xTS cell, 1 inputs over TS timesteps
%   Each X{1,ts} = 14xQ matrix, input #1 at timestep ts.
% 
% and returns:
%   Y = 1xTS cell of 1 outputs over TS timesteps.
%   Each Y{1,ts} = 1xQ matrix, output #1 at timestep ts.
% 
% where Q is number of samples (or series) and TS is the number of timesteps.

%#ok<*RPMT0>

% ===== NEURAL NETWORK CONSTANTS =====

% Input 1
x1_step1.xoffset = [-100;-100;-100;-100;0;1;1;1;1;1;1;1;1;1];
x1_step1.gain = [0.01;0.01;0.01;0.01;0.0952380952380952;1;1;1;1;1;1;1;1;0.285714285714286];
x1_step1.ymin = -1;

% Layer 1
b1 = [-0.6214148446679173;-0.63860678604386534;-0.64073816896900548;0.63566094835068743;0.48729009325795897;-0.65897782109374814;0.69552246951216079;0.55694135315419091;-0.68661996656556123;0.54422618452955329;-0.67242110694694812;-0.59537236470395838;0.43806268872935489;0.51802717848556701;-0.67027086756730647;-0.36572307690349715;-0.40788196115463221;0.56748091671829659;0.50399383127166764;-0.46698861750068005;0.47802570482498791;-0.4188582501721233;0.38268093426388355;-0.20859508786618924;0.40662229292914404;-0.37253017896451385;-0.25617264661351147;0.39352950476774035;-0.42664841350929728;0.35226283362169497;-0.25163091182521324;0.36804247078476027;-0.30646887495799108;-0.21005650226010511;0.21700820665646381;0.25327696056477539;0.052247003488658066;0.27105033954753749;0.34573614275424197;0.24526402927826585;-0.30023880285818083;-0.23455012917000173;0.059719763695929948;0.19520603537139841;0.010959643345663721;-0.10526650261981674;0.092103551476069537;-0.086018032652015006;-0.14742885567505221;-0.10447611474863144;-0.073532953405401003;-0.12668405283842102;0.060786289688342723;0.17355799472897038;-0.039813960346725089;0.16056064041143128;0.093122362248759347;-0.090882531526012209;-0.16209810941067126;0.13090972068913767;0.069624433228466093;0.075791067059823108;0.029120750566578028;0.0078952596928470835;0.17437526872214076;0.22698064233637594;0.17390329390033604;0.058254759770874874;0.033671364377893705;0.11038398105734912;0.11471617940109941;-0.34029739296558298;-0.16952499877812927;-0.32185870711881276;-0.25956506921380729;0.30138401027973988;-0.45576986814517834;-0.20106471426491493;0.2685321290594424;-0.36493535517254116;0.33410623963005193;0.25146595865577231;-0.36323683146409053;-0.3474471145607656;0.3885362803069401;0.43684578273947244;0.38827441716311567;-0.36034892421707704;0.51380453960994632;-0.44451738963320825;-0.46017437931632621;0.58315254926024751;0.5603275002941368;-0.51986848126478602;-0.46946889591998492;-0.54725014988971599;0.34622464407415066;-0.57112664992879747;0.68016126042868752;-0.5257973561518362;0.58330471705695996;0.54182926222166572;-0.52131206858125212;-0.5366581033933705;0.62425225273464824;0.5412686783947035;-0.61171796881189877;0.64911394478333129;-0.64600797369868002;-0.67134560377650399;-0.70300691660969761;-0.67538673469389099];
IW1_1 = [0.27763218886645047 -0.088367618265058359 -0.081247318751369063 -0.22533129932798837 -0.2586050892138258 -0.081036616285134283 -0.039708510919307237 -0.084983436299650716 -0.24331366971951085 0.17102933051598423 0.29338220313775082 -0.018560115831304763 0.16834733622918044 -0.24204206605298637;0.088304639998585302 0.027723577160587477 -0.20900830423980785 0.023831085682211744 0.16824283423855815 -0.21828705408500787 0.32001711424971263 -0.031428494223813032 0.14092269140217165 0.021081008529850304 -0.30003152187442739 -0.26782990243865029 -0.16503007405235767 -0.452667205334432;0.15165930640061057 0.11492269043946592 -0.054240718957200416 0.039770024753020418 0.36902793082918367 -0.29977690195016643 -0.2243329952351038 0.175214992682169 -0.10432438756956583 0.15335211176399627 0.28074789889661683 -0.10532041572443775 0.041430886267309383 -0.19960626551381264;-0.10693815733592538 0.34798840084070437 0.1253472729119274 0.049797188165112562 0.034661517627996928 0.063025598648311434 0.16658517869430337 0.32389563148775224 -0.21498341606483901 0.083889789870848511 -0.21876817707107804 -0.012731917675214836 0.33026843693828273 0.49706469401377712;-0.41846684192884159 0.59184507836674605 -0.0026484645558166355 0.18178319997773512 0.26881841519909749 0.088267980989030312 0.1389527601079604 0.034473717177038773 -0.20049332409633908 0.019397214064761487 0.059375032650263858 0.007033507229394222 -0.04804367561190577 -0.079360641883227584;0.07614086781693212 -0.36122966241007354 -0.14550757382268076 -0.3821817703055076 0.026106926675603655 0.25059052111286012 -0.017333988120018615 0.39353522895200321 0.022262331477248605 0.0014632847103965851 0.15021402883017099 0.31183559624867041 0.032848258989808414 0.071555366168924411;0.028188052404314878 -0.21104826960457146 0.19212928795864917 -0.12231974226276068 -0.11738698758963832 -0.059371242446003974 0.18686093574332449 0.11667828485027808 -0.15633177513440338 -0.25610755023742326 -0.23448209560738084 0.12898223835321881 0.47136370563260083 -0.37662840834744604;-0.25248854913239377 -0.22025624529252513 0.073249624832973009 -0.35682969014816313 0.38312315352191151 0.041449060621723856 0.17993293557857482 0.11375389676907655 -0.0039741491954648983 -0.1894689327477298 -0.13238681525649196 -0.027082531633580383 -0.027806362147592589 0.34599110633723629;0.31724868968501657 -0.018301779746990349 0.311970821015921 -0.1811920944689327 0.095639985404690639 0.25508906393884712 -0.15682068329611434 0.052024012435560901 0.2934645295960302 0.2638671874745937 0.11642110905240173 0.047393999864075928 -0.0086005908318379093 0.1032874511767503;-0.27281841354076852 -0.34619525855447519 0.041109559203059455 0.081800983501537416 -0.28982093441229612 0.18058991501227548 0.18287265656547655 -0.17641432385752842 -0.13490405736339289 0.27789192478388086 0.10082818705435005 0.23039425216628828 0.25326081673799061 -0.043226411601395683;0.079053356383899112 -0.061282587593254327 0.19741200562924383 0.10077698686638778 0.2727999596633337 0.056759072266639565 -0.0031988946020557732 0.086506290946552947 0.17780907795265752 0.043836460055053622 -0.20836306163636675 0.031855060269005871 -0.51744560375942505 0.47770329637220915;0.22376272950525558 0.22527193155407177 0.31347218312754282 0.15191353187011081 -0.3139641176300017 0.091163232775143349 -0.22332411414339123 0.22817916302476848 -0.080617283180469165 0.11154634398200312 0.13404365849167024 -0.27072313526637876 0.35722267436479999 -0.21264824966100085;-0.206340237146141 0.29575526349613845 -0.25141281522904896 -0.32609581426764672 0.21732791153492725 -0.30757053952699953 -0.32603279660452195 -0.030443901891700067 -0.21766389333550282 -0.048628903606150686 0.020467538634752751 0.098025746004709452 -0.15405795120341101 0.25292714784085746;-0.11422298243034637 -0.31974587752882422 -0.25526256315144452 0.064422599446166906 0.18383288857779109 0.034117976038854421 0.15950012025478702 0.2094307304090256 -0.14208740147917784 0.093118271469087022 -0.17626341032373921 0.047624993371233659 0.24934005273446669 0.59583791087737903;0.214263766158965 0.061583174685206223 -0.15382197395134936 0.043411263198822346 0.16762919047831398 -0.16411128533811639 0.28466539282663156 0.17412075377130554 0.13595068321550383 0.12632054723794844 -0.0006352290136030608 -0.44309117843766693 -0.18547166917458602 0.18320946416677591;0.11161374765814569 -0.20161319088708241 -0.40009545216273568 0.43394890242716327 -0.24253709363034048 -0.21243100742894516 -0.17994987815218566 0.18120513522873105 0.070954912924927505 -0.11373072528979712 -0.2142292481398404 -0.069818698844822752 0.007211603154990801 0.38902357268152876;0.087232068159895329 -0.44493654851523184 -0.11392135315163644 0.32457156202674725 -0.3807374671432604 -0.012237051631937914 0.076719685205465238 -0.017763954043136292 0.21182950396113936 0.13573083806752193 0.04975028298134155 -0.15984913885297972 -0.21362867784949424 -0.019440236865823021;-0.15823335180843728 -0.18176824793691998 0.3007480476445995 0.2263641662876735 0.017214417761753774 -0.24816946309401772 -0.068842717736072409 0.065771178695143789 0.14001993107871957 0.10338241175020971 0.15128265807755897 0.27647923658503232 0.18581543362896302 0.58766565726185849;-0.10649128006157821 -0.067567572045188998 0.21080862105947076 0.29907426474163423 0.082398788559624181 -0.28837101461491571 0.14073850227082543 0.13674128294977114 -0.042931922225569533 0.04518826216431903 0.17928751603932275 -0.33955587263467374 0.17525107507467572 0.015606975075716371;0.16942286821024871 0.10442375461070458 -0.13385314375350515 0.20453104939459685 0.32967451965215233 0.05783404392410469 -0.1001384532431729 -0.14868309673170643 -0.2762846615765524 -0.12111229233028473 0.085527679740529841 -0.23418209925792893 -0.032337511978538347 -0.13166269985246346;-0.43904992525769215 -0.26071928086058044 0.17577599027480342 0.30452611960130904 0.14605403122247115 0.29198451130135555 -0.026413759691442627 0.15176950655069091 -0.025496197291770432 0.23115360079725225 -0.040466421084756364 0.08567023737491028 -0.13852886849554891 0.22534744375929455;0.29659457525394589 0.19120977697929462 0.16411473038332294 -0.0012724435123782055 -0.59742319526775312 0.016552307720629485 -0.11880955351292349 0.019171851326123181 -0.08734891782625355 -0.013478924933898892 -0.060395209742602943 -0.14598141221641237 -0.22849651222764433 0.033247147667596372;-0.099447282273904244 0.28222135417864541 0.0092685834611885998 0.068334041258249822 0.39453684760235891 -0.15102110176650538 0.14078857552491542 0.26656044561706232 -0.22263618011997385 -0.065223265747073544 -0.049151998362503169 0.060581244669332943 -0.26835551280979586 -0.089418422405200801;0.21786372145045621 -0.23020444631211517 -0.076570016924332393 -0.11122169907194074 0.32817004719101728 -0.45478923780944963 0.071488502698864698 0.0047200113264504184 -0.19782351856371269 -0.14451351543331198 0.094116336296699576 -0.011759444129546277 -0.071083493850055121 0.3777429664139404;0.12064855991880354 0.1370629144213398 -0.28812777449768412 0.73073669423414955 0.23157335676360449 -0.054212492226314912 -0.24637099822514974 0.065868022953872576 -0.029692729767444033 0.042724264106560723 0.025636441405231553 0.17301255738911289 -0.027618888115879127 0.1750495134972419;0.255883737435326 -0.01949358386588566 -0.16810708406730923 -0.25709730702871941 -0.30179734032935907 0.26843893167077398 -0.22309534433166131 -0.069385654300819832 -0.060663621219777801 0.11440108295843672 0.078227452538190634 -0.17613530893157359 -0.2528827261766538 -0.17300272289313354;0.068885622345396316 -0.17688625275949513 0.15678551491036827 0.41513637451619462 0.11402226140457564 0.23084124592228578 -0.35720636889842272 0.18124655616733404 -0.3433461680565148 -0.16733193998760151 0.12947624345188197 -0.1428115883633794 -0.04265662530757755 0.17670809700832901;-0.17720235690411085 -0.070778510325306673 -0.011031879780318334 0.33489723731935561 0.4286425548033882 0.054181318248450079 0.090088193959091137 -0.052349297687181523 -0.070036750283948485 0.16635398449821698 -0.045910717640692288 -0.11153499279742289 -0.051776306331214855 -0.37238763081800741;0.09172257739220549 -0.16844583841672461 -0.038081013598909912 0.050567017770279048 0.46414929862667831 0.066880674370655604 0.084561893371026306 -0.02200946433415878 0.083235351557514992 0.087023147792577998 0.15055052495227028 0.17117814508019122 -0.017671414225426983 -0.13980818745978052;-0.26902963517045225 -0.022794821064060312 -0.20452192108210832 0.1106911817208633 -0.19202370284102432 -0.3136395567630656 -0.23395313324719744 0.038841174931930206 -0.0010795761637068602 0.18311767260072415 0.030257413559390656 -0.079972724685747107 -0.18644254036089092 0.17816322483666888;0.19025240942742563 -0.11085716069398745 0.26197161851744821 -0.28892996235744528 -0.29486788779653067 -0.0023940013368164764 -0.14429546221383763 0.30560562517817075 0.081104451653131265 0.0070589929108133978 0.1712950755303928 0.068530448535849414 0.00038161630816125545 -0.5209593144509933;-0.24613714305065137 -0.05065881785164135 -0.25729944173462299 0.078716786018150395 -0.16827279643008758 0.19207131126628835 0.10211399915865599 -0.044386154173572355 0.34959382800741923 -0.29488660758211638 0.0074564704140295309 0.09187575003696101 0.36536740657841515 -0.014736960511999393;-0.00041124590761143547 -0.14562981863139149 0.16571059092814933 0.13967513943685381 -0.47628034969633276 0.12295687139846868 0.03455911145013086 0.058221712788068057 -0.12125170668151063 -0.17405655783970589 0.098675534671707685 0.15654888828288166 0.15046679153704412 0.13729297228832785;0.47673131800444984 0.32471454508280884 -0.020668871314129304 0.22461755524018365 0.15230587814510738 -0.3301644950940385 0.10437221102183265 -0.10445437082432044 -0.052735913056887747 0.16786495628818904 0.01808055257843013 -0.10878091549624704 0.07616226151909837 -0.098888539101954831;-0.062688641124125824 0.19722621717469391 -0.29036808830337818 0.27800420565079575 -0.19640671674345689 -0.066951890147522286 0.031080356545703812 0.0029176220956990055 0.020272241748889693 -0.048977395189735491 0.01967958031589637 0.15694352935412723 -0.54542994152311486 0.36550625504835232;-0.18753488029927678 0.14867494370860568 0.36608369346869163 0.14041919371867084 -0.53930226255122449 0.049309384358809369 0.010997636319548988 0.041533465580265258 0.079045212887617025 -0.044164607171287999 -0.087574039270358839 -0.042087149742346827 -0.24110355514628901 0.09314135513986492;-0.38960611936501494 0.72799264528993557 -0.24720541426777529 -0.036299504066685806 0.17299152030440498 -0.18939479926898706 -0.11821267195288045 -0.3057722842847222 -0.13492465259320532 0.02149141232320544 -0.11774017206478857 -0.074043365879716508 -0.087109104278509347 -0.12287387294323271;-0.28169343732082125 0.12459649162480618 0.22555202643748987 -0.33116145030870964 -0.17728706118731957 -0.16588496175086806 0.071226046440335603 -0.19497598768994229 0.20121412960546961 -0.10204183550775441 0.092441073770321416 -0.18499124602798508 0.16176313869434675 0.31749990950788237;-0.37509105078774485 0.26531373664919128 -0.1167617984398268 -0.091748166305251511 -0.064623754770387162 -0.012195255863129901 0.10407818611777425 0.25906129225318697 0.14865737908482957 0.039772798222617062 0.19701102294553921 -0.0145609461491074 -0.3019948822049589 -0.28749967362330003;-0.07464968698639092 -0.3376756183220993 0.2302053129950474 -0.16805369679961052 0.47819565332292985 0.13400699076844344 0.21038743135184129 0.11459077018134374 -0.2066252958923061 0.028299407872811953 0.025058173069731227 0.059828216999242644 -0.013801993637407939 -0.10924112422957556;0.2702187280317912 0.14449480680285914 -0.073131247301409671 -0.074959011154994634 -0.42059465206280822 -0.0055983093421661427 0.30671002338031406 -0.11667195853343285 0.058881399999889304 0.11317066313771595 -0.029782718089785779 0.064892697742605143 0.041481010035412588 0.22526294776639072;-0.0093291871780115578 0.011985527442710336 0.13887879648065679 0.4050517756499869 0.15606931221947903 -0.13967191109394275 0.28745467432650701 -0.25554337346042111 0.13463891990939034 -0.12844574263720862 0.24070492017038261 0.096154996683297661 -0.18918776509976021 0.15949502825424303;-0.13752940444754988 -0.047677090325035559 0.41015314736413722 -0.078318729043417495 -0.097315584937761324 0.053811171756178978 0.11221148039685284 0.068039925170583215 -0.0080645633060545899 0.34067830696139256 -0.33492700812253584 0.2586419296549804 -0.20348915567465201 0.29703252143846753;-0.349137102737681 -0.29377382472999686 -0.49070404556300962 -0.46655929295276699 -0.13764929648998864 -0.24144475039624355 0.067794651621588167 -0.11651807527848412 -0.049672811057010574 -0.036836075473493331 -0.085372698100590408 -0.16896988554519121 -0.070391916122446427 -0.15471241299494776;-0.052564028425816436 0.19125183817128594 -0.075958387773830113 0.085592198483951637 -0.59053839890811599 -0.01886847777098502 0.040757496728503408 -0.094009938411709237 -0.083583929911893493 0.066472502674662301 -0.11501567582990548 -0.08244272360285472 -0.021637330532456336 -0.10844975526250589;0.68668008686070769 -0.00021918296275000141 -0.28361428836449876 -0.34096247749284936 0.16127246460444911 -0.097181673031054072 -0.23193961952671566 -0.19223057399895205 0.015497361159518648 -0.058005299136113186 -0.0018576717947437779 0.13289538778968471 -0.24501275574518358 0.084441320959095331;-0.16051746593284724 0.21496256909160824 0.19756697243869273 0.32499251059658707 0.61094824810504433 0.024494742450137972 -0.043382726675096545 -0.026929412440123618 0.03424091754848662 0.012726728891945611 0.031025614734273142 -0.11493435569303208 -0.03430920324907695 0.15711574212152904;-0.056874741825995598 -0.25878439639223039 0.17848609090650999 -0.16665090860690923 0.25965834817619876 -0.0070294279160392501 -0.17583405565605933 -0.16642284224252429 -0.030451158122888313 -0.1434132954422718 -0.33005165797271141 -0.12873961332717004 -0.14336619072401763 0.37338727970664992;0.27000842199394165 0.26074821563188588 -0.20179427699943517 0.36776722407695273 0.28926215841051367 -0.043666359558628964 0.051601717974277754 -0.1458589409126535 0.14301305291011621 0.14784301285421061 -0.19879168969922234 0.10347278635873033 -0.075254848848527553 -0.0070742956171988341;-0.53842396867654452 0.23727418673013387 -0.078845044963422331 0.019449391388026632 0.11759845440903552 0.26342180501144291 -0.1730328007116427 -0.22985218383181233 -0.082984875074639683 -0.12066582703504584 0.069336601664281308 -0.23238905101896126 -0.034127931924973556 -0.42057917348157586;0.0811967374942658 0.13103664825861999 -0.19115710207933861 -0.12911498972601382 0.5967225865129947 0.15463047233082153 -0.1515579088700422 0.072269539676689809 0.059668556794828582 0.076726634731970833 0.014418806703140127 0.033809179174409752 -0.1378954423394711 0.076333025839850271;0.068449315087647442 -0.297145270306928 -0.2609193539015347 -0.083205973326716587 0.0050869619844547617 0.028952518751679718 0.031364598067798143 0.072173082572441802 -0.16231862818656204 0.1927286399412225 -0.027548885657001386 -0.4780892621939864 0.092721534944848236 0.52536188500074277;-0.51158752516953421 -0.057087677761671202 0.030463883822598525 0.011297149445291381 -0.39609820330473888 -0.031317449212039342 -0.18174748270592866 0.033450041102556359 -0.11440477876049071 0.26369356460801424 0.1698414481392059 0.046496888349905556 0.083034775982183423 0.084398606826309217;-0.23322218373594383 -0.016535559844035215 0.15377697521725692 0.099090922931928088 0.44753712981179544 0.066971389071491291 -0.20888673174596806 -0.16409250477877427 0.0833001520235922 0.073831836524526684 0.24549232790158815 0.24558765377721123 -0.26361419702062699 0.05585960775136322;0.19559353549138736 0.13323583924864335 0.1894698300458125 -0.46204103262520496 0.084725671823723911 -0.11911082413045516 0.29400463855218661 -0.2082751748500416 -0.097295082753333095 0.26322385649432778 -0.22158968878713023 0.05916358361387606 0.013621497238455883 0.18663311015531239;-0.19931863156885685 -0.34854766191905912 -0.24438432194846232 -0.42470576124543763 0.083809919843929298 0.0097298808441741696 -0.36705186547210639 0.0069282669583261109 -0.00063957968877915148 0.27339147595073027 -0.00029456270158643061 0.17770037519348683 -0.025638071079469672 -0.39158153627022108;-0.15991846069400617 0.046243725573069362 0.058546418260219259 -0.14266074176464597 0.66908124149361681 -0.065574212683722419 0.17041166342193553 0.0034036468090038333 0.13949820671909846 0.094108838855614052 -0.04595498647908091 0.073899115601978024 -0.0984921342256425 0.037788326298432401;-0.266105238316171 -0.032198929094982176 0.2282007217458519 0.1118608197643603 0.076941733050386055 -0.08613537682790097 0.50193368580796371 0.20794073352212261 0.15120116918361357 -0.13487440606272688 -0.13614844778223553 0.19576715598914679 -0.20010824191518303 -0.20485398293715487;-0.076675035027066005 -0.40120395951465854 0.093773969421012904 0.20287891667612482 -0.54956618226427034 0.11045569356861341 0.090120207803580071 0.029661563101278703 -0.086496739980271797 0.085054867508923396 0.014768051510941122 -0.075539309771363236 -0.055530349633618283 -0.10848856436080569;0.13040181442065124 0.011663545360742492 -0.4745544765762455 -0.18449380926277684 -0.2959810097291376 -0.014045042867889983 0.045302163145511692 -0.21159381448792991 -0.20567412994618758 0.096432522386569616 0.084470956258871077 0.096503779481806481 0.20939107400976653 -0.097409511661181961;0.35468121359185167 -0.25483074525729082 0.47252187744962365 0.20290461731685594 -0.31821299183419438 -0.23032113431466705 0.13493744884375639 -0.16817348752822173 -0.042206762694171986 -0.010770870139355902 0.077355918992971048 -0.18697710663391867 -0.10706841831318929 0.071932412642352755;0.083506979515909782 -0.24666882266316917 0.146112757719569 0.14645862887219016 -0.40102349904694784 -0.21284723906794764 0.034561057705544296 -0.094542266855118157 0.085316799980899721 0.013434636179756373 0.16404776282104477 0.22790195879376288 -0.25160293139335604 0.30302212435547249;0.23934825420438643 0.29803528961881209 0.27923754767527675 0.10160438226850051 0.58159919609436828 0.021443496018238074 -0.01781148537983103 -0.043262157553481402 -0.011087695927799589 -0.14533461756852603 -0.057187585488792943 -0.012411650079952029 -0.020421327092301329 -0.23203700013193015;0.038802358200365462 0.15535473760125146 -0.088732564090053312 -0.14031101536225626 0.38674227818133539 0.30313975745465876 0.20349694407984975 -0.18983976136594563 -0.30707317879948287 -0.0030093280240644851 -0.079794801305174315 -0.1494348697223484 0.042496930699712269 -0.011087005967015012;0.18695829506706171 -0.23596293921065475 -0.16223629976913193 0.13513238438398245 0.60312554296418386 0.11222340778168478 -0.012547568352708439 0.021962157577754167 0.0061539730709794811 -0.0071101118709221674 -0.064952373044950551 0.016752631619991555 -0.15197391915530739 0.085107853509234943;-0.010158198801969954 -0.088677936641594943 0.084398979777362312 -0.11383183414500359 -0.14137364647935485 0.082432227117142098 -0.035496488879306183 -0.029927981453583948 -0.14711722657585996 0.48231619945371657 0.56368879987348286 -0.054962994872320571 -0.10711147354699828 0.14579358269187345;0.15855175891242795 0.45178222862075362 -0.005723123325236253 -0.033135370944836248 0.18194587056681763 0.17491147328392834 0.18834629798642191 0.12646001107749152 0.32190879266006395 0.16871922921783825 -0.071957504744732503 0.079713070271363054 0.20956277542646584 0.29147199578044169;0.29541889810609367 0.1932235604306394 0.23654253866975761 -0.0056205094945949172 -0.40185992488616351 0.25490684804127622 -0.12587228374774304 -0.18902304286002389 0.038278276388662345 -0.18125251886215032 0.11729276194929335 -0.25996815871446255 -0.17303654937328844 0.18915299026274912;0.15280116303538585 0.011510401440733641 -0.12412722401653474 -0.012501823183931985 -0.74714044491293718 0.04675232044933296 0.030637336982854545 0.065531307154596471 0.079328325387475057 -0.14375245779272161 -0.073281378413601828 0.045802648163522607 0.019136939454045449 -0.012582621240490727;0.35075601427030823 -0.17615814465708063 0.16596389351028648 -0.21454807212256355 0.014164823018935102 0.38597907955193378 -0.044730568763749846 -0.18000459215793074 0.24102088578428266 -0.14980693503280515 -0.01277443615011075 0.09182722136407151 -0.14174484154781236 -0.43774620394341468;0.20323812779039402 -0.24290946700655841 0.3485592078877543 -0.31748945081980801 0.045039406391763126 -0.16076129315044008 -0.27503585587411045 -0.20342172945005788 -0.23623330156179337 -0.037829560345003892 0.027955730740799229 -0.17538150169355018 -0.13422326296894926 0.32927692245242313;-0.19397241120566899 0.026696199594049674 -0.1679571380215574 0.290440753189253 -0.5423343184761128 -0.033888336498738916 0.311986317322691 -0.25738062497565772 0.21381985189028413 -0.033780446517320192 -0.020090735349308476 0.18124561851681328 0.0022253632558569061 0.066774040030608273;-0.30854019590667742 -0.090400314601824183 0.17308581036176413 -0.53234471731501076 -0.24197257202948858 -0.10992803026936765 0.31900620685319131 0.16339873181822134 -0.0099271794771964503 0.11921059406011107 0.097481993642011197 0.18161087322588143 0.011000943463488521 0.21603973807880517;-0.2882291572803708 -0.090778214140672317 0.34676820467081959 0.38041973924814948 -0.094136487673490893 0.38609486973673224 0.097372675768403597 -0.16650318274302761 -0.27801076056597879 0.085437656289108141 -0.12777020699533359 0.036888843950180598 0.1646311015354818 -0.32961409471961711;-0.11781134623012686 0.33622796914869157 -0.14462147629203476 -0.075922030568990842 0.30844376373799898 -0.14215751671352664 0.30145345634416376 -0.023804744684031584 -0.04426833052798225 -0.15589926088871867 -0.12707704035063255 0.094894349406433695 -0.26365927711165316 -0.26364421740927257;0.14818072439900667 -0.31092767986550524 -0.30679711946063754 0.20409752465617886 0.066144379977619364 -0.19787534101104073 0.33521245663484184 -0.10149295630470884 0.018400647969299633 0.11573328301994815 0.27838147360065069 0.12860714597663966 -0.16733376147472523 -0.12814629504814182;-0.084260275043075594 -0.28727753393780447 -0.30050457724202123 0.13453481144082041 0.31002594280914147 -0.19092767608063793 0.16226061511199816 -0.42387996835708125 0.018249456993117346 0.042854339858987567 0.0027855740515493992 0.14809637880579279 -0.042883507758395917 -0.35154934442068275;-0.52234407741991273 -0.38263939475047704 -0.1688213748563695 0.21119391736249218 0.00591319952770979 -0.17793582706335856 0.12679379287053158 0.0032016806336333595 -0.020273364650853987 -0.22667288514431311 -0.080404924096361158 -0.18317181197869473 -0.099555502909985397 0.19560782960082887;0.35961643416687278 -0.062715027471794679 -0.18239109848766716 -0.017869651859321881 0.013498697664798748 0.19491895844939766 0.0025710263989327979 0.1092411358450928 -0.38015271898452069 -0.30747436540639056 -0.076400110445879479 0.20574534628871671 -0.049681493249818798 -0.10992741504047349;-0.15500888849573502 0.11905208849784953 -0.14750344077948147 -0.14629409423448198 -0.35315974338787792 0.10489801900327303 0.17100028718908389 -0.22790145392096509 -0.20823458320716318 -0.2644848350912139 -0.050267634454098056 0.2369442625849463 -0.022087245704366914 -0.066880056901579985;0.052215585999944587 0.095808636025919047 -0.18488924664046003 0.080166198861493163 -0.1257654748264975 -0.42734577148890929 0.15563292361104067 0.077226323611640196 -0.072383774595408637 -0.15080870091101595 -0.3369246839906449 0.28656140938022773 0.33173849363019836 0.30549844553287353;-0.040341690099960824 -0.076656053267503119 0.17534199938725334 0.084605540292891315 0.69063258469958022 0.064305631426411228 0.041219067495309056 0.052100754536672254 -0.0048110703078914803 0.037541668043244533 0.025873854815441574 -0.02925372167384838 0.17276435045098223 -0.1559889469618925;-0.284249882247743 0.30526309929982398 -0.042640531258707759 0.067638197731025321 0.30523847450306629 -0.21730820828895553 0.14873682225618856 -0.057479714757640785 -0.2529194543917701 0.024829727224935927 -0.10358115735876411 -0.018126245824699037 0.17697987624504818 -0.50791723120418752;-0.1040649035107398 -0.24694755437705401 0.014916649354397302 -0.30696483150102277 0.026644409980857455 -0.14458966434470963 -0.022973288613004541 0.04095452602546415 0.18955876467555036 -0.11761084213740844 -0.55850316198925254 0.098291637511273469 -0.093158086594488432 -0.23338141473150892;0.11649218189148773 -0.097283831457574896 -0.027809962886448519 -0.14076440350886327 0.42808268732481086 0.18813113885128432 -0.15679836845872586 -0.11287252118179945 0.11755123675341744 -0.045065820856771299 0.081903793248133863 -0.20480613951469637 0.0075551714426973027 0.43934468189471909;0.017726266917698148 -0.09826604281363667 0.26671462106538724 -0.32953243649209263 -0.34534548445653007 -0.10930889396426635 -0.21269228479288438 -0.15363680858327547 -0.13618124592123804 -0.14412138068647753 -0.10566045161054485 -0.12876520759254137 -0.14464235254404176 -0.020740050624812465;0.34459519044135228 -0.38470919374817708 0.006738073465495974 0.0059398770261231242 0.46687421283611846 0.0018723747138330463 -0.050792762602252482 -0.094918863919377552 0.050518428224613915 0.057036810647751505 0.057567380387298417 -0.0047105081537370764 0.057742187523008692 0.05539103734333882;0.013189571560467668 0.26845899257147132 -0.43019110905297636 0.045092966433945329 -0.33243250718665696 0.10287532966041049 -0.068708211502972447 0.11722925846397499 0.18777471352542616 0.31031178327434072 -0.050754791083398247 0.22545726584174908 -0.05919090463219475 -0.11846249272756407;0.14068536032224802 -0.051728381320798655 0.077966122674150734 -0.15650600134209336 0.66915353242089881 -0.064621371894835772 0.066336522094264452 -0.035642192135886624 -0.0027618815555815962 -0.088001096872068529 -0.0010848630560928267 0.049628020897911199 0.021902161508286749 -0.3103420843939067;-0.13009899659388655 -0.28346672243256682 0.12122657193426874 0.14783617528877696 -0.13249109531720463 -0.050265730819753079 -0.057055059920475763 -0.30898323044744058 -0.099855897681915856 -0.14691471759742766 -0.041776966938703072 0.09819493582438811 0.02787113392637738 -0.79284693200055745;-0.24171723493325795 -0.2892973817780089 -0.089936960570290936 -0.076025002223216148 -0.23477708551826557 0.30152347992621337 -0.28532379765033372 0.0098714565891696304 0.36739941584082225 0.20560534116615292 -0.052839603109394222 -0.18177673166577255 0.17285461850741579 -0.12699557977055487;0.19895779394021296 -0.16395058698901213 0.062622193245561772 0.11554611213200196 -0.38527995951444333 0.014410764370245971 0.068308191165708645 -0.25590779642468814 0.14163005391555661 0.063258992936482975 -0.052142751589115251 0.38036818295421015 -0.2348616670297568 -0.41506670397359396;0.012017468747510227 -0.061538301164066819 0.14881452412066135 0.080035096062359104 -0.2546058636954211 -0.31061328607133498 -0.21194431082360596 0.04982167133348385 0.17396551632010562 0.17800808519244787 0.15843435596422312 0.30784497025919971 0.20811018074650023 -0.44547089240190679;-0.09663366331363335 -0.034488942135404113 -0.040855672499437959 -0.0906301057086039 0.28168020783544728 -0.094813657675012958 -0.062442130066215226 0.48169131452140068 -0.15179444269707998 -0.17341445231810709 -0.071962781218444363 0.20798692614894168 0.039828286142578093 -0.1004223248509358;-0.30877019488143947 0.2088168275662384 -0.041776258020342016 -0.12957959257415147 -0.32867094715859563 0.22812770214598849 -0.055967742321448279 0.14480574260058002 0.098520803630854817 -0.1182655756077171 0.22861764097764731 0.0079517293764894796 0.14470514078791549 0.023408429935415521;-0.2573511830230672 0.15409453858909181 0.19470878309842979 0.11348655230502054 -0.11588853087080972 -0.21668061188126339 0.26623375589091863 -0.16474476171971883 -0.092969685196676394 0.17589339101889087 -0.13913571625637172 -0.462806605434816 -0.13422786728786704 -0.20386364577606805;0.05953152151004789 -0.28121604691337004 0.27623046846414218 -0.0095783024075908902 -0.30400360228622014 -0.11105018280732523 -0.027574387382593275 -0.069018582877037771 0.21903061615571623 -0.13439913459134109 -0.23491173090926748 -0.40243295890879327 -0.13278729579169682 -0.32972260063528541;-0.21043401079546672 -0.090648741094956881 0.24842345424532467 -0.02310545373537749 -0.13667140288194493 -0.15678839667260255 0.11660578213174157 0.20083434377818701 0.10878485167860423 -0.13799937819856803 0.12923114214554779 0.10655341311013364 0.27366367778036027 -0.44877612416256396;0.2661047649935499 -0.11060841350422955 -0.068147985386438709 -0.22727589910672857 0.33209307949785088 0.15765942256042256 0.11316795968594021 0.059108124670439473 0.039166187953113496 -0.10155878802598421 -0.20438942412565181 -0.35059757722377877 0.093849892596943985 -0.092209870526077833;-0.22709399724548432 -0.48898990252305186 0.1008909366578546 -0.088326273603898289 0.4863537265848209 0.044699628041987204 0.04330277906404828 0.013070509338123985 0.0018254445736450428 -0.096229039223721433 -0.01142075694558922 0.0037000487120161314 0.069558782292525434 -0.043461409742105883;0.22396899611155754 0.11354952123055095 -0.13684132255789205 0.027103974389983465 0.23780840315527724 -0.17578136721896212 0.26462892745010813 0.24429057645770089 -0.095428830826197741 -0.043614741756530455 -0.26246386790547677 -0.2599496386846008 0.25508994929368806 0.062469317821320355;0.26041456937698754 -0.26921895514799626 0.16292805307419311 -0.078336709881026576 -0.11439144343720112 -0.05986557396812419 -0.19089464927752653 0.01308021682539969 -0.05262960282974876 -0.07381586039323737 0.4549593667117548 0.21975650777122865 0.096621309556425991 -0.15753489597097406;-0.16430820829945861 0.3643052590644435 -0.21524494350761991 0.17046539190326224 0.36711444396267101 0.041833373472324555 0.11052483765864198 0.063096246154332764 -0.0082695636888184543 0.061838844504479205 0.069377116073298301 0.015437405889157201 0.085255355747927711 0.2317768351906011;-0.055750862508807092 -0.23650635477367024 -0.58991251892029195 -0.037438203929634789 -0.036295328722243718 0.27974267482639659 0.28153093935861562 0.28026957218925425 0.25192665820556637 -0.14797574901120639 -0.022333678914578877 0.024791737261849148 -0.033743180225478432 0.050724376116963968;0.15055905280234036 0.25710890328287384 -0.22613842931842357 -0.20993365541501852 0.058343939746463395 0.1334327013808555 0.15625435075042682 -0.10586702963422012 -0.032978549787255361 -0.33522712958402345 0.14901243513015935 -0.057916898844376681 -0.26576266653114705 0.22522389253160255;0.2978431369217423 -0.096773507665469854 -0.19567141884631478 0.28853568737472951 -0.2855935419223804 -0.039941106308989664 -0.020863593457568788 0.22259690257201237 -0.089417781656088033 -0.003508631561032277 0.02492041116853751 -0.063118374016973372 -0.32671798979502031 -0.2489459048408425;-0.24128819181010658 -0.34785352192603519 0.12748488720088674 0.095341835739859798 0.02068154212509643 -0.18809584288631023 0.28199936331731573 -0.015992536617833591 0.14450011127015946 -0.1139031858415581 -0.18593222613645571 -0.037945171492416913 0.14492327718037609 0.28198808934599234;0.24450946306421092 -0.17075214892086107 -0.027248388771116912 0.015749427206318889 -0.20559754763698757 0.48407195742303105 0.16154339687639629 0.20996358031607479 0.015578009942416255 0.13609211394782295 -0.075664061468412994 -0.020835148322700569 0.070259112600981902 0.30085100108443352;-0.19732012846963709 -0.12353842083788542 0.24984795654252345 0.15868411933042326 -0.22784644560987766 0.23667499504264047 0.10925782615036318 0.059720762523729987 -0.02650038584862003 -0.10795294440501187 -0.11407354978504676 -0.12621319593966401 -0.35285956864015783 -0.49937309946171521;-0.074624101844986149 -0.24849823411589944 -0.16269933199945941 -0.3049338649004199 -0.018151014990624357 -0.14956340247740899 -0.11863391690385461 0.18035253270998972 0.19073764877985735 0.034513357766386143 0.3602062107091018 0.085001813812018198 0.012959084944669285 -0.027143047197031176;-0.2245343324329169 -0.29174786271982034 -0.063452494361469228 0.10527613539387776 0.29332331000301004 -0.027937073619430638 0.18801523757881472 -0.0055051824037481998 -0.16303082821241061 0.39383346493267651 0.02925998866255192 -0.12539757240185079 -0.076296875247599386 -0.13337072808854733;-0.25494577220947962 0.092770278675972054 -0.19884002669830669 0.26298655759676648 -0.11691382781018508 -0.18305194721814866 0.10620024729514183 0.14653930543689142 -0.1437226164120714 0.051339381307908077 -0.1674275237276735 -0.2873614255915905 0.29378834324719211 -0.29879040643769755];

% Layer 2
b2 = [0.46981316568036091;-0.4568106016006428;-0.45044267012412625;0.42322760230705808;0.44644602169519304;0.4239220774630989;-0.35396259627330512;0.40441743859834861;0.40289609571588952;-0.40687831925714052;0.42884248110801204;0.42122490364190524;0.36326424655060618;-0.41364610578281052;-0.34209087174774921;-0.37115224238828531;-0.35751723670933172;0.33692726316129457;0.29404461388014325;0.28482177803456704;-0.35321235003384971;0.27014251520524385;-0.22917357343919992;-0.24980653179380477;-0.28529670475473085;0.26840152187258204;0.23908754662786272;-0.26339677420490176;-0.24811808064090793;-0.19854248571948124;-0.21914951905771371;-0.20560071389369081;0.25223058713365254;-0.19570244305701945;-0.15311410180099905;-0.17044556392340271;-0.17602976416173702;-0.16542615050868681;0.12179123991507207;0.13727437492454395;-0.16530121104047027;-0.11755209797354606;-0.14659667851899261;-0.092737694199978418;-0.11278034695360611;0.07686646271263213;-0.062266567574607273;-0.036379404067894222;-0.07869813525732651;-0.025680345374566038;-0.048814046297477355;0.053603682207606085;0.033786323496233707;-0.0069866268937977564;0.0033919346278363811;-0.040893823398832137;0.046253544361425217;0.034805213011436215;0.059412265801437346;-0.10620345048706004;0.033455656570717765;-0.042607958180423386;-0.052816896222394431;-0.1358591047645176;-0.080391336963935231;0.078311074728186658;0.090749512993216624;-0.13929609441253801;0.10573661261708311;0.10588622467817795;0.18805628502718563;-0.12927068814900355;-0.14217882889377895;0.23277875386388946;-0.16332820506796791;-0.11546204551380948;0.1868287302844458;-0.17809400639098019;-0.22883383587327472;0.21630432799295288;-0.17180429909508108;-0.16350499850495462;-0.18660848350216702;-0.24689747553764235;0.14351642574767057;0.26105445455410681;-0.24925873317953381;0.35664768459710527;-0.26370640107348636;-0.31013657525999122;0.28082979968921906;-0.30162900183178165;0.32425017831390762;-0.31196154370931262;-0.33967395546033463;0.30951960948656682;-0.41588794418579583;-0.36533700968481808;-0.42364664268699181;-0.37367010561756608;-0.38899189467279133;0.36110434377544881;-0.34888084654963492;-0.36597281320057201;0.41858580267375328;0.38693601764012447;-0.46698976011008153;-0.46051121426675656;-0.40962527357940642;0.46462121368629672;0.46312871158590452;-0.46249824703440268];
LW2_1 = [-0.12029365833101269 0.019697259362567179 0.088382951474450133 -0.056066719924308402 -0.03627697777755616 0.10538447298503459 -0.11247080465325816 -0.033345015867306795 -0.025462345741215787 0.075807153746323075 0.022353962901280177 -0.12054189477792041 0.023537750886691876 0.19270645977352188 0.099851672647066389 0.065458072507227197 -0.026304424327180619 0.048705240168943571 -0.062970603542324297 -0.032269560496430059 0.11938822287686704 -0.032345195265532707 0.047470737454825079 -0.027253842243643647 0.071986391618894766 0.01658842672168993 -0.042869487582620693 0.048946465007157609 0.014421979899995269 0.045917149763446567 -0.010752696139477253 0.0064428214050274712 -0.01486910752278213 0.027166755896503098 0.044414142562181243 0.037881816635158411 -0.043174382428689116 -0.045135090432253444 -0.062764388779321043 -0.029740606725908114 0.017239507923162114 0.031017278956358453 -0.098977199898853299 -0.0094761237952589294 -0.0420542946397231 0.026574025444189187 -0.043468318961618534 0.0069834532840128511 0.14261562260748559 0.077668872283139942 0.10357545363657064 0.0070876359464573258 0.086117940414228475 0.030003791306718215 -0.059291418508375167 0.11616226377866076 0.13201791661299164 0.018779967728669911 0.024898444484069249 -0.076543129070094376 -0.074105187073738754 0.026140246554674 0.058277178248653187 -0.021824310715654258 0.14435696215777877 -0.019161667114442123 0.096158681263923296 -0.019965092770816859 -0.081972095739264741 0.0013380461655391719 -0.012104101849032033 0.11340312815880534 -0.053403612069713668 -0.066404475833253623 0.029673217380940978 0.027989452720365082 0.00583364972293938 -0.033331063728866739 -0.014998201769730263 -0.071156938053159521 0.010603017341583341 0.039638572213744755 0.026356635204160914 0.074734016715612361 0.013572228780584596 -0.0031872805956486292 0.10348008606257678 0.10073698341883694 0.10802781770547043 -0.13366623966525185 0.089346130221504449 -0.017800676764990878 0.071449559848537389 0.084177872951434446 -0.025752009818039465 0.059500194925295402 -0.010952213884146937 -0.054615003445158891 0.04194472873988337 -0.072550368643466104 0.054869497128551714 -0.02495663366533693 -0.033825902141671589 0.049035550548408233 0.044419623331179291 0.00066297633568493961 0.054358293807602334 0.039818781734914627 -0.019180922167178992 0.058144949746887081 0.062964832190931699 0.082275567086209089;-0.032282820578616721 0.020772935562606693 0.044986321470111945 0.073170893777004378 0.094497260676480246 -0.069762451683205037 0.023456104558217204 -0.024180918778311633 -0.061184569960233269 -0.026327353356610659 -0.0070497719039072527 -0.065356804182732722 0.032475300171587798 -0.056720675390829353 -0.018393001905392291 0.17126766981058039 -0.035131931508226168 -0.026159489696328874 0.042349323099472078 -0.05449481621135583 0.11013163517693479 -0.082919814946368645 0.032544468609512281 -0.12285643523993781 0.085283417493217842 -0.059229919634504483 0.064747073669863264 0.092667654332243304 0.11077837192380201 0.074009851105279703 0.0051892353800314737 0.05238227270892197 -0.033965959822292446 0.05361198608044835 -0.032809494812204416 -0.041308762459263466 0.03364156596873568 -0.035575651361065365 0.030769434132608898 -0.047155634102829636 -0.087614239803595478 0.0020769636634333636 -0.053179827952115358 -0.023292458306403249 0.053968285325736678 -0.066676668999206143 0.073207072994965691 -0.052910350480636158 0.074274373017003875 0.0050740527883888541 0.012308156626799563 -0.045000909381589231 -0.058960947419342061 0.050938370600892929 -0.08759525346099846 0.027852147273727271 0.044937751625043813 -0.030473088655867543 -0.095320846423238584 -0.0021005345565361482 0.019683170243138232 0.027251599364955758 0.026651560497463013 0.039109405235571187 0.10460175792193201 0.14004078147612656 0.0022972749171311928 -0.010024977161367471 -0.10790195658049556 -0.019850778164010485 -0.073283135601700647 0.046551831751428928 -0.020803290481342836 -0.083974987959686678 0.01241186847774999 0.12858517911178363 0.13174645072938201 0.078687242176840561 0.060537849521959328 0.13832144086243628 -0.085518810223337682 0.10104673739755596 0.066243542735281713 0.0052067333614767945 0.034300770575967386 -0.078940458617837925 0.0064378129568390154 -0.05188127260784596 0.0449890928120091 0.032270531489407984 -0.088283315450846611 0.079648565835819252 0.086728789963254782 -0.048706840854545803 0.096403114896885952 -0.10783513327186307 -0.039725613345409187 0.061168442648521393 -0.065728586526399985 -0.036079142291875817 -0.097333353275696699 0.050499701486679219 0.13636689739308444 0.015492342460706264 -0.043084801109776971 -0.0841527536622933 0.03320077507959656 -0.035996437560676296 -0.085510558965016067 0.037637492395697789 -0.039982261108928892 0.046988771517386507;0.079318037284320214 0.026565771205072933 -0.034676452160465471 -0.023637086484771478 -0.059321111558887668 -0.022648497349524406 -0.0073813428896111989 -0.13388910470697807 -0.096639970052223315 -0.057087457725141531 0.13572741953726292 0.1030276692249277 0.011465157499533763 -0.092488111708477205 0.061906656850171576 0.063639655693632613 -0.045466093819792615 0.10350617211456384 -0.089580893158722683 -0.052402284758543437 -0.058234608225933945 0.13494500682829766 0.065587943359919257 -0.043788821834485098 -0.072368995676308126 0.031420287239596015 0.026724756337522332 -0.074034862356483447 0.0020964334588047559 0.015189872119811289 0.0059785423566777168 0.053249672800813545 0.068585534773241391 0.025172822469606858 0.010549698128534362 0.019725011422274796 0.0037454891249565714 -0.0061042377432315156 -0.021122734964195235 -0.13262952446993659 0.053134796980553928 0.045809688509173066 0.060985085241807013 0.06969751977636704 0.07047429239165566 -0.0050686515332285468 -0.10879747403770425 0.079951696396144092 -0.0094245617287352333 -0.018485113953579657 -0.0064224451308513963 0.051261378507226736 -0.041782150628577056 -0.11150772845467904 0.034179613665877379 -0.082253026926610642 -0.032063740019362137 0.012145204972851925 0.043077312503874567 0.0069782505910389531 0.082847522152623948 0.11534560619930287 -0.1334599811434703 -0.039197500843021177 -0.035777556135601539 -0.0328630423670579 -0.074770356328139054 0.058520528113354404 0.10986086142914338 0.0044222729232169574 0.025021352971719788 -0.00082850850535881658 -0.057016667779012133 0.027532888245371808 -0.092734810371642926 -0.027859474599472096 -0.043127262533754727 0.036174558864335994 -0.035228588330416685 0.008134995280603281 -0.015908151843544237 -0.076337834643631933 -0.033853227654630898 0.062489604166006366 -0.075343676470060822 0.03379637273455096 -0.047264251766761897 0.052802152504399652 -0.097045408069994968 0.028705713285846552 -0.063674507947412209 0.023159004902612551 -0.11406213710036127 -0.085918966330144259 0.056424492045286892 -0.01219380984783674 -0.031236249237404749 0.03488594165879895 0.016775949399346166 -0.056193505910199448 -0.11542581159747417 0.092931958162831327 -0.058403370191904107 -0.043451107632453682 -0.056680743877919985 0.037905389124850079 0.022829517137733502 0.092436268875641853 0.0091032842631567756 -0.058209505415323486 -0.077273812144626614 0.084537304296987442;-0.033014094433409948 -0.064329390087478039 0.061028813096084017 0.019290706744480281 -0.063504750515478908 0.077171525358640289 0.020018096031425864 -0.0053901958908418243 0.11679836981718437 -0.097928377689285112 0.052900572430490511 0.086816758318553525 -0.080403186342809643 0.027784368746672953 -0.063434867822408078 -0.00033422142030206442 0.018617593800986997 0.039569605137624343 -0.053140647632224938 -0.037432451125178422 -0.052166583929172949 -0.042488723757035107 0.065382255618287421 -0.0043824786106531517 0.073521282922023201 -0.01890207853576065 0.10267974115583219 0.017963825982207478 0.10615834623494953 -0.071078328014548386 0.09783433188613469 0.056530097678625595 0.019453598766838009 0.034896460590020627 -0.021195224403853574 -0.02204488549197026 -0.06861874573282746 0.0029657725330161418 -0.093792416416408356 -0.0028233672958046497 0.047081287638036574 0.020187600841652668 -0.001465607507442145 -0.074590934185327057 -0.088688339507313377 -0.00099397458765004571 0.083503135065214992 0.03370819091243573 0.16399697674721309 -0.11499769738134792 0.02340657945578031 -0.0057542590461497284 -0.0058507732704890427 0.030349760764862795 0.067939143925076509 0.088819880633952325 0.055279591869025708 0.018438937907674129 -0.0062041559178295522 -0.077210166050746321 0.064981427320773028 0.016883231710679174 0.12220463402564168 -0.0093936648059902671 0.13329066273738047 -0.047880716911700483 -0.02563599026072054 0.0011285738269157415 -0.09774947878028846 0.11214258098902249 -0.070904706918751295 0.017463797248310778 0.042313665158519462 -0.03581643611687798 0.048505776751704741 -0.068806025196456524 0.045019732665758767 0.0077344804002287462 -0.051133075378416201 -0.047926363885913967 -0.033002079583498378 0.092331872993284728 -0.067854056120187842 -0.044854121206438086 -0.041823233323093782 -0.12448462094742994 0.13514367690605522 0.00050562038424353697 0.052533677282164869 -0.05341616561046976 -0.045205656740990127 -0.016717204474396077 0.091064874494938455 -0.076938799697298527 -0.072653738946108354 -0.078484173577231503 -0.044910060281587415 -0.039759686046423527 -0.0025156638087146872 0.022000084211575576 -0.0030503563660310685 -0.0032047066867502386 0.034849906198640986 0.11675924187977027 -0.046178482824258349 -0.1183893019463647 -0.04464541902468868 -0.0010101256222345952 -0.049084367314717603 -0.066527590648342391 -0.029831531110447364 -0.028977817968161724;-0.03448705548168432 0.0034343325725312893 -0.057881646254342639 0.082583217488974014 -0.044113954987025639 -0.13663264563807964 0.11204481406478135 0.045379303329800093 -0.0075512242867086209 -0.11475004061766431 -0.057763108014210647 -0.078092896148503052 -0.10400785337855305 0.11916936261181031 0.040880693820327135 0.032562977543386371 0.0509056475187065 0.0022955114071896449 -0.032479521931001405 0.016890830556284677 0.074888714972277767 -0.028846826353462675 -0.021707357385763817 -0.026959494826423305 0.10646688757387493 -0.019975728390156853 -0.048652226679119212 -0.040742442737900342 0.012578646863141552 -0.043482707073400968 0.060493806907550164 0.029090225261389158 0.023879811106201659 -0.0018044810100207073 -0.053231075877792036 -0.038129972946614001 -0.038243524705742375 -0.045918696499968617 0.028774251657994031 0.04409924730072972 -0.029282053101287057 -0.0034969281339239373 -0.0040202125224578986 0.040983296893632448 0.057183974295262695 -0.066130464428120733 -0.090996235075770426 -0.069005555235038041 0.091013060371209875 -0.093444323910912314 -0.075941248033458988 0.021769226474852348 -0.046735047942298394 -0.044360877024266152 0.16177305471764811 -0.097682821079077234 0.025360729039294771 0.038561001421585119 0.09074905975158426 0.012425846998469605 0.09667748529676598 0.12907992628901999 -0.1021299539760972 -0.046774044107461742 0.088016834803163538 0.081184114399985782 0.059236964317130471 -0.055690959669124872 0.13347504141607777 -0.07353934966540468 -0.029504044425492183 0.04361948687165574 -0.0016089213948901747 0.013987392611035458 0.057586117070560654 -0.00074291272520983552 -0.0047217315242838367 0.079566462399726284 0.063737599380627202 -0.00072762107768432015 0.0013374787191039531 0.055324872488003947 -0.017931697645022251 -0.036637782678763386 -0.021713456496503466 -0.10305770326729038 0.013366902479322006 -0.030173055135224298 -0.043857323867218488 -0.15232566796589589 0.026789439462089063 0.086978818406471758 0.096229564528974826 -0.074892305510625187 -0.066373853062090538 0.064598786522025664 0.020850372411282583 0.049973259619978345 0.0038566634359224815 -0.024198103122088314 0.050833984644787181 0.083089013902660658 -0.060416883259201845 -0.031627016078644009 -0.041786427877172932 0.0054886527296508746 -0.029200248837529467 0.1247185321523849 0.1095775187172412 -0.0030215023252853235 0.12634092551552009 0.024522406150414122;-0.069703544378425242 0.0046276069326100025 -0.040779900348806138 -0.0035875036533497438 -0.095173486788099629 0.09028090012934048 0.067461422041617106 0.018592761964182219 0.066582639968090079 0.0085474949964371959 -0.089897605283937781 0.058724758299822287 0.080740758089907619 0.055355113300744586 0.063595570411798197 -0.056722836519154017 0.019363116383180751 0.013891784000209878 -0.049660908655692171 0.11044382559292849 -0.099539426284908319 0.041151662562825465 -0.051111162766489422 0.063838044979917533 -0.065170925649485456 0.034062094555566844 -0.084083913731305818 -0.089232440610161667 0.063195585485216033 0.0012569914334700566 0.1011975593939923 0.05504709708564131 -0.025892416867501374 0.062280079179962144 -0.0037001040467932863 0.0074361638026851926 -0.035420091296324799 -0.041954222056497237 0.034563109675729252 -0.051389260485688738 -0.042356107313205722 0.052526528714173681 -0.020333778204646807 0.009591848593742857 0.12720798406164804 0.036190208316566434 -0.081027861610110483 -0.022271973344940355 0.026491513153276226 -0.064887423773926783 0.007463623337407941 0.0017792386564431278 -0.093935813526560094 -0.020668610172988263 -0.044681865780450761 0.016696141961131648 -0.10926664934564799 0.046858878357544716 -0.049395895119606077 0.10013819283764422 -0.046168461974643644 0.041425579485250032 -0.035682767659799684 0.048031127019751103 -0.011917650171241885 0.079114530524935112 0.070612906889638102 0.017013421199850429 0.0048810218465859482 0.023456825219220163 0.038264109592580413 0.01516040058839411 0.041771775417229227 -0.044025262872730543 0.030594563286857369 -0.041252615350760802 -0.041185695121271633 0.0018934906961355126 0.045388144060030965 0.023286653344092436 -0.050258883613964758 -0.11685240821128802 0.065595090576946749 -0.039226542453215815 -0.03487207062745671 0.033555968631946653 -0.021715693248520247 -0.038363859314965922 -0.061982143833882036 -0.054143628659406806 -0.029298188271912291 -0.088255227928988406 0.061222385497061882 0.055861654400334006 0.0011995581591471231 -0.04861521997362489 -0.019362381987082573 -0.013858356984328201 0.10516823483962198 0.039307980737176847 -0.074914461823791426 0.019407281275282958 0.044072271555963508 -0.072455080890606094 0.03642493912306273 0.074598330178745453 -0.035561432619251113 -0.0082614634834271509 -0.0094982593578324635 -0.034719586049550215 -0.061268891259581321 -0.032098343756529431;0.09347502039609161 -0.046249409499690759 -0.022502950161078991 0.012832867244029452 0.081239291641620998 -0.011852465759946466 0.069839827390747525 -0.018768022626446206 -0.063416951101116462 0.072155087667738774 -0.18561664416417517 -0.030933400256509713 0.080978280733974867 -0.076030014829485709 -0.13034039495523939 -0.074721856713415302 0.044977193598529877 -0.0081772780773062183 -0.04801327007406013 -0.034978530924756029 -0.059157196027381509 0.14453037468351962 0.051315332792018539 -0.076199137329001312 0.10880620666870099 0.09866507278974071 -0.088286152969074605 -0.071463801474119279 -0.015022085762090352 0.047013368291044723 0.098678948558323348 0.083624586120216657 0.011163881146748529 -0.012305763500358481 -0.069727394403748477 0.12025903402823632 0.13204446725739233 -0.071497815903736828 -0.069456213682574638 0.032783081646698083 -0.049443482313842879 0.021950182772160643 -0.14682623220894112 0.097961890706490862 0.18964950257621985 -0.075297074240679482 -0.068903517859691288 -0.13138660864137194 -0.031287607647710255 0.091041310699714759 -0.10310198675805318 -0.058823184200195944 0.04265308757131419 -0.04465954019674509 0.021789795237985222 -0.027719183818058483 -0.17177515933349186 0.082689949246492034 0.051332173297561748 0.075985064618409509 -0.034905283513051361 0.0050458818718823115 0.0017805454512394478 0.086874850204574069 -0.16994052051117411 0.018458430048276939 -0.096969355199968826 -0.024051784840759736 0.053503211171453319 0.13737126866687038 -0.097078994378141367 0.078902511325600486 -0.013869198342132681 0.01741324093159359 0.083987106290055208 -0.024675252093997901 0.097678523067367767 -0.10122271788710026 0.080834247917162344 0.069391591029446573 -0.07248679237826107 -0.12615904441511652 -0.071756605789325842 -0.0079788824226597384 -0.14398369815873382 -0.020285736294877888 -0.18018739685513366 0.05862494834598108 -0.13770911907618663 -0.037485961398837253 0.017071936155231962 0.078304538708114227 0.0032928457069804555 -0.049952070570097269 0.083781424558695541 0.006351248763458656 0.1523424553441253 -0.030112953521844472 -0.028587257163808319 -0.11043558801643352 -0.069179349753442601 0.05714087015930442 -0.16060646695327802 0.016850767209186157 -0.09484122608327844 0.059606113073152285 -0.12039658629977223 -0.03829154477513172 0.10227781582775597 0.093679552433829513 0.049033898831474514 -0.025814072136421302;-0.039921752765222834 -0.014820587663446051 -0.075926353930111809 0.067658922365317134 -0.015523669700777457 0.048273686905568332 0.031970231818285094 -0.071310574835826146 0.086966480148312167 0.0019787684072393526 -0.047122568682549312 -0.015003268504885611 0.07275670498787902 0.077292043014605294 -0.021584661870529678 0.098872934166731152 0.001523828829162966 -0.00044816333604288645 0.10524046121422374 -0.049602435683676616 -0.01734755718011436 -0.065630401758397877 0.049168085399845143 -0.015573910001218888 -0.089693460766800778 -0.1002682959778395 0.015836558811674513 -0.025167272126740862 0.055048213872849305 0.060059142496129071 0.03054452791949883 0.014622525805533108 0.05162405053545923 -0.037400417466488457 0.074905405307348433 -0.077527559969375867 -0.044980109241845929 -0.013300919867658021 0.083788274017585609 0.081317789915212685 -0.0092205800575782468 -0.013615329509565482 0.0043899314840573746 0.088125025634817208 -0.039460502273192297 0.017320267974364537 -0.034703930083930558 0.005294320678996301 0.047527640706336832 0.051800674228460797 -0.018037979211115759 0.011765973925183908 0.083286245147431867 -0.0036354588826086449 0.025434349202142093 -0.015394416238695557 -0.050005317861676377 0.027076908849967187 -0.079782592748397566 -0.043796894162747589 0.073150653195034443 -0.10656123393063262 0.011187113399266818 0.0014183071391221903 -0.0512900147721898 0.067690443742200707 -0.0075262546427731182 0.018892483096556164 -0.013740356243345147 -0.03396760278885947 0.016755388620639983 -0.025321553999564622 0.05694419753337053 -0.038087875947674737 -0.021817074369729995 -0.078390376231499165 0.0063507711951757253 -0.072507535525347444 0.014814053740485405 0.045854303065772303 -0.036643720286453234 0.054145689807901486 0.022771285752156596 0.074707062626859069 0.019711437141802162 -0.063224041569567221 0.02065356159070348 -0.069601559407817579 0.0723760910060815 -0.027194905273742225 0.024929646828690161 0.030532866323041856 0.0097163460395530872 0.014640889342805009 0.059156083670855508 -0.053360136502989756 -0.0033983584822388077 0.02223457634729073 -0.0023110461914402714 0.019965005494419097 0.0072053535664709564 -0.064010414284905587 -0.033854442686283716 0.0096800750437537799 0.12131970099828109 0.01377796731913843 0.035755659836309336 -0.034700392946706467 -0.057219772838381172 0.047104378037391433 0.0019837623119263333 0.081024138676224239;-0.063422139637855424 -0.11166182953828829 -0.11045332070755545 -0.026570788113200162 -0.034790690097725702 -0.003648362542552944 0.032462712354261972 0.13018360236542453 0.043963934412608624 0.018276587360313925 -0.04932467575890661 -0.095894690752697978 0.042910293961437175 0.067990735907323047 0.0071518721685970644 0.11557198211229686 -0.012637943817351753 0.060284680479514255 0.060741673190292514 -0.03265923571172679 0.0072142626711430759 -0.015419515167602878 0.043689625919669031 -0.012087291426085849 0.095486220707276762 0.021138431334045603 0.10556940528097181 -0.041528805019131351 0.062839904200578861 -0.056938958406771309 -0.12500757995468931 0.11437946282448361 0.057397771208124129 -0.099103547371188969 0.032195724833831117 -0.034574067705513675 0.075814712816199115 -0.033668274531374706 0.03393532794891551 0.030889817549412439 0.056918878932866623 0.069234689343573588 0.016610858118488746 0.022010253287790455 0.016001420014876575 0.079161136227091755 0.053763627939172706 -0.031698849652585098 0.043881372941715797 -0.0028233429314654724 -0.028281004562999236 0.019183044226535374 0.063657675352956855 0.043818764917063276 -0.13293437817760334 0.01119124361160043 0.052663934499225448 -0.017731169915699087 -0.087598300839004134 0.010084977969218938 -0.03666201653693231 0.016870153844873469 -0.077495035768445547 0.056864907195770524 0.016967692152281107 0.043694278137002079 0.035440395492572239 0.025038408586277983 -0.021436490191784716 0.019690189038730013 0.036704352526347669 0.11463938891178366 0.034670014561038874 -0.12186044937930582 -0.072187259804414414 -0.015007116503422671 0.03439611447699923 0.077012233029906618 0.045403021953828365 -0.00071516527963823317 0.12901663784407422 0.0027322861276803485 0.010927885487659446 -0.04890646771219307 0.076001133739092064 -0.10888390795943897 0.078626119996174665 -0.0020994126196444136 -0.028710136190797032 -0.0046244397759416184 0.01053649985775768 -0.030953086089254841 -0.041080527974337457 0.007461920126315854 0.064460664049594912 -0.015503844288230819 -0.03406098928101936 -0.043178291736834518 0.089587113852072991 0.058953009796806302 0.029165632212120023 0.03461339728311176 0.026561840828542745 0.097348062837966196 0.02903552381761422 0.089910521498171012 -0.018530927683759704 0.0082872489641743208 -0.12875391603474234 -0.060528561735033536 -0.089437694947352125 -0.12525762826567033;-0.053592154831467516 -0.050352702140124675 -0.0067787364235296702 -0.10631933250579273 0.041285195308701804 -0.035538044666294739 0.10323698986469562 -0.023216462165618887 0.033210964392034678 -0.055655437889384665 0.082444933653319744 -0.037853500988751947 0.088612016518348213 -0.053457860975892398 -0.015513234433496398 0.05041299730961226 -0.017466219342782377 0.091706290216994932 -0.088983323304202597 0.021145542955145178 -0.074145959031348782 0.013104784349031442 -0.066257382038712107 -0.022535692939395634 0.014537839600116688 -0.048431040925595713 -0.0044583972614908847 0.03918695073138314 -0.094814588689509358 -0.040133670591006906 -0.030511652538623889 0.0043939994359046379 0.096019973422063615 0.028782896232999945 0.14034696005333558 0.077371530548664746 0.0047715593110340205 0.0060093892304923149 -0.080482725426648791 -0.16970652828291774 0.064155996028845516 0.027956729096764259 -0.045258486010242766 -0.080472312608240601 0.050719838232461463 0.083546584899910223 -0.044104728768263463 -0.008105952474061066 -0.051945241169867547 0.020825120232731992 -0.00071742245107707706 0.029845574196657777 -0.036658295706384236 -0.050475236331765087 0.020095654996276403 0.037452767405298092 0.0092754842235231328 0.099123673658046904 -0.0095368054026902238 0.045076421897913631 -0.036883126315981896 -0.030700484437556443 0.023167771906575641 0.039154322389599087 -0.095008666696760558 0.015524921821252986 0.090218218562146554 -0.049159395991380847 0.087595701579607929 0.0042660483666503218 -0.019981345957056518 0.045289170330162838 -0.06379487036687892 0.019360261998579563 -0.01673948139552596 0.030636195710613996 -0.047810306381347818 0.070015510516895849 0.049766262466391091 0.093264833277785356 0.044743657094703036 -0.13713312583994228 0.011781355830127099 0.01907634423037451 0.0056458009356010154 0.066032183391549357 -0.039097538831646149 0.0068591331710302446 -0.10580784738979809 0.052687300720158287 -0.068366374831144786 -0.07894797345456632 0.047934319796163194 0.088450047895705472 0.019679793910229067 -0.057523944451161622 -0.05474717763538197 -0.049398730986154618 0.0069424539119145832 0.060874550430918765 -0.041224993364523226 0.0077528074076114008 0.047063662189273159 -0.05287242308128532 -0.048279657811100989 -0.033074691206811661 -0.0086138767679939266 0.029514415858031464 -0.067328564811134459 -0.02384713099393139 0.0079032850010815024 0.027196987388853594;-0.14634776949874975 -0.038810964689831993 -0.051440924334090803 -0.06634668972734406 0.078035189206051403 -0.060590993970956346 0.040743875049539205 -0.016592822786211204 -0.077588190907769888 -0.069097191793312723 0.10983042677082597 -0.0068448334212436205 -0.065121708703322914 -0.046793110899974705 -0.10692612849875413 -0.026685298894011941 -0.079318741141033433 0.099001790349936239 0.10782375583891639 -0.014561549652984342 0.090624438855339412 -0.089247285201766738 -0.015972155881411931 0.017206623351814092 -0.064846132998032671 -0.17554669545352811 0.074041290713207392 -0.046861322310096563 -0.097432971124193801 -0.046183006180733878 -0.059348725557363369 0.077428421927760241 0.1072691627920159 0.04410356138066171 -0.096638011556936756 0.072569806749190391 -0.0063641349457518185 0.012183172350113231 0.017318150656084517 -0.074294879700146518 -0.040095055957913933 0.051992213931518989 0.140391579827742 -0.087966830770516521 -0.062935783160618083 -0.038001413033968326 0.11960176493464192 0.11675142983474736 0.014018836264496249 -0.018663011633409603 -0.079756789613071324 -0.050078719090554689 -0.047771861135998517 0.020643460630448241 -0.063884534645605576 -0.097834738539762434 -0.0049108586507802124 0.016590367990912427 0.0029658701115466172 -0.0041806240081485764 0.076481434935623274 0.09197100669761156 -0.025395448361459308 -0.066758275596085478 0.036403408848739799 -0.039579496481912377 -0.045141984222283354 0.056247525405556671 -0.0073175492189043127 -0.090336828279162396 0.010188423066364579 0.051263017504798655 -0.022925422963320785 0.097535319109064336 0.019862058349795073 -0.021336455542664223 0.10774749030719127 0.041807571718003297 -0.081251949539408369 0.0064512195768439253 0.039982476885580764 0.091133471707916899 0.027078389056436784 -0.039400133254555089 -0.099821742411530204 0.087401618335215744 -0.079800610999099339 -0.12471789529672166 0.032543559300217781 0.14396084812599205 -0.03108930258782959 -0.058320256269846472 -0.035163258239371338 0.025324712748083934 0.0061971453145433291 -0.033020645302680438 0.043467893402740189 -0.0074828343434887494 0.014535138737600017 -0.11875476226659172 0.049041432751221026 0.047827741180139841 -0.062972636508047811 -0.19783963586053807 -0.0015136733543099706 0.032749608701369545 -0.010777604269296319 -0.10217819469967407 0.075684453289264139 -0.04712919087412866 -0.018761451449182474 -0.058283153999156512;-0.04572415618298134 -0.037040249558753117 0.038376775843156651 -0.079057672092737299 -0.00024588428473791947 0.084156093670434626 0.094573936908195155 0.070163869165047937 -0.042862927690838437 0.047408041024481581 0.025308718297247967 0.024842328034638594 -0.060866868514094986 -0.093312044695941537 -0.069661036374321555 -0.058548251639204199 0.074182018956260767 0.069576619412817536 0.14426463287300009 -0.068721896255295886 0.1391102651630732 -0.028963095534993082 -0.0066336337722084802 -0.06971796497497923 -0.079613964433269097 0.013897656862022869 0.098152030519304587 0.0088869440091189078 0.015362866080588186 0.002535966238388586 -0.034371516911802305 0.08415961016781498 -0.045587710689843131 -0.00049220148694780093 -0.014944950848274345 0.043764929589701705 0.019910140367323526 0.003316008054204319 0.080050410046120304 0.082803412418881728 0.0084775747819142953 0.056829053100456675 -0.086566781230121279 -0.037708741511960749 -0.1003316135417017 -0.18348275551953158 0.083723515181806263 0.044536183583663444 -0.066561687822540738 0.068530098746694718 -0.04893132142736125 -0.0039672393963754837 0.13423661752062474 -0.025409113893544794 -0.093544260607413873 0.098784068757680935 0.0051757782510830422 0.037274276993039299 0.060090524807810526 -0.058136075203352261 0.061212650206110011 0.031956020812285164 0.031365460754502826 -0.091286220824843459 0.019257634350982655 0.15060465710406767 0.051803930085217206 0.0035513020825629622 -0.048154275176309491 -0.038329400199437064 0.03554152901500373 -0.0086559795868026094 0.014999371700627328 0.041722679301212762 -0.10048706724765981 0.017515509019059287 -0.090841916185317145 0.073956730960663991 -0.067865704244118571 -0.078268215402843747 -0.0013671768037342379 0.053629304022551422 -0.070234780912502015 0.0028887814471123888 -0.011503488464484464 0.043656239511442652 0.0035079186624059769 -0.032319711586089733 -0.035417133838814521 -0.045592822089454386 0.11750695496193578 -0.044519839234014216 0.04407267958528726 -0.074507230101355709 0.12515312749419069 0.1225729597983902 0.038760711564051607 0.0097017575384453179 0.058201311039401404 -0.061284695624046433 -0.12121902925703208 -0.065027203044308063 -0.010846932169023592 0.01013483661342531 -0.041443581546190184 0.019842930446388858 0.0029758352635907439 -0.0038233366712001082 0.10520911468241979 0.1076149756550026 -0.10112255573166792 0.012093259852491016;-0.10288431107271713 -0.099502188354937376 -0.063615283438906989 -0.025376546332813991 0.033053836476632285 -0.091445976525530756 -0.059520202691039581 0.032380122524627429 -0.033814702007425188 -0.11507294333547403 -0.092909355213861275 -0.027349759705248604 0.091798966199418366 -0.021059335638666649 0.028871071469970245 -0.012545118922163088 -0.11775478356091958 -0.10041940811989809 -0.034831729500729373 0.048936301326848571 0.019599582452892523 -0.0036022500612694695 -0.079497128088636765 0.063505703908605798 0.098549820475849259 0.086581354487701406 -0.073531354528930754 0.099268041979770655 0.021953894814294633 0.15964732976694349 -0.097776158498953283 -0.093843432135775173 -0.085996292416806452 -0.12507846739328776 -0.11185335606523689 -0.060741717769977346 -0.014345859045987961 0.033593645111023723 0.043845551771378811 -0.025732368350184727 0.039683264692979267 -0.081710703270248097 0.061496997763166888 0.10403302746569375 -0.11025831178348582 0.071157636427075024 0.0094121025571283594 0.038732892169468798 -0.065192440604567886 0.062965051934479779 0.060165414493695744 0.10759289944801091 0.047540650488149684 0.14102183953179426 0.0049724689578280702 0.086252133746037435 0.028202690871817034 -0.044338276207792883 -0.067941283398515323 0.13240101451750927 0.011413014230191735 -0.056183416220759723 0.087649478377928552 0.0057284401511828549 0.058653780042097592 0.04729153115813664 -0.083085867494328669 -0.062081862707326838 -0.10111869269268529 -0.036768887313545495 -0.023423616863936889 -0.059776550322283094 -0.063211647973805393 -0.024026109023600695 -0.053827270672441155 -0.029225905597687278 -0.034208090700739012 -0.017732948814008664 -0.043758967999066624 0.084277186453592348 -0.042503082976150727 -0.024552399554952531 -0.033802668077847001 -0.072147011481562065 -0.042346853782895932 0.092050237902972745 0.098808819763570782 0.091153581594611816 -0.0015427540023855491 0.14862829725246907 0.1996818926242484 0.011936234453696151 0.017473357213175719 -0.058813524221051065 0.042646888900776475 -0.068202430175033996 0.039297945856327787 0.027641762467619072 0.012032147863679059 0.055302571680169478 0.010159912231382517 0.074197569745800065 0.0058188919493669718 0.13493279873425437 0.040178897879967597 0.0022923080630159794 -0.040425286534420346 0.024419271982916779 -0.096465292449711151 -0.009980276251951619 -0.044115471820532985 0.018802849038873377;0.061258030589897504 0.048420684925045102 -0.003557972645347417 -0.052563630732311989 -0.015622608097057957 0.088149739750253572 0.076756435474436932 0.057857921296992784 -0.039046285373091988 0.078918699298082637 -0.046538704656323496 -0.010265679579236181 0.030784722522884802 0.021810025357476667 -0.018435751818051242 -0.019202778640632356 0.02831368904225047 -0.022842652014498078 0.040433163102589376 -0.11455631863136771 -0.047460677032211754 0.06040998729773589 -0.016053273181531096 0.025743585801127757 -0.15665834603631743 0.051878431508182977 -0.17629695623658756 -0.015172307480193008 0.080949551595956126 -0.043017086314109131 0.082967031644002362 0.10671388120050551 -0.0041173352573691422 -0.13739364259146553 0.050711891767888997 -0.0033757025105927412 0.08186963534252896 0.14808415699316504 0.052546995505333594 -0.0039081291684998961 -0.07407167095329785 -0.07970027794968873 0.072032445212371898 -0.0063992186590193746 -0.080821046410083294 0.087578697389037757 -0.10153405498976439 0.044577381932368522 -0.032657408930410282 -0.085263735607274016 0.022623271063070952 0.09092232346321738 0.09797180272141566 0.0075759760624838418 0.0014506172569592238 0.09783421806708989 0.088659975092998874 -0.035228386156089204 -0.016333709522725861 0.1088436007244812 -0.13712208952560015 0.03237152315025401 -0.012845186582871775 -0.049448574296905468 -0.062768098102491773 0.058104360676487825 -0.072328210512864546 -0.078911390869677481 -0.054864281635425421 -0.083577085623981195 0.019011440962957749 0.056738650597605404 0.10533294591899879 0.025897959151550205 0.02378946184650332 -0.0062931694011374691 -0.045355480474506729 0.015482053523696642 0.012100709963669857 0.019129887839437587 0.075375159710973416 -0.062179969264230646 -0.053014692177487555 -0.062500222007490211 0.02803982587723574 -0.054330411341081103 0.043424667646572296 0.054184314108959693 -0.0050760888452299298 0.058201496492301184 0.075993063936276903 -0.02457249126861074 0.04481348240370879 -0.014716484801473202 0.016167169636858953 0.018446957253611888 -0.10710489492795812 0.0087040534235177224 -0.059652392957540323 0.16801313108321997 0.062228146309997415 0.06705477998904831 -0.013684399327293945 0.13665218664838499 0.12599836913375306 -0.063969350310121589 -0.0021994976012160447 0.048100524637150845 0.021126250331924491 -0.030909407885022298 -0.062838825607207383 -0.028437849596285057;-0.024096389442222636 -0.032733552526415403 -0.079569871636960832 0.033097096783519471 0.0099498277310095008 -0.11889316958383123 -0.091669608410243686 0.056892030555752135 -0.024607727843471667 0.12536686000491337 -0.07396930753312006 -0.075200989175001981 -0.0026452724949895148 0.071148120836924622 0.082176772018723893 0.009557754709322042 0.038683952646778957 0.20669208436171932 0.055161224159977797 -0.013318488460682622 0.020334039821726688 0.016798228928461046 -0.078957831688280161 0.01783972968825269 -0.044152946924137217 0.021080883895693323 0.15783275293701401 0.0045083877855820647 -0.020757087985212485 0.064073842159926495 -0.044072547737898086 0.078931160810045753 0.021592060770789016 0.070829592202025088 -0.089524758454543815 0.096927976715533395 0.083874800835495505 0.054942805635486772 0.0030561947774387817 -0.05431408350902249 -0.1195387273347313 -0.12807645481149696 0.026651936449583392 0.067426274699260741 -0.0021745190425196651 -0.087200363895782035 0.0020938356795824251 0.026971413535880336 -0.028254080833875005 -0.081858979822053535 -0.12194080195573441 0.022843421349921254 -0.0012010673785841171 -0.051986406220255563 -0.065874120341362141 -0.036600945308980809 -0.060631255285558169 -0.0089444701710414496 0.059067463795390379 -0.033947596522094281 0.077167978547561314 0.10650217092931018 -0.028060849189495519 0.045814246094735507 -0.1204864503477841 0.10967805070376616 0.15635043478602825 -0.0091704909290879835 0.094783681375838605 0.0050703679228017735 -0.04889617766077714 -0.061202610479773857 0.01031465659202385 -0.12367646156225859 0.019764607046797378 0.11759246977714587 -0.1016103446865044 -0.019070128871453779 -0.16172209240267074 -0.13386448149729982 -0.040161937983998357 -0.0032729826910748295 0.021827696472740087 -0.040891215929232103 -0.14077058918525626 0.098274780730048847 0.1220771598868971 -0.097972869292152417 -0.10829594738026195 -0.047828650880005791 0.059195919920013107 -0.22497133158346122 -0.10466197633972149 -0.15743923441091121 -0.067420859687278428 0.0088462461196013812 -0.016523527149448939 -0.032498038200680465 0.16055127021537041 0.017481363195925598 -0.06946008853309453 0.05809300464817805 0.00015883392139959569 0.018578375692589404 0.03809571536910096 0.03878767560488873 0.0049591800806131434 0.033804990137130522 0.086156561367507226 -0.065358316224634422 -0.0064331983268152175 0.069061517055941365;0.030367724104431195 0.033462136204620074 0.006234981039981771 -0.026076521231575434 -0.055734883992128392 -0.10937814362450496 0.10589123056587507 0.022435666281844294 -0.033005206317841186 0.078262476235748807 -0.061889903187026321 -0.21026262151133526 -0.096835656888017138 0.08994859665739105 -0.088593617108699632 -0.077363608028294714 -0.00064576292500061064 0.030301131298342433 0.066206812060394568 0.025217598639235783 0.05736298796083876 -0.11238552322845456 -0.035395620895501564 -0.07201568349109938 0.017529667150886035 -0.083923677912407846 -0.037759899216915693 0.098399617161785663 -0.030310902524347979 0.041499384818507533 0.024586453808226261 0.066138296531619664 -0.024426327674019383 -0.013998819579469308 0.070352352329320703 -0.046044366082301363 -0.0047915368827096501 0.0027602077123461037 0.11625789371779466 0.029335388334508043 -0.18439087197114731 0.014649475779462755 -0.072228626370530402 0.1739423568238003 0.0084025251310888265 -0.056850545502408624 -0.073188089953606372 0.018485748930405763 -0.093534737907629381 0.10698717509150191 -0.05235998709352823 0.022155331095406523 0.017900084139645184 0.093906506370225129 -0.075989358985283764 -0.0093307038937485483 0.014329652262540406 0.11703590001915222 0.1599476823455126 -0.086173306069124295 -0.015092230130355761 0.078911940877162176 0.00087188493044435792 0.020381100094317116 0.038816820388173308 0.17732809715632192 -0.036200894006268303 -0.10517414897648313 0.019782741307984072 0.085607195551355472 0.045733260726367297 0.13959840019890679 -0.034493355037097509 -0.0093764481758258685 0.010367285684038684 0.061676701112580896 0.1674857638611201 0.053856776209447815 -0.091047756560904303 -0.043708799347105774 0.072650141342383609 0.066041246931982919 0.048626756764826272 -0.059765493007971279 0.0084934660855431159 0.020829423970648676 0.006309562420785125 -0.054787339943256991 -0.037743272427736341 0.10077912762568191 -0.070383964464285756 -0.0030135786495155714 0.057090776196117257 0.00052256933675975568 -0.099489999142604757 -0.059464483390589622 -0.021668119853139857 0.027952164568300825 0.077256440691871611 0.11329351384418358 -0.0038726251325091401 -0.014444245057966168 -0.029174837209147396 0.026815078477714777 0.084463847804285355 0.00071344978089362191 0.056357405706644832 -0.073254711262075708 -0.0018172446329840386 -0.037331316610375455 -0.044111051273212847 -0.017083614325616107;-0.032244697302435996 -0.22996211268717792 -0.071350991355821181 0.005395192212087876 0.014384343764307302 -0.01442151574828286 0.21444392245288924 0.067169709059280491 -0.067674838288216466 -0.075879722341728614 -0.10892801563834383 0.010727589395555409 0.11009700132110666 -0.00082197699352647873 0.043668173851924244 0.070486531694504778 -0.14462043923922033 0.082076150154735628 0.0052319585171197317 0.051553119486240438 0.23430215026661216 -0.03628246760246729 0.045265965906762691 0.1796209672079446 0.01309683162104577 -0.089177813551606949 -0.0076944333896607374 -0.092648329677052818 0.023156287994274046 -0.069475217862735889 -0.16352673423421124 0.052961213918837451 0.081335256006073206 -0.029844584367208819 0.094243014638928618 0.00223398507275462 0.0012598062332034431 -0.0061613975115344752 -0.20686613928596134 -0.090593585560836284 0.087408639080215692 -0.0038166546414854434 0.078645694971701277 -0.12561426085766797 -0.10627854755931726 -0.037017423208185268 0.017022426074296885 0.11297796680158063 -0.035083002313527692 0.032959581739930785 0.011824630867875741 0.080849748688156198 0.046363440543792697 -0.022179318300361236 0.095093589940656115 -0.19226497299501388 -0.057479151430306803 -0.064248686338619368 0.019490494396145096 -0.088193646669601874 0.0039025846615190498 -0.011397347398140458 -0.17679204588537462 0.10897335760873429 0.054457331587102094 -0.019004976816529764 0.033137759586515839 0.13901477515880314 -0.057494655733321104 -0.23942301069181476 0.075539075160904703 0.019409489187678614 0.10920784499653333 0.062879639253524244 -0.023850560123909653 -0.050485968137074178 0.0042198244441084493 0.096424192871770439 0.054045247658122589 0.085086902641435105 -0.11000024075653272 -0.14463676949030824 -0.15385904569450856 -0.067118357618289493 0.24832731847542061 -0.040554160067284198 -0.068866023601240237 -0.015189140847330323 -0.10317683651062186 -0.17725044483019994 -0.19442568658693488 -0.092742995691846242 0.075108134829067433 -0.067344673776031025 0.13807462356227046 -0.19115029951479426 -0.088987393228735306 -0.21164175295588017 0.030350686676488117 0.024890025562792472 -0.023898405505565323 -0.011258902566232173 0.042318279551561942 0.0032219488502788114 0.17028039349877394 -0.081804203507257103 0.21759787802420688 0.075953521814846547 -0.1606963850737429 -0.060155301060264461 0.089600748215974385 -0.17839337562158955;-0.091914102349612031 -0.078827256325334605 -0.0027248823178970673 0.039774985780773389 -0.064069839618007135 -0.05806786522944471 -0.043011622634319978 0.048240296203060161 0.02643956666418493 0.014781668946174003 0.10673154238765717 -0.12116210545668687 0.034238809558752449 0.033431805880089864 -0.014578224679545433 0.098471365334770175 0.06442427555296576 0.060767209847574687 0.02176575551733935 -0.010223452923121339 -0.13763789302495194 -0.048420386674354214 0.05412855897057043 0.1251971572823512 -0.021448517365635356 -0.0080660684957571879 0.037829323664238766 0.0021538924513102467 -0.022129183194499785 0.012431849381202634 0.041079242581921242 0.053993225781157082 -0.01192303765100646 0.0010096012076520134 -0.015048591056881737 -0.053486721443355437 0.0080118021078671112 -0.0079673273565756056 -0.073540848665988964 0.084079683985231621 -0.10152998997681278 -0.028605595148321786 -0.0014121646668218705 -0.043210071315840856 -0.11595890835863357 -0.0077787202207410411 0.0066905027482413821 0.076043489238654408 0.0031245317959310639 -0.045707650572119431 0.13391484826554931 -0.095643532244061455 -0.04940568901797697 0.037862941602316985 0.0020092859510065296 0.013409222705719965 0.076356740155273717 -0.039885401612961106 -0.0037674304738197976 -0.10250210207310301 0.12723032506680998 0.038040449259494513 -0.0078717792319541163 0.043343621121228755 0.12558315381744473 -0.11963163530387648 0.01251788045358891 0.048565242301465569 0.0077048094441333707 -0.0030281964457084414 0.0039879449719502236 -0.12028157255705588 -0.022076769119232235 0.033963146089014566 -0.015042363904774111 -0.017499222978351627 -0.036531210095583945 -0.086584284583024432 0.095107827995033353 0.089108106415026783 0.041883418547022933 0.0084339657176793655 0.09645549243601112 0.1287305831772334 0.070767003774077311 0.094825328517628649 0.04613333529057128 -0.096440694479949476 0.16768337665435587 -0.01292939703222227 -0.044510195373967665 0.017517254877455278 -0.012455396696217978 0.0026920039019687359 -0.015436987626002315 -0.095804171406379382 0.018939399490187712 -0.057094048057526638 0.087321817591513473 0.085968540293654291 7.1019350698365224e-05 0.0024172130815066362 -0.081528666472268918 -0.070192373657261581 -0.026594210604788487 -0.027909979097420788 -0.00083908508441100796 -0.00474714255901512 -0.051790440744519252 -0.046107082483293267 0.016770304128677034 -0.053939995982032349;-0.056324660344156709 0.032837429074767173 0.11562357020039467 -0.0017071042049750307 -0.06136616177986217 -0.044771906162171714 -0.056873135619539106 -0.079637816687461754 -0.10521208238711093 -0.033209697135238685 0.075247349803452712 -0.073106255879771848 0.14356804584255864 0.080370626753164615 -0.025937807471479266 0.15396569915137018 0.078197222904603916 -0.07317626557666855 -0.068390035211319811 -0.022170378480908748 -0.067560255187063309 -0.0029093211116307674 -0.01681200285017943 -0.10676996330132171 0.14407996471042178 -0.040976733301924938 0.066477942795528891 0.11319690458128079 0.010887347655599469 -0.0035744573095706392 -0.18985987990362171 -0.062229337264866874 -0.033433697447467568 0.096433098439202822 0.069559141525902118 -0.13637717098755867 0.074230638644344413 -0.064992551056298586 0.045329834317439623 -0.084478724706549491 0.029340664898837594 -0.079322702808494738 -0.088170934761929234 0.11468845487226077 -0.046592255603239208 0.030098910904163521 -0.068548914233812569 -0.02660975358756611 0.076615951010565952 0.03739413871176895 0.063186499921722983 0.14717809403189561 -0.038943991636703493 -0.10137408568088703 -0.1865890496893956 -0.054761337135073092 -0.11873407777477651 -0.037873214998026893 0.061289099696369795 0.17465719191867832 -0.087621647843550046 -0.086928130577446888 -0.16945272856297863 0.061446958255777361 0.13598381873064111 0.032523409683275183 -0.050754495603542574 -0.0079073727193332173 -0.0084483116065330894 -0.13107725976017937 -0.084284760250790153 -0.014357783107108472 -0.22987202509414792 -0.032486517216343588 0.074672789533747161 0.12787222261109957 0.074485903608407136 0.033606915679233539 0.12619378566176032 0.058125042092730186 0.038792698112245907 -0.10574510396843652 -0.033408379634507643 0.04449818904271588 0.062772485867806885 0.055419841888544832 -0.0034814415909122805 0.031866995309033731 -0.10781833830496847 -0.0014609699465369323 0.055894467335714855 0.011178712771597791 -0.10661182645130045 0.029111265237384259 0.027534042072442498 -0.12019423579114991 0.037113973208672359 -0.1968926106517688 -0.001149509709298301 -0.021114694212566502 0.010341228136063134 0.0055357249414957109 0.087437592444640874 0.035886693964554586 0.009851932079621149 0.10977830941595662 -0.059566401216785331 -0.0070297060302044146 -0.042122629432608007 -3.0197667273784739e-05 -0.07981701582350384 0.10412425867231999;0.03663312894804701 0.044620012710363706 -0.033240234849730627 0.11233129257717678 0.012857653847758076 0.096956317920087784 0.089375325631847899 0.012712427617100659 -0.02119714656777822 0.07131643806670597 -0.12474219553732094 -0.074782547317576969 0.054769588088099376 0.13821383363226747 0.054441489941491783 -0.057417011158556033 -0.062145376889680394 -0.091751014679099116 0.11969978515458583 0.022662893485745978 0.02770239169132625 -0.084131940818703468 -0.13103691800731207 0.062070494628116445 -0.017430734505661405 -0.097242760648986584 -0.034074477958353895 -0.094751846846452215 0.047800215875161728 0.055195520458387971 0.11559050597442706 0.041467565741097973 0.14323985357004909 -0.10305560048719407 0.039491226049180664 0.01486109615139955 -0.0059986375893981451 -0.018638707804935373 -0.046408070316566553 0.006864281467893492 -0.1701503948106908 0.063377601353855714 -0.098924720589312912 0.00031364742810447539 -0.071389831077775828 -0.030064065741441649 -0.03770436769204593 -0.087295232548285778 -0.070101559998373891 0.031247290094981596 0.036781362307343614 -0.061109093292719505 0.018146460524619743 0.0011995207211486227 -0.17861769727910654 -0.10145162617997315 -0.08437720733924188 -0.098736865240356214 -0.055386228308161277 0.0053809489896943161 -0.061389154772913172 0.048539307307437364 -0.058861486219982627 -0.0070559275869167765 -0.049705185454453633 0.085680701198939821 -0.033527904794373169 -0.0048314398906067323 -0.022041804077557643 -0.022203986503698963 -0.0021281582579737559 -0.054667070890933894 0.011377174859698858 -0.062187517252661514 -0.013511071655541737 -0.052757471152401286 -0.01679800945792867 0.095338467209549763 -0.002633101749484665 0.087190618644473389 -0.1261786256754942 -0.031053566065931598 -0.13521449937771302 -0.10157320399872895 0.070847431503995292 0.0090176211342390088 0.016456385986750754 -0.11698370473381688 0.0084902019470625388 -0.1085835936686433 0.06195003915334496 -0.022675468028854142 0.019023312680508137 -0.003956240951070525 0.047320572309220592 -0.009993918926375963 -0.0088119780638280503 -0.0014923535432647961 -0.045336945480084004 0.090861244209628558 0.11331399932981197 -0.018840862056073559 -0.040233730359274342 0.02800700577456023 0.14097664996297868 0.008740849539648694 0.028967928826600913 0.15992426302448751 0.13468813569651822 0.10491743017273938 -0.026386161030845293 -0.12598639019962721;0.034530982671785206 0.084506616457555597 -0.061581809007439439 -0.044101767597092396 -0.029214620477737201 0.097647384745642524 0.12408048992081028 -0.048548102305673677 -0.0029977136441239308 0.095034460664022491 0.049185313034108176 -0.0079106337488065327 0.019175800638006491 0.0086320416245661991 0.094519416251570773 -0.025790271607969005 0.064759666475475736 0.085051043288123213 -0.032825764387056519 -0.028969512668454839 -0.091152689331079173 0.0065552661191072958 -0.096491276975623042 0.02521067389484604 -0.076737499343548649 -0.012910208443466884 -0.033592394849075412 -0.098942573661523522 0.016580932606123082 0.035169261978168206 -0.036720511917138841 0.0039077029900138468 0.088051370088824285 0.016464860146520099 -0.040731598565897066 -0.084880240522281589 -0.073944093740863082 0.02186176319106244 -0.14571339637382738 0.01652394738175221 0.039612902219022604 -0.090095137600887679 0.042720109041255568 0.010218869896439161 0.092792380822057569 -0.049229896492718674 -0.12468781649407579 0.17811781507342497 -0.008393621250415307 -0.076366607745605192 -0.058284254506984531 0.18113541244357478 0.097479242858776377 -0.14130676523264921 -0.062022276205857957 0.13717951565821337 -0.063484974178276712 -0.087556790330926407 0.033054080288553056 0.0364515707413842 -0.0053616480554115583 0.018531267245862362 -0.14151737290242092 -0.039061576979006286 0.063818652151512542 -0.0046038330680075769 0.0062143539293646804 -0.071212920852501665 0.088777574240940821 -0.038481833303601422 0.067632904424025392 0.014754471464236602 0.024544686238430181 0.093015738939646667 -0.047770286488276324 -0.020526733374716447 -0.010709049370166292 0.080889515025652031 0.03390377110937777 0.012019732875622337 0.13803558852292477 -0.085604260286045675 -0.024531502779554508 0.0030069312824408246 0.0017607096841172479 -0.082966885160464604 0.035277782434232345 0.024117285650751576 -0.12790074727924231 -0.0066955630664110007 -0.0348203673009298 -0.086281217176678512 -0.059180808660041558 -0.010342203404972623 0.087041213293576072 0.0060253722900859572 -0.111644759738411 0.030655161898673015 0.019985812730634499 0.018778921940807727 0.025002188500282792 -0.0097371503846945141 0.082219749280778437 0.11702079253216172 -0.10998920306383586 -0.14075528339034077 0.069698920315233254 -0.13800624901771855 -0.023101612731226507 -0.016608185746746898 0.055081849633015323 0.021648192889910156;-0.057797960458365862 -0.070600368950505671 0.040462047848890959 0.058597613857664717 0.088718563931447378 -0.030373989774410744 -0.11857919504400033 -0.15440268331180079 -0.045367188236315824 -0.03083597895084169 -0.01351276784772318 0.084751708162124767 -0.035475915412647135 0.03056543139350501 0.085446954024080049 0.26193913110100581 0.21881687298858088 0.066103236179409566 0.025767539684375992 0.12589541942850629 0.03399259350828733 0.011903842250837078 0.020906203879122755 -0.047469453272480595 0.28035040930846905 -0.066161327294404881 0.18803863217316663 0.1892670467757071 -0.0011419768503356797 0.014346925578207489 -0.21941161005530677 0.028301885485463838 0.040787883212600726 0.097090906420724168 0.19949605061450743 -0.024146713136815098 -0.0068466614225599362 -0.27877647901650882 0.016451356243866674 -0.19378954214796174 -0.01957788340954681 0.12740567274521866 -0.2033113632583097 -0.19938671593920826 0.026526375945043437 -0.060772506360970271 0.043308258849643809 -0.023192857987875064 0.26951461789062425 0.074419244626335687 -0.0037897329189124753 0.057295549620775509 0.039646439813370925 -0.030565798678430917 -0.32440561638937132 -0.060882571612508381 -0.18439008026419279 -0.016406136700657388 0.065378283022890851 0.082547632449134128 -0.032172606367477083 0.043849601334951881 -0.18221498774177439 -0.037302513859925904 0.20576145992973441 -0.096155284590317025 -0.064152329342835226 -0.13270374944538599 0.099385326844679933 -0.037948769230950578 -0.21676443381386715 0.351789345700175 -0.26232350268545157 0.088833592155908178 0.029483003002376412 0.10857779277391109 0.19313275543800393 0.17871003371649785 -0.035091421924552564 -0.038783809942071423 0.094919921660635898 -0.018075961123500493 -0.018231983323249656 -0.086310705051429348 -0.12033191344445289 -0.20100080966713327 0.046735725696143787 0.12826929994377329 -0.097975199404108385 0.030220691291777273 0.15697089089504165 -0.088437442464000315 0.0021355912237478632 0.078797122622954088 -0.0018351940068620414 -0.060682946098242402 -0.021749582015180662 0.116463037865119 -0.12087623035005138 0.08009722023408232 -0.071417876473036948 -0.082022722740489856 0.055552322523594863 0.060168883369759216 0.015993866589804114 0.11600804008705297 0.0924255408420743 0.063796566481856234 -0.026806641938044978 -0.07114983049976388 0.15630065334520149 0.13948433799910565;-0.0076570906627372037 -0.047507164632045282 -0.04181754761258482 0.018187285801794028 -0.0043145541250289837 -0.015849009142989753 -0.053153322288035494 -0.0062496682667379727 0.058085862305372556 0.075895645444374771 0.061688791186623432 0.084964064462486735 -0.11978210127101255 -0.08182184904561185 0.056857736707400588 -0.059625404584502883 -0.030447218998255331 0.042249540579655638 -0.047947609893212437 -0.073380977347035928 0.086166606373967017 0.092886051071749451 -0.015990587946680949 -0.059928137486026274 -0.081554910177672413 0.06992038958957475 0.011563655993549141 -0.041821046188403668 -0.020165576145312433 0.085610290349364182 0.078899107068672591 -0.013287782883107389 0.077941919676913829 -0.06924731350704616 -0.086468413151424506 0.010727848206364984 0.036762656679526592 -0.026627679245137294 0.04970933698495425 -0.078083691286204335 0.0045996460464628203 0.04463156225081253 0.10586447302019139 0.030267308802107838 0.0071896147423421387 -0.04099416370629539 -0.11269136249157762 -0.03977972923651453 0.048263637523195152 -0.0020098158611894655 0.010372620646223785 0.0420369770671827 0.075064105335518896 -0.046961357103314255 0.1380554987822869 0.0043244356174146955 -0.045572084433333306 -0.0014718595936425883 0.076598675790543011 0.050545853425886994 -0.057073635503721784 -0.11829179820398514 0.0055599437229282983 0.0030975163842385882 -0.050297230490954477 0.0027853157027614957 0.015036174926421272 0.010029162803535352 0.042801116767226102 -0.071758781950401987 0.027838965539034557 -0.085204480798262289 0.045077578800182191 0.1288668493631078 -0.074386443216095499 0.05279360493052148 0.041559406372303272 -0.12979968886877652 -0.078479093597331281 0.029387515689417377 -0.039985662776719638 -0.098747062830692886 0.040268032985965416 0.031915752105063054 -0.097868241978163073 0.012692047326173817 -0.029497934265900486 0.14931722708767731 -0.08522138729253502 0.11942766986335872 -0.027961450453586643 0.080909223153565232 -0.012431571334294395 -0.084317548305275616 -0.023099775746800055 0.0026633568888977943 0.11567228918465818 -0.11295191880378722 -0.05112682968949276 -0.12723648394154843 0.0030795030586784834 0.043008466073468088 -0.021079629854779458 -0.10798702977765756 -0.013446822365571405 -0.057747048405507838 0.048198324894582645 0.015776005865758148 0.0069896551125576654 0.083094891036852678 0.058272743353598395 -0.0003015553717158693;0.047342446354714095 -0.035740158201547995 0.080339356953094146 -0.0094648560825898488 -0.00050713819420597224 0.034895852849532234 -0.13201087186165469 -9.7047978504883085e-05 0.026890208560434919 -0.002957056901550497 0.030743817996778892 -0.10247323006069398 -0.0070839697272662644 0.11867315176753016 -0.024521354427942434 -0.054003589337529807 0.10712529086434759 -0.036925901040533136 -0.16225138651862361 0.023863279467682724 0.01655153606800075 -0.02416025822887825 0.0084315000827375683 -0.13738759404872253 0.036676632331092154 0.0072093289780565924 0.083480340867642985 0.088315722517008366 -0.060136970192118534 0.074135466720782486 -0.023102364026197954 -0.060569613516809347 -0.034247522663110069 -0.12625652452768474 0.077195109238603524 0.094513068267908049 0.10110243585427793 0.0020935549491632871 0.19332214777429504 0.074731969825747882 -0.05661954816731582 -0.055408067784704515 0.0090550106247595571 0.24060555264601891 0.045917691879996829 -0.014594755674019634 -0.094304232678324856 0.059612396933475316 -0.027773140649302402 0.12983676922161261 0.0231116875138574 -0.13122130147964883 0.10390426539389139 0.0091390037010348566 -0.031651034755072124 0.18320391699595237 0.0041995766148920999 0.057698194567455535 0.14689330282719687 0.012016963228024863 -0.055713865165056393 0.048381426294062807 -0.082618085475672648 -0.015018771985070376 0.001814907939777326 0.01773920850416176 -0.14413645528835398 -0.10179105078079448 -0.02634908434144409 -0.010479573016086891 -0.080930643834656132 0.12684737235303864 0.064186017297938103 0.013093148767616799 0.057925954789535876 0.10593645196193555 -0.026222252186841679 0.076769949818316599 -0.044256951798289285 0.054785313848981061 -0.031346539717632502 -0.14583594438599909 0.11472712142359653 0.14086979245543671 -0.014600104870949716 0.1322712038925255 -0.0015869521442387026 0.097506719028245925 -0.10921669092340337 -0.081012720733661989 0.043766084757834986 0.14282214285802111 0.07818156711758309 0.090266493587298144 0.012127187584865924 0.14261885769544599 0.12477528462823735 0.0076149609278872883 0.073945051694911848 -0.0057276087143956402 -0.043470806106666114 -0.12429818323611298 -0.1476082804711481 0.05795195077699155 -0.040116274477412839 0.14534530589317821 -0.028049894355517802 -0.066838183710741905 -0.029449885358990818 0.11126701970941702 0.069482257078327239 0.016533751172528029;-0.057474477403877407 0.019415828122343628 -0.0091931941446270274 -0.086825178212818127 -0.074997607250279111 -0.22284722924995917 0.11719705034620755 -0.18538688585493379 0.027771139378129649 0.053333823191126367 0.058218386692911968 0.18560332082127096 -0.19149472060666523 0.0063603757237769686 -0.14494813348275434 0.16180201199380237 0.093943088227099236 0.084960234437458468 0.0013667996283327991 -0.040685739927143715 0.18714299191797756 0.05203500480042763 0.011329304589625435 -0.069472361051048995 0.34024093857312421 -0.2329977878641189 0.231518542226928 0.22084548607566401 -0.010916358357635322 -0.04096039381972523 -0.051127313429735304 -0.07153543859080562 0.24166478477681849 0.010482383313723403 0.025225756793862589 0.12389828078808166 -0.13858319017284301 0.013865918501822061 -0.16642529864932459 -0.0073187590390823426 -0.055772334518029612 0.25980830886636785 0.089374603527378471 -0.26958651269887235 -0.053489896380238648 -0.2416766783400626 0.17307288087180159 0.036745518027016338 0.13141343986577689 -0.033120588098289258 -0.24406519139726782 -0.24580285290449733 0.11870748846638536 0.17653183490434696 -0.10284851679040743 -0.29216377563373458 -0.074039919237309959 0.12775120565020073 0.18426071654954784 -0.19997955844002135 0.20762898499389659 0.073471330213207661 0.08976497794445272 -0.17389007341971952 0.05666144908159354 0.016849760219393519 -0.07750844412545739 0.083744745562670656 -0.097373800302305677 -0.031488320685546752 -0.011593297113552689 0.049377460752633773 -0.19095048320132635 0.22260384742711092 -0.11118043855236009 0.040764214459745859 0.0035026200543855578 0.07864671511561179 -0.039025356100154202 -0.018183158907671314 -0.073807053945515524 0.17384519773760845 0.033297954774588141 -0.048240003213148183 -0.11798064441079943 -0.12713649789938053 -0.068978678662677373 -0.1668224291409052 -0.08890506235585538 -0.026246709809910167 -0.071141853907413538 0.033958288934578321 0.094579337172977104 0.066361604541427588 -0.076319464180467575 0.085337325621992616 0.19476868629625779 0.093078036017043217 -0.20315428314227046 0.066860612299724287 -0.045157133727834989 0.031446128670022472 0.020723250338360883 -0.13668647883650395 -0.20063526613910293 -0.024722832292406273 0.23241732426369743 0.06389745226046728 0.12299581017677601 -0.082286114839372759 0.013881830385443739 0.13578561990405441;-0.052766441050343955 0.060813890528894972 -0.068468340617261564 0.10258045273197744 -0.0039988851605420742 0.064816823535232021 0.072778490708602803 -0.012852925495276783 -0.042817414486706139 0.097878593217665524 0.023105054096928208 -0.063868706093970884 -0.0482890722074217 0.052939667389226681 -0.014409235181296559 -0.013562532896699547 -0.0064638845190289809 0.021614682099404137 0.063315292098394926 -0.14687760588765289 0.052122521713049985 0.041140319105748453 0.030600205521568856 0.084879778773057676 0.046239457254588667 -0.02798110405430506 -0.076929333129015287 -0.095196399477155427 0.020631672039875457 -0.027157134551562757 0.072722541843961014 0.021106265053704366 0.065811156412204808 0.0048019833135724719 0.059498182422173009 0.083449168118536435 -0.13014521287091846 -0.094233260371952385 -0.0062066620107209293 0.060691483107449873 -0.075113509871772982 0.083074965695130426 -0.022837538582341773 -0.027277588332498093 -0.022948540995202799 -0.080718776665012246 -0.11268761566333484 -0.066517511694396583 0.034875507012343869 -0.12647069998151683 -0.018510364806984189 0.020328091109868253 -0.012533891230617092 -0.038210572083816653 -0.080188385787343996 0.046559942755345453 0.085355085613778831 -0.015823051646070691 0.08913408214877272 0.034483006533075282 0.030740659785542385 0.11403802349250253 -0.08115571687730283 -0.11696383368603189 -0.032132426060401641 0.1008887941541935 0.049666792441645617 -0.086941816668180655 0.076621183059523618 0.019717543127664553 0.029037685930608279 0.027089471039297219 0.13254888619163588 -0.00073417488898573332 -0.0036215618009931699 -0.0011314529078654849 -0.13221559609628114 0.014101195440733931 0.0043971776858487818 -0.13145300234641738 -0.0063113143166439777 0.06395843198841622 -0.013528094835969413 0.026048676169787677 0.012975231295183971 -0.10490743621899054 -0.049690430700669044 0.012276478940475819 0.070260588872862947 -0.094779593520809946 0.029829730885728163 0.11829009481650488 0.059713187507426303 0.017204325071845744 0.075831934317372354 0.073038969045657598 -0.070078790922240244 0.04168687165432685 0.024091005100426527 