function [Y,Xf,Af] = myNeuralNetworkFunction(X,~,~)
%MYNEURALNETWORKFUNCTION neural network simulation function.
%
% Generated by Neural Network Toolbox function genFunction, 10-Apr-2017 09:37:49.
% 
% [Y] = myNeuralNetworkFunction(X,~,~) takes these arguments:
% 
%   X = 1xTS cell, 1 inputs over TS timesteps
%   Each X{1,ts} = 14xQ matrix, input #1 at timestep ts.
% 
% and returns:
%   Y = 1xTS cell of 1 outputs over TS timesteps.
%   Each Y{1,ts} = 4xQ matrix, output #1 at timestep ts.
% 
% where Q is number of samples (or series) and TS is the number of timesteps.

%#ok<*RPMT0>

% ===== NEURAL NETWORK CONSTANTS =====

% Input 1
x1_step1.xoffset = [-99.9939;-100;-100;-100;0;1;1;1;1;1;1;1;1;1];
x1_step1.gain = [0.0100003050093028;0.01;0.01;0.01;0.0952380952380952;1;1;1;1;1;1;1;1;0.285714285714286];
x1_step1.ymin = -1;

% Layer 1
b1 = [3.092125777759883;-1.5787152000712248;1.7264011929680219;2.7876365422661027;-1.5363221026619649;-1.8516210337057977;2.5419069341365441;-2.9314801648312594;-2.5732202160547906;2.646445712843287;2.3552179102656758;2.4869951215867561;-1.5376116002240907;-2.8078507389861129;-1.1098677820012506;3.1558291190097809;-0.88403669019115361;1.9932689817800615;-1.9975884706030838;2.0215742074839511;-2.2534632159564736;-0.47965304704093342;2.3437014522280526;0.97925305307384181;2.2292760401160345;1.2965271972600836;-1.3703940110203074;-1.2495126386476687;-1.9204121958191909;-2.4628738826282475;1.0846079297199109;-1.5979818127965031;2.2710251445855021;-0.40542925674562669;-0.79691033239173326;-0.54509298844553467;0.86205387532554556;1.1126494574453027;-0.039863276922520015;1.196070854272377;-0.21723530578070269;-0.39514609012457835;1.288268222632003;-0.060506427054827748;0.98018621975534614;-1.3928611863367844;-1.1071044777646377;-0.54911480047631278;-0.93587064270764919;0.66583048376509302;4.1600291789721604;0.23438148981041426;0.82944143268102022;0.12192476094904217;-0.17028205879600064;0.47203445374189307;0.70642409883760515;0.19755223941005809;-0.37413762610999668;0.30163474078803681;0.284335911177442;0.1932921608254583;0.55401606174635398;-1.423750951876674;0.96411311512977493;-0.62851809841792328;-1.0992534137738286;0.8021116473491785;1.5470233697293954;1.5104622040819276;-0.0071852738248659245;-0.1008472454247281;0.015176162140302304;-0.96484876110305773;1.1941941672215548;-0.89796145586742593;0.086187615357980349;0.93727545222791009;0.028043854627509208;-2.979606438507552;1.1815379548806157;1.9875973033608194;-1.2097715505864068;-1.2031192850731183;-1.0137401563854009;-1.359043528154388;-2.1554113568568831;2.2607693346898627;-1.640349000843921;-1.9217071667200758;0.52650535443768232;1.8955441022641921;1.4968782768858553;-1.7634296002240877;1.6599304234869896;-2.2307748611339591;2.3953022851266619;-1.3419887363993617;-1.9228490657166437;-0.91850752166594951;2.0743010821491246;1.7329561116823105;-4.2007544186693879;-1.3626146157219874;-1.2208414699887942;2.2217738374747174;2.2756830002913011;-1.6265396403922547;1.9188895629547862;2.523661404650213;2.9672175810012082;-2.3394683924877988];
IW1_1 = [-1.0345113696045736 -0.37416649960086168 -0.06105456929019832 0.55241106093946912 -0.14962151437725441 0.55208913360844492 -0.44399241234738773 -0.27412916436763812 0.21529953541285962 -0.034974797189156276 0.1598821498562995 0.28497903861853391 0.065234384987224239 1.28341889448699;-0.017677298527496197 0.69240267851495041 -0.19864267219742696 -0.1478970644732647 0.11433419146656311 0.71375104096478903 0.11971567094207679 -0.18814259152455021 0.52948792062226679 0.44643001137830796 0.16115345488899077 -1.2912817491350055 -0.50707850732557336 2.4528444638884248;-0.94668298930106121 0.62935434029365767 -0.66101625713137724 0.54367849595422191 0.62046963571707814 0.44820373296534061 -0.19900461347695464 -0.78159056489010992 0.29845567509453391 -0.11155208715744566 -0.14686222100762356 0.60253886593757666 -0.1923108453056589 2.9066609313508676;-1.4643516390304452 0.77175054683707722 0.55695075916628967 0.22350204709888091 0.16623495752348424 0.35529042843610731 -0.36725819297825535 -0.12188107381000957 0.19135415428523586 0.27776049681941439 0.33687155361999632 0.14974610581191231 0.2823198275480916 1.2894835433391278;-0.69085330338513373 -0.29621439772938513 -0.63806178518794587 -0.76114764022599768 -0.53052587576440535 0.15764227715064918 -0.091029813341290844 0.2096411772461427 0.18387817382753041 -0.00015210297553519347 0.32408382863412072 -2.0156039356357369 0.33827588598576075 0.69118424567266634;0.35065938300135874 -0.15062674370481316 0.38110305040334763 -0.10065294166033469 -0.13239461501668376 0.97104928579454064 -0.1895514474695256 0.9999433781460908 0.5265385900332803 -0.24414285731965746 0.19526018527181899 -0.60049379882411957 0.31099641292356117 -1.0938183206386403;-0.54014737553226666 -0.41805010570456563 -0.2934298698363651 -0.46185786191458167 0.087332857965028002 0.38691125014562855 -0.14678314004524157 0.63958022172303908 0.21200044480780764 1.7826726738807599 -0.80226881897984148 0.64190645575823924 0.27269723172171734 -0.3686186488641347;0.32048912177519184 0.19012547389734361 0.10510793679697587 -0.044885787390730555 0.071701728155747366 -0.48356292216467411 0.38205161869047488 0.0505669930571589 -0.24151503351740933 0.42394493827010193 0.29391151737831617 -0.75452209562977457 -0.84501375763984432 3.6073497929098166;-0.15718225610115424 -0.14293321005028978 -0.1401192762511787 -0.52724648232522253 -0.069466017561845589 -0.092473260645975108 -0.099613566392937919 0.03960761051299231 0.2695204303626314 0.19680940296348201 -0.38591121630331193 0.46582088285870876 0.64988897902733733 2.6017939790232902;-0.040027361148078269 -0.15611551407290877 -0.12489282873762414 -0.16492292103037373 0.16842811025227497 1.5892248784921661 0.15114821761415462 0.53128288289553305 -0.059575079420451371 0.38738518169289654 -0.51257809945644683 0.74117001184229525 -0.52165496223755681 2.6828695793959323;-0.54233316274326937 1.1555266815502989 -0.077486027010444963 -0.0024454212730766153 -0.73706384446079021 -0.18418191616422744 0.023172714867277806 0.46660528992970646 -0.069121524671635917 0.40702079391016277 -0.25295378008286734 -0.28064234185142434 -0.27469285765183105 1.3170389555964659;-0.88571996832123068 -1.3676686243032921 0.2643621660141473 -0.86538096929199282 -0.012621093990552171 0.23968610934569332 -0.64598181224319728 0.072897308857938228 -0.22486426586109662 -0.099692245826254841 0.15248949239144469 -0.17971955648260218 -0.40995379395840759 2.5188987717419562;1.9282832553256781 0.44130649433539182 -1.0806895495484627 -0.50083713813141562 0.55238243197136527 -0.25485106492547971 -0.098172342812946026 -0.092929248933705244 -0.13513637469604181 -0.32330604923904077 0.049534639587543783 -0.8381997029682533 -0.31266750584643133 1.2551947715964886;0.079509375491708223 0.92296022346365847 0.32613437022765013 0.608352911598669 -0.065997144689149786 0.16533295395989736 -0.25666847850851321 -0.41339312549770119 -0.75284682191641195 -0.68717815166467078 -0.10111098620554737 0.50102764553505086 0.33881994815169308 -0.89607187873209138;2.6132148269090085 1.0049346697041666 -0.35087781698384346 0.1239507507875299 -0.18708807302231406 -0.35830853329354084 -0.066976138194974527 -0.45550895996486557 -0.3888110774046471 -0.5213064822581247 0.051981808984138969 0.22353321554477087 0.31104279210796792 -1.980617580816922;0.046556888248453714 -0.31955287625515677 -0.58647072867667516 0.070304409126304479 0.067019638529962913 0.2371302585562276 0.3035639617658345 0.24369136488270962 -0.023278490692493749 -0.52961540836762222 -0.028122767470249523 -1.3216076486899426 -1.4747390997547596 -1.7986446937135103;1.4193081396075682 0.82025554543342905 -1.1282898616906845 -0.56932099438509487 -0.059370185341437787 1.6700736292279454 0.29200023294393662 0.028164066042885252 -0.2007772367286014 0.14178712208208685 -0.56644485978508075 0.18683298995550343 -0.36630491895135109 2.8526283906877663;-0.34730109780982049 -0.3917645259180304 0.39894843385547069 0.14350069404078741 0.0031983227399267331 0.012668071394541774 -0.15547332391551585 -0.14206635590385047 -0.31168198706248834 1.5013135645161815 -0.12434933450693923 -0.27288359767464776 0.0143596577789972 -5.4245706009767556;-0.15089993901060417 0.67353317440194704 -0.16702446781052407 -0.82322192412402861 0.23965850365494581 -0.033142758712691622 -1.0149048877379185 -0.75250346172245242 -0.85100495828468803 0.41837072517439677 -0.066011540951817299 -0.62645012791406884 0.45072151669944333 -0.025564124101266805;-0.35233277259914347 0.14091525536376628 0.85573804996888714 0.3332033888879527 0.092939647016074475 -0.089509975460829672 0.00048256281707012848 -0.566257588259102 -0.30587340423307463 0.39082389966880859 -0.36809616766568853 0.17326339129391599 0.43335668231966928 4.3923004103346548;0.56593165334130335 -0.64871612972418746 0.38433768521667633 0.62627336743269257 0.024867129882007958 0.0063032162959939598 -0.26550440331157033 -0.33246637196076051 -0.52929365774761905 1.1593669371799877 -0.40568920330109343 -0.058179955807919577 -0.16582275311409569 -4.1467423143542979;1.0792168876590991 -0.94004224104784229 -0.07672114021621565 0.094545632648647418 -0.094917221843070887 -0.67623895742953732 0.18402784121381435 -0.16140267578104275 0.3654922168744108 1.2549824296330003 -0.0755791490342929 0.18160821678114972 0.32746271056166754 1.4385308665014174;0.11807478698543747 0.37682371894339994 -0.30557275805625184 1.6178825164292741 0.019073121465733128 0.96694536791508479 -0.050976920321299878 -0.075490628725642425 -0.40169258865117302 0.94614891945104207 0.25396595674691164 0.38873806595599292 -0.036689852022496035 0.69709145568318265;-0.85216490357741537 0.033685730385952448 0.16880582284122397 0.3020921691692347 -0.0049996074092659888 -0.11905668091774381 0.27263194071123464 -0.23733810038586894 0.41549821439605639 -0.24678057261711223 -0.35544430300469998 -0.22383375641609565 -0.78353426731069664 -1.8251085562934564;0.75662327481037261 0.092939258337566666 -0.2523667056217011 0.18614647108122231 -0.14330444510687743 0.36554252840389972 -0.36446885743347956 -1.6508924717105014 -0.3558040002139346 -0.32124931522904143 0.28191215873677689 0.017395345674554738 0.0076971606787727158 4.9893873251097762;-0.062748490764954382 0.17555850196891185 0.27916469505596148 0.15710722637293079 -0.069195191777300658 0.076026248995549106 -0.55855071076087681 -0.18912524644392703 -0.0044452123121137147 -1.0616577255666653 -0.92827063590361214 0.32243741655004254 0.37021916986332487 1.9069401302758202;-0.32878559272356744 -0.3133091547165226 0.15490993647381335 0.98587315107588314 -0.30297790331875885 0.2980722388887071 -1.0361069529536984 0.091227016785716597 -0.088378076238265921 -0.62086243200590163 0.67323596964918098 -1.0413591589239053 0.14802218410978829 1.0463628940213501;1.0248153138122664 -0.7878024981755033 -0.78224480952397379 0.14817049891279388 -0.0057807007243682691 0.091304135610659753 0.3281145505583638 -0.063550453403683455 0.11821554871533557 -0.2582512183845998 -0.061897319726349313 -0.091656129948298359 -0.21302378146440645 1.0363099645411102;1.2318304416278718 -0.88435021848508288 -0.55378525334318407 0.31345746370876587 -0.34324706254719795 -0.39839480098173236 -0.40927943919970344 -0.22777375353717993 0.0325947510405191 0.094733964282654085 0.76030398853836056 0.45953315307747866 0.022374005308731324 0.25117034571513791;-0.47065727061577212 -0.42546791631629505 -0.2837593535217981 0.8273113957828524 -0.20463628173622891 -1.1377811983966781 -0.14455865761783671 0.75873817118343911 0.19672752722801379 0.17333799022955199 -0.10862938670097688 0.17304710742391016 0.20677613720199506 -2.4821496599605903;-0.55015291711581915 -1.3644464538141348 -0.093899198355305358 -1.002630304160953 -0.053921645375455268 -1.3709826372380944 0.00055633131579668868 -0.35278146206252331 -0.17545424004372562 0.17289509491662028 0.69521831253459099 -0.31394615420299626 -0.3315271008420197 1.7935524772170175;0.24487033351240811 0.2833802067867946 -0.23227991915984417 -0.48182399079714294 0.36058271400096981 -0.94629532009877348 0.50698188433595015 0.14517685709051459 0.20677476129398681 -0.25257024804758821 0.024403415692837119 0.1579247797076187 0.24725501786170259 -2.2732188080806019;-0.52427299183169029 0.93248366561636831 -0.02739197297369679 -0.45182814729248977 -0.49034802913635345 -0.066971010836725214 -0.2156693890545425 -0.11974192151624272 0.28054155634291855 -0.098286417802339821 -0.031066094165310119 0.49955619888404251 -0.67947738839231964 -2.7799110840989876;1.2776488904974694 2.114860444750791 -0.27875935413906033 -0.36818521694045708 -0.34093170431998837 0.15712062367629212 0.27376920226195728 0.26070592286105831 -0.053657628032302895 0.22870567412729678 -0.37111334881053759 -0.22087924919560287 -0.70227077957654682 -1.3446799923548549;0.77942692081790144 0.95051739065834817 1.8990414695312994 -0.51804554535579206 -0.084428538232074843 -0.24306972176882718 -0.075576367634354227 -0.040930858963122825 0.22347634897489141 0.119248781810743 -0.2418011092654094 -0.11118568617090276 0.10587701082599589 1.4215545593576167;-0.9464340298106434 0.25234702005114634 1.3767605129964959 -1.6286235510722069 0.5170681626781668 -1.3072802291792722 0.22963593734025603 0.46364315396011074 -0.010187734202461501 -0.70183323213298432 -0.35518833455970744 -0.044135070027687413 -0.0038231309282772664 -0.7254897002580788;-0.11635837322428323 0.21614445602094071 1.3384597382131425 -0.82888616379104829 0.1854862053795599 -0.3721356221657296 0.35892126749520015 -0.57643294785915478 0.47087529562265884 0.24034106080929493 -0.37193013923728402 0.18616499394688443 0.30600825350738547 0.85261966729007754;0.072521922952055284 1.3039710429489102 -0.74981940082960497 0.37331120991524525 0.43705516394373539 0.223078879610945 0.16702455308549413 0.075847636461772394 0.11512245818356248 -0.088223900021341409 0.61711250672193541 -0.28083092671472631 -0.022610474415848035 -1.6040447308727301;1.0275395858055254 -1.9104738750560852 0.91044011217441878 0.23436425929648619 -0.13572718167504957 0.2641973007346553 -0.34246641280545814 0.25128094149156566 0.14946331095102453 0.14572096953526834 -0.0080478084660893946 -0.050115858032000853 0.24204753230451218 -1.7071974506792393;-0.76495897664177914 -1.3614615150637541 -0.4566815350347937 -0.41247603842111852 -0.010487966323888445 0.17323285345936246 0.17742462878606152 -0.53850470959393237 -0.51976683984619365 1.1401094138883081 -0.014117090540277622 -0.36272366065191669 -0.11968724708325729 0.71416500743174682;1.0181214283387612 0.022789836550575197 -0.32457119026595538 0.035669649363965383 -0.13225767803033792 -0.15080916450335452 0.049611684601233601 0.7325482718264924 0.06029350795934655 0.31217496647425569 0.048533441177586269 -0.0067922828892413543 0.43284260955188136 1.4352610420049956;0.051520123025897889 -0.25226447060606905 -0.4185120962486969 -0.55265489990968109 -0.41395085086706435 0.2284266756295566 -0.078723968150613069 -0.24643019369106561 0.53256680787515542 0.067133923848954058 0.41897260493661009 0.80187308993647732 0.37927841117337419 -1.10182271687018;0.30417516771058961 -0.31188853054475646 1.5379998127937176 -1.1871755793804939 -0.285714846578003 0.55525260954492583 0.23824062520430947 0.0079403082070351617 0.34833979196558867 0.54066033726480955 0.92054129010966512 -0.23417586190107709 -0.70835628500188008 -1.2978848056444034;-1.1950077236741907 1.9671299514632137 0.54081922375683644 0.8057363715684388 0.20032511292598257 -0.14049127042350257 -0.6325539571798442 0.31023298897195511 -0.37850518320114446 0.2944777910633401 0.10057121094153164 -0.54025274888758834 0.34920995841973124 1.6827883404912751;-0.38476340721012103 -0.23687666339561469 0.064686141999136804 -0.083264809860226885 -0.30672358131670951 1.3886111732501512 0.45480884833287533 0.53739230661277693 -0.18230529833298123 -0.67518727092735464 -0.072825767159598057 -0.4679749158859452 0.22168474097693563 0.3343687374470975;1.013218432374859 1.5544560759995032 1.7635057158513388 0.025710529146198872 -0.34737154763369044 0.3933121467795288 -1.3634026169231488 -0.10740288736140932 -0.34115043850773374 -0.442648137201892 0.17560925777076203 -0.99720292290109125 0.52699816434787439 1.7089312533842738;-0.18935024159567074 0.11467188525915024 -0.115848074662788 0.36488066018551768 0.093506680902793987 -0.36641656116713467 -0.45500969123341645 0.46316198422226934 -0.16409534559555536 -0.042336461697473959 0.12198601870674999 0.11714898540106455 -0.11807468136580854 -1.6801801846188185;0.17120733611447467 0.70363591933278091 -0.45930757890118734 0.74653808261242605 0.33064843435884383 -0.14345098103444531 -0.41941435514736181 0.12502301615361705 0.28782308700787979 -0.13468000456705212 -0.34970133747559401 0.15875225143041002 -0.061346219367157402 -1.6008928736055801;-0.16893810775512577 -0.51610170708019143 1.4990146738116907 0.93328846018345013 0.41690314465865136 -0.0010359454927453611 0.49299264987245456 -0.13012207873658171 0.024099994526873506 -0.10726735614989821 -0.10246940569492849 0.62692353087775854 -0.78052550391005837 0.022603696355136347;-0.55015249043693693 -0.049673860812915693 -1.0864115350024712 -0.26523739411806063 -0.5165456056541804 0.22906336539746894 -0.14904480674589832 -0.30473071308979854 1.3147464448452559 -0.28807517616825834 0.85358866715912507 -0.62284927883760743 0.11184198659024808 -1.4496326026946187;-0.4780387974243207 0.2077500379473094 -0.16904104500355657 -0.20901091396815075 0.074481472430247594 0.1867947343534499 -0.084375303122418657 -0.088882621269767856 -0.4915970507123959 0.54798522574133635 0.32533315145125202 0.20551922088505023 -0.086766562762664812 -5.6275358063950085;1.4649566786824488 -1.8466794095226364 -0.3319090563757906 0.49376804989852763 -0.2723128309870454 1.0580783715253124 -1.3749371118543567 1.0448676582334047 -1.8489064210625714 -0.44627280709146611 -0.23815009008510316 0.48267500177023176 -0.35018855336014276 -2.7584062843072408;0.75398208258953769 0.025031920203370417 0.34959383977401753 0.066628561787865359 -0.031169926586188338 0.053414825575942626 0.020155349779925839 0.51198949979067854 -0.15831832751281683 -0.33994308822658914 -0.63693854618446033 -0.47298105069070984 0.47879855603116583 -2.8296652322395794;-0.065593068349709446 -0.19343957952918281 -0.042238365919035487 -1.9732698407376612 -0.21616944531703047 0.1777112121024296 -0.60148917059175799 0.18483423416785164 -0.5879693716217772 -0.35244499246456568 -0.69886254627640754 0.14050506736288146 0.010802288984477626 1.0628504300796981;-0.17858381941010881 0.042561184847432897 -0.11194308442905324 -0.25933239865864111 -0.037317931786276834 -0.082552094856866667 -0.020459723371843631 -0.16935770189689422 1.5154063911115665 0.21530467193223396 -0.23900232221921378 0.13396448506337816 0.18960417580520308 3.3168811181227897;-0.51670931466279557 0.29814773679425099 -0.42259636521874494 2.4053670935745766 0.26738255074570222 0.37025674994276081 -0.16221475736070168 -0.19290183622693424 -0.28547013198439214 -0.20707873764214815 0.65335770761650847 1.5902482786504781 -0.68353779797609882 -0.2262016459061526;0.34436579186564065 0.49479510820884526 0.27689524887605049 1.1095475450575487 -0.58813770983029878 0.35789157984077835 0.32052200412011228 -1.274588409790816 0.2110257226426912 -0.2025714978659772 -0.057958620724023677 0.39245706391881791 0.0047866219658769067 4.3738229633477221;-0.0059958420628573273 0.88520013336486081 1.8460681803473744 0.020019489938627417 -0.23783333586093841 0.63359073579537983 -0.33222479880690475 0.067032841678043117 0.32965998480182135 0.18164641575282717 0.22888347583947694 0.27123471006544847 -0.028160131287172686 1.1423068956649363;-0.22206165582857393 -0.6304440469366156 0.37911941500788793 1.8685253255227396 -0.0080468291219489146 -0.54683811154164697 0.26306013424751556 -0.46579706263655246 0.17548306479551831 0.51744334805892622 0.18042354698886384 0.19839028686383944 0.081949607714214792 0.67374027454106566;-1.032338956562131 -0.23861332547927683 -0.5780403265172348 1.5266556085370775 -0.031904612856434401 0.011093159659910952 -0.37662855746380802 0.54019664288443803 -0.2404728161652577 -0.42402027343720999 0.30375986312076098 -0.49280131779277991 0.275671141800441 0.36164123440318441;0.23753380809094457 -0.31341608610896315 1.7244652270395318 -0.43588766266588902 0.068077897499881079 -0.04107274679079892 -0.45188771100766445 0.32137031204471106 0.83842083521010802 -0.69297165455566045 1.0692293100004679 -0.72795787625070507 -0.2145465138127613 -0.50161970371608811;0.076124475568025748 0.46300895939199971 0.19183477253333181 -0.75701937330276192 0.12293749663315554 -0.84015956971122518 0.092726913653686446 0.21511057488652641 -0.088406932591768794 0.25246682524765557 -0.55695203057090281 0.01945624957522718 -0.87649301902481869 1.5431800259512503;0.39407390819811566 -0.37583640976177118 -0.49507621306564281 -0.27583621742077269 -0.14295813169156651 -0.034199756210507394 1.1102810545479154 0.61514695494647276 -0.21884163129572162 0.41941087087301804 -0.65954734027801065 0.39777491517366537 -0.1150828233851604 4.5730093157148142;-0.36061018746762996 0.67017973649491303 -0.24192618864022367 2.1627733079485858 0.036068102670850831 -1.4341346696710091 -0.75428627896388056 -0.42058469789999869 0.4615716499014027 0.60171397845768027 -1.1101962304732 0.65785779483257867 0.017522505283319549 -0.39966007275532783;0.3779870034882018 0.012250578912098813 -0.090412718675791606 -0.091685083479530888 -0.23611896853659581 -0.43742415079829344 0.31005621276226381 -0.18287309113147726 -0.031720870336585098 0.21266718346389166 0.54704355059996723 0.18930012778118868 0.039432266727672763 -1.7791442520629461;2.3580423507707966 1.6142053018729423 -0.79658782701332609 -0.13790419214935365 -0.077807701012131039 0.79128315507354119 0.083129024516213429 0.79290431435818276 -0.55040897231601316 0.52704085430303427 0.12967230460134729 -0.26276094111748194 1.4281276407028884 -0.35301158582596942;-0.77042052767174896 -0.28536057407670978 0.41763364704154632 0.054787264921929625 -0.81135652805595226 -0.63782018627791837 -0.17386939155461059 0.32568109881900814 -0.089224187359653165 -0.2945118115596746 1.3847328107778434 -0.16858719027479702 0.56558373102529436 2.1579663295357454;1.1209554988721495 0.31009249364563402 -0.22283214367113252 0.82425435582294471 -0.024183139109586943 -1.511221754111123 -0.045218658528340415 -0.63972589633620103 0.22450180891935684 0.38387961664388909 -0.22199966135667762 0.21196691710620599 -0.13627865484315191 1.4142240947827114;1.1262842885987225 -1.1423617449567229 0.51190257063088251 0.059168512019262598 -0.84318466399948988 -0.27017046053734789 -1.4548840646023815 0.40854839313585495 -0.041439835432936972 0.49767127438185244 -0.28745064927717862 -0.04692085745232516 0.18264253447903114 1.4045935157292713;0.42135122753329884 0.32165715475374901 0.42405647410665814 -0.39021947213560526 -0.23661253816586744 0.55922698077196431 0.8384731965550638 -0.10413979969976667 -0.22288464916405662 -0.27630446702558031 0.62800246640402957 0.26407574665577205 0.59908226854563373 0.77727362768241537;0.074375467725264377 -0.40436793374557972 0.56742017249575838 0.10036938008659772 0.31301856870798939 -1.5399835946602762 0.30518220037473537 1.0247345709220899 0.63467083550523273 -0.11233091831165955 -0.6576142276696777 0.27652728703006363 -0.52323710112988964 2.3796613295454243;-1.4904839936857401 -1.0247728621836678 1.1455511421135836 -0.18871605657504609 -0.3124081349443516 0.021199584584504157 0.17153727594016083 -0.05266961660200728 -0.22538169123314691 0.070903433889441064 0.033171321720027201 -0.30224495030129545 0.80048529919931211 1.8720822366707541;0.71082000821057267 -0.31417141662682629 0.068435347087051929 -0.57013227298415503 0.346978816133649 0.31092017348709911 0.062455436855585307 -0.25763686444678446 0.17913303482519191 0.32664442172873515 0.20521382766551552 -0.51586586734163209 0.40178179810277392 0.97065688120488913;-0.62551814181496845 0.64746050571566183 0.84807134063748779 -0.012878123788162851 -0.0050300406623164547 0.03299764028560985 0.61608167396465885 -0.101342819273116 -0.63197204569442633 0.21055438774471211 0.62712662613135883 0.17456662818007709 0.5877066904772642 -1.7604162659559603;0.24988719561109018 -0.20233946495579497 -0.069081592810652556 -0.35581927777654837 -0.21731100674709034 -0.54393979357316435 -0.41363664727483962 -0.71121679086075207 -0.17286436242688422 -1.3393235854344858 0.82411874962431442 -0.0013988495886517456 0.3348026629870452 -3.6034883464785246;0.07404771759152097 0.15695012886662599 0.53439640456112447 -0.28827158559318522 0.25366931266480086 0.26898111973579875 -0.24449009454717732 0.3408647230922528 0.47337133389566372 0.99116776719697575 -0.026981410530196433 0.12510736818258691 0.14905445136971324 3.2592147036700529;-1.0906449981683506 -0.34230234695254036 -1.1028218036720354 -1.503845863610735 0.26678203036598552 -0.15195757004807339 -0.44755169930017646 0.59256183241167926 0.032662115161222166 0.33844941717098398 -0.26260350250982523 1.1162245438268539 -0.82867177264614922 -0.4098688319135716;0.15194299171954637 0.77425204287320293 0.66389452322822229 -0.18583210141679343 -0.24136760690147224 -0.15340332741439655 0.69474586489300705 -0.10294409324390154 -1.0782774777822814 0.06793942283150993 0.30077560354628496 0.53140038716855864 -0.16066300435622402 0.38048928640472635;-0.28330845917555375 -1.1851468788253838 2.3266228275372134 1.9269359903093959 -0.0095685723416078419 -0.62005745217319908 -1.0758472143217646 -0.56190521074667221 0.44552223672788249 0.72591085277662981 0.091518077624734767 1.2910201465915154 0.32867335957135252 -0.34275155377517519;-0.16232412604405189 -0.17615082612386224 -0.20671548626161998 0.064202268062290443 -0.017079497264483202 0.23066972602640359 0.10782406201652409 -0.014148479097759509 -0.44026511022530107 -0.38192034732442243 0.02371149133640911 -0.88530060724049775 0.014335258597227762 3.1556848148651269;-0.46928097583994155 0.14679549127711145 0.17327628970086517 -0.40675649706925937 0.017271348975730291 0.034241566659364876 0.43881842072406924 -0.33196701698539999 0.017331402257885094 -0.10058805157031951 -0.58117411932070828 -0.45431433219065137 0.81961634751907353 -3.5466687243768771;-0.33229491273351813 0.26835440740215449 0.22777900235140175 -0.52625524677009738 -0.45603989719306376 -0.063174609151702393 0.20336818896007069 0.80288943666933665 -0.59671583776115078 2.235430422864547 0.046201127678334085 -0.17121397926686049 0.11017934504013913 1.7066125103354499;-0.053893660515389623 -1.3293776667140316 1.5348755267319341 -1.0592940726852789 0.23864346041242609 -0.22169953237549486 -0.50677981278509188 -0.036340616215387235 -1.1131973349725286 0.22348026825099465 1.0945177582105934 0.31293658699292598 -0.70384177427804273 1.2599130750290926;-0.014716134656342977 0.39164368795445825 -0.33699038189520208 -0.735311327236853 -0.049763211878093294 -0.16701811893181889 -0.07427488874047139 0.46609322243722051 -0.42408871723465669 -0.8596708202050013 0.069391336276414042 1.053018088673733 0.96052361986863455 0.17612179384573251;-0.032449662797370799 0.75671257395530778 -0.16197391024937544 0.34680094244243759 -0.37302599950461202 0.81888865880554162 0.025107919921173897 -0.75181868128602536 -0.83263199309185187 -0.01852432600067384 -0.0066199548057342718 0.27288305417519876 0.36592476245528982 3.2574689157624159;-0.2004954093909547 -0.48134962977075024 -0.36572640838148829 0.41267141956939818 -0.093392017199299876 0.27230608909120058 0.1877257615844172 0.059544558516649533 -0.37829888288736185 -0.29740249595830365 0.25156630618359538 0.57879659683218909 0.58046940213343012 1.5739070754053441;-0.30234240041044524 -0.25179352277012068 -0.08548231503949455 -0.50105989569744414 -0.20288311833351289 0.73621771870620512 0.49485115105795241 -0.24075927906069808 -0.045857295927830763 0.50670066113769008 -0.44619586116405235 0.08589293846237199 0.15703507806270636 -1.6384014453490257;-0.020385535381932152 0.48004331702103453 -0.12127982734011346 0.41645327615535538 -0.16775388693631646 1.3693974554768711 0.09447534923476944 -0.539630284843301 -0.2429081498733531 -0.0019034570901100495 0.10640204259159479 0.19287596629412868 0.15286047707319178 2.5953920217339448;-0.5727214819431824 -0.056832978220906806 0.56634414363029473 -0.57787537993970528 -0.70801976845977921 -0.86619337714810141 -0.29842447239950182 -0.26595773934759098 -0.71058557270876277 -0.14993497473998402 -1.1317784517280216 -0.27394205458668602 1.2138067859571209 -1.2863034642279461;-0.90225514331473178 0.51171222823931395 -0.39368468134380535 -0.2112662402420965 0.19949802359074964 0.17395653006320758 -1.1270064855566853 -0.16547246365552054 0.31157491413583877 0.20617528200175825 0.090255830451377236 0.34155854565378435 -0.29184921596506774 -1.2819103499107845;1.4986490363693172 1.8044958565643627 -0.26163841108253388 0.3795017162731667 -0.70756095172731492 1.4602265352672963 1.1126910270549022 0.123557477829743 1.9554116164117035 -0.80172394999897245 -1.0308772309327159 -1.4410971794148502 -1.353659956648908 0.94876838037028366;-0.2162703902918432 0.30937231511037988 0.14162095132650224 0.14206713461365644 0.27128379782826229 -1.0265468190578582 0.22499191366961654 -0.17580582606292941 -0.1122960379900179 -0.23517909797610351 0.3638579891753968 -1.3558577666806153 -0.27380684455973625 2.348443106822597;0.0072397474307136864 -0.3556297443672764 0.13896168719193699 -0.52009760318346665 0.038383933876244232 -0.0073625464762257864 0.090659870360068714 1.5306792118890113 0.41982193014866587 -0.20507654664752462 -0.055562990930237477 0.14385739254733276 0.11818010601511197 1.4095832819376208;0.27791891200292917 0.36582467649717926 0.21906157619538699 -0.14096110258186048 0.022168827600064181 -0.14059642713319248 -1.020691036404989 -0.430295109342344 -0.13190651985878651 0.69117600816594638 -0.1969729142417109 0.083002714834794072 0.020767615369966838 -1.9969244772985957;0.59402324293460551 0.26556024938775591 0.70437967151490677 1.2119567921469783 -0.28301002278857418 0.47656828085454156 -0.03432682296219846 0.010469765330624095 0.20500894220995805 0.23387565062883048 0.21934921557951773 -0.530414182533409 0.41800712514612243 0.032706674600562653;-0.26589890276803635 -0.41325191808213502 0.67356747449456877 -0.5816936940479569 0.015977141161502617 -1.0714936867100662 -0.0037119228691386793 -0.78722410193549486 0.80342817891643781 0.12884135166954547 -0.039085557545165454 0.23006864495540361 -0.2690371377513297 -2.9814864369229173;-0.49995842630692522 0.36062341933260006 -0.57443096586348297 -0.32645234502004628 0.23886009164288205 -0.30389519528818221 0.095506567494836977 -1.5601643786538515 -0.75741276917476341 0.39580839890439434 -0.079922346404052477 -1.1294134131393492 -0.52652810194997823 3.7874137911245502;-2.4573447374205921 1.3423075515710394 -0.21874519605607748 1.0335477747648838 -0.05805756430819857 0.36089028190785422 -0.85552649021793048 1.255604885853504 -1.031176346475114 -0.06178306542562164 -0.28152703076504387 -0.63076907637351964 0.34417965711504778 1.786296624534542;-1.6079746647596636 2.027203274366018 0.35178204436713278 -0.73704267275462521 0.22947229269670499 0.2615292968277782 -0.71847586569185373 -0.042157159703149844 -0.46829164100959542 -0.2459292518891058 0.35004565198966925 -0.26393095028994473 -0.40268792783255969 -3.4001566532459893;-1.3205572628932392 -0.42074410166922283 0.034931404687060789 -1.53445092306341 -0.24690304491043563 0.69058975947408507 1.1624138174167504 0.43464503073244365 -0.24498164539823633 -0.17449368307972429 -1.0333004777185986 -1.2811312067784348 -1.4922729254594744 1.9572656452080681;0.69507215317617788 0.38963289730660361 0.15105712702694807 -0.2409693663759728 0.075067235748379535 0.27471355062768787 0.21771306978047764 0.33322443700975962 -0.19631446197725733 0.44586856020358284 0.32344615144531552 -0.41451669175801953 -0.78449059878943683 -2.1837400676189747;1.4449372834978018 -1.4486919819070876 0.20179575562744162 0.44777512478892362 -0.094249382421628614 0.18984151754757445 -0.027278147021492893 0.57688132437274076 -0.35578738703455492 0.20083810034509011 0.086711996319829704 -0.57806378778836598 0.21528692254692938 2.4262807946086991;-0.38263111713246234 0.66799938230358802 -0.096580001573194157 -0.26789645998951783 0.36409171922310812 -0.016901584777224487 0.14402507669634071 -0.043201177286195075 0.22865257055143104 -0.1779126230133751 -0.098694683519532034 0.30220724144056793 1.0315513491037511 4.537827857992875;-0.17504376734292537 -0.53859968795348301 -0.22373795682143058 0.83703526780317727 -0.14811729149546032 0.55852022239642196 0.53469036135728165 0.42965415956527214 -0.9408290415196745 -0.2398446910833073 -0.35077384630746022 -0.69242880550092867 -0.08028133092143612 -2.1827187594719843;-0.022786868551837765 0.12859097044428633 0.25566528034744451 -0.16895471852249533 0.044289837406422554 0.15533077695969486 -0.0023387044725236778 -0.49294698900792011 -0.85397120530651494 -0.30776546183900894 -0.33026807476594661 0.48917440718269573 -0.0404350328304647 -4.1622465200876571;0.56382406448490796 -0.85745740155854699 -0.17041035525276668 -0.9272536670578102 -0.072181245058827379 0.81417915434889576 -0.24655188550653348 -0.48114944426527861 -0.3921736208132876 0.12810162469986239 -0.71483558006155312 0.4072459032722141 -0.32713061319126757 0.56027073594420496;1.0060750096087434 0.55267411960227686 -0.087625949479104612 0.32120915727619775 -0.49482847096765387 0.20106783936635833 0.19627004665347467 0.21704888325552993 0.95822024585747057 -0.23332694628086562 -1.379262115121912 0.10760066424752274 -0.36306968163824882 2.2091928217852517;-0.2009347666177857 -0.14136252062420088 0.46605312883155875 0.75795141052063542 -0.34636423347556761 -0.041008522138129735 1.3046441017594832 -0.47266409606594606 0.39200876491320674 0.56411700776966667 -0.98085305109680798 -0.059525021447725965 0.28883667217903736 0.85310982918625411;0.95337104889843316 1.3461430972330375 -0.27132398259821183 0.96068322669018813 0.16070116249956262 0.33523965633469988 0.34820946123867097 0.055699934927860774 0.16773709899138078 -0.35875219715118628 0.39821757253976331 1.7020992205201393 0.15144627597527432 -0.58472949175182387;0.62472615607496462 -0.61429973569282781 -0.50254186080974117 -0.40717471843610337 -0.36307048760500388 -0.74992820285457407 -0.2763667289954439 -0.0023161546439783845 0.45487131390404961 0.38276136389358595 1.2169141398818812 -0.10965939029511883 -0.37370930929562407 -1.8756197153990455;0.13144349112070217 0.26427233467692679 -0.42734178262396239 0.29303589709130035 0.084284893469274785 1.7124689810859943 0.68924373453577281 -0.093475479487033955 0.051150678220597517 -0.079302534812282346 0.11787608446154431 0.15773025997207385 0.44104548132272875 1.6946323024607799;-0.99920126612773907 0.72414564410885285 -0.0010780745987552447 0.13897903120650104 0.10801390965973266 0.17641601788411337 0.14734933668593825 -0.39370143667152413 -0.054690169499029488 0.30666204101235228 0.32187187270843243 -0.63757136280873039 -0.27546521340093766 0.85192221123783829];

% Layer 2
b2 = [-1.4614905267940348;-1.2465228824953565;-1.4462112948231638;2.4114366317488463;1.7702612667569144;0.64591376513740362;-1.5749628589417224;-1.5779934466714323;2.0963767422546966;-1.7233871245787842;2.0498247121666302;-1.8491762704289805;1.1578743822405517;1.5152174104372176;0.91649656390638323;-1.2742415670042282;-1.9250004949614528;0.86306268845857959;1.7460933554333706;1.2112635725590624;1.2135995198538327;-0.94380618143052775;0.95230507926451824;0.30086164640237223;-1.4946041465410891;1.5488029692587866;-0.88227268803216419;-1.1782898905245771;-1.9005843899029795;-0.71302544943765978;-0.3188371519759427;1.2805969763921392;-0.66574953307625684;-1.3590572959502081;-0.45060682786195444;-0.14255049397088385;0.12643640853804575;-0.32386150262682695;-0.88780940582557499;-0.82400362106614933;0.45303371004854204;0.67084188096090247;0.36903750634534055;1.3595323293842723;-0.014824505938387897;0.5575694546354365;-0.14314170740488752;-0.081281410987662187;-0.67496693088369453;-0.38869718695213462;1.2281245390846305;-0.041289574542506417;-0.76552976116062221;-0.16660440934979398;-0.47336154999581626;-0.26816966162435285;0.069305911391156147;0.58924202748308574;-0.2991553985424385;0.55250189077333822;0.073163477539167687;0.169952531866917;1.1211395239227959;-1.4384476114510265;0.20225929989844568;0.16426344857099506;-0.035070867803396751;0.34988777753411909;-1.6153446947443704;-0.5280348017573897;-0.099550348451597465;1.2150346924958408;-0.44030627570180569;1.7542550455891399;-0.7355378609513411;0.85497035900658025;-1.0254439278932737;-1.0799793176393075;0.4852503483237201;-0.31550431156832698;1.2034350649312298;0.027144557458799897;-0.6558502822601282;0.72166355793616888;-1.0284395013514362;-0.69035479855305304;-0.84568545739879886;0.63521117115456127;-1.1309387886917861;-1.1973386675969671;-1.0025562995187731;-0.79911048021051378;-1.2082368644716879;-1.5609169040893041;-1.6750507457975574;1.5372288998070784;-0.68345868505729424;1.5618863939586001;-1.6614588469975875;-1.2830063616448337;1.400862582898333;-1.2223996552275944;-1.4106533475592138;1.3102651860118519;-1.2413802740171702;-2.335396689250655;-1.6114674624122518;-1.8913758924383084;-1.4750511212232269;-1.5062739240163157;-1.7458753039678403;1.5393708530684851];
LW2_1 = [1.0149311004104502 -0.26822310582725895 -0.23546232140669979 -0.13050635131507396 0.085365790134861022 0.065765849831285195 0.26751514586956088 -0.37618701980181996 0.74708398515423302 0.053938187286439745 0.24285160781666421 0.7588097206693587 -0.062229021999561727 0.32921768286006509 -0.54982028134509064 1.0291496046012647 0.41115874695410831 0.15207810503924934 -0.0076328959893331074 0.081404344308052684 -1.8407151273281375 -0.54236594542160887 -0.47843558726604635 -0.20837459309957218 -0.69417164312700774 0.19206952394112303 0.63949683437198168 -0.085425648518682937 -0.98147213712452475 0.46384293408251365 -0.061664152379379659 0.91927296897400923 0.29893504127664811 -0.2328227614106391 -0.21039831723480837 -0.32117252012015013 -0.47636269900695882 -0.71958138982945907 0.26529620783071117 -0.16375458948716667 0.41639031918555769 0.64723542016238067 0.14909379628166577 -0.31465945076185403 -0.84765857117098531 0.24947581828859905 -0.63248758730577792 0.0080744386360302144 -0.2999803031316598 0.88948896986791604 1.4141313020444104 0.57314922026920412 -0.18890788336461437 -0.66268768989304128 1.910296446215586 0.36987286316550122 1.8762874219070664 -0.24624110127132109 0.83800713134578186 -0.089814337863163618 0.73686750344482921 0.29003806577645053 -0.4471589430434823 0.64393010913970428 -0.99967732404123322 -0.079706337682096035 0.9064664276628871 -0.82233175557898763 -0.38933918867911915 0.39989183574086268 1.2084773947846026 -0.35138638063482969 1.2253127269759332 0.1845554741291624 -0.43918661835358602 0.80970331909084947 0.63838524370245386 -1.2007725245209797 -0.21284233535142708 -0.30612151073779686 -0.085654645204240196 -0.83009508862839909 -0.34636488132867904 0.23606124799197387 -1.0752783158531301 0.22906962794803629 0.45839828981643527 -0.12340742829129399 -0.29376573868456579 0.5485727342432728 0.48611436622995485 -0.41555775807109652 0.60736059873904624 0.42529423726379123 -0.11308668531984553 0.69164801605592219 -0.21654779958333437 0.077082176710433881 0.63293522177140704 0.52752636448653134 -1.0376401909916519 -0.040691402603878574 0.15197002347276911 -0.55701965801271325 -1.4967211454813745 -0.18742924252119789 0.98724918170499854 0.8108677144214963 0.22334347472055369 -0.035407624972044117 -0.74909749992285735 0.17455581293885628;0.42398496420636334 0.13068504478652376 0.2778276493816072 -0.40079510327304085 -0.7442863224059435 -0.10999465351956565 0.35222004339636465 0.13600638962235662 -0.3017300949351665 -0.36169876234493104 0.34352458056519736 0.67488589916520136 -0.42095585033169136 -0.40460502797241077 -0.68331884035789836 0.048075062689196278 0.88328681147664612 -0.86854615982187688 -0.3764056125500912 0.17491145433519531 0.62115612278950516 -0.32545261072687987 -0.37939458180752256 0.33670767020098946 0.022898146419783105 0.27441897207413496 -0.19282212934166171 -0.30527750766510942 -0.36917908107871034 -0.34164097376548408 0.33466844086146497 -0.34525971421319429 -0.30241422255349104 -1.2556263896301496 -0.090482752334481817 0.10581337305488964 -0.17795883180021577 -0.47387901881227196 -0.76532358270305656 -0.21031353491329652 -0.17031841865536895 0.53213114652034554 -0.36226329127254153 0.053080084054838376 0.48005797937041039 -0.41385178883475759 0.080298163278411605 -0.75917193908731662 -0.35304012410149466 -0.68847502890045853 -0.50942119525956497 -0.18409617046586901 -0.48108877473971606 0.7603858724058673 -0.17524015623331204 -0.29804602237193906 0.76489567293450855 -0.18881868157255385 -0.31950100199619985 0.58118305422059235 -0.064170742990756827 -0.030132957060813294 0.17457871327076402 -0.60517567849539389 -0.35109160619475138 -0.58412049881949968 0.94178999243235495 -0.21183593822334598 -0.15473924739215805 0.057808949841484235 -0.072480323901212632 0.90432498353911583 -0.25753000646566426 0.009633621819852339 0.18089335687219904 0.045429337998652543 0.63459437975040367 -0.06453503672666959 0.26955090549968869 -0.31818996794719162 0.016979944433962425 -0.45261409024392263 0.30555435172551998 0.18035887299984313 -0.16016757887839259 1.3180564970186941 -0.065938227939451172 0.03875389330049938 -0.1012511041974245 -0.25548257477519426 -0.4476856029358981 0.6664642232733311 -0.29250891892899783 0.24495874565008333 -0.2961872882486451 0.048991968864297283 0.30470330867709111 0.59400560512155665 -0.080891989554836022 0.12670362838156793 -0.39692480427280641 0.25216503999194539 0.69926284444701525 0.66935685823092839 0.2848789932950761 -0.16176638457619966 -0.52744827264665983 0.11221926436012222 -0.59883209930018999 -0.62103991747968124 -0.8867574829278031 -0.20938419250391888;0.14471188245791972 -0.044218803833157919 -0.024151175237682069 -0.62045337001079404 0.08807346372999264 -0.32809194113646367 -0.12342794092114298 -0.39541249404424644 -0.15390575848404794 -0.15075405391651253 -0.37979336103873673 0.54125639212350984 0.37584228345080434 0.4449169150159627 -0.10369138846933115 -1.0580614797614294 0.35698753952087758 -0.45358624295842925 -0.1642016187844996 0.90457446701075095 0.30855405384884071 -0.10393722862433613 -0.24162525400837517 -0.33973635941256247 0.18532279876503602 0.52571520432551266 0.55755088414082121 0.51051939467794549 0.54327334065197108 -0.37805559576458481 -0.096455704854682023 0.24400847695451025 -1.0113096527296503 -0.61668773471397287 0.32448341455682717 0.090502250254458974 0.11144120634371792 -0.30722549931818677 0.035754119845167298 -0.30034784632956324 -0.28506837983321348 0.19750094411897981 0.075559525245393944 -0.79852411265177348 0.48721288391576306 0.2290812036548821 0.33239315491566285 -0.41287091341949089 -0.097932993565761281 0.13427339730679091 0.04214025944761509 -0.12732608111589402 0.081913176500983745 0.7180910768722365 0.53441343434531585 0.12100401885755471 -0.29853419598583997 -0.18069607951715488 0.45535577082634432 0.83241514054210353 0.33421068810613147 -0.019982151214968626 0.57493883819464309 -0.27259889265336479 0.20924488617828391 -0.25830470714173265 0.45923480120257942 -0.69939517946236496 -0.019528026293865727 0.017372986297083386 0.10839186623202099 0.42309201372438976 0.029750798795223077 0.099469527269393704 0.22379196590969305 -0.51747726645140379 0.16748036123295026 -0.23027509590723441 0.38110996469196551 -0.20479582611013214 -0.062677522925155812 -0.6726117592769113 -0.086314729525181072 0.91461158878190185 0.04471401573963979 0.76829470733495253 -0.83794888516607768 0.23287780192980587 -0.2545374180813057 -0.12249017389128976 -0.60771014069277929 0.1569250715097984 -0.21989480670345729 0.28556616431482301 -0.53760672051009295 -0.08677847929789978 -0.61223736497298886 0.064731725758518072 -0.43882456207315895 0.071243050055137327 -1.2779623548911856 -0.32488251175729149 0.68802735816263982 0.5007436324084158 0.73303810891080301 -0.36729006547952275 -0.9006213568241378 0.12648401798297718 0.021055799902129309 -0.097739569735038945 -0.29718957612834934 0.13104507952195854;0.40546572228666528 -0.1687651094260578 0.10883714969771179 -0.12314500768045389 -0.91179000617190342 0.20256421081195786 -0.024195836885498943 -0.47350632399751452 -0.1421405856653169 0.22995749308447255 0.077230950300846743 1.1694882174424319 0.1523806356570061 0.17051201042507869 0.35292264849267457 0.8310253266908354 0.4540467181580668 0.2398552886292053 -0.51751887163701016 0.3054833668546218 -0.76097726223873785 -0.1112761583370136 -0.15138506804243679 0.087668303288187491 0.62977405732014691 -0.019549798089116995 0.11229558642664934 1.2989708748018132 -0.039567185388172325 -0.77810760733401463 0.50404275867703363 0.16230233277521072 -0.053310126269086176 -0.10072943920450225 -0.082587764564753946 0.21679430621978268 0.35843303498474677 -0.22695666387964783 0.78917078394809781 0.26949368699415366 0.37880791259402563 0.32898325293931169 0.79663569788112842 0.64222984492987556 -0.22031881784629717 0.52947333480327752 -1.044029762015517 -0.046728113713233099 0.56487180815853688 0.13210684122144842 0.24586832616167259 0.2244995261191044 -0.50250453446582588 -0.23769638590652054 0.29151662863242617 0.60893429397691068 -0.44003894808217264 -0.68653400075973237 0.11210203576476663 0.22812685167466346 -0.35550992186903452 0.89341741767990557 0.30931479072617685 -0.32270814993482894 -0.48003551863399224 0.40621083522256252 0.10092046951680191 0.39420146750020291 1.3041071896845202 0.15944464960711738 0.24589646284921218 -0.041273155652363523 0.84096998398957012 -0.13421703355101292 -0.1314993901396761 0.89117648958018303 0.19928587283366739 0.60515209025680128 0.1093742893211284 -0.096648285612979182 -0.65635372948174098 -0.074704171305543132 0.50039019427175946 -0.10634278530131923 0.68416003176067519 -0.089881816577010235 -0.26588480420979022 0.22420736602507887 -0.47047482145107666 -0.89809899539151616 -0.097445720720280737 0.10887779167210945 0.82834399780874901 -0.029795200027445169 0.73098002690171016 -1.0086534381594883 0.3268319974766038 -0.41350144612301171 -0.86718336190793455 -0.80585910096962454 0.49078076539189852 1.0545326751637918 -0.84559052074281893 -0.37366743600674251 -1.3323259489825952 1.0013710526009538 1.0809287091631858 -0.1550561513353631 0.34526432125616047 0.75551602411408358 0.71818318202836151 -0.88789556792431246;0.1085493325562398 0.33530021073171346 -0.63641859120486588 0.18030354717992991 0.43145594996546738 0.84439235455135064 0.10357710761108192 -0.46067836585089916 0.39012207337318783 0.58177619621112708 -0.54644194020553449 -0.046951634042856606 -0.016708664890755766 0.38606925689232685 -0.34890657544249565 -0.4754491822182223 0.15170621385102903 -0.41583573268795632 0.097548488050048524 0.34213264084416495 -1.4200261602506432 -0.0041321044516032055 -0.57573444713028243 0.092350495847185771 -0.55062889474532262 0.40386462965540032 -0.13106005735186005 0.2898731259738952 -0.030036929051929114 0.063960596447592138 0.010682605133634837 0.30144812418509376 -0.49024610417834247 -1.0340631652859222 -1.4748965944980295 -0.37815557028365737 -0.38126614432818118 0.42879663479545671 0.11408936358301358 0.46263291247165406 0.40112066437766569 0.27678684479185922 0.34289257706847343 -0.83661271960566252 0.23733800295910296 -0.18858203090171041 -0.042923045739381903 0.41844221858546737 -1.2807232134607651 -0.17895934324308732 1.0833093329560164 0.26251833244141298 -0.57545155012718585 0.11671231222999798 0.76541809890613499 -0.10629254469437344 0.88389956860873475 -0.81474449271563232 0.69243540875944354 0.8016217349599869 -0.64990614978395045 0.44463337384605595 -0.87770320725241047 -0.36803477164415233 -0.087095589309953592 -0.36639784091960348 -0.071430886255968828 -0.54078150659308222 -1.3134725883802489 -0.25814355018947427 -0.035727946367363587 0.347494734265063 -0.047542355552004305 -1.3862903761499912 0.0943813317729916 -0.67291541852609837 0.074559793980443656 -0.44963278665887951 -0.59243596369425877 0.46874740850103441 -0.18025035364545727 0.0958919970618482 -0.40413710962560306 0.086607581106299902 -0.54713631051483202 0.14833156636255876 0.36685264095997455 0.80823088326697035 0.29550135105397346 -0.1666289629502562 -0.47242266136953498 -0.65105325941266301 -0.52854681978312068 -0.37369553161523755 -0.27005008760344335 -0.42294640301303182 0.035535378271096714 0.22541863155312414 0.196253964100154 0.04768322537176984 -1.2407093953941444 0.31705405491369038 0.32382027253250723 0.69426702785354422 -0.56485353804631389 0.45920226437504097 -0.68651152754854861 0.32700475474472707 0.61365975699474651 -0.079998716407048101 0.13408868450590791 -0.40501929687873472;-0.24512038549305729 1.7258003196075979 0.1593408597879635 -0.058255352252056108 0.29690579607829076 -0.43080925521249319 0.045077321342627361 0.49664490325369132 1.6545335802074097 0.59581929237685227 -0.15533190896112203 -0.24880624487769032 -0.19409504202585795 0.7023187471719291 -0.021996347963449781 0.2966766119525896 0.46260749730437589 -0.0094964786110201781 0.60833382293645522 0.087976447743397038 -1.2660550603578604 2.2272802080022065 0.7386571165112088 -0.53676215749489453 0.52010810245490469 -0.88195204947812933 0.3016799990916163 0.96929273338250543 -0.085048142048395475 -1.0438042564582413 0.1456194468063296 -0.92207638789135304 -1.3766613422422704 0.29480854514134375 -0.41903261623799715 -0.44233705484293556 0.29974196414317433 -0.21576891397266301 -0.28413614224404932 0.77504427149120625 1.1854115567030574 -0.2033386922300689 -0.49353069534938532 1.8243313042044118 -0.84293129467371397 -0.47988530750700259 -1.4957218696857937 -1.0277494660494164 -0.53128598846020858 -0.78201759565125262 -1.1312975083104746 -0.42692917291904214 -2.0835234400081668 -0.57407378302426437 0.5564096587733206 -0.16611129577737813 0.30126017078928885 0.71610944911699415 -0.52065125280178903 -0.25484882622247007 -0.77772159792785234 0.47559977758295224 0.010420632946778698 0.73493663214881177 -0.77353780321000487 -0.1747690606163893 1.16548305313747 1.1875358463345331 0.6294535397752733 -0.38857277100317422 -0.24905810007694942 0.55262565102110228 0.83653301525476209 0.23058478753220332 -2.3181323054517602 2.2717062974439344 0.67403746722257585 0.41023288847980288 0.57086918128343267 1.4958223137092965 -0.54126442818903642 0.3750013897366285 0.60974422514077964 -0.46501259258670929 0.66567482637001707 0.30146089043939189 1.1335908384817939 0.11606249704098086 -1.4303547736076647 0.43337370718149032 -1.2950589250336459 -0.53010942122909732 0.71275893376300958 0.53795050503968478 -0.43151214513581815 0.78820748693848641 0.73668476740780797 0.62075285739876551 0.19970320887064677 0.39507133911389131 1.3357337583568425 -0.18922236018305411 1.0551685905873467 0.20833675375578017 -1.1149437722739866 0.44108341017693364 0.51671081210722425 0.86731206129407601 -0.50420270904478393 -0.13541591478826595 0.44627192641310742 -0.20411185874861265;-0.38523798981218005 0.26877239105076406 -0.31577924306734417 -0.31164480897687619 0.24837518244585471 0.20570767804649273 0.059755982785528447 -0.31721259872718344 0.32921342532952103 -0.18465454166207071 -0.14714435069208953 0.077679570141262561 0.16289662942834313 -0.019906787421869052 -0.067809215282186475 0.07786561129339746 0.095190854438748043 0.12558327999310634 -0.098424455711800474 0.073743709937211674 0.55449297762831207 -0.016947370753331512 0.12142889668558275 -0.09481523170018874 -0.6878759968058471 -0.39411210894531634 0.11573890653573843 -0.1458587134420801 -0.2585261860589238 0.2653736532567576 -0.18413497583033819 0.32643577304473181 -0.29407602190119281 0.28165652214904924 0.46346843552826528 0.45947599011382362 0.27244924263600107 0.2353655623194035 -0.14394414503110886 -0.094588055054101228 0.24584312643711648 0.10405388905616708 -0.49590502755066618 0.17390972208422284 -0.047660018485786208 -0.52128982618257313 0.22996108937603083 -0.1496192409812335 -0.31667244011983164 0.11659867921323591 -0.025954756783384072 0.014531935104088973 0.17650367521403651 -0.092555968936892927 0.25929177233508882 -0.081463775596543539 0.61734807598193997 0.52424372148053011 0.20949970061219259 -0.22066546312511057 0.14063580211967691 -0.33595658803773165 0.011748024563953758 0.3363688150078562 0.14817044140449315 -0.098337496285731824 0.31802373833444075 0.018077954725468297 -0.39277253211595864 -0.28356519345975928 -0.12455993979175582 0.025898173250385844 -0.21907668189124713 -0.013806576400855558 -0.023544490714668288 -0.021635248831087615 0.21307383091204615 0.16725190543093385 -0.22252594278261384 -0.1657988978527736 -0.10460864508551654 -0.22964536310341077 -0.29427072432870993 -0.030290996774406855 -0.047968699688981813 0.15197919495735382 0.2156578556740763 -0.19353335380579967 0.15458641476744459 -0.14422327725537779 -0.2424017021560399 -0.07391954623725018 -0.4170105362941518 -0.037479905710141592 -0.21607348050067171 0.58823369818379412 0.083390930645205724 0.40747574364605421 0.61213848861713949 -0.038613620555911214 -0.24717754928224997 -0.36008320401885835 0.44057374200012656 0.10017954115477097 0.19120246117304635 -0.32093486339828958 -0.43034302468229568 0.16814575949123498 0.19825881114825489 -0.058604369694043493 -0.25488161081864502 0.42417436068791869;-0.25941972911126193 0.46826502738260467 -0.10491388550506726 -0.23848600019014068 0.53424631947627732 -0.18122173729436203 -0.24254912145302668 -0.17298967519510025 0.6392525913567737 -0.17354315028504394 0.15792159373318354 -1.1803572242507212 0.27224603548139886 0.54478828934500367 0.14562924357308499 -0.38239237977656337 -0.19053177516427189 1.0576973974964641 0.1668920431101559 -0.57933592567401448 1.0686327443078365 -0.10327876141657981 0.044659264078943259 0.0026757404620490386 -0.41088703609063637 -0.34004651682895093 0.17792174015208617 -0.70098513917000371 0.076588041761521133 0.35557197935824836 -0.44082467273013737 0.046200716119548235 0.54334274683202011 -0.15764888431863147 -0.42904313120431337 -0.27669563785650003 -1.3827264623470914 -0.28893144709525398 -1.2305910741828339 -0.45445453815404196 -0.17178471372258775 0.43543553290179643 -0.96627418798422315 0.18512048263398304 0.20738603130499847 0.80439224019028122 0.08018145944678351 0.2479974917057943 -0.6366553344542496 -0.079526952778055618 -0.0068874682577421782 -0.33223695919439244 1.5153925084407338 -0.48239148756441491 -0.12709850355663282 -0.32191475034106004 1.0640097349220106 0.36068719627444989 0.62768050669763142 -0.35054081072733362 -0.3601967889980407 -0.28080482013407604 -0.63715410766274105 0.6080111949232998 0.3996902658077342 -0.22736557573130989 0.64840472129342064 -0.5002760663095942 -0.85980807401246739 -0.070699161175168196 -0.22077203810250778 -0.63062627074639266 -1.4808974066767548 -0.060497799282332697 -0.54120964146889039 -0.60352164290044752 0.35029525221538199 -0.22609214758871188 0.42883268011608139 0.5317938373558232 0.11960252929179159 -0.4037318465358567 -1.1293424109488301 0.55761533208756364 0.75543417585378603 1.0447004328013552 -0.57150349394816014 -0.033821307375592982 0.6242344803538743 0.44616788427795795 0.20416700795423171 0.36990224889926143 -1.4123185534684377 0.4212228456510303 0.045136607374056392 0.80899268327833196 -0.31282832110774295 0.39176459067173125 0.23404905427609451 -0.015852050798197685 0.7533698421539019 -0.23742552282627558 0.6325408001824947 0.55129790768254605 0.61806582721419823 -0.78302964845461298 -0.20762452932173911 1.2052271199790556 0.0039175173531478952 -0.60527627255372518 -0.63535392473748353 1.3470986719779154;1.1326929378198034 -0.36644532510971312 0.12171743379552079 -0.14128276551559646 -0.26611136785104028 -0.012384139616385612 0.54702072002726831 -0.38307382654220284 -1.3861183367229026 0.10847793110624411 0.43932915472110984 1.3250088530236301 -0.086351829139583461 -0.11965161054308181 -0.39575731031207811 0.3503547918297315 0.29592759104560268 1.0768750609985973 -0.98163269782211915 -0.62832812233206359 -0.78080867225462658 0.021590305410271737 0.4324169736538076 0.65226981768212233 -0.17084020300342392 0.12239260543645986 0.4640532784644063 0.58305548455585809 -0.87311315164707104 0.5921527225255343 0.033630710118462012 0.36287716369556589 1.389516486716122 -0.13629935766001439 0.10608213997319361 0.81646604413016377 0.10223617537297543 -0.62713951608015228 0.55801258808750143 0.17844917062651949 -0.61314426807326872 0.73234905682089924 0.98898651676025573 -0.24392523875264455 -0.17332313703649732 -0.040623741878138171 0.63318077104277615 -0.089527685567929907 1.3990744936307711 0.44448180090336964 1.1165104147326661 0.60614488973614444 0.24458341505782383 0.08046899085298781 -0.69726515104114772 -0.45531838701029181 -0.72944590145922228 -1.1477416365981403 -0.53742494049110567 -0.10325091277992154 0.75189891574814915 -0.030885299269164126 0.20765173981002591 -0.0058447521634032813 0.41356377718262177 -0.86225576916656699 -1.2906129014342125 -0.024018374081047043 0.17600204412647352 0.095439154037095408 0.4134573039047712 0.001803098225456194 -0.001063723231999128 0.28143110216246331 0.38561731071637056 0.67102647608346022 1.1074691911612409 0.45489546878222881 -0.85726712689418538 -0.71668376597736627 1.2044432769656346 -0.26074555761241142 0.21978654180811336 0.38922635560712066 -0.44869435051711415 -1.5742174583964519 0.79393600761215199 -1.2044630991487548 0.70911446173004489 -0.63198001135311876 0.51349318357257601 -0.25895181696448771 0.38732226630513705 -0.24455410151542939 -0.16987269949344161 0.10492588612348598 -0.069450773405926369 -0.28548839770737661 -0.3600453035352576 0.48213126780839449 0.58825777284274383 1.1707487069065539 -2.0972381875740891 -0.75787878550074406 -0.023134625917060499 0.50418780641017158 0.82669963231215027 -0.22891173396726708 -0.089174056920228867 0.60287904307446616 -0.18914892674326991 -0.76912496084292692;-0.63374841256858194 1.0741083407333012 0.88691598799041282 0.60211564082687563 -1.3881121698789283 -1.3813046530571202 -0.48294425473678343 0.39139312462383014 0.45386445112481871 -0.6144567118142632 0.083172962923114199 0.008909676802108954 -0.52639776293871721 0.88194764538954507 0.27182612219365943 0.48979031012352198 -0.40107620196973071 -1.3038922186850803 0.71710107176398064 -0.4882010786868754 1.5657389170344427 0.18377438879669381 0.0038263310490968955 -0.16071307121918985 1.2616661836295862 -0.2267356670893779 -0.23545776440632279 0.95836753236270189 0.54680822357891334 -0.62211736769212667 0.44991480699402325 -0.48312146751061608 -0.99840175599169179 -0.037569188363240746 -0.077138353355118719 0.5792669280871261 0.45660895277250207 -0.71373009086332884 -0.15364983205550725 -1.0723977333389716 -0.68174262271059194 0.7011777584315797 0.37619444437829558 1.0266568375704284 0.39679590775710349 -0.8629893680153089 -0.38735497051266476 -1.4590734565126608 -0.22219519735417037 -0.29736469193078513 -0.9277050523969731 0.84711915735002241 0.41645606955493253 -1.1509992488065846 0.85644581751709103 1.3846178586780244 0.5009515889108842 0.44592159900605988 -0.054858925253535133 0.060298036829721555 0.59159917505167381 -0.35183694690798495 -0.20567257372566533 -0.22105824664578658 -0.40627392359189085 0.2865444752577605 1.4459778835515873 -0.82692185688984687 0.12150839192210686 -0.20213510297927342 -1.0414959060793034 -0.086268094212988186 0.38281455471889408 0.079320045346675278 -0.71712014375617006 0.38518285414731257 0.9215069453631034 0.32373070956849442 1.1808201419090785 0.086727983661288532 -0.61686359218456599 -1.1111949716942418 0.055440065873709948 -0.7760143855911289 0.15521211951105321 0.13766858429561224 -0.50359623232922945 0.61108966364697404 -0.45310142579848417 -0.58148896821780915 -0.17111666600166336 0.81804258568399557 -0.48319688939396566 1.3844379310825683 0.10243254263568262 0.30519331302290004 1.1301581920547588 0.19208144514990508 -0.79010762647464761 0.96233826450557236 0.62201825831563851 -0.40184475488116456 0.49952595401275107 -0.27067802625174087 -0.12707140295087369 -0.48388353438168358 -0.16357914476500668 0.27827678125151611 0.37573481218506616 0.20243278018583385 0.14325551578115245 -0.13549168559688671;0.55138288963114201 -0.55030127873044321 0.74483521003499442 0.0069424330445024942 -0.021808148062111104 -0.079843372483018774 0.69167342375848895 -0.31556666042484399 -2.4560484883782721 -0.13199428200853788 0.76090365110918579 0.74592656487551212 -0.58790438061620709 0.14852151760026241 -0.054528263879185947 1.2518459924949752 -0.74362512240967005 1.6981332948664232 -0.058667938524450521 -0.062486398894100285 -0.21570741388394812 -0.43984551683367018 1.0000858257308034 1.4501556737975463 -0.7506512186916483 0.24557036458548478 0.49930479695287061 -0.63952885769630374 -0.69439483431582161 0.26259239987401739 0.1802754614107934 -0.32420349436750512 1.4185194048362997 0.12421440182471233 -1.3702602034571136 0.87424191758631675 -0.1047540532803778 -0.1453734436378625 0.081917092451640583 0.26406299699740488 -0.76736232724991726 -0.075742817683847066 0.10567884637003683 -0.33457662796872911 -0.53426906709074939 -0.6260735622817446 0.4047116643360365 0.4257963113826001 0.56140103415016018 0.0016747963349194688 1.6602088941015825 1.0509283431744594 1.043168482218356 -1.1357897739276981 -0.4759476013885065 -0.75844244115434167 -0.0058934166335263861 -0.64335950733398273 -0.85904464715765039 -1.1445093502012209 0.020387415057212609 -0.46378603240115579 -1.0296858927275363 0.031443332059378305 0.15756257216052247 -0.18198731494166823 -0.78099287915289828 0.4875963010365304 -0.2488897475047599 0.77079794241334609 0.11778654587109863 -1.2173497420493851 -0.10741444807806665 -0.019944131331392959 0.83097462572446212 -0.34708936101344651 1.1411992045965642 -0.019833132874270767 -0.50580199042165896 -0.31150611321757382 1.0261606248554414 0.55498861132703747 0.29570643348061393 -1.7016764874555645 -1.3030314751449976 -1.797846079249233 0.48835820362081428 -0.27800416808140549 0.7083378606191586 -0.18510474481764069 1.0295706015866006 0.35911992911089796 0.20776517981212306 0.49428277206703436 0.12549570120459344 0.18569892269155513 0.19329404069546455 -0.29855928212330168 -0.47089619621122975 -0.15137104489446349 1.3559645627634893 0.28862593769701539 -1.8139844884257226 -0.55482812011451255 -0.15005951188520414 1.7032190097173905 1.2639300713138875 -0.55092500065033412 0.6049375220329487 0.51875179857748865 0.57817704069591891 -0.7569512665412208;-0.32679189976238743 0.19034156755715659 0.34450332162447211 -0.51452110660075889 -0.3857179002227471 -0.11195171439847369 0.23902507876600762 0.22701584912299702 0.15358898608544133 -0.66334198052518301 -0.050138675035863174 -0.92042849864860043 -0.39726070101146793 0.013418222917433881 0.21275992782808015 0.13963011971569406 0.1918835938419701 -0.61126682683568645 -0.3232522983742806 -0.46242957126462214 0.62825747214969851 0.58237155955928066 0.32331835217942362 0.37598285306065071 -0.11265606923502941 -0.57901001496802418 -0.12730488209141802 0.32137877967524958 0.46757464499666929 0.45221028232351246 -0.22220126435374679 -0.33584461532481219 -0.85295210895306361 0.44532761302063567 0.11969739677659665 0.15155033024699716 -0.58702176512670068 -0.12924393339893669 0.22325804686590361 -0.14472227567504145 -0.4483638309160729 -0.24616109370834763 0.07278819719669162 0.027560435353452584 -0.63844024273616085 0.13549709995968703 0.65175716732297917 -0.19349104274892051 0.35249397577056296 0.11824523490852251 -0.42883815090665944 -0.00071705803885789793 0.35565040420881078 -0.34199058376678515 -0.77461674554898896 0.41824949703222047 0.5689915543665649 -0.29786878938037331 0.35037163473590061 0.18731430838888363 0.53183284680517695 -0.65020809443567884 -0.61598058815267742 0.18203241678559767 0.23793270025838367 -0.037483457384011293 0.12908467479553629 0.83700221588318835 0.49961932993330704 -0.38356272720795087 -0.048934438118328698 0.38414519764060245 0.047648347942372118 0.6322486545069792 -0.13592376444966495 -0.7486812627117897 -0.10087403647899955 0.47884345300553599 0.49682646943794334 -0.19585466305937621 1.0438297136195545 -0.12946653280472145 -0.3223526029276797 -0.79063722980426399 -0.24409159515152221 0.41331682715627821 -0.20998152671047651 -0.67976425199141854 0.10411687526849238 -0.099369401267147869 0.12630240443428337 -0.11137234990775073 0.023124363489253376 0.14632358124923076 -0.17098331459233779 0.21029780966356273 0.33360787674879611 -0.14023552614889404 0.07160091829745828 0.12068046815187737 0.33068153981930132 0.35978012467222148 0.06577765149512628 -0.3019138416350402 0.4457431688564289 -0.1600917099617816 0.23770778676196908 -0.39958232141270206 0.22049988617813035 -0.080539823132565344 -0.30710780167305396 0.14076445603931623;0.29388831765154549 0.40349390535034524 0.37958322357971186 0.96672255540440666 0.058378683126290472 -0.096291865851324626 -0.055742283056694243 -0.36322292288819902 -0.084723984875001518 -0.085348992335386398 0.799910147650151 -0.29507143026452776 -0.41851551724541008 0.25476120405132663 -0.25387766654711957 0.68349086755237864 -0.406551577773832 0.67727646534574881 0.30082949925202468 -0.27376050644702909 -0.25562517178188432 0.38218249180384239 0.54272888892271065 0.70922046772568725 -0.15165492975249928 -0.00083810368719557983 -0.019543230440541091 -0.23490215402812553 -0.99896850501359735 -0.27687212905055719 0.20812779702724946 -0.27025590087978479 0.48871425271099456 0.19676818091138082 -0.087607452359975455 0.090595688574214447 -0.40292526056402317 0.089747129000331327 -0.9936270288425475 -0.19991136143368954 -0.44662261620773985 -0.19274382895526848 -0.24423973736566928 -0.35449625309396188 -0.35958825675567402 0.02362454395713336 0.22905450803659427 0.22373309693411089 -0.60903454317297434 -0.15215556232889754 0.018959038020074974 -0.36943637900955584 -0.13033277614275049 0.42721745914498399 -0.079567115044325898 -0.62633321757805493 0.2256336345467265 0.92284685845894854 -0.29881742670788186 -0.42084434845942242 0.49112381996062926 -0.39746183651151795 -0.41656505709334718 0.61505776968839121 -0.41070988235415695 0.0033218627361316943 0.26205862017122994 0.10586954129306494 0.52324586312016874 0.016710669965629272 -0.10155101146995395 0.36101286732902593 0.071384455749343725 -0.086414509038680032 -0.32049956122722734 -0.1820038012203524 -0.077360578471518462 -0.46475561003373211 0.13098398569744188 0.32349419232909971 0.50498328762461464 -0.0082130150495435903 -0.050213793157929447 -0.11539672630531189 -0.11456239748081347 -0.47616419841449703 -0.15621988361451475 0.27957708671437337 0.091724974547027369 0.22965122324353185 0.090233386868780074 0.56491958116897545 0.062133350227918022 0.093312997211563067 0.076513234486598053 -0.24214376134491072 -0.11077465444748856 -0.030445121662544088 0.40161675448378326 0.13684580660365719 0.1408998326485531 -0.16794053867325226 0.25085223054744699 -0.39429150079387204 0.4233605221364462 -0.0018927224051287384 -0.13831301572849067 -0.35584438920061751 0.13679599417244573 0.26798099912430412 -0.10531899654127944 0.43685372033238096;0.87177945174952787 -0.21622801056115543 0.82102124381190622 0.82744743067916438 -0.48596742382643143 0.060985841382353759 0.68670186658604748 -0.36745714813648589 -0.32166789027457221 1.7543934377321544 0.19811471331807759 0.65479623009694676 -0.25556363317599717 -0.39557266371230926 -1.6845276648466905 0.33245190078331266 -1.0697375883472247 0.94094648065422859 -0.48830907720826872 0.6527774788164451 -0.81653301383079857 0.34612957154129387 0.36203371257151101 -0.086180817307936031 1.3828942927364813 0.58957307882453502 -0.54171995934120531 -0.048910417160719949 -0.22955209748642039 -1.3085400414365935 0.42602852793559176 -0.9021448304920352 0.040576480852159445 -0.048233697646544151 -0.17933875868681443 0.16034147462158799 0.67214820528569208 0.2899838467720916 -0.48019336830719406 0.23393642482490398 0.35939245441323203 -0.51836575463434831 -0.03803474493135333 0.55265719117355372 0.67148427057733673 -0.54798824625993725 -0.68636340168572518 -0.72684934414008173 -0.55550032541937067 0.22376827287226134 -0.87544201084662621 -0.54996243416255164 -0.6407417637880104 0.33695445240316124 0.15129861167058264 0.014639824285693711 0.16746941854789932 0.31531034395082602 -0.48019072488267617 0.32031353865832896 0.22405513131311533 0.56110344305924464 0.23664193657548205 0.40570240443743066 -0.45881758764816183 -0.57455457604331783 0.69072106371043196 -0.22269092707005314 0.48928860392426493 0.23524316243298862 -0.53594524065984217 0.050211613695994237 1.0190656438521033 -0.14413466422429488 -0.7267265535654005 -0.19230025028375244 -0.069365538310348904 -0.070002408246105208 -0.10109369197848579 0.20318779275174134 -0.25980034140144093 -0.40429858243093086 -0.21037780001349457 0.35233041014624 0.32126291946106333 -0.2047275595467844 -0.2966192531339405 1.2107125516959261 -0.96103460794913698 0.017868138336172377 -0.22169707445824224 0.22425477853687234 0.45803110454339885 -1.334472373259612 0.18579153722578726 -1.3311473950265031 0.25154167855243809 -0.059759220663556482 0.13040783293709435 0.28704988243878415 0.85721177498571111 -0.30356079392870272 -0.30176677244581979 -0.17109757493490502 0.19655864264529466 0.19305373497976103 -0.27138549996047229 -0.029227536897564705 0.17566411579404984 0.36954406974854814 0.72425205621335909 -0.15096456186554064;-0.44933686433532621 0.9189966587673668 -0.51807884250177916 -1.2548733737825559 -0.26772315586404422 0.4431079370714654 0.76439616537540478 0.19683571933012564 -0.34927324978811131 -0.45609546050762573 -0.19002318091904075 0.86405225783754003 0.034326220816922284 0.42920278373544607 0.59400597371731889 0.019012827858924081 -0.90296343037898241 -0.12668826897903163 0.0099674703644423383 -0.75275406671284006 0.99892854395342456 0.13057876660202272 -0.051503451927842642 -0.32458560776654932 0.53382725480781157 -0.30241958826327942 0.27543870634368145 0.66302862117018235 -0.46914470927360941 0.66944303190115129 -0.49737978257332538 0.60372710596094903 0.30481206153960172 0.07738716681216877 -0.59497781437129726 0.15214153243275419 0.62847300489994418 -0.38470151921649448 0.11505517697918873 0.21018405855777578 -0.72144636215630464 0.80747851335784127 -0.27475503913769872 0.0039592052188653949 0.055560111018088297 -0.015882717034232243 0.0073141232597564521 -0.58434546977547552 -0.073411210285796127 -0.3846244077372783 0.32866318274190082 0.46025399295241642 0.63270346788797116 -0.80065842501653339 -0.27535409002249328 -0.17260998794929008 -0.12045816398753299 -0.99937944553295888 0.32501605718083887 -0.31779769519589202 -0.015880167575597584 -0.9678495463661082 -1.3734508562273517 0.02768199524596731 -0.29391897501009762 -0.24131684885022867 -0.11184413206640599 -0.026283299958901104 -1.4920882225423884 0.43530607808933647 -0.60823482233500525 -0.28873269733523843 -0.35475700012070849 0.32223513982011392 0.87789377815669412 -0.81672493916726174 0.64775116416052547 -0.83305914472069564 -0.14891412098257831 -0.24505139387411196 0.53452776957096537 -0.45612515282854882 -0.09057071988684337 -0.78561312939629746 -0.54095695122943144 -0.07185770534257431 1.3751870018524144 0.023310145493674071 0.19378081699116614 -0.31601143453650177 0.13883396852494931 -0.69390327627920723 -1.0516397811958089 0.97724656592222059 -0.36801213231075691 1.3808540972039205 0.38163838887762613 -0.29969170230813708 1.424610887364016 -0.5327588576357043 0.088258850560615429 -0.39449456555638118 -0.53925925350218629 0.44089438162825811 1.1963254940387851 -0.10452128152289943 0.047262564909546854 0.90212016971191133 -0.32268050673920179 0.37291812423665976 -0.76956235581652976 0.53007013123024249;-0.19086270582253034 0.13690108675732712 -0.64577961426208563 -0.11625591231669963 -0.13779261241074411 -0.49175279156115126 0.67059721636187886 -0.15937992429613279 0.58998503136421798 0.5655835262428196 -0.21650790436951645 -0.15065335088606441 -0.34499536367864186 0.12967392044351134 0.53240436243131617 0.71954910208595657 -0.084373532893869702 1.4131082819193084 0.18371112401033216 0.26741734709247111 -0.0026825490419434442 0.78783685318887942 -0.37423136076132035 0.34806769636997775 -0.37414596123163357 0.21323033525693502 -0.57361716050653511 -0.047316490974524117 0.1986721285705309 -0.07697437833007971 -0.098916651977495523 0.55256695808738954 -0.56167330623935174 0.05176449649186305 -0.41156206826676095 0.20228775304506316 -0.45649040095426069 -0.67092313652973545 1.6897690468710453 -0.15023007782184863 -0.65970332785170072 -0.69856061586376239 -0.88405989436351218 0.091713218772811536 0.44367815699506719 -0.17006701982609254 -0.2220546755895027 -0.22643067332365685 0.82606852855164092 -0.79430746607196101 0.75055828121579127 1.0925480144123456 0.26425976606825585 -0.94093426507881495 0.4117173237869402 -0.12288251822973248 -0.28423858766304971 -0.085077756576356245 0.41535323145983238 0.8853589752377411 -0.46124454474781668 0.16096573588151225 -0.60038152746133178 -0.41560987861202825 -0.21548897506501308 0.34794632173428075 -0.85914074009528074 0.10699141149995789 -0.034825392743634123 -1.3654427112596961 -0.88787589812509149 -0.51561527330582457 -0.66135021346466039 0.098769636022273469 -0.79086556739174707 -0.25511419316469869 -0.21526403531524138 0.017819731689289971 -0.52713493195436822 -0.42169920287739276 0.6360876646543786 -0.21351368368277113 -0.26080989849416719 -0.5632743891215648 -0.48908031530890433 0.31202144440053231 0.1470126923530555 -0.32314542636166022 0.30312774420306871 -0.77717601691297244 -0.10918612608247137 -0.93975326322593011 0.98014409692850313 -0.079557857282498631 0.25266659989757861 0.52741773964532335 -0.6378028367645816 -0.97897527313033839 -0.44911668423095263 0.046714200752090262 0.14246153360739497 1.1812735431198391 -0.34034828828964797 0.34594507606015024 -0.48554517087380733 0.33895105365765821 0.43301777948720299 0.4989480278925989 0.67946217675323128 1.3898959471972965 0.51623946536318543 -1.4173095267731992;-0.34217878108237881 1.780098470982068 -0.86097363572370522 -0.86278815652015273 1.7365998694676414 0.14336542489531567 -0.51528746698676064 2.7993719513367985 1.5867115256910591 -0.85487885635372141 -0.24722642176626933 -0.27458276525343939 0.58869527600641047 0.32477297071944183 0.57156344790691604 -0.62716523090367937 0.92269582062226296 -1.7597595680375175 0.84014667135001175 0.99332155197516381 0.087568881367912327 1.5737214921959031 -0.20596840483012935 -0.054431278348588047 0.38843924132784557 -0.28233937190641656 0.98452983491195178 1.2313589162715803 0.28460373246897491 0.3735896237903541 0.49932335153761181 0.026501866909628063 -1.6868330615827878 0.1355311197105237 0.26167901450611653 -0.68220100406887085 -0.48667942499095346 -0.35124951271263133 -1.1253567083776652 0.095780855773987997 1.5541474985717212 -0.5462660664364497 0.040004358339994002 0.4298942438427924 -0.51322169270574181 0.66525151966239882 -1.2074764802809579 -0.61888594149708509 -0.53639912808999035 0.20563379476926913 -3.5664870709050365 -1.1889897880386662 -0.51198600607998035 0.026418828530416796 0.30537414335636837 -0.030108756461979701 0.50170479342944219 1.2305720260171609 0.12274224597455237 0.28531766880612908 -0.39740425386495665 1.1867761332501066 1.8747577875880572 0.42722186027012538 -1.7927789534701013 -0.27290422124421948 1.2272225142399005 0.8514402532746671 0.16909597842976726 0.086773758802954279 0.51012697644421567 0.71073923500450575 1.0903142560439523 -0.41038106111443073 -0.37602094477664355 1.4528521827614214 -0.27672914830158163 -0.40638449183726771 0.72889677608695902 3.0264157990823839 -1.9008962449407936 -0.2951029048943562 0.99346460536828873 0.88588935540074565 1.5315899696973165 0.82097168271265708 0.19102484374767686 -0.28853555974523742 -0.44333230076814922 0.39682142904191375 -0.55652117494196185 0.23433346831771024 -0.75554392623937783 -0.21390909283325751 -0.53529236693973903 -0.87450567242369193 -0.16638179346026061 0.54691075421910174 0.14131656039406687 1.4831101865708778 -0.27284260578122754 -0.22332174890996662 1.6490834658902758 0.491160973044444 0.49001765744212966 -1.0958133536663541 -0.28958691996387459 -0.16252608823527731 -1.7581695812966147 -1.3141512725402595 -0.101847511976315 1.3440412987184733;-0.041615070337513327 -0.61032912512969217 0.254532058970737 0.4094519366489906 0.25901687018046915 -0.33542563691444854 0.32704323016631226 -0.83070738580455372 0.77367057337472156 0.089124016088159896 0.62987802598935627 -0.88338088660401815 -0.46439341274158619 0.89815734938449832 -0.38826621903860159 0.24616220335167496 -0.65307262608380634 0.40887782973219489 0.19058840251758283 -0.32509867137922954 -0.27620318705901786 0.39076080308497618 0.088258355241952746 0.57661433957208696 0.6598399943474067 -0.28636201806278938 -0.3303989719010183 -0.82717037878951205 -0.21637960622693894 -1.014341725445473 0.070787673216367863 -0.35937498777169807 0.034953161944955548 -0.10594321789583484 -0.13570351809335857 -0.61012686791673876 -0.11878515623989234 -0.53375556647494538 -0.35199997784188053 -0.0097661882961743128 -1.4621332703042782 0.33060845235822978 -0.5869455601687753 0.53061958288872291 -0.030968887389073416 -0.36898198480042149 -0.75032413570033873 0.030359972863080086 0.0064268054219651684 -0.03110709494783049 0.82967305234768696 -0.25989611591959294 -0.38103458126497691 -0.12156233668942684 -0.036656546133510826 0.60145471288181795 -0.099594802871072322 -0.29637405946657969 0.058545121690565319 0.16136283781489025 0.02382917336747617 0.36434364124975122 -0.96352085488370109 0.27368199349835254 0.16083001880722189 0.576700967007445 -0.48399391747129955 -0.31011078172423395 0.30909133468588812 -0.56280460422925449 -0.17920689428062975 -0.51850262373431533 -0.39561792040705779 0.33740322542095535 -0.58499065955796259 0.50679279061295568 0.40003857774937801 -0.0030489950933932372 0.094606772779649545 -0.56319894016571681 0.51322644784408722 -0.054129398618157923 -0.31825631051059627 0.70647860007561603 0.55044663090815515 0.031118552775373013 -0.17795630639248561 -0.058307757105467824 -0.0064027732532484539 0.29075949530779233 -0.57547573155322573 0.16338498963655174 0.19631667484208609 -0.023938898513976067 -0.25756445331348893 -0.57284539144844104 0.1368409598245153 0.018836150808884199 0.40458825840353835 0.20860553607917509 0.076417136834495664 -0.71473166630975604 0.24558521528533703 0.33093702256511648 -0.31758432113760904 -0.30718576169507505 -0.10817855481749494 0.36602639435247253 0.27048680563964467 -0.30544043191047915 0.1128351471071045 0.20478840441540477;0.24068778439490704 -0.7952830686759762 0.56262619122737223 0.60179855703766427 -0.10044452387954021 -0.38378059313125928 1.0200344888112349 -0.6318992657971173 -0.85843898498373206 0.072622201497947403 1.0294002527709689 0.40822888282378744 -0.41115185722563036 -0.44384865087809183 -0.15122516986059603 0.10909401211206964 -0.48704700980265891 0.12504428074118665 -0.57360799525463424 0.86316270296839148 -0.44705594265450543 -0.06001031698525712 0.21294092805322801 0.14499476234157671 -0.095047625188246082 0.069613850125216231 -0.85846323498301758 -0.080966622412852504 -0.36116607016594809 0.079880720897262669 0.078378839750577772 -0.58516571327588229 -0.67396297119667359 -0.18944270962031201 -0.11427192565002969 -0.071688260316834368 -0.069972294814528269 0.4366247678448027 0.33410422100729892 0.10962327610077022 -0.19112545174190387 0.067926465403228567 0.15416361262056225 0.063401136728651192 0.26952012274418058 0.14142120713230216 0.45431430657100519 -0.56273364982332796 0.18581567110745659 -0.10145353594853838 -0.0060977703797037769 0.084764536368978141 0.39895730795894102 0.067033241545969763 -0.3902770072852072 0.0047988064305853296 -0.55736590371041195 -0.093850010126048475 0.48157074978602216 0.29504404783316357 -0.35144006515176979 -0.009662109507572755 0.28696108050545055 -0.58162848061345396 0.35160170931187962 0.35130413624402379 -0.55477515725878435 0.035773055549163775 0.0083212876908249286 -0.15491830117341418 -0.0051163656064369826 -0.24975124210018698 -0.5904600104009774 -0.28816095621392374 0.42623464306650877 -0.33850891801847099 -0.63407971219513104 0.64868673176768987 -1.0703576187697916 -0.50484632987471378 0.72744394418283009 0.22587134681162138 -0.59113066017729121 -0.82822552766511282 -0.29825460064215414 -0.2696210674721814 -0.60005164729504556 0.21904204132212649 0.075577227129545899 -1.0262445837712026 0.13863809934381952 0.10050779122754418 0.39770647439035156 -0.22027980617380111 0.55501578716682654 0.1659226155525601 0.94493660416120495 -0.87247017081935474 -0.90972857092568804 -0.66228238145491147 0.26980570690268846 0.78981172615583395 -0.39100693144725079 -0.66465421781959222 -0.65296899697198185 0.59270892302584821 0.7938068516427581 -1.116775014487188 0.96365075494987118 1.3789283627397571 0.5075653049762372 -1.1171263607755264;0.45126150685026917 -0.46811577541483834 -0.37840087642464804 -0.27770177677355862 -0.30212110324690261 -0.075302717022307203 -0.091393850898242451 -0.50042847128409496 -0.053988663785804011 0.39863870204736135 -0.26957822968660416 -0.13441042091868521 0.46720858516824443 0.56532296860978415 0.1372183358158014 -0.010649095886355951 0.509315368571989 -0.12155994256881734 0.029257311469144863 -0.43577401861517517 0.14622569189270168 -0.10091312952713129 0.21255082743464299 -0.62689237603061621 -0.45530943508530247 0.74545380144687401 -0.48688878499307564 0.35747293332818603 0.28584028102864828 -0.22811351549312031 -0.67043468550389518 -0.049848467912844599 -0.043612754050132582 0.79457660855581591 0.5448608215921833 -0.026746786625925893 -0.083397492003044874 0.5050271522004437 -0.22368760488372225 -0.54961249385602751 0.29800139416476812 -0.34983755883991058 0.037586152893561486 -0.011355093892215957 0.20670873458445924 0.12473357614840344 0.060053838954255458 0.46569985683216431 -0.25563713278071964 -0.56260738279374201 0.16806238052848227 -0.069175702958698945 1.1743866962475948 0.33898968832696647 0.035976509317626623 -0.14209019786492541 -0.074248237585148175 0.59853432324160105 -0.12259615098340546 0.45310520130874388 0.43619053493841148 -0.31456224491895607 -0.2143779260679495 0.37079924931206648 0.30368000169105164 0.19760432584749563 -0.62930869732034744 0.39674959439821667 0.42005384324926004 -0.44401244889350211 0.22504687126138403 -0.7753473454471006 -0.30595188868781054 -0.12919193862010156 -0.2611342686405993 -0.91476419846717527 -0.55440890199211823 0.39500250364182032 0.016963254041236331 -0.31104984962567395 0.38275273316094355 -0.41133355791027743 -0.41992266720400584 0.24153708471601598 0.108570661469445 -0.5664540393602906 -0.79938003721487638 0.41026003078065898 -0.11743252956934122 -0.18576899377441569 0.72228746451755199 0.40483445047138561 -0.59595538172587104 0.0075231968783223413 -0.039972548713732278 -0.51391285255938512 -0.24582736687749976 0.18534625736284632 -0.1637925769116349 -0.1474849914609099 -0.30867713216435005 0.4530761724693908 -0.32680136820848077 0.22707373351083676 -0.22806774982253744 -0.21219566800346013 0.62424840381717805 0.23503519290701885 0.84164772226796625 0.030320896218430916 -0.16892678331666017 0.066393331531478125;0.19502828352152782 -0.38787180378806635 0.13495805210268577 0.19659851774714004 -0.93378337478951579 -0.33665342983947377 0.22375250029930388 -0.29246627621532589 0.057741986553272173 -0.025066532456172245 0.2950037453959598 0.54837717122473606 -0.21919996811228648 0.20862770628072008 -0.25652839453890552 0.29067117352908256 0.067523031902511119 -0.097482279336613589 -0.091485377341650673 -0.14170761854277036 -0.1719979943508865 -0.41628807746808666 -0.073689451216249369 0.0067195829602819329 0.010630077155967244 0.67070239171961821 -0.48109269927007053 0.54662482107922072 -0.2756567563402838 -0.33237792093657231 -0.20704245559036955 -0.15264941686980288 -0.3821154079423319 -0.15137139231929819 0.3269717306103147 0.044040381455315136 0.25473281942018849 0.33215085027662716 0.30363374828647866 -0.2119545451555189 0.14077946509341677 0.14714333324951917 0.44557892067140437 0.13558431981858662 -0.1213434617112165 -0.6117527561352315 -0.17118854668159689 0.019552892393077427 -0.47857711210932252 -0.070677597724679006 0.13157484946700812 0.36298878869182832 0.15139741432554307 -0.10388964449914702 0.48690976254244484 0.4624965737075159 -0.11976558738563728 -0.042516928079263189 0.24656502219951504 0.22567345515559653 0.2402687698254263 0.11771027854195351 -0.25612969451055823 -0.29948344715567671 0.037611111269717321 0.41718242238747405 -0.053743885058009047 -0.38145814133336559 0.17451434070249336 0.052328309520120062 -0.11055506951260569 0.16083470229209368 0.42033760476405335 -0.37964405793359524 0.17699882710066669 -0.066472736184311473 0.089081290407664007 0.2096084847443018 0.49592433333234853 -0.18686632258361416 -0.28621632238570283 -0.21238059258439643 0.035793279214892386 -0.45078398490964916 -0.083716521379845671 0.18686049452920214 -0.41821017344345446 -0.032635998999159595 -0.44585653041097195 -0.56212508906823311 0.55467429430381099 0.15893561686820518 0.31812727543602115 -0.31891096601920599 0.21321682751264293 -0.11556496761734378 0.2650571921564665 -0.53286100317882412 -0.2655909420308224 -0.20207701997904953 -0.17530913421268118 0.38180421498860329 0.036713338455565375 -0.16084123807246023 -0.12059757399133089 -0.27866296373409294 -0.13975135801771338 0.036176533669963609 0.21996249056834125 0.50740347025499033 -0.14044787961028504 -0.33373608926975279;-0.065927750372759455 -0.2186952252027145 0.5175786441777237 -0.070398063960732643 -0.76294182091201801 0.11246045612798092 -0.0072335232310913392 -0.27348431646062332 -0.6932177897503502 -0.28897382622672518 0.20744613629996853 -0.53005372547537799 -0.72021438568085838 0.31302052012108239 0.52063773514591394 0.76593433182311399 0.07171359913335211 -0.73840167468439677 -0.014965094549376301 0.78825516706679166 0.50627823073690859 -0.77289967047124131 0.0084882714433578629 0.55818984284464634 -0.73288331592416411 0.46390542889332326 0.15454289430272947 -0.29342237321902126 -0.2019423239610334 0.36083233477429916 -0.29852946666835123 -0.31049639864638218 -0.24979639054993685 0.66447856913282533 -0.71582066201850003 0.45634808610272709 -0.65507736683468343 -0.57568830710598973 0.62206533997889835 -0.9324338105125437 -0.00082901321218223562 -0.91021236378027559 1.0355560210616286 0.17961922508320885 -0.16891660326530475 0.6338977105884408 1.6819042323988813 -0.073669761761018596 1.3766885419195092 -0.13435553013918852 0.89344931679985362 0.52148679513078866 0.32479818154213425 -1.1029055489376536 -0.3601451493216874 0.97962046871323027 -0.4159528362313647 0.37485318976197302 1.0083719688722093 0.36604106109928708 -0.47964115743064695 -0.59940868925898871 0.28501032581256192 0.49901165044323786 -0.90430697700227136 0.082392851247899343 -0.15347513327844828 0.54037873776806677 0.23598389568252853 -0.84913616644504131 0.31071090276345953 -0.021967999462427956 -0.041769713120537268 0.30625882764482171 0.3705469931447069 -0.88754364023163868 -0.16765448540337174 -0.13503819614501375 0.13682165230483678 -0.060163754775848136 -0.23363867739133307 -0.44406291775106704 0.38583543637454282 -0.35946878193231924 -0.2759048636974894 0.057418441271032246 -0.38135798377511038 0.25536066863624668 0.010736544656797286 -0.26001999458625474 0.48108223414782836 1.3407280653542777 -0.15095764255619248 -0.82429924843749502 0.77011339652644273 -0.39978396562487312 0.16808258720063646 0.047489408491663304 -0.090156899323235326 0.25005641413939511 -0.091969711591015024 0.33358308509138918 -0.56603962017649123 -0.12204399550454974 -0.60417815560687538 -0.28267463941794474 0.59039882648016417 -0.028812661014593496 0.080705484500900662 -0.064108254019018054 0.11470527386460312 -0.26670992575442587;-0.14081633463189822 0.44638391805871397 -0.051327184441943799 1.4498402549696077 -0.52389901588261811 0.47958490907269691 0.25938799490088282 -0.45927675421363512 0.29980549207999418 -0.24861687709507688 0.69850125965220722 -1.0159661096202806 -1.252310308617927 0.27869253406875688 0.32228691826238265 0.7816869866140238 -1.18160069265999 0.58757708378798668 -0.77570776348567361 -0.9364753406450147 -0.9798615764188694 0.50453553170185861 0.47300367200954507 0.30332675690419802 -0.51451423652089923 0.081436274576683065 -0.46901588170024394 -0.56501833330510987 -0.39661766230224338 -0.23377073649270599 0.23042104086138804 0.21157797965142883 -0.012676249842310814 0.48035120517100877 0.12744342538463521 -0.26347942609646013 -0.55560754238757937 -0.17037254826386991 -0.12471858069734565 -0.093313765432065529 0.054780242251056349 -0.69060813268959942 0.2178227428360246 0.17296741143610089 -0.44229564879055377 0.021025463806904024 0.37275702130479149 0.63686849441846372 0.74012107260108806 0.13644706000789159 1.1193512915303419 -0.40103923747545478 -0.6830014920369778 -0.25980256045532973 0.72559313111809431 0.75555644454769266 -0.37267259607660419 0.63616316337961321 0.11569681852392685 -0.077340074431503106 0.21864585011558571 0.18146239175043208 -0.66379660543537489 0.65152140466870589 -0.16849309609435995 0.71170166820374081 -0.85772157030534191 0.19381460233859782 0.048116010260364106 -1.2226226086566281 0.12037648940577263 -0.17223638495322477 -0.47996605359485739 -0.24375155787420219 -0.25758603648126149 0.057667041620147748 -0.22410836243417143 0.65471604485719015 -0.22668570065839314 0.49515717087913574 0.020909245400240962 0.94099816942938652 -0.30490897502361575 -0.4477317291572539 0.41111253239667661 -0.40696626382114143 -0.17049363997729311 -0.27471780913634025 0.26567665262677581 0.011088855849538372 0.65057205838793219 0.1178770358319795 0.39756575800102667 -0.63947661224897523 0.6625312119004686 0.1628597332241698 -0.28196782870877107 0.01026904623449041 0.18556465617287429 -0.39891332413571695 1.1856088001274847 0.72899082800598736 -0.37493522611345897 -0.43403406511074605 0.0015353452896488908 0.33078790096641475 0.21628119925746922 -0.14979691953723084 0.56966497909628711 0.24483531963707761 0.34161543709583536 -0.69692396115661481;-0.75302464985409745 0.18383432774057773 -0.30082675637040907 -0.38236211160904593 1.7270956486300875 0.26352027711902543 -0.52370128510789604 0.0016392507407208855 1.9860597300502656 -0.72978901122847428 -0.22993787831619653 -0.88754952286677824 0.45702870624153635 0.40331405596027498 0.5950612270557224 -1.0475246165382499 0.11071891260002667 -1.3225623298338485 0.06970614905553052 -0.6083405774137729 -0.02814562862518924 0.75075471357986978 -0.43236380226405868 -1.7337897151614148 -0.1564930146831599 -0.68015897841478967 -0.22489623102747436 -0.34786289867324099 0.55977658260385943 0.043769317451428445 -0.70538078531064397 -0.60912508380827002 -1.8617276737709252 -0.65991564562639538 0.59690974316335521 0.29911146796591004 0.68639111027660316 0.57013599201883691 0.24606924362436475 -0.55783836322054203 0.43622598546080926 0.84550021236432138 -1.1386923222564915 0.5719975224477365 0.7999291369095568 0.19890066497637032 -0.73945790775351161 -1.2617662005575019 -1.129030445847566 -1.0874743384133629 -1.3144520242443212 -0.34171616347880429 0.52365641794260653 0.56252252910621181 0.8414809433575301 -0.72230084994320742 0.74298722677000006 0.98832794326637285 1.0583748770577572 -0.040496920202489899 0.42065049249424258 -1.0512696032788542 0.10352934082733128 -0.78330375057074875 0.48731072012519594 0.54452067474850385 1.2356797472922294 -0.98106014627061255 -0.62932086348569471 0.030532366779907984 -0.59103999027775 1.9026105760491132 -0.31212410822646752 0.54635795654083164 -1.5787728436520776 0.52495085440533884 -0.83035498278526376 -0.0054254309648707824 -0.55220109394538952 0.22221017738682947 0.71196964776591432 -0.69932534915513656 -1.0782711391249715 1.0051769163854494 0.74548481286008272 0.99240116952637669 -0.72005687782407757 -0.19885253775197106 1.1621237179299964 0.38569304190468773 -1.2420490677979041 -1.2940323946029393 -0.10629277548049064 1.4380281261054919 0.74137699761153086 1.6717440656850406 -0.048714651184767518 -0.307698976031826 0.38779158069677505 -0.7285571297594382 -1.9477603262257115 -0.40218557392333026 2.1504282205364449 0.36264244410865742 -0.62342163254028948 -0.30355822935585808 -0.42537950494274485 1.4372505333222927 0.0060476621165876775 0.14242409066639386 0.42455699909689026 0.70808399964901902;-0.72480224956247075 0.23296663003599777 -0.65992327818235597 -0.96357833566963336 0.7574347018423544 0.43938518174869479 -1.7523192186301326 0.63266641543319857 -0.39447317700707007 -1.9380383362352744 -0.52371977919423096 -1.0808086929960019 0.15014399841243126 0.70550145951811138 2.4306014305638106 -0.72071543693168194 0.81139155243937189 -1.4457434757034731 0.90324364356889819 -1.0316607111386749 1.143484243277137 -0.5633084814193221 -0.70275245737046621 0.27877518854251471 -0.75917930113763654 -1.0875205311245644 0.85394500440683341 -0.064459165342152736 0.60239368739350951 0.17099990738402701 -0.00058699374319509591 0.7401388073133025 0.95452882344941481 0.14631302531229443 0.44282634824297362 0.12408668951549601 -0.57695627767129343 0.14217733151745152 -0.024229886457631446 0.43585290915625485 -0.83394700731320504 0.16029341220193946 0.6940775895182516 -1.4215957846273461 -0.11076188222520948 0.89809720448256114 1.3111314145682602 1.4089995150118038 1.044173421394027 -0.13243392492088782 0.88857495265763164 0.7193162508251626 -0.095041756756862494 0.0048452208139287568 -1.2555946065498738 -0.11815066525200636 -1.7627087679322948 -0.8863686582318171 -0.35691384752127986 -1.1663164267254762 0.5760689881144434 -0.33876509380781428 0.033830527609805872 -0.83714677797939607 0.57396033913486622 0.42378103867843264 -1.4342418863306268 0.33755065768104731 0.57215207397452006 -0.54726656043945876 -0.21741661986385671 -0.3233609013817571 -1.363249776090647 1.5545329619465911 1.0425328976580448 0.89671972876621853 0.054770900541587793 1.0203601455841274 0.05009307300335375 -0.45583516315572076 0.30503370989589773 0.99802356941764037 0.71545010331259673 0.1158001571241823 -0.076782367170694144 -0.19930134535373731 -0.21690328650605842 -2.3616332682013956 1.3291556511784632 0.41858375837071354 -0.24526086990897911 -0.16106956537587586 0.1308052340134773 0.70513807131689721 -0.9792814927038862 0.42602271670050562 -0.43803711170109083 0.30797236097692199 0.51046668494928793 -0.18222576193709858 0.41459040582386503 -0.25603575900418307 -0.36187791543896686 0.087413229399928682 1.0067862736785484 0.30038136936679022 -0.1220469940203982 -0.18835194192497851 -0.53260540534885192 -0.26921697103021469 -0.53990587359169206 0.22103452384336547;0.35306922131920065 -0.289391856209187 0.19933353468558124 -0.13815714367984652 -0.30659203428491166 0.12292834369096928 0.71410815145569606 -0.17145453044127609 0.033581566532490774 -0.15841067672152806 -0.37844297674912014 1.1223365489380406 -0.21422352049444029 0.89345817298000629 -0.15445396056611926 0.46494781970060645 0.10965545743465771 0.0080240227983796701 -0.13897036989383399 0.010584380254471436 -1.1331017357546236 0.30078358007276662 0.043990009570177423 -0.31527578872981538 -0.24749587265446404 -0.19722052329233797 0.24091765688360131 0.571232494221107 0.086603366856962821 0.24511034963027103 -0.23820253404640923 -0.50204742237319189 -0.13763249377369419 -0.17458206918542474 -0.8292969630839625 -0.62082405524479523 -0.4920727232631375 -0.70856102859420533 0.46772037372578207 -0.33723653293053157 0.1964804008104869 -0.35830960117017929 -0.60753378178758688 -0.64321683639561233 -0.38931766331606593 0.35782051996565395 -1.146441750318846 0.16863996288022687 -0.40616907518919299 -0.69367312166647177 0.28946633935838406 1.0268498677270139 -0.14130301576830301 -0.66689294042279323 1.088914968317088 -0.17766875847611757 1.2901852301421013 -0.78487832750121223 -0.23870360328634169 0.23570169108675018 -0.2386025081668815 0.19546569050311302 -0.43961593986007058 -0.57932077266909099 -0.23006470579558636 -0.059058231855198623 0.030204640432388269 0.81780391600672619 0.0688377166599871 -0.28504572578860693 -0.11099055022017008 -0.60476490600368682 0.38803464429810325 -0.33584773559273445 0.15911356064034168 -0.59813556977615912 0.071977498052175515 -0.57644620739734698 -0.30046423892841867 -0.53851891290542109 1.1496744289717244 0.27908973438862622 -0.48485421280487928 -0.84981345591697832 -0.42978351375894475 -0.0080035397728221089 -0.4251135959721965 0.85633453694459349 -0.89567390123451662 -0.57097898891378607 0.66502467415239908 0.38359110956232667 0.091622430454806572 -0.11496821056644965 0.060438334933721034 -0.70293902730704061 0.096271830703317657 -0.14094355042829421 -1.1328797757332238 -0.90599863532746616 -0.11991381503799542 0.66680462431667897 -0.005405508779464387 0.020239007094472766 -1.4658006831899042 0.95569461574997183 0.2009685521065375 0.16303595927842632 0.82182230272328849 0.42603553532551891 0.6028901446668905 -1.2373451253164045;-0.25552229834315798 0.38966764708785773 -0.10249245228496982 -0.79363830989385353 0.017747313818541159 -1.1027887127973741 0.5827174944961826 -0.30489078500849992 -0.54212150271413373 -0.30527495755416245 0.54487900787702703 0.16766612369149195 0.66816709774770089 -0.45593262294766562 0.28361029983262692 -0.36022093103388314 -0.43379691568790957 0.34826547362045995 0.35670070342923105 -0.2360654716410924 2.2149158120643926 -0.90454339956239327 0.32058312627483826 -0.42903601805533581 -0.27726817489429101 -0.25117808007727882 0.30713688720289362 -0.40178252483766791 -0.53882101792455728 1.464728856287238 -0.12912096602907094 0.62317568512498622 1.1685905620689963 0.0077662193982218882 0.11033149517082544 0.20984364532619787 0.072932806436226447 0.3473599261318549 -1.197710015472349 0.3039344650355158 0.11435820541576797 0.53172304442551921 -0.84237368044299488 -0.032326194591328267 -0.041443195005239415 1.1819577967997623 0.39836331057342494 -0.71755417828124335 0.016780024799298243 -0.20953350043360039 -0.2865251742639312 0.062279630489504099 1.1752991597575595 -0.37025549380669986 -0.45897135440407005 -0.086607595774516669 0.15614200256323219 -0.23399650665545391 -0.44880724370375458 -0.28208161382287145 0.52745531506564736 -1.0104487220647116 -0.74826052672222254 0.57244003801902943 -0.35118327203323296 -0.9783289831160128 0.75196686203217367 0.23557030377946367 -0.32487749813252198 0.21693440192673355 0.018765592055749986 -0.94792167885913148 -1.0340059017012748 1.1448324930221327 -0.55741626204970907 -0.80143443554755422 -0.32172637372651874 -0.54290563797612823 -0.069385677670398493 -0.30417905016119229 0.18262457929029879 0.32622323220655813 -0.92202527238236176 -1.0266236227525234 0.096987445007937156 0.97165373860563653 -0.19741780341912871 -0.88458042328298514 0.76573408558844447 0.84399403063126099 0.40552791926384557 0.54882754778986576 -1.4195358457716742 0.98075059736651837 -0.45357000636928929 0.55748471837075753 -0.053113789159201619 -0.58367556825540168 0.39284361020307629 -0.11709319811379432 -0.018832680027495784 -0.76232195385712309 -0.090841640110324445 0.091267178504337174 0.50597237885475921 -0.22851020902122821 -0.43410331956883552 0.90528858677253621 -0.93066610172439657 -0.40997476086214873 -1.0158783262434696 1.3816231171728746;0.11751532224406346 0.82607948334048187 -0.57035278394162536 -0.38905170555143775 -0.30138305817994754 0.56591502949319816 -0.39801781455831886 1.2214619785714758 0.31234070235801148 0.048716031410705116 0.069696716299040798 0.040038846729955585 0.78585408389283229 -0.087561536395250841 0.0301022071659971 -0.20825631796632735 1.7561230541665764 -1.0976831018933277 0.88037558597732046 0.39658060637871828 0.96148143108137696 0.57973971040497285 -0.24098130532926912 0.64399155468690572 -0.2938130377888043 0.39300830334515058 0.56608750638899419 1.148586332286877 0.15226762961255524 0.96519735323259281 1.2076272600746947 0.36556060905840893 -0.60833510058233442 -0.11159534122476152 -0.28590539661827796 -0.015204875050963554 0.020738582703774606 