function [Y,Xf,Af] = myNeuralNetworkFunction(X,~,~)
%MYNEURALNETWORKFUNCTION neural network simulation function.
%
% Generated by Neural Network Toolbox function genFunction, 25-Mar-2017 21:40:17.
% 
% [Y] = myNeuralNetworkFunction(X,~,~) takes these arguments:
% 
%   X = 1xTS cell, 1 inputs over TS timesteps
%   Each X{1,ts} = 9xQ matrix, input #1 at timestep ts.
% 
% and returns:
%   Y = 1xTS cell of 1 outputs over TS timesteps.
%   Each Y{1,ts} = 1xQ matrix, output #1 at timestep ts.
% 
% where Q is number of samples (or series) and TS is the number of timesteps.

%#ok<*RPMT0>

% ===== NEURAL NETWORK CONSTANTS =====

% Input 1
x1_step1.xoffset = [-100;-100;-99.9939;-100;0;1;1;1;1];
x1_step1.gain = [0.01;0.01;0.0100003050093028;0.01;0.0869565217391304;1;1;1;1];
x1_step1.ymin = -1;

% Layer 1
b1 = [-0.85670905251919149;0.96781687727158561;-1.1762858421879272;-1.1100274141211854;-1.0532530397879039;0.92416067938918434;0.51833939683579411;0.4688645927889088;-1.4711848867524844;0.93829071470831604;0.60459336224558025;0.86835295423604386;-0.47602521050303775;0.31467156673807106;1.134925987927895;-0.38288454236296898;0.6071329022940134;0.32503287442169643;-0.49686204572310766;-0.43129426792900716;-0.28894779036873608;-0.11781202708310785;-0.22792657718085504;0.21972458499293981;0.59192843586619881;-0.36790502349321691;-0.66585873980554433;-0.610813731573283;-0.53672074825117277;0.29371108626035536;0.7598994750886332;0.92311757671992634;-0.76452958763200352;-0.7390481042745366;1.2143802874377412;-0.88255639476545023;-1.3267658016598884;1.3895808226525943;0.92023738362909713;1.0735775229549462];
IW1_1 = [0.71386003517192831 0.57580796452014871 0.18953787322687457 0.060938820288942867 0.080563352307179398 0.016027152538317043 -0.22424866745757913 -0.58990683158189139 -0.34583173170358883;-0.32112000687780162 -0.067708373052326465 0.5998286244866643 -0.4242517012939257 -0.91336209226228871 -0.30260669843850885 -0.2455536542077624 -0.49883187629348491 -0.11278123408318234;0.10767549726671492 -0.11060099114377205 0.02930467428278366 -0.35620051763386779 -0.64017032259581563 -0.20171282860279677 -0.094318855869594279 -0.28896658052654084 0.9999680584649091;0.17557996981933907 0.19403254531325709 -0.083738863585873138 0.37877022999565985 -0.13886062763782325 -0.92645094615676793 0.28074332443356687 -0.76560733674435388 0.73368247012035881;-0.059288315222337004 -0.21942433244116713 0.26787339050940295 0.64632592871898353 1.1521609461141653 -0.037819722868948538 0.15610549980608998 0.31206238817034593 0.20036564400524637;-0.24429115281016311 -0.025963610069106316 0.26120004322014428 0.36204655982812523 -0.66026909716361015 -0.66229889289693655 -0.34050047939260397 -0.14517298949872509 0.69579648903231983;-0.66503022385861321 1.0955726711714147 -0.090068126952418087 -0.15877234884374089 0.98426914897709938 0.21300053276684605 0.044499212216207354 0.0854586431993173 -0.215091361145339;0.20378552807404354 -0.33813633669644494 0.0066041952123838225 -0.060463852613541272 -0.31134035271420496 -0.067248515249859628 0.79206540315975593 -0.047136548741170424 -2.1359117990308305;0.057029625023892541 0.063616237773184689 -0.34972130689200959 0.40924283069058282 0.19503376907101094 -1.0186633222458934 0.35809837649994558 -0.068382439899821026 -1.3821578403190278;-0.024230593279948323 -0.31864605536672364 0.12069432907636084 0.0067703261448587492 0.58621375056250624 0.069647690913451535 0.38667596961633122 0.78035601294854606 -0.89706606484310547;-0.16224631150498048 -0.070190738744428327 -0.048259715221436641 0.10757228319627279 -1.0680596917698209 0.3810697175545012 -0.55305775871963359 0.3818538179519852 0.75600855624386332;-0.048684501390373149 -0.097459164138557042 -0.069275195177667073 0.09177093506841881 0.023430424118510835 -0.2334628911453242 -0.76562922552055923 -0.67360556069176802 -1.0195383366221629;0.33473180720949519 0.54732535447172281 -0.11369314008459246 -0.47636902566821449 -0.47360027883085093 -0.0094619357262786183 -0.063455253118259822 -0.10274014359442836 -0.46933294670465475;-0.12715459453876274 0.026894974339415848 0.11373965465741673 -0.092651706175225584 0.42511994549787901 0.58712456056428952 0.80923361268554084 -0.86985981307495586 0.42574943743068383;0.12989210075749308 -0.050029418949117867 -0.16721974642409551 0.37520185454548804 0.35702735981993045 -0.87431088082118957 0.089671046152682496 -0.830811097583672 -0.04965688542221286;0.034909691668344206 -0.055849304631272266 0.4167678673118374 0.87415390377516344 -0.21383830665722475 -0.36860172830315885 0.32674836675484242 0.21697339786288436 0.12826788292268415;-0.28948710777513975 0.078225881330674582 0.036616044012995778 0.26440550962498649 0.41292174743709303 0.40338091174761692 0.38151389438940886 -0.69231932722797118 -0.48212348650169662;-0.059625399959170419 -0.45240492377183866 -0.06249726222738064 -0.38111221530983813 0.38866551244743119 -0.62838330784268581 -0.52565107013769496 -0.16334165878120796 -0.049816713167373954;-0.004861068652518263 0.016153463884149049 -0.12083054437387764 -0.10907360414519146 -1.6925075159922682 0.10903050640041578 -0.24567659681019277 -0.13356818521368977 -0.26069123401966715;-0.074908444928290172 0.042552753931512748 0.010013899530951654 0.19818690316925197 0.53177843796450797 0.5504253843333875 0.69733942504676216 0.29971934994078853 -1.1689840862497987;-0.027543332587118295 -0.16934199921431145 -0.48520191302316812 -0.044453861925000775 -0.69903213707496892 0.063045126294353937 0.87734866265971612 -0.35962615130177361 0.26821032781960952;0.092597033959411212 0.16273990386424841 -0.11688049568718535 -0.51577174338480858 -0.52581689009211097 0.071759902736726222 1.3004325779915484 -0.27506279179898047 -0.46984824087794952;-0.015581995264345939 0.065968583924478186 -0.11722752254270036 0.51652198773793634 -0.78858396999558145 -0.025446960003913634 1.0168129213117252 -0.13714696433382176 -0.041873523248488032;0.68376740528111479 -0.80137171056895762 0.043273700231526893 0.051699928866408472 -0.86582548427969908 0.3558867905988996 0.2278016050698034 0.26447882393156902 -0.40797729364981999;0.15177460420665459 0.002026048507611814 -0.28456111047279065 -0.4745593939468617 1.8508800831693262 -0.067804000992275376 -0.07784820966383714 0.048751018320418345 -0.022094293436835645;-0.15647876296940036 0.046568283801959709 -0.38413833650256513 0.58361335264784642 -0.99440868203822363 0.15940443506867064 -0.17585586745465764 0.42694279514525402 0.048150191959431911;-0.39608862927990512 0.54323258842584388 -0.075714418151681034 -0.33555280672318494 -0.75128332507335538 0.057978917757408238 0.23859164322311413 0.21636351461132292 -0.054620988177386573;-0.040536532901660267 0.093919972709116659 -0.20491642669395868 0.17240350219909986 1.1866941754389095 0.13980649897481848 0.16240190360299753 -0.82513634127148383 0.039843171495159549;-0.69496354644121361 -0.58674427258265005 -0.089424557983336206 -0.0078766959448305449 0.95358222271796611 -0.20914008739454246 -0.17044264688881477 -0.057327808043535031 0.51250023913658282;-0.20072214482692005 -0.09546525046045197 -0.090630114504319362 -0.57297526787059361 0.4088752846923841 -0.12574725839855905 1.220128982334802 -0.6399671141699883 0.78953395870868903;-0.050540151701178378 -0.022316503438773373 -0.11693218961865104 0.089451834600807328 -0.87788770167284802 -0.032348235923178661 -0.79482407242595432 0.53372925723818698 -1.4200078924746362;0.078186069807052144 0.18803400487224822 -0.2479026266870083 0.060318217295263009 0.23193487811579022 -0.30634093562820269 -0.16906545667899123 0.99674436667804123 -0.11641418017531202;-0.76496623585445245 -0.56949064330889609 0.075960399609839746 0.22480131061469835 -0.3946683968123787 -0.25952185519710097 0.11981045264577196 -0.39458242789188791 -0.40661798813551409;-0.83943339430621755 -0.05141610164748904 -0.026026066195012253 0.28270581123797245 -0.69435178125232644 -0.48275365834597717 -0.3535276212680819 0.23290712379666645 -0.11096125886537754;0.21779027749837604 0.11084740394674204 -0.12012056661600304 -0.091619638427689415 -0.64942934956232645 -0.87877139877758503 -0.1193197494250697 -0.04303248246539141 1.3428805603626504;-0.13936750741445791 -0.053475168060192022 0.12848418358065028 -0.24442322404925515 0.52354699518125936 -0.055274486722738964 0.99552203852862831 0.98865480476983258 -0.42035810250905092;-0.34786413371939229 -0.63081817029148946 0.098967307141353225 0.13122374380439017 -0.7516696556740966 0.17568654336664219 -0.034227324551968724 -0.21051381840224234 -0.1023273563851984;0.25159286674519793 -0.48007853059649874 0.092773726242526361 -0.00033803171658017099 0.31500096321164262 -0.28835842090753816 0.10511804808699521 1.1069077523078943 -0.288469506280913;0.53643479118796467 -0.13902998129030528 0.13004365915919369 -0.22747607100693393 0.30677307849107177 -0.68597172087019209 0.67760593075172748 -0.43063437663112197 -0.020082991841547684;-0.25338206683486636 -0.36283757762322522 -0.23231584303345917 0.015561550473493387 1.0915088014783842 0.91145631970106455 -0.31335782383619837 -0.019403150879222664 -0.43838695453210175];

% Layer 2
b2 = [-0.89738328100801279;1.0019614321042489;0.79180902725815305;0.6265562045164389;0.68345457624460049;0.69969464490072553;-0.508760446520513;0.64381165238897975;0.64774104448348468;0.63012797661473952;0.32330352617791358;-0.21243615980390734;-0.16741012457318813;0.51588539861199223;-0.076397024579222095;0.17783071396506628;-0.11550403285526889;0.29255837058702822;-0.12081223739800794;0.13669141689787784;0.09245643687631673;-0.14335908066839242;-0.095065524119713155;0.29142057240245672;-0.2719546765327317;0.29401641103424103;-0.48538194751058805;0.26429924370731261;-0.52931715366931698;-0.45339152443272845;0.40913486716999115;-0.50740285462390788;0.84326569716336475;-0.84468368297516283;0.46209325776671167;0.70622484353309756;0.72164490283682936;-0.91921277949810953;-0.83516501954660138;-0.90631692049917911];
LW2_1 = [0.3359705313017799 -0.010679273600759832 0.16068763620617582 0.011914127185636249 -0.036396272085931984 0.077910888632117967 0.14346872020571574 0.04207014416801598 0.20950234642376345 0.21486827541361864 0.12115812409008249 -0.096878098768411997 -0.028140553649783302 0.183877413660681 0.0071115804982821188 -0.22241650651041195 -0.22028149781653619 -0.030584092453235075 0.058832244979539559 -0.01125132875487065 -0.0090498927751058843 -0.10852794007335048 -0.097114351091509787 -0.12317029529703231 -0.12676010369030896 -0.041730391332848685 0.1561824927447886 -0.043684194148663896 0.022007917885670546 -0.19592025499048984 0.010975130684958275 0.048331140502587785 0.056289861057297504 -0.18471030580485509 -0.23608546794176449 0.26377031304023263 0.020434138830749474 -0.08264408063362752 0.11754281580566915 0.093050709490033023;-0.28759673867027946 0.12740620631953239 -0.2080625562947149 0.32161525881255631 0.10733771537015509 0.71883388962507377 0.096087293800924442 -0.16258492469480387 -0.027273951595173318 -0.12910543965249138 -0.028209716942713563 -0.27138811576380478 0.092788414666853558 0.24862340099546112 -0.39189247332547306 0.11339666678405586 0.0018337632448644163 0.1784462383332947 0.73304106454302143 -0.56346797015968042 0.10931648453714367 0.24178152006027887 0.12039197924423546 0.38176474690134904 -0.50882233516581488 -0.26353276116404306 0.54513031263241407 -0.61451387307821392 -0.041838075220220206 -0.23348668694392 -0.15325237113075782 -0.0014020500528473703 0.13753015384848413 0.17457265744058509 0.91702642638081999 -0.29673234093953688 -0.12929365910506568 -0.28803057567815277 -0.12554094531958504 -0.23348919634438758;-0.15708686428666682 0.12518170958215596 0.64438353537846305 0.15961741938760743 -0.071750891092892774 0.67034566883183355 -0.064749833827720815 -0.58902309299477251 0.92914189881097398 0.032663323058324131 -0.10390637080254625 -0.094610744341543887 -0.17695177610698068 -0.32231936434620495 0.18527019479731149 0.4320371326882132 0.51088044231664043 -0.14053646271963399 0.084752668369494646 0.24612577729287835 -0.14391151450845283 -0.66397956204329756 0.33919310775466421 -0.012739501672363355 0.40479984906296312 0.013790931533211559 -0.16975696859957418 0.16966878849941097 -0.11198540434645904 -0.045056095815815225 -0.36444882062994693 0.0011214303249307835 0.2072968458777496 -0.19257717593217594 0.58252285450475683 0.15263942812873108 -0.28825519956549039 0.039589058599991234 -0.23203894910251494 0.40185706400129101;0.083610463890010436 0.11310626568172003 -0.029440155650887232 -0.1077426688097519 -0.2981624045921073 0.18028287390412051 0.3012070983294341 0.25821373721798557 0.03152868987905004 -0.29287294219052368 -0.047312640641968218 0.3501797277268841 -0.12479837697333855 -0.25385784634597397 -0.33902039640588083 0.062124428113913666 -0.17936651415316898 -0.26886555743723939 0.52221247245337232 0.0012208790746016747 -0.16864507425025463 0.29550499518043855 0.37689372937640681 -0.079139119653386839 -0.59237046509437852 0.20511616643838573 -0.19300187413121273 -0.31576679290011278 0.19596384706852385 -0.37348250563555763 0.079588490314293131 -0.14571054399507885 -0.029341194155936619 0.076338635985231704 0.14299282967233748 -0.39204880012561188 0.23971548821486816 -0.36217513415107444 0.027711953038015342 -0.23041005658623229;-0.095290992116157033 -0.068472552947640208 -0.11167388003340982 -0.22090684382134859 -0.45537302085633319 -0.10626833019262273 -0.35729919227061691 0.45183740398636951 -0.11500857956038682 -0.10426682646863165 -0.027761385024968121 0.50866387386387657 -0.090393461582607179 0.20542681203262583 -0.085666125679123351 -0.2103120031533148 0.028100374121753646 -0.15038096198114739 0.024193172062241114 0.3419193697353673 0.18366858241138906 0.014324114978939866 0.0081747260926367075 0.20261069150992622 -0.41665262911374285 0.34185151862316737 0.47013413996718145 0.16883286046957235 0.33536671285631087 -0.05455168976807119 -0.24072844495504328 -0.097972622702209189 -0.023923454508357388 0.11142867360633199 -0.52173626246526117 -0.24420576230412666 0.15542647558876019 0.6091779148186387 0.045192155211381542 -0.14588112409077661;-0.24271499390347528 -0.34437977551970267 -0.18039761927250986 -0.076439463646615413 0.12593393146025725 0.064634394208474499 -0.1001191824635425 -0.2749064750072906 0.24165489804815027 0.071820591363356306 -0.02702990830647297 0.38777883183945916 -0.13271971407530067 0.036216068979169597 0.19726278185584117 0.090748191897885522 0.24881089645742535 0.32403219995190408 0.81144092639644361 -0.15381490124491287 -0.13887500793141003 0.32827740465388128 -0.41125430181270334 0.0037795254548928059 0.18509547925638359 -0.17253945432590434 0.10000785243371391 0.16784526296625241 0.098414110881491837 -0.21393504501351226 0.0071985243034374986 -0.0603138798976358 0.15812780643572602 0.20204162208820878 0.065174063496501886 0.369126620345613 -0.07028067694012595 -0.25451643547508856 0.19996839190877716 0.35268887847708397;-0.18651346883076531 0.16513906603560888 -0.2073102573434672 0.080057139656438001 -0.098127806255277325 0.18189915976983001 0.50753412090107497 0.011517060869237124 0.030355451400752988 -0.39568477237836791 -0.21664106594462904 -0.08716455984357642 -0.11062019668383312 -0.0041686710780789856 0.32848149761748002 0.12901347969576427 0.01855054990596772 0.029042093364106396 0.20921372493032692 -0.17759619046988168 -0.029420836492956452 0.16956074605456767 0.1010639767572399 -0.21776318146030643 -0.24826943350320987 -0.32799347154148145 0.45812386638452957 0.089614789729405717 -0.22466045369300922 -0.11671585914671471 0.10775260188502174 -0.12603449701855968 0.09958946626075954 0.34869162078768329 0.27569765510283589 0.13373897518338212 -0.10099095343119986 -0.42567476385384606 0.093854445973479833 -0.11892314597929748;-0.54405629759242935 -0.11772367608640233 0.15432825059409799 0.21828940493750396 0.059022678295305761 0.2705513078748143 -0.44904721417899451 -0.28948591323325901 -0.11084057395982488 -0.19282166123210651 0.20275880059231538 -0.13307694993436209 -0.29414482000726122 0.1508279178537722 0.013730259125651218 -0.045443326832632074 0.031464768292913836 0.074010532157904499 0.42798448221350893 0.13343204015018192 0.05490537788043659 0.13515667865181313 0.28393207018733518 -0.023666957762175304 0.090767118475175323 -0.071211202652775224 0.12283862518163219 -0.11513420290139144 0.48068581658076959 -0.31685400050582702 0.54550668706324357 0.16958155635855071 0.19425386391760846 -0.58869817479555941 -0.41385544810907055 0.23217475691859482 0.18705211434587443 0.056761392155849286 0.029790712172447525 0.37938297519187553;-0.27197574172718475 -0.027177349141444311 0.33614168017840163 0.40390057656870343 0.34423918811146675 -0.11787360766966251 -0.14160697836894115 -0.18279477956904666 -0.22794544230340585 0.27199269956240524 0.4244032672998086 0.64786614336181014 0.28089456225496062 0.10535037940785616 0.059573267101214217 0.40888854578306955 0.50020098879460062 -0.29798571378949246 0.23539308683024437 0.3044334055875117 0.10569770259727912 -0.26262862307033841 0.12292160367238128 0.076399161635420515 0.5947908867143481 0.099317909608167096 -0.065123353097275322 0.25729642082946075 0.19451940255815328 -0.6009387011022912 -0.51075384068589869 -0.045499773296789538 0.097089149314395218 -0.21347368828599761 -0.58677211936662477 -0.34169728224635287 -0.2095676618379444 -0.19026448355665751 0.033902631653247119 -0.042535589591289585;0.057306767399324249 -0.12089056052540878 -0.13548465218194627 -0.38226895874114769 0.21555294249378418 -0.1062235495612425 0.18407253797591913 -0.061173375611751887 0.88509228735391787 0.16690565522532225 -0.22585911340024617 0.50334070695899813 0.046025894053870774 -0.1955876583606109 0.27562554461750893 -0.18297903050193462 0.23426157440058656 0.54857327633882658 0.20196356278830399 0.59319920707778706 -0.54898259490310752 0.17379896724765004 -0.4344795514846011 0.17819100289956472 0.18724378030953595 -0.043058030310616897 -0.024610860499475373 0.05938984534903697 0.47242207848949758 -0.45909127335205197 -0.19064717241233065 -0.26284789952297266 0.21305767921642488 0.15478079311514126 -0.37191704055975433 -0.069756122169678622 0.21833144390297754 -0.076685170664748323 -0.10040843747827596 0.2791637615578873;-0.16681559998997242 0.21536872211302185 -0.071411978536188678 0.021514253271447136 0.24586271002356361 -0.28606075397813513 -0.25576114950655648 0.61256469220367771 0.12131728950915177 0.02336824963788995 0.41962176748278962 0.28444469777007686 0.040487480679155183 0.036420990150328229 -0.079557510542432874 -0.07332749730783622 0.25386338107616313 -0.13545039474164469 -0.12105881808504926 -0.27890224559258614 -0.41588075981632416 0.16593324688055466 0.26285890425335889 0.11351106866332207 0.054517515231512076 -0.001462894130906603 0.11870107703321725 -0.049691487980112081 0.42246490548422738 0.26500242005372704 -0.10546440167654658 0.28438643419034459 0.13077918302684816 0.061872629690042334 0.24437812874625756 0.23720130845137485 0.25212892667059666 0.040728887383780853 0.022035877497908706 0.010496405625950396;0.12277662057908527 -0.023591675508591339 -0.14910376201699135 -0.33793411510809995 -0.37750046407025106 -0.069960657703483198 -0.38745278776832687 0.0094314499346439713 0.19285386864650722 -0.25398011012258653 -0.34617433864835784 0.16322266261018964 -0.080991441349137105 -0.34403546453076383 0.28852502605887148 0.10809748539793153 -0.0075570102223028656 -0.14470981317665232 -0.34246209131109684 0.1243523685972332 -0.088999485842715484 0.048627489021958931 0.17485099773564364 -0.19456658429080687 0.23656973659815386 0.22698609238905382 -0.18198839057858907 0.39081461451936528 0.16139942183675268 0.17467466971291143 -0.47406109041622441 -0.23151954052316373 0.16151436620553844 -0.08532717896552483 0.17640993991583076 -0.022401025704510049 -0.027301963937829792 -0.21321359200901752 0.10569167075973623 -0.010626504146548794;-0.1417410915625831 0.12886510723999689 -0.13190339673496407 0.17793461385483941 -0.010645806873916809 0.014003970077791448 -0.0333140466014855 0.21901810228525218 -0.42357829885516268 0.3564760563590918 0.054718206335541447 0.42889450339995194 -0.2300825820443313 -0.12367276338016046 0.18221953210133154 0.28942700255982984 0.40396064542938742 0.0090682900144971202 -0.53497269078920395 0.38306771519213467 -0.58153558791134285 0.0048947281454393317 -0.20735929552629079 0.3949253460001737 1.1166262314934654 -0.40496681673300899 -0.52246374105956972 0.48892321902159153 -0.075781109674438796 0.056392062824408423 -0.3958682404015153 0.14758762466914657 0.043764427169244488 -0.44536841486699602 -0.55317182390109843 0.11014350342112261 -0.44114045816646302 -0.15999464557043086 0.086756977191169898 0.30464134531850751;-0.033362080787310705 0.075105919710942867 -0.78328879893176617 0.24053298877451551 -0.32339398344630765 -0.04467955740308352 -0.087051769514947364 0.37441832903104111 0.14108071048891252 0.46087774766701045 -0.1600112481531353 0.093337502117849802 0.1420244551419052 -0.39957074151557415 0.36598622473214676 -0.11138061387748215 0.25915399206264267 -0.11351520141524207 0.39851789680766608 0.59216368067195879 -0.15773872830077285 0.005511145192109307 0.14897121362488272 0.39874614707885014 0.60393089942515954 0.41214638236833689 0.36644792487790723 -0.36219020073039437 -0.16595283006370995 -0.16712289610612382 0.35351484249672821 0.23869749632888812 0.29094133836924657 0.38387613294946421 0.1648295312393751 -0.21864805695828282 -0.11409174249995355 0.48424630228176552 -0.16053933170622092 -0.035653667159240371;0.26550333189694353 0.28357938235746838 0.55393084185947405 0.38386637079595953 -0.14829999641497418 0.5041559260346764 -0.21838563444448772 0.14023608378556321 -0.28910851195857279 -0.60287433073196983 0.60376903229088918 0.29361855302848144 0.47663688285612155 -0.066756120101720065 0.088282119957760113 -0.019602944244512616 -0.046843997956842021 -0.20887388490450706 1.0352520632106752 -0.12927977306262803 0.16409879573386901 0.19015783249643825 0.5771913629976686 0.13806074639555632 -0.41154357359288729 0.36876941761152665 -0.08417385730715439 -0.42418256438332375 -0.51236802243942015 0.08929031196190125 0.18074043896245032 0.07690644572384521 -0.33540395293798769 -0.20719990584046077 -0.12609491034351686 0.25587267773570144 0.209057349401302 0.25537218553625129 -0.19477024797446563 -0.058550495980631376;0.029833474387216546 -0.34589057639228488 0.40997774415586724 -0.054207283452544455 -0.20973966703907732 0.11918334545104277 0.18358196549663633 -0.13866050066016156 -0.66853116964215786 -0.32968988178799757 -0.208624669257921 0.66998632420170434 -0.071537191423677968 -0.29955059996155903 -0.050211615714144051 -0.25530863764421247 0.27979135350374174 -0.14523945199860516 0.08588896224518526 -0.095046654065674252 0.37504506162942991 0.11055458198785498 0.064273568982867207 -0.10772461585873735 -0.30464183166704989 -0.031877615345655232 0.32207692130047555 0.25180396469946137 0.16400119461910465 0.26111764210581528 0.010130573669266597 -0.026515620357337 -0.26313727947514182 -0.052656802027815294 -0.13366536376302132 -0.25958643626838179 0.2035594987765964 -0.087333961193741427 -0.076612449584491094 0.12832743643350791;-0.23112254441983912 -0.1509638877166524 0.24507810381378281 -0.29778166925555249 0.0482124063767446 -0.0038555699916363608 -0.19642029015818069 0.28814772450214599 0.059549798606220339 -0.15083113515885083 0.1842182437028321 -0.15095147672547043 0.049920173140112017 0.12288457148832725 0.08257663554116644 -0.078069229418953306 -0.29926146589190833 -0.074080192586507596 -0.0992994940623321 -0.042732937568082663 0.010232295834453739 -0.40037376372934302 0.56188016209793967 0.08081069811525235 0.15712556184755969 0.43722325642313281 0.22793539096176019 -0.51453040922124726 -0.027151294697494704 0.29835756789189494 -0.42263752978458524 0.12025884795665424 0.4448570643984518 0.27580968590160065 0.049076018329986974 0.64821721221849782 0.030664934438529832 0.27044132019019068 0.25450570054841348 -0.023815786538315606;-0.47903725969279626 -0.037365292336955763 -0.30206212368276042 -0.13805610370107521 -0.022599138891937858 0.0025455476491595061 0.53771492488861428 0.40163712274665975 0.12528239493488338 0.18036342209588282 0.080071076014629303 0.42086616532939752 -0.12828096904283212 0.14147606874165417 -0.068839019713259952 -0.27880097815367005 0.28855237034918058 -0.044966826765718698 -0.10031060729851371 0.055467979855092192 -0.088498969983084999 0.2327822383986341 0.21644481927273404 -0.25537933502369686 -0.15341646547360613 -0.079166998729521917 0.037932744749428413 -0.52529032240434825 0.36506113614867552 0.082906691710293079 0.48307818002154068 -0.017989002010536149 0.62533809891235559 0.058195656864585082 0.094395574078345396 0.012830957318135881 0.09261816518640914 -0.049997679732440528 0.1189857218738341 -0.11921643063124805;0.21060264479723531 -0.06481731828690819 0.035025953329526301 -0.018689627951872154 0.16847516269563326 0.010783290096528104 -0.28469910937172682 -0.15123577260972196 0.043965880210464478 -0.029385413396871434 0.11183606648598365 -0.0093485891560242985 0.20343960967247754 -0.3804802008025982 0.1040257797375683 0.26795224942955015 -0.29918152835933398 -0.075726520540351214 0.12903524363601496 0.019730418852345125 -0.29283616620913139 -0.52409550580588971 -0.57440727089364363 -0.049078199472519825 -0.19515547848006662 0.1766011265662617 0.06402135654329183 0.15415307904139688 0.17455064745696558 -0.45878437059046162 0.1186912262958584 0.019835337909191543 0.046093623667833768 -0.080846257454323542 -0.23570877787446357 -0.21401206171640297 0.19346945663696374 -0.48366559865944592 -0.26667890552232454 0.38264641924066956;-0.27398535371404553 0.22399972261213366 0.16295361580252504 -0.11668914766452293 -0.1648251966962106 -0.19842326833193716 -0.20297940743871143 -0.14813967167473355 0.068531063935553027 -0.26187920121757585 -0.094814721354736703 -0.020397262898891232 0.058347159662540976 0.22420075000142298 -0.087682533308886798 0.029578583637522898 -0.088036765586593402 -0.030374470030388203 -0.060361643832974793 -0.19063367388806327 0.47086349669994793 0.26649983571969793 0.15310417906914378 -0.14151743756567897 -0.025186323785283862 -0.14738389240965871 -0.15009566926735757 0.092828395122371538 -0.42013329780055375 0.69082015756277504 -0.27671730491121876 0.15495393566360532 -0.030389781395780854 -0.037611802590658321 -0.050159415047998417 0.24883249932657583 -0.13525102635852274 0.045835272820674726 0.33812933420978403 -0.24588361053768246;0.04788392789528749 0.21825520794670863 -0.18135436713107164 -0.28946698879929228 0.10829296194217981 0.19724011395355309 0.057970060155492303 -0.016655753494631272 -0.097416254983912084 -0.10645312446858488 0.045594504583147316 -0.3521956037072772 0.0080401553605336778 -0.27711201748323472 0.44442627624996228 0.0062029287112635046 -0.052146548521241787 0.3551266381159528 0.42763235168830066 -0.22906869869705312 -0.20641188747145725 -0.14536120630430488 0.22742130843535133 -0.076372845949130311 0.54057721212016974 -0.51520334382950317 0.060689508900076621 -0.083632405849126151 -0.37050983902038193 -0.10209569149791313 0.12294272272038649 -0.3927581678290667 0.11682336507046844 -0.17390400502226044 -0.002628169887638625 -0.14254889904617002 0.0084468701203116656 -0.11693509387261862 -0.073498910189464348 -0.092656851218547748;0.39165855607908595 -0.37521610242966869 -0.087749777925766881 -0.45878826303868853 -0.087045779671448859 0.1640097204942938 0.04810040108217141 -0.16441843642594511 -0.06436458632458128 -0.29472648072939073 -0.17486113943109569 -0.10156878008938218 0.16991577015617387 -0.28396967739691564 -0.42663139902407288 -0.0066766157037890517 -0.37219178191799973 -0.15165752500467664 0.47147921422373668 0.14124274832730982 0.22248427338255752 0.064155104351883416 -0.12945242906133803 0.22415911502539385 -0.14519392998757175 -0.12908984374102878 0.1823114433732469 0.054965130363852623 0.40166326902413724 -0.13427421320330135 0.55764551960975062 -0.098254994688061884 0.27329212927454777 -0.098529482228518012 -0.0065071652551793131 0.15945217425257652 0.27835427110837174 0.43244604642485951 0.32717552130900435 -0.32927955862709696;-0.15144319217459598 -0.078682818182480213 0.40880981148419843 -0.37927033775786484 0.34108676942626093 -0.099363343534632845 -0.016458594107620336 -0.067954736635896004 -0.10079006326944842 -0.32696436104397525 -0.18225294375087775 -0.72629922214535225 0.23572412449035199 -0.51739254267928236 0.17284091420242226 -0.32903115104323993 -0.57498287097857226 0.071852270323310735 -0.060584293546402358 -0.20884583689394393 -0.17468647715479149 -0.10504253533587198 0.10427913600914035 0.018999742824918391 -0.12147920941384022 0.32217229729057456 0.10164806925638289 -0.23413774217206668 0.5067319328082972 -0.40515373002030031 -0.19636458306799764 0.27465028554344434 -0.25521703341102936 -0.057669931960317007 -0.11511472393959754 -0.20597423143503321 0.084484467257085652 -0.12121524956815555 -0.36759968281479843 -0.047747496739041759;0.0045825878389458459 0.17808017141266727 -0.39945402260804574 0.34642834742588374 0.22620033568102826 0.040251176844744413 0.082696144850563896 0.44864917992547659 0.086684307094117008 0.088316516585667984 0.015775518097721118 -0.4063005160000685 0.079045899982230342 0.0078014335248526136 -0.033838283899855895 0.21697920630199335 0.25997652760924295 0.17836202376331298 -0.72778073873348881 0.33332501881707938 0.048697807506175743 -0.3532835133311133 -0.56264234786533884 0.09018049597748376 0.53191221662891441 0.1486748948817789 0.24586794429692732 0.27139260639781876 -0.25738006541510894 0.025804471916570853 -0.19662842189046473 -0.075129569565728957 -0.13468268701836694 -0.010787005737698863 0.19700935360535737 0.48729382427501888 -0.32400246575372565 -0.13932569147867607 -0.27939004245215343 -0.17239904427923772;0.052552028901562797 -0.28891259618396076 -0.31315331510079175 -0.35042219713019268 -0.060431103359833496 0.38284024893737528 0.19925247658903619 0.43580257169537873 0.22859867162346717 0.39106788527847847 -0.63927995704716079 0.28089112174166347 0.32637140244003171 -0.40755002962666509 0.31033724824909775 0.031337358850866269 -0.026585104782228395 -0.17554084120173619 -0.21271300253297748 0.10201978713979126 -0.0096634018839965273 0.074731539450472673 0.083661412612112726 -0.25217129002690397 0.036794707709369184 0.021914165432697023 0.29438624835685123 0.38735778834418527 0.068206301305209854 0.27209131243412499 0.14248267300765782 -0.20700530867971251 -0.12023267204971147 0.1622631993529387 -0.0344203606908903 -0.23564659550786424 0.017923403587875527 -0.096681564608664505 -0.0092937438209672509 -0.053482219025933635;0.031785950347372346 0.26978145497370215 0.04187112203375469 0.035316918472638521 -0.57963147517746849 0.030014163643988984 -0.34886824879055939 -0.075354249705640253 -0.57041545521375958 0.072821259377088748 0.23939618644209976 0.080207627790960592 -0.24793023417632867 0.39218607611644946 0.0019649274763030673 0.012045819591029948 0.11731185996137787 -0.093053135663425754 0.72408547399702006 0.33238429078010151 0.14726840517429332 0.15311200988713064 0.30111983254191316 -0.13890752817391386 -0.26203569588830455 -0.0041253720718884062 -0.11540393989978814 -0.22159963869651247 0.033057250184739678 0.057787491742243742 0.18133309901761918 -0.027655001665883173 0.13279514109536231 0.032715254962867736 -0.4095626302800266 0.22692971225871847 -0.01965485053519922 0.2893060840441059 -0.00055600135799247006 -0.06030728721262861;-0.12204429920776236 -0.367735083333395 -0.092911448147222589 -0.07682812163714485 0.15454486555336486 0.081260647971205233 -0.12876279451750047 0.33213140647963829 -0.24300082354365724 -0.25373096660294192 0.33231906774237213 0.27626177634179311 -0.14376197729554088 -0.034981508270500776 -0.0049175351602078173 -0.041609421866116693 -0.10150236067341302 -0.10360983868985182 -0.062180890605613791 -0.078911512599314504 0.24203397464225587 -0.11856431944568634 0.11617952984302239 0.0091748153383315652 -0.58240612998797525 -0.67886702543277977 0.17927598902408839 -0.21959317364126849 -0.17504908502359331 0.5548642977907704 0.21022694599459116 -0.30298568535722031 0.16588890480649962 0.19778488346404058 0.493084748783719 0.58504511760904543 -0.24854701642687571 -0.59172799223048034 0.31947648946331481 -0.03816241373495316;0.067896122078547852 0.23441759046294039 -0.15152198522138183 -0.054340876030447328 -0.41907952712907121 0.19510923969980098 -0.04268838090902298 -0.1740048416892247 0.37126671306507653 -0.74425325639942075 0.1799459477402563 0.36676990814652621 -0.082651528235213864 0.16114127166908043 0.31590958423950927 0.14158066404090786 0.16608332048054905 -0.41384365201614159 -0.43194654745978733 -0.3750867556773248 0.41107489541011238 -0.11165048592162941 0.22077896227568278 0.058334300440703819 0.23744328908851858 0.26339233463944001 -0.04491912144866262 -0.36534058718701606 -0.069692259896783057 -0.23125720322874121 0.11689080697134281 0.24889276387660833 0.21276741741407917 0.1665220764189492 -0.3765871384621795 0.24067534126445608 0.2139614186854352 0.11895104542441351 0.087112108456353726 -0.11714077218025701;0.09177804709109906 0.18751120943025043 0.14638307960324409 0.11167716289099794 0.024488143220613327 0.20554998774366429 -0.11834103841815628 0.073910269696744274 0.49499832612237998 0.15494762703767487 0.16031643535925735 -0.0345254234680566 -0.11065163165302933 0.47923295958177436 -0.27172757413385312 0.36217920548187105 -0.029104178404813812 0.034942060971734933 0.51694335981626682 -0.21611437765635094 -0.15948273893022344 0.15963113773822379 0.44658635258666196 0.081767059813394188 -0.59137773486905554 0.12016273486394702 0.065833268667105191 -0.35742620358107552 -0.035964429033180333 -0.13669632678818727 0.86910377976060027 0.18493483105317529 0.14054784358440048 -0.022475806349025323 0.33991442978972558 0.48720129201475226 0.091836833009263583 -0.20169519675374342 0.1664124764388383 -0.24533106180070754;0.064014021499836787 -0.16277173535837616 -0.090430919806514548 0.36147662369954342 -0.092330142139762802 0.23198717428871374 0.24227615361382249 0.10219378321331038 0.45258591555132394 0.36538400780225272 -0.15301975569583307 -0.10671782847703115 0.19205606644271697 -0.23063365155241092 -0.35370601457823392 -0.047642297631736302 -0.11746816947274467 -0.098972418177533245 -0.21540549035105711 -0.58377829302713713 -0.28454218595436997 0.03903323462117033 -0.05000110453973293 0.14166056292247017 -0.12531045501047983 -0.051716014016803806 0.28619916630108211 -0.26262436744867212 -0.017282974662164233 -0.3335883565750053 -0.081880249271138114 0.057591981156954943 -0.044439426357750923 -0.12208137266466938 0.15681954438473128 0.086804638538727372 0.017694477957603903 0.21468344046925894 -0.010981843249280318 -0.054995039418812022;-0.11216931688127424 -0.085179600550621209 -0.59760308456051547 -0.45570816558909388 -0.49048997250583642 0.43295225143819532 0.0075459976656310247 0.16151590551364273 -0.10679952977242785 0.22626436190948332 -0.48638678581135403 -0.03825522547490183 -0.17150329573190007 -0.70390994125006245 0.3298915809293525 -0.25153384201357692 -0.26099566375871414 0.16540012170107848 -0.47272370129063979 -0.37970719544003756 0.0053207950834496722 -0.45495987547379357 0.096022354183015676 -0.07916558834201437 0.15026102296084948 -0.52377813059777523 0.059429669423098561 0.00056160309692464012 0.14713130876541725 -0.49865633384117852 -0.85351007647996813 -0.27321372170638558 0.53749203679093271 0.037075689498966537 0.078568600881795833 -0.27650425996056927 -0.041910673250040165 -0.0035022969886346648 4.5567075485290855e-05 -0.15684412267068162;-0.1251598529569227 -0.10544077770636823 -0.11981213443944766 0.10822304515210573 -0.16270292407686823 -0.46801215161424825 -0.24392609065111664 -0.080565835515068157 0.0048458653977075505 0.023028135078671196 -0.15348127736963535 0.33426097477175087 -0.069268413830219311 -0.12430172372725373 0.087557130386222357 -0.073331113738400761 0.1638716912061543 -0.47455400317627655 -0.21443244367693562 -0.28961732592757322 0.14442572618969157 -0.051199028002890723 -0.017549852474415019 0.22838586914294445 0.42417753816921372 0.41253207263573194 0.009362719107559897 0.27509802061589755 -0.28217068646393556 -0.20885990564280038 0.13856965364674365 0.00032212351877900132 0.22653217033778361 0.34649682949301047 -0.17297666253978358 0.059142930707778138 0.21188118295005198 -0.033339132251984004 -0.086383190414558386 -0.62416441090038866;-0.10885646686618865 -0.074367399662841005 0.17961791092737805 0.075952284180691582 -0.30155163082925662 0.050209069309259967 0.48015304483720112 -0.68655833342381745 0.023045297813929642 0.18232129039508285 0.025387615057117015 0.16793914029023982 0.26418425535111589 -0.043870572881094541 0.057473388228177817 0.1485981843690283 0.31706955686685662 -0.039802541665000163 -0.37782726065739147 0.2857636763905464 -0.029361812974370623 0.31571891035695193 0.0040956784302526132 -0.36276019371501306 0.27055157283914372 0.091918995341927781 0.27179188978096402 -0.11866663525732347 0.01793406701634263 -0.13230525344493255 0.38762847638991016 0.19468956943240798 0.14526471023782819 -0.031776320641241147 0.30322333839356314 -0.23469923388814812 0.286236401414868 -0.097538582241929891 -0.10188664383149061 0.25488820992580213;-0.03776036486316646 -0.15337252239023394 -0.18861440258995424 0.17139030643742645 -0.063021709610250914 -0.17120093581421328 0.27893754444334606 0.53711091975702385 -0.026366489474023678 0.10589108941255976 0.10089848430159759 -0.29156125220811524 -0.15866052967957731 0.37266884574719067 -0.056425209085341349 0.26651667521015276 0.39103492006571838 -0.30919208517754837 -0.44226650104523546 0.075142417394080535 -0.40271848796633253 -0.068282509230151403 0.16808811405616314 -0.13844799785134271 -0.1302538701764408 -0.022143435873002725 -0.2654722968167128 0.39033334678667875 0.51841477023562477 -0.26888573679803818 -0.13160831275171489 0.13032979432530481 -0.11219281035409835 -0.24495287225525286 -0.21738595527157556 0.3828252722172592 0.29483749972666962 -0.00071728661409096897 -0.19175559466154843 0.080125546050267157;0.11706867287100874 0.20731053225051738 0.20246469117269317 -0.37039947429209835 -0.05382982305475658 0.35893581250450535 -0.2649977618645753 -0.22126043828184663 0.58700455379188432 -0.34896045134757642 0.39074899260291407 0.15258813224671061 0.076034581483763006 -0.03455233689174983 -0.17959238534806371 -0.12438642574467768 0.032796719894024239 -0.12146729279480956 0.3779454865606045 0.20111088006636937 0.23184564023553014 0.096286438083385356 0.53766187440270996 0.37905337856745008 0.34145736966747903 0.4740199363872083 0.16564987478399035 -0.075147681097405147 -0.18129331406837226 -0.15084601036980852 0.19238367730936429 0.054706659605273399 0.38305871814498443 -0.18278804591992293 0.18691125550333082 -0.15574036939105959 0.15467349936258656 0.091661084137007215 0.15161994123109887 -0.27679636498446197;-0.014282486310853158 -0.15797034391885947 0.1479009371512662 -0.25749656005460597 0.1933430438465937 0.38814300047647343 0.20041278598123502 -0.1088790039210423 0.03594637752131967 -0.13002641311172561 0.04014588600140722 -0.24474949936327489 -0.28413006186732559 0.23172998050941615 -0.01673173026084258 -0.0011321624362075893 0.12249696938240007 -0.080726094977435603 -0.50944318946038847 -0.028839962567043961 0.068502019234136749 0.063641916775329196 0.066838920167143823 -0.15762221945174087 -0.12230922198943377 0.20607049067754951 -0.19848110697954729 -0.02522351842100504 0.017878081430533165 0.31871361822037231 -0.40928188558751721 -0.22847887933840499 -0.092108789098851035 -0.27268241628239415 0.3076959958034699 0.16219109063995718 -0.14221194463810102 0.009754733075699443 0.34825571582048936 0.29058730193525356;0.018502695426014654 0.11056701897370658 0.38364569778344182 0.081220104730196085 -0.063992493765786793 -0.14652491139185525 -0.22657974094702954 -0.65530700521849328 -0.53766162613565338 0.10675205377287712 -0.44897759712193536 0.24334276977228686 0.029627145952243156 0.030077385144028326 -0.20326800778435908 0.11438083333496576 0.047518254516722931 -0.042742402172823095 -0.027551625703673293 0.17816116085294051 -0.10955208297151868 0.23845561204015497 -0.37799478784876411 -0.072331871336150932 -0.32970116401299254 0.12887622365891774 -0.11867313989741887 -0.094717515846486369 -0.19664226052170697 -0.02579639099512036 -0.37537215127692936 -0.24650669503383824 -0.28183505005009335 -0.036230381760967052 0.11594928385230001 -0.18038945857911262 0.20285306090690741 0.2203058239229739 0.074658695892352564 0.30698425359758069;0.0021416840690093408 0.019509652195556972 0.15998100979473823 0.093184514234121454 0.11653813895457854 -0.10686079645415683 0.062942585902371034 -0.029329947385058768 0.38541728217924687 -0.43393371106268852 -0.085850087011812723 -0.077774316000744123 -0.082228681667067566 0.05133508353222422 0.11598632625505646 0.18237008666883059 -0.085944071087043772 0.20035204987212088 0.12030228223913453 -0.24913100303921271 -0.25920012693905758 -0.30425876290723947 -0.16183822110386845 -0.16943905981937704 -0.097550577329576282 -0.13267537341594793 0.10158210159868272 -0.13241426887069377 -0.12189777140457075 0.037030049514828689 0.11240954777520321 0.29725676258430095 -0.16628170993656038 -0.32059568263333815 -0.27753389737230982 -0.3370349719422725 -0.093720003171903016 0.19298171328566216 0.14874259129261877 0.047704607898128942;-0.25301002359190627 -0.20188406231457529 -0.2105230475120505 -0.064449600750491928 -0.15243616735338777 0.23872200025093498 -0.34033873217482957 0.51369917236942031 -0.38461533145481452 0.03992340846707066 -0.27346044205518932 0.19482510906485512 0.0074388207414820282 -0.35252183981045576 0.18079673019665785 0.15789314942624547 0.21590672097052466 0.21508121312582587 0.37670635435362976 0.43332599865667915 -0.10469513692451846 -0.16906994268822284 -0.10046188710599202 0.08514584324944896 0.17130532727964959 0.12295550310047183 -0.11107403016716857 0.56268196993351682 -0.3793063632628193 -0.10584690379937514 -0.015224577859345821 -0.38066675121613935 0.01047958575493985 0.17882118558373886 0.16105526539511983 -0.30543226725700623 -0.17719626071271399 -0.30519693507431711 -0.25152406617273859 0.1618818635917863;-0.36768039612222736 -0.15204537829806866 0.59072204766886383 0.10789922729165129 -0.027671024591992471 -0.054465978944785297 -0.14608546853773297 -0.085702887007411105 -0.046188679769954659 -0.66458081804896196 0.22000563383647825 -0.24805453743487635 0.19800613668718126 -0.13846665897693039 -0.087884215553143921 -0.013978077448139442 -0.14640400496080858 0.19961809389150292 -0.079017179887346176 -0.012471915218382925 -0.044213301218345089 -0.47972960985035845 -0.012508294752482106 0.29992725477536386 -0.16762438911684119 -0.19336815141840824 0.1773455607671782 0.31635898807795121 -0.062899946688269565 0.0092000188597722056 -0.24962216001751672 -0.12206596389202511 0.11983086050489133 0.087597301906289365 0.061460350257531438 -0.20666556740715336 0.25574071827294742 0.092102794370928914 -0.15243732958397388 -0.0015873310021722602];

% Layer 3
b3 = [0.84824422878276917;-0.83893268831105861;-0.77334418467127386;-0.77470286449330328;-0.68774748431675159;-0.66068690175663314;-0.64760424440832942;-0.54131774849889125;0.59240452090393325;-0.41994747961304152;0.42931075488267295;0.3652330676479863;0.33257320892601877;-0.39256521965008656;-0.20518435328850815;-0.15044689643167194;-0.18301830889944848;0.13643219363443185;0.066104256612358428;0.023050447885551606;-0.039542451482159915;-0.1117146224568709;0.2001997058730737;0.11703946655044939;-0.3705778115589633;0.32028798014279586;0.32841110174746696;0.22642628756856822;-0.35440951085075484;-0.24987893137103756;0.44572704749339942;0.63032564182250772;0.36799669031837945;0.56704227960047837;0.82087039415492946;0.63702296302615247;0.6491585676086683;-0.82133631086024683;0.63262988215076543;-0.88759980937240579];
LW3_2 = [-0.18078215975279513 0.22439494600813142 -0.10385172556262559 0.091688266191674209 -0.085884587887062228 0.03470460417051701 0.15229720726332208 0.09514843829577152 0.008673829556777108 -0.13270460000220496 -0.17549429750835566 0.066926168023169502 0.12944943031474695 0.28235466706685458 -0.033172009519560591 -0.19918778459913303 0.25022754002139252 0.13463469447350918 -0.031539146515410559 -0.17984418342108119 0.086612235701786902 0.07898425573636593 -0.079143271807161034 -0.16205524434071808 0.12661775761968802 -0.065677262673744713 -0.20711659830989695 -0.091470556761240801 0.18989333186790591 -0.06655437211194011 0.018146876664025164 0.15713003781199411 0.2641405996967201 -0.033027826450738096 -0.16849727021200944 -0.15576571944173101 0.1996748765940497 -0.20079683429887302 0.023008160621134002 -0.28392664287967634;0.046753560192719951 -0.21133536675414771 0.050152676437987702 0.063647878692527221 0.12979343906621743 -0.19175978029657803 0.13294520540463839 -0.0820864116477064 0.062672850243282577 -0.06387217693130566 0.17716291246902477 -0.19502281627263396 0.19928470604016013 -0.032754335314492296 -0.2425453160591037 -0.12589329789319711 0.22168742858923365 0.038743957527328204 0.064002707090040314 -0.2069895290934807 -0.079616065566613325 -0.061145751355023606 0.116970637376173 -0.12331279051044949 -0.27211986067536847 -0.28767718802390513 -0.093522308697929477 -0.04639404768655838 -0.18836847051435107 0.094248566155175267 -0.090276311527177605 0.2822864075475105 0.17964600945420897 -0.054161435678943576 -0.056546476971818832 -0.24803844466352878 0.057494153475048979 -0.070326785180982926 0.042850978678407592 0.076964874851551901;0.019611151508877839 0.065372664604414238 0.062662103945029149 -0.19603438181189309 0.1843608488550865 -0.00035323484088077637 0.31894203867555465 0.0070495542986886593 -0.069271369877544758 0.0052858429012088435 0.12778369442812323 0.16011528549933846 0.042429717458535202 -0.34986028815045822 -0.16512053994941639 -0.092485651774243768 -0.12787299104979319 0.0057347217112690375 0.27266768606677427 -0.21563305031771415 0.41643555803383048 -0.25523036435579977 -0.048759816205731318 0.54622038336710943 -0.043297525259666035 -0.2885621959106982 0.13817907040960084 -0.15068729470837613 -0.0053687930412169294 -0.19110843613951323 -0.093765369645208638 0.058925687404299425 0.21604629819113289 -0.11864022993312626 -0.22612635936163097 0.039762891244036168 0.53645263487083028 -0.2756302575893832 -0.18764874387881872 0.3452318911372288;0.16607555732822774 0.26062803551575264 0.038544085547420052 0.39199417428651634 0.061316621558979795 0.034484875455650307 0.28938628631292462 0.11430939239438576 0.0018634937715904627 -0.087031197805154906 0.09504547464134841 -0.0003296368387442698 0.10985336764119802 -0.90736552272342874 0.46614695075005447 0.47404256277263312 -0.42375927713941458 -0.10314186476091723 -0.012287907102682443 -0.018475669038912092 -0.28788334695408818 0.49729079600519582 -0.42187774234810854 -0.15657533734861301 0.29275115913570626 0.25509459761645337 0.67869042148069414 0.029598603992172651 0.43411491324678592 0.2516083500017145 0.3830380485264907 -0.10570099881778287 0.0084358233017241355 0.10940450811874686 0.073255036052217809 0.057473583620607019 0.14229168276373624 0.27333559981543354 0.0067151779246787677 0.34378990962192668;0.034166249104537395 -0.43323497714854237 0.13994007763778071 0.24093730668474314 -0.38256045263746169 -0.1011616076044551 0.29245398035398157 0.30144371373628248 0.23539727351350173 -0.22004997082008895 0.12935073948548476 0.25232819685077079 -0.11546703471303868 -0.22480017079252518 0.26143764268945457 -0.033064142114536656 -0.85735987984475748 0.26483191244935095 -0.14670222897485299 0.33506226978243675 -0.053577544095774012 0.22925716315417682 0.041696541566719328 0.0044231459631528637 0.1266254521718681 0.17475999524224883 0.47367000543659321 -0.19153673914532571 -0.1715859925550999 -0.079777133668608863 0.010423047160382162 0.17837771754777573 0.067837949494917518 0.2077082845189851 -0.13547612945276027 0.026881626783096864 0.098465830178158284 0.25771133024010029 0.47406543157816933 0.054580495150524051;0.037636260099464969 -0.45184715775955497 0.17133007186805305 -0.32630228497340397 -0.49241514229276567 0.45423382153781955 -0.11723713379848957 -0.24341185961010237 0.30882728137167226 0.33544323423305705 0.046559008026007209 0.24554093759542583 -0.015316182420512959 -0.36159459998122356 -0.17718092840927493 -0.12159474239828452 -0.18579445964932068 -0.1289250154984411 0.1746118013666276 -0.018303619252958904 -0.014444993490457339 -0.040617367639897047 -0.14269485478824151 -0.072272112573220929 0.070393980633840711 -0.13412524994927394 0.044355784898006977 -0.5071408034461925 0.012997885910899358 0.012904978609170087 0.067538214750244741 -0.080404970530034925 0.14345409269813689 0.36647022031483306 -0.31094357817807594 -0.31360150317027863 0.050157886925995661 -0.036344802084420577 0.011163838918403321 -0.16152382953454492;0.23353096130180057 -0.14854476118353244 -0.034360174698024763 -0.31384852615029241 0.10181632663617556 0.15944683409894392 -0.04961637001653852 0.19678719069635028 -0.31915980411388861 0.17650097485229346 0.28348987247383189 -0.13843919225273196 0.0047012559011207038 -0.24796183235229002 -0.61430531712201619 0.21764272856246539 -0.079034499715001344 -0.08020361956917757 -0.05891612502696502 0.05016144742181191 -0.069947629841775966 0.069954827528804359 0.17562013057231388 0.25965076098060424 -0.27430133528536549 0.022297903773475843 0.11184427333737514 -0.099385000799476028 -0.19542860569775139 -0.037351121865175141 0.014666216017618326 0.31077503630565068 -0.16583386805095315 -0.32323058655847586 -0.102900607495452 0.046659594105773625 -0.2148346433106047 0.02887795175131315 -0.00099136167499021873 0.21243083574029129;0.19345566315413737 0.041892811798181398 -0.22331038679957982 0.32242490732764706 0.27100876898827286 0.080351918223839303 0.049495448473811356 0.088457808290654472 0.33432791456767025 0.21313768004007488 0.084803406382161398 0.15364976366459168 0.22937414351189736 0.19689800191176968 0.24500426262461256 0.32367657752469198 0.045960586440846725 -0.40395104915705643 0.40629442232567764 -0.21488890028268834 0.14497273397094193 0.50226197362265612 0.23481267141742851 -0.51303539522516861 0.232393318575358 -0.37064244926525147 -0.088556653462624618 -0.30784395596215636 0.018957456799953462 -0.087260421985728753 -0.12907103108903975 -0.20230684056625015 0.07190379670380663 -0.49128043318291859 0.28636250852916295 -0.39530558614900191 0.26980024412002557 0.2681446829262365 0.44714791914847757 -0.041126270314968148;-0.22827903179030301 0.34579299989239798 -0.16321980057897034 -0.079599171012375305 0.17343722644254886 0.19191315500700729 -0.20284205409651132 -0.11092620063855488 -0.28020016535332043 0.12469684834682505 0.33204518096043284 -0.15976742789059703 0.095936775313814712 -0.042364940227635449 0.56303970191479569 0.36970875125862562 -0.23456365899355242 0.031484826317921634 0.2020061452446518 0.25741613519525541 -0.13151358612813682 -0.26989203609162926 -0.13796287530096377 0.092325777408443957 -0.3473041485839406 -0.19316995829282008 0.30937235730574325 -0.20520748132764735 0.29370865782371536 0.32518174100566738 0.27411231705944478 0.13697575578365934 -0.018006905702250511 0.026852637291190778 -0.37893030266857625 -0.24984650531288555 0.05086971614636894 0.15300826254758895 -0.0062078964089450758 0.24767092215182468;-0.033030813780837096 -0.17002279204486623 0.0069904936978754315 0.20851523646816453 -0.11986258223389355 -0.11585256045758204 0.40360308224299529 0.36069173124940301 0.1362683474458698 -0.39049659707249973 -0.22327073048426305 -0.69739220054952089 -0.83856914883646405 -0.19727612208169643 0.14959707290941923 -0.0098439167231768598 0.33990930297680455 0.019997130445601488 -0.15843956013605195 -0.26452971135934372 -0.13708975152662825 0.33481682395815615 0.37740095468206974 -0.66351084433916885 -0.63366537057198391 0.37308622476836328 -0.37727394929943087 -0.41510640994263392 0.17498895837440201 -0.59552146107617987 -0.2979819278046052 -0.15741848863471855 0.46715371236694803 0.071249059854619434 0.36676913616746809 -0.29822978830301133 0.61274271314660156 0.086461299825401988 -0.16791991158877256 -0.067371834097370367;-0.18819726446416746 -0.04965591575685728 0.057196859968449448 -0.17104103598501938 0.25137735212104301 0.27610658175231734 -0.11891784923644114 0.036336348387448841 -0.092215856488308171 -0.025921347054065638 0.11413227641622505 -0.092132556242149707 0.025550683864430084 0.00083399323851272628 -0.19905604846211628 -0.068922525783913516 -0.080917414236140864 -0.099756483167752583 -0.021857705205020516 0.20718021763943786 -0.12611589756462052 -0.26213736143639749 -0.045460382948449861 -0.068479796560984491 0.030481765756893358 0.11686409906240609 -0.25023546736645058 0.23267781007830338 -0.113171457466978 0.052281809861656162 0.083657377377002379 -0.0052399986521290314 0.033976911175302528 -0.18124127571323523 -0.16984805091179711 0.0089879820868002461 -0.060694101296784757 -0.23182379056064314 0.013346861038818507 0.088113944488165008;-0.094944791384400845 0.12765977562437075 0.34216922986138659 -0.023814777515549671 0.13187736865273228 -0.27771270732277298 -0.1174126040876442 -0.12522689704265788 -0.15936476079605727 0.12677010616370293 0.13563656013003605 0.48715259676849049 0.3618611319580497 -0.22682288958272054 0.39240058717477028 -0.019515384388633362 0.20485751078286107 -0.20614542462870294 0.18258205080913542 0.31440402787697519 0.018652491502645703 -0.22848037974459889 0.00045910943379489863 0.35507685863628236 -0.010370660055287593 0.14579889557614323 0.29902787105244638 -0.071306463765553246 0.26140192582098171 -0.21860293618444346 0.18664314190886186 -0.077610808623373481 0.070621103589060222 0.19773275918390598 -0.027933385810549601 0.092463158205949622 0.32223519744761958 -0.18505897601891974 -0.084037961116223414 0.37478467541858085;-0.19317984790498566 -0.21723061116212186 -0.22938613634633429 0.10018542138560155 -0.21919867621435013 -0.045782301644915875 0.1819876682519242 -0.063760010217262367 0.33773850182698367 0.07773193528942611 0.066956164735541002 -0.35922025845600308 -0.22179305233680641 -0.039503832420310622 -0.2642573280677985 -0.16508028117078813 0.25791279653698701 -0.37759529592362545 0.020155824138269083 0.19834752413321974 0.09991865241528701 0.36632581206620268 -0.062799830649236429 -0.069067917698576037 -0.57746841372604907 0.32099898874031291 -0.1732669269085334 0.23886139624451 0.15477905924993721 -0.19360711478064854 0.12816597103061633 -0.14686714306366258 -0.095700851222906197 -0.019515958787135808 0.42233744378724486 0.080996255972697981 0.34501337977789981 -0.18585671575533655 -0.35723548326058113 0.10469469429777373;0.16583730595612808 0.093873762212901737 0.30434339638213981 0.021258868823253854 -0.22034926668609087 -0.50149445795743597 -0.074442449758597498 0.010468777662954384 0.11381376059261387 -0.25192337007013621 -0.20967199346412135 0.2058180347038541 -0.22072967395541604 0.038004997311351124 0.0038162289829637925 -0.033138844262928888 0.22805985295338074 0.073121601689758661 0.18505390944132868 -0.22407651297978834 -0.14225096559520031 0.0032397621463118934 0.6885293762125908 -0.31319980556779692 0.18457981716345306 -0.32880931231291777 -0.21146515714694747 0.35326193570528547 -0.5193815031659843 -0.37487490879320701 -0.19663068571708678 0.11935978215069099 -0.1198710305405562 0.18884825320649937 -0.10598551050423867 0.21707476110080004 -0.21983812695275246 0.35730317546076945 -0.28780583315798203 0.1938823696619173;0.1172712600558313 0.035121801430777887 -0.47755970350837618 0.16464595123014009 0.10264113290315603 -0.050635633678067275 -0.15526195535536613 0.092969841461394157 -0.25235360116870592 -0.29374566423454584 0.27495683794441639 0.10464146909355951 0.68679551230545777 -0.14030295916206556 0.31939396107622525 -0.054669175987307347 -0.30584706165177244 0.27147981185698206 0.41706607070596857 0.024671053461707448 -0.16153506431205877 -0.072868127306149832 -0.23082693471243868 0.21726821111547961 -0.056000302122886404 0.32771852037235233 0.21266964960590043 -0.12677273630031416 0.46645939833833833 -0.05242371192875684 -0.41998003481846652 0.074886673057039804 0.49750321649256579 0.42924486046791144 -0.46027011535067774 0.12233811249233709 0.29322691555988711 -0.11804768409031434 0.14630971572046175 0.061265764593815761;0.05637752798398022 0.25002046308109371 -0.041107918511632195 -0.29809454793336349 -0.072474909519669534 0.16827592861891966 -0.028561374986665188 0.062863456676619037 -0.28140197123820093 -0.14570883074922528 -0.35815215900836295 -0.37979110591522275 0.087276829008551507 0.062397889187461142 -0.083261135491271454 -0.14734052150674043 0.44865815106900581 -0.58084467895401437 -0.038980429661383549 -0.10858848064362453 0.13355606672370671 0.30432286947259862 -0.062062611012481693 -0.29015036859581406 -0.24610262054949897 -0.22385411435581151 -0.11522448499476365 -0.37277256060499048 0.19432325042375781 -0.22776722772570412 -0.17284692248501857 -0.19961128118102964 -0.39528392058791306 0.30851482145118914 0.20764662543028037 0.061727952168360044 0.052253536932806662 0.21969946195992757 -0.34205980288365062 -0.17246919086813789;0.23093485323221313 -0.39657893720383097 -0.16777951837719648 -0.34564153078589654 0.011054568070632889 -0.37334215619136896 0.002257387719090371 -0.17813917415038447 0.062995143727816005 -0.45053222657184849 0.24532378001356397 0.015852503544381249 -0.15475071735320378 0.096760475718217262 -0.32380651254008663 -0.052791001989264306 -0.061708895922706439 -0.1517128549475886 0.090922820458583201 0.39844537050116602 -0.031441883986771169 -0.57268488863067057 0.31509097220326793 0.046845046827104504 0.36110111255246652 0.3954236833968367 0.058627884465519732 -0.1603466667380482 -0.056008849723593754 0.24892077333249968 0.4002518394451558 0.60851876442574582 -0.15740442599705781 0.14068341954723632 0.19769822063188866 0.062426647952440469 -0.27768705227962748 -0.036535941160230186 -0.038179893842397172 -0.015643161840698985;-0.083764723874450539 -0.25265090922909406 -0.31607830658537406 -0.18096849415267816 -0.085060681477466149 -0.29625434637292575 -0.39358713459170502 -0.29033315526440168 -0.44666924099588834 0.022139928421898887 0.35977103490836482 -0.30512262834996395 -0.039766434487981381 -0.11086393735050754 0.23568226393454045 -0.4927885245391499 0.30840831745464137 -0.017738252405207145 0.1408143589983569 0.25780509149611736 -0.2585142621884336 -0.046580301371801754 0.60063514683948982 -0.26503930002793563 -0.23369376041696013 -0.067312739555542886 0.060548181549002641 -0.1745622519807114 -0.2908295571293768 0.11115646726213758 -0.25811188099698607 -0.20017012978441154 0.037792849448644639 0.23878778749913609 -0.40791685525643823 0.019884265200511741 0.10101858557831009 0.046110994662120118 -0.30642839521849119 -0.051076464861047083;-0.071594767429127959 0.24830467168695047 -0.50760070095173271 0.58184751866075746 0.36639848444859346 -0.22897604808456576 0.066088315003819675 -0.12577476976496818 0.065680178953393176 -0.098574179319275729 0.3255941224280442 -0.032688813819374295 0.56014858255424915 -0.65915857459276594 0.015877782642061199 0.33794203675527762 -0.44602229625454842 0.16268119158190139 0.16251633672260582 -0.0068886281676850611 0.25410181674008137 0.038262482842456452 -0.020369846163310962 0.092434305622724297 0.55255516929924287 0.070509352010263371 0.98539265022883626 0.5863648648310068 0.3061921976709569 0.17065610978632578 0.58296212395961289 -0.028209058645640758 -0.10493297414007834 -0.78018411157182432 0.22683154874203029 0.026897451865524384 -0.21219266304048501 0.10280714701993511 0.41228549698002853 0.23419973510849049;-0.14651018013476916 0.17992645042207001 -0.012860027490581225 -0.021602119358992974 -0.3940047843226317 0.25657355725950565 -0.14329660102495431 -0.0073487256105243034 -0.31284476643388548 -0.54084634300397427 0.14388257126348677 -0.55742751861409057 -1.0544555673369345 0.21683706218536283 0.56447063210884318 0.046234246933087586 -0.16333968155449119 0.15533005980667602 -0.14240248152937635 0.23989697061951715 0.20456285652824668 0.25370841906446623 0.14230000330157638 -0.09992833409502716 -0.3138755149698691 0.066997083779599217 0.024103050940409855 0.17099393045501135 0.25633945450898665 -0.041495873570330841 -0.6835589582200744 0.16579844097017005 -0.39693619053441853 -0.097843308691618433 -0.33425818241269073 -0.045096418590463594 -0.40895536596829257 0.1659719213068509 -0.40051564215296542 -0.29627544323580124;-0.12006202983092225 0.033882182435633824 0.34466039965136064 -0.11812792673684817 -0.20080673007591082 -0.52223383114445221 -0.15080983121580102 0.30618766292107735 -0.2014473494323967 -0.29694753716454647 -0.19342068669751031 0.016230247533703508 0.057759960594750262 -0.13955140453158349 -0.44181880819209662 0.14058936330151336 0.15528478906717827 -0.32156915584889817 -0.42350312107777505 0.047397168194016133 -0.40787231323644585 0.02176217853344118 0.53630884165314718 -0.13445905584469084 0.12454222826989193 0.15318888323337462 -0.20300249712072274 0.56660277053680586 -0.40684155809913597 -0.031228790269245851 -0.40770208270427682 0.17574005800117873 -0.45795951799489704 0.18891591496154969 0.40402220351475193 0.11664294256658819 -0.036726127444553613 0.24224232395791676 -0.10792572525221746 0.042993334172877436;-0.18479891247664534 0.17904581354721591 0.1481043141732748 0.010612026960824077 0.12105276456082517 -0.0029657709412878475 0.14569377905440165 0.56712800319279988 0.3118989416916762 -0.11725591047332261 0.041008347749367777 0.042375240874008048 -0.019760570275289817 -0.44682083093348557 -0.096904955732643683 -0.33381039214289027 0.036552521622871044 0.13135396869610319 0.13203409641361297 -0.11127969983188354 -0.14292490371636951 0.60920219760709748 -0.19631816888219686 -0.30226970724115965 -0.23060310540473136 0.21872075032180061 0.25429836121515842 -0.056956597241644508 0.45747653755497514 -0.42633209352319629 -0.50831653959306689 -0.20936242959251994 0.30357167685503461 0.27397514769064196 0.070803115123248814 -0.052219667597351513 -0.029478781958565653 0.15403900010849345 -0.0073233299942949649 0.30219422026936604;-0.066210151475271553 -0.30851159963751668 -0.2146550318502688 0.25971881739893893 -0.081820578537058888 -0.054561023006423896 -0.1103597060434342 -0.25499296316605186 -0.056671209578582578 -0.092639760651890932 0.068495430998174914 -0.21163306774255963 0.19444767802988863 -0.35962815041887414 -0.28737210115437839 0.6455483539640704 -0.17821723332815423 -0.028795788923829217 -0.57842912941417091 0.51311205211917321 -0.18058374205987804 0.15344105476116529 -0.27220528806875033 -0.45349365110523304 -0.038485292975303981 0.073097769863351161 0.1863240319155168 0.074210896288536318 -0.30101400015611912 -0.39397002480197435 -0.48595505507041525 0.057646068691575555 -0.25520296945321108 -0.30079561747346645 0.04185529327471587 -0.2583918395392944 0.019068248119225435 0.37245286956086876 0.034354292025241075 0.044905829639157083;-0.32728927898276788 0.15262198056250831 0.28993926932397224 -0.11321871496126742 -0.51796268501684262 0.094708428007875739 -0.1150282936176415 -0.11470565429470025 0.49528395319505975 1.3182059104910304 -0.03783316802351306 0.068816407929050499 -0.14911207330925652 0.07275824949543265 -0.72597663933826984 -0.50667787778366769 -0.22239211183969765 0.16798232977684324 0.12968636497387345 0.021870584134102755 -0.15673575248946597 -0.20598248951095885 0.16513131386838059 0.40952908543062055 -0.24801887945363996 -0.020210595218992489 0.026914506254731262 -0.17113873015971556 -0.19252982376237332 -0.43652517478229652 0.046188124832916726 -0.64637180692078455 0.31234223213159662 0.18609819661591351 0.26191073039717472 0.12261216848021377 0.42659566775844293 -0.1307719510307859 -0.66805495117089964 -0.083710507646315949;0.0088574862298104167 0.579790501007308 -0.2992452711778561 0.044539466842331225 0.16033439179697015 -0.4622057948497359 0.24920585830094105 -0.66337832212197956 -0.23311158738326326 -0.081176964377363214 0.20963066891058399 0.11296101899661461 0.14267043855557365 0.47969868524053094 -0.60764097983858656 0.056388339229993263 0.48635625444530489 -0.063101018175601084 -0.19952099702789527 0.10101275106350756 -0.074219998790212419 -0.42358176541461623 0.44726181208035004 0.17269405715416311 -0.081152781007380173 0.45379057966798064 0.62923411238084104 0.13282342114263582 0.066893226008471363 0.018176048360503249 0.42071628450906562 0.41063836789970748 -0.32598347928752852 0.23263409384184749 -0.054154453524252508 -0.405508042470136 -0.27580130470297426 0.0039148857623824262 0.55850391401871402 0.083574157342929584;0.090761670309361372 -0.15635198718707383 -0.51413736536301313 0.5466033654346607 0.44181285151708866 -0.12417710029342044 -0.036266942684699738 -0.072440122299371912 -0.09207196363711477 -0.40096428747528345 0.18927665064479282 -0.20306176729498893 -1.0622175722962137 0.095578691933092916 -0.084616702789495374 0.33280439289947333 0.13858802501025388 0.54108345304858951 0.10442832743867518 -0.23907572017250331 -0.044250556343423106 0.40031639822395837 0.062932761846588636 -0.20233225082693182 0.11988010927498079 -0.19636812115132943 0.013002035700987666 -0.19586402338910372 0.40103267528393632 -0.23605154521887481 -0.64129244959435383 -0.4039054002392195 -0.11708047293885512 0.17228115401204769 -0.29455882950500617 0.31872569176486498 -0.21049872822376825 -0.09685931866084567 -0.29222211939015574 -0.032862358617774201;-0.011633369470620726 -0.067985769744938307 0.35494963156996334 -0.20853130721037047 -0.22143400016896894 -0.051816814217659837 -0.080359056880998939 -0.26826016463022245 -0.41950590607555088 -0.39387294882119323 0.014781665179520679 -0.15338818068863674 -0.43748022060601011 0.24275403501647114 0.16719986347600485 0.15052801130728544 -0.034588849642346903 -0.071694497321731429 -0.007000186076547241 0.10984181390582827 0.31254838766325382 -0.21384313376552455 0.043804381480744371 0.00025680900876843486 -0.17575014104966519 0.35893642823619681 0.13885270030845803 -0.19757209707835474 -0.071193688731282428 -0.023082414462870366 -0.08293673931447039 -0.40446884906937486 -0.16185549029467142 -0.11308227731409398 -0.099531870893964161 0.10739345543029237 0.098377547172662255 -0.11623146374680079 -0.054327489295574308 -0.089769395724322937;0.086165794238429294 0.50989730545882272 -0.073506860410410227 0.094326559653880648 -0.13005982040901962 0.12643873046843351 0.12922034387330755 -0.31294349000093225 -0.12918843276786243 0.48750490324006113 -0.33771550224165431 -0.47324439690536318 -0.0037719034752231742 -0.31354862694424418 -0.065297804789306621 -0.16331070477736387 -0.051910629860773702 0.31557732612170658 -0.44921233974913838 -0.12175453131453483 -0.52978438623112767 0.093675891503345529 0.27769997106603539 0.048973024621678261 -0.50343647658426682 -0.20012218511536425 0.047300484071096945 -0.10435005593338702 0.44576594156421867 -0.17955036848110384 -0.47879150781807256 0.13193265962576442 0.21275022804697699 -0.31576003382284662 0.30026437904616504 -0.46696931355848686 0.018832807483455873 0.07278489840715123 -0.1372348009863438 0.13549881194231742;-0.049038009469101987 -0.42278163194588886 0.012012909387869388 -0.11728118316467573 -0.14145593254505387 -0.0035557012434944547 -0.2012416401904254 0.33453386331691182 -0.0053555416990586644 0.29380181343590489 -0.2111952805078641 0.29248048520614017 0.2509671756487199 0.11669075394966209 0.5535307456363483 0.018499402879651138 -0.13288052226252123 0.23659345493555442 0.4326104160522391 -0.37793986913159766 0.4679259090954665 0.13480403430011709 -0.091473015018569581 0.16918458223366117 0.12500505424449826 -0.35671172740747997 -0.27950738848434703 0.40274574047809647 -0.24045709311698449 0.086027453730398232 -0.09816886232525196 0.3580238427227192 0.37272526347414192 0.23965598672366345 0.36331046033410536 -0.26538476668433547 -0.19460098185788269 0.078386224771556309 0.3763340048438345 0.43144237827700793;-0.36570500131895106 0.046089540685019248 -0.26342780209958055 -0.27715331439505303 0.18569734648681346 0.28236957012887431 0.1075399843871214 0.42042507675274721 -0.45413466772566302 0.37706007642464989 -0.1146658006831309 -0.041047805003009218 -0.31508549624546678 -0.13608981098150461 0.34981569139931407 0.14188356907257643 -0.11520277242267375 0.15015161428649892 0.33720819204592917 0.41543980573284645 0.073707987243599352 -0.16107430122641708 0.062781470428841829 -0.22122501440615505 0.19254654030308563 0.32929417415642431 0.10665283634590508 -0.010879508605226653 0.077685144697633032 0.01000459508256611 -0.1048797223533411 0.25286542938265494 0.12238301417961281 -0.20107647116241573 -0.5014168834804672 -0.14754053534898914 0.50455581404228733 -0.094656225283868939 -0.13781099150982989 -0.22467559593807501;0.045390247893608841 0.16007524929351688 0.33731329858316583 0.27751858157233666 0.050395095002748372 -0.23920179678050585 -0.16478002738281419 0.22264966850571857 0.2552405973060049 0.043066527645690106 0.097656109834251839 0.12399110775141356 -0.10389159561069149 -0.29462138203863303 0.064214701122888768 -0.21099480639002771 -0.32009943954255965 -0.3833054864556899 0.034020250940409585 -0.32543382688788064 0.16634092322496538 0.045059911548337515 0.10952941448186193 -0.3359732669705387 -0.22451327361357826 -0.12096474187561332 -0.055373227047428267 0.13188493187539707 0.2842580288178429 -0.17250761481385274 -0.36084066123248515 -0.027056290773534258 -0.30308461149469801 0.056903052008737402 0.22004936826273536 -0.28046427935130042 -0.23657227606712275 0.065466598944755969 0.2505568377025042 -0.31780882865622129;-0.092367216098948435 -0.038883738295220224 0.20038482898447463 0.31793241621379675 0.14530016282272701 0.022597477018260537 -0.21509772382383333 0.28873462841186781 -0.47504801467910984 0.0039449875479086703 0.23605089587004974 -0.4644253032226498 -0.67899923907600046 0.39112722889723039 0.83019400235880925 0.020278575930001909 0.46416222671244534 0.27064703157387271 -0.24872785802352496 0.58141240465525257 0.15664376534862404 0.45155297594813337 -0.17130213163797381 -0.82660629068980218 0.1555308747467061 0.18657795640487362 -0.032010561881984825 0.21467395222609173 0.23152792702467437 0.076844173274089864 -0.74561890663155339 -0.031708555452428046 0.14019047098420784 0.092132482450021411 0.1289456534421278 0.016226045600302854 0.083613497772771647 -0.051369779331131314 0.16635656432590479 -0.0053582963864884725;0.32577447251732616 0.20281469828754384 0.66169793498706309 -0.0018843288586085076 0.19302442994076732 0.019616606537238845 -0.077383607934282422 -0.40534768507798469 0.61593664372281731 -0.5657058737027334 0.076675697203001131 -0.21674283076082732 -0.048842796198432174 -0.34082417395629583 -0.37384106900595915 0.28557178297453628 0.28242942101819468 -0.04499965710004919 -0.66381423825275587 0.34165141314840519 -0.5265268106411245 -0.13845528753897782 -0.27542997152032012 0.089874553038904265 -0.26481747581367299 -0.15189319996372011 0.28586018096463267 -0.0046108152304328758 -0.14594307032892098 -0.18411155941110569 -0.40231563203806858 -0.17970784127723174 -0.053615518318864741 0.16631129582096163 0.30648857603308616 0.053964367362890502 -0.11781222724947368 0.033463068051032024 -0.2672204525028149 0.27621369258773926;0.059544712007960812 0.47754504418610527 -0.27076410531402662 -0.23036955309779766 0.27565738652840333 0.085762453175221146 -0.082334723412183383 0.10595443634587642 -0.21954729793290398 -0.2909392890196883 -0.10953937064615962 0.079742045451110077 0.25040822596015572 0.20595147458718244 -0.033261184013107084 0.3236500132866108 0.1815467375855068 0.20390458347519247 -0.29786511448065883 0.044673100941939957 -0.048543731236798657 0.25038158698457458 0.042917270840424598 0.08072129731571151 0.19390693968170186 -0.17169561680691256 -0.30560714226958247 0.26721439001246361 0.31661522011721299 0.091962297248020616 -0.16944906213890606 -0.0060167606161067198 0.33104754241411438 0.062056148209567216 -0.064702926668785368 0.29301556598369266 0.041834434411453354 0.053520814113879156 0.03423576293557587 0.16210768842555615;-0.093947781649325116 -0.25330042042554124 -0.0282358129394371 0.82140712874758925 0.28511838994041883 0.10458878907498505 0.10309873515141403 0.016364574754061854 -0.18795997046378524 0.093264330885313149 -0.040849012280650319 0.085741857923335787 -0.11781355660238699 0.10378001544648525 0.59886432937931455 0.14966146628095825 0.045133172159632952 -0.0064149115582369676 0.026816929708312499 0.35858922262971643 0.16514577383015586 0.061677158373214684 0.14152294755258762 -0.33460173559163803 0.089790996941837689 0.32477934300444072 0.74733312284392106 0.089126432622400678 0.12704126129824811 0.18585636543777256 0.31860836217901312 -0.075396422391551296 -0.01591032021620983 -0.23976398213433359 -0.012425501884057995 0.058321717393298216 0.071994291527776838 -0.0679206730860617 -0.065068501551434788 0.11977473730071934;0.20686727838775601 -0.41153806237643331 0.19475613782984594 0.2739370068437546 -0.36544606374609584 0.37942558995066944 -0.18392562715520278 0.077987237620990454 0.073530857488538104 -0.25843608814601488 0.15744579393790292 -0.2569205404286295 -0.31224437526522186 0.18636289334912082 0.6674231195989051 -0.11577118155316937 -0.26199301148107684 0.17698106637167835 0.071879368585962389 0.012971989978265664 0.22287125524710447 0.15182736968999469 0.007332872834887396 -0.25444520512549001 0.00070061533056675726 0.32273006742633231 0.33867806424051011 0.022442897806834474 0.18613651304041295 0.17818869998518255 -0.08318373972920709 -0.27986363101241812 -0.30067047728279583 -0.21859568876180166 0.24811844972384312 0.17750258032193619 -0.43901917538421392 -0.031068664367525121 -0.051059127906539548 -0.048368137948185397;0.25013123266554244 0.44558852001365801 -0.21195732000317222 -0.24369649688196227 -0.055227492187552636 0.030691615059957468 0.233414391426744 -0.086515779575537119 0.49003625805056461 0.013424027370109639 -0.14912353080105531 0.25511212051836379 0.10098815099890418 0.23712926854123126 -0.15289816875869686 0.33108415570364147 -0.0008412335186140259 0.015913386862030032 -0.21776596065208018 -0.015100894721433359 0.45013600839089224 0.023313127183842222 0.1157559443010856 0.1466289357880311 -0.09877798859238969 -0.25902256639915733 -0.058596132642529511 -0.40440121099139498 -0.10680488515609038 -0.027836662727470363 0.25907976054774873 -0.0040738236871348003 0.35861692963247171 -0.11215053441805573 0.08440310754405593 0.099678361118043998 -0.36308736042206113 -0.17511915242211898 -0.35373468332782465 -0.14791586902348519;0.026635783555736633 -0.035821901954946167 0.02839333542277243 -0.049620481366406968 -0.14308115288187059 -0.074883045650088284 0.33001348901763505 -0.10155388763067233 0.38337478724930935 -0.14087598429948409 -0.074533140434448933 0.20140952123656858 0.20879977198642116 -0.36253844381147121 0.036383876841700802 0.015678715857248886 -0.13780930193002711 -0.34808900810614668 0.017853444237675039 0.10211714937420902 0.065322461919392685 -0.13220332504502252 -0.12742599020713311 0.091186785407488521 -0.27386022488790734 -0.14475707702312191 0.091445098485367554 -0.1281031951800263 -0.17155503475167863 0.013185492180794395 7.5441326816022526e-05 0.24081325736121156 -0.2138836009206741 0.11191934182520823 0.073296331038153084 -0.22366837846659801 -0.078547177230128523 0.16525266557998611 -0.23680692893559135 0.060135241177076713;0.22076643910244101 -0.017141094255642891 -0.18334342243309729 0.51360673078175401 0.35282711150522972 0.16166424939683277 -0.17892696767560731 0.1839054564059858 -0.23217152968300092 -0.38691651150236028 0.13932677989164743 0.11529885882930083 0.15504215102523231 -0.49721627711288274 0.35633926006164962 -0.076856632602919903 0.25999181158138518 0.18433853982354764 -0.31666142538205466 -0.39827023260803779 0.024762743453603485 -0.33717892907730845 0.096691278993216265 -0.2678152858628649 -0.18495245033614374 0.069032050704918746 -0.074818426894839182 -0.067930817753424022 0.16886876170840009 -0.055476057192194839 -0.27190494946499422 0.023499511251084994 -0.24039964425654339 -0.38945822467404467 -0.021383179551646436 0.16568796106395178 -0.17476070447929387 0.083843398790301255 0.083919298203416523 0.29362962279524596;-0.10078226675908708 -0.52116553647748687 0.065676462669870359 0.33058759851402636 -0.068958633442974038 0.48101615002957615 0.10937613933022185 0.010386516415809743 0.24216499933419705 -0.45216555679973769 -0.25312350542987105 0.19587457847050824 -0.14067980988486609 0.23365588090642794 0.05453237306382569 -0.11706993815924401 -0.15564493987203684 0.49072297291161365 0.33257650671160288 -0.28404273228370641 0.066613772942532554 0.35383093698895079 0.093832991547990824 -0.41978316504372115 -0.25600558988530636 0.024542264822116393 0.041428623164634901 -0.46597843872589517 -0.16874219652750946 0.069811485006432708 -0.076935703460145763 -0.065819630720001382 -0.020472658960484339 -0.30886561240551708 -0.15603382135111477 -0.36708234711630133 -0.28831127669318135 -0.19672052682011079 0.42646687587425985 -0.32007534356130357];

% Layer 4
b4 = [0.83903109239587581;-0.79134293422170909;-0.63544619885459008;-0.63642531442291017;-0.61892961254338064;-0.54631049795692443;-0.69648150621550353;-0.59005206200088312;-0.39478502680896776;-0.53601529713457008;0.35981370790345257;0.28289055971997573;-0.36501529049335824;-0.29119127726767713;-0.21011345686159191;0.18582583254477181;0.046374033125433686;0.12342137531406845;0.19414910628307924;0.037539589682153124;-0.028578547933012552;0.095814539601799351;0.14864418838228996;-0.20373317004814659;-0.26999558836531273;-0.17729901216965127;0.33541711078314118;0.44144153198790448;-0.39178671096889872;-0.4061265051387663;0.43045931573144253;-0.61685764279163091;0.59446562517318335;0.60079249439111482;0.71720048880932974;-0.57053693288420904;-0.66669940424054197;-0.75537503189157229;0.78626932671607286;0.98311508642148293];
LW4_3 = [-0.0063150887290929726 -0.2726398055835309 0.34633334180825315 0.034016103804555407 -0.0940177310048078 0.032293877549425087 0.14013193757284992 -0.041258758938118353 0.27423064159833449 0.17689038653009592 0.119348791322325 -0.17647019895016788 0.247365646735557 -0.043120554534587699 0.24100048670689442 0.066615862116628441 -0.048205934393907766 0.22475118931341889 0.038723955841176265 -0.3587950518589188 -0.46422994439497245 0.13780558880093513 0.32880416646704758 -0.18476517984431498 -0.16702233518519671 -0.14213059946295639 -0.3299775551213851 0.13580670942285766 0.064219623070119622 0.4315238438143007 0.1228262373487 -0.38710408635169752 0.14706795280770257 0.021889661889300423 0.0023392344512972369 0.13852961199542949 -0.063753104136712244 0.20197416710738994 0.29625868253168064 -0.044760176075253039;0.0052230698318232894 -0.043080818670691579 0.25388583151438854 0.27637584221019379 -0.28674062338013734 0.13052361793202077 -0.08670024796016873 0.14986928492739962 0.33051743579707876 -0.062219038741805031 -0.029557531904795063 -0.0392640645083141 -0.034296466477004427 -0.18510536924461277 0.087951914229574962 0.14972753319092635 -0.17243179881407183 -0.041495869587196574 0.045685155512240873 0.10216856435192673 0.087679192590023589 -0.11467221426555826 -0.18983659285738796 -0.051599961643190105 -0.31079673023266974 -0.26846475455290097 0.31527913896928134 -0.25890946227057288 -0.087062556119083617 0.10099371138414118 -0.19712744404033264 0.23571228454815762 0.0978739428258283 -0.046572896339089932 0.035584097220520736 0.0065714818415350054 0.063325429417602025 -0.27934833381425478 0.067913048540739346 -0.15003825531206305;0.1201146715572437 0.092083809151382867 -0.13582366010364993 0.16112708615203331 -0.12125626075583741 -0.043992652625920746 -0.28308128291198986 0.2143343380832228 0.38916979352326075 -0.16883975222286168 0.039144019109806742 0.15728318037858341 0.0065119333105771266 -0.49531238232762115 0.037697292470518506 -0.35672987278799095 -0.27951473293631729 -0.61822716548510648 0.34423483294847579 -0.34300564272493606 -0.38147642598276371 0.18675971275396991 0.16775679146172315 0.01380416743515934 0.17066714714468373 -0.21147002959969716 -0.32348468029238198 0.18924403374371201 -0.18344081197444914 -0.084024747651647025 -0.26916474253067751 0.16095122848748422 -0.031565105798049643 0.12436779424991307 0.46129814416760379 0.081797871948823223 0.22814056494907956 0.12499079196932381 -0.15668024265613642 0.33134697616480213;0.26588747317828842 -0.025889643955472118 0.12240381166187597 0.22590052520929849 -0.42164218246215435 -0.21193814602637487 0.072666677651855513 0.041315817890205705 0.36422116216569406 -0.23942338934793764 0.027558615042495547 0.27957656139417841 0.17120795375377942 -0.088291172413308708 0.25109931237138189 0.060328480234937913 0.2085788503618114 0.19849638201458236 -0.032740140722262348 -0.077561928808136782 -0.022341613829840047 0.012333159197565693 -0.057877881352487837 0.37665931976774075 0.54813291101847339 -0.04970805394002243 -0.30429088942430405 0.23544923797013531 0.1384004296326036 -0.069492280593104611 0.25730427464300681 0.25008359075745945 -0.19845037670959539 0.27105891834160795 -0.063434836772440412 -0.6702973604158402 0.29484959060444615 -0.36955279234039456 -0.039131490989483049 -0.54219799870261121;0.12312094082421259 -0.26991434653963214 -0.22277686991886098 0.40047949119464638 0.24569998120977982 0.079972792217908234 0.028830778390257918 -0.2627316798659598 0.16274931985292213 0.67633316035131907 -0.0057175576757424827 -0.48553204774317116 0.15069692888810804 -0.13094710935736373 0.3615607567654669 0.070885677136841033 0.18378398770057292 -0.31339889323132114 -0.46180066480212739 -0.220507088103117 0.019125264141459233 0.40279254534677883 0.3547182348057365 0.31893457459593105 -0.26718176945611388 0.59398532288009964 -0.19607616259969435 0.066412712758810541 -0.068752506946417574 0.47923273690858309 -0.11234439204032019 0.002304104642983446 0.042704870408754377 0.10221314259920863 -0.36835393451658394 0.098561369279830918 0.082133990713873353 0.028695191140004257 -0.040180044089712333 0.40299645406807016;0.2566327513755432 -0.21745592649422429 -0.027159761857564239 0.067139153615008496 -0.32519504053985959 -0.23657325448360239 -0.05069196712916961 -0.051939153926242078 0.00052436376416694578 -0.16189074847940507 0.10308214070791802 -0.072526593748416551 -0.056749142039203462 0.18026792260217098 -0.15799638311841993 -0.03221894227436508 -0.18969387890916975 0.23796449627118041 0.16325343186733113 0.12650647204029977 0.10728374189189824 0.22016024045083218 -0.13678726718620024 -0.048576297536416076 -0.04450330528675276 0.20874976378444207 -0.094592680131984311 0.24824772768941447 -0.37538660693481785 -0.060045880509382504 0.13716164754898405 -0.21743212450829924 0.1905856998048425 -0.11555392993697748 0.15803041501810716 -0.16494927315978233 -0.042964612805924916 -0.2490405250935134 -0.20130747868941984 0.043195568429615458;0.027648148211515271 -0.11749200853932013 -0.49306984826889005 -0.41024140298623513 -0.21457349920953031 0.2369770461330003 -0.026201831841433338 -0.0019492647580137599 -0.021024676499066034 0.0083765085950953354 0.057485949632860529 -0.18923746989300427 -0.064905831461899002 -0.042509499043322234 -0.31404937834993096 0.62906993937256184 0.54538191663944691 -0.1976842110423935 -0.40685637343499298 -0.51503346247587956 0.66516851552542167 -0.50058795999271 -0.06508238204934623 0.33926985517146158 0.87336685354182175 -0.803936223971494 -0.16524101524979745 0.15589680184168683 -0.11827584363988973 -0.34861027353614132 -0.19895442813683631 -0.38414082710476949 0.76246827373154646 -0.19846480759696028 -0.39429049440343333 -0.099085999906186911 0.10082107873921815 -0.19484472081090168 -0.10917419732006539 0.10166975289099381;-0.042530078345128799 0.253222942843082 -0.1336611933990586 0.17171402263031565 0.047438058693509817 -0.14625981551040518 0.047084738200583003 -0.068409955074484968 -0.40767507212954956 -0.14008520959869161 -0.17063314052992029 0.033481346566060145 0.040151500148768032 0.018435331572347752 0.06037650686993204 0.077783196909474911 0.21694706770200703 -0.31672958143392005 0.11910537872066297 -0.064796554102503803 0.34619370421888895 -0.075154964140509539 0.14374734992029017 0.13415449138712388 0.34190237217521735 -0.20447644269405293 -0.065046427587786546 -0.19255588926393574 0.1105227339231669 -0.47350593394422241 -0.1666626930813111 -0.21790832100363855 -0.13137380145533256 0.013707078957605878 0.028893160775711128 -0.112473528667455 0.16726136865098518 0.32328821434210547 -0.30071217914931542 -0.00046844269830395037;0.14813311793829589 -0.1739333985515224 0.36024335405570257 0.09589440625944512 -0.10379020216968385 0.019010045065955761 -0.088356779550774478 0.067889594321017141 0.22913418073484343 -0.35245540597000702 0.16945568584834875 0.087198155575623854 0.0037280068748032922 -0.055101125099398997 -0.20361687693474173 -0.0084116936693454589 -0.17579894012677733 0.3000503660233203 -0.026831671643019195 0.14384505204924358 -0.3257312631530237 -0.29509843964497329 -0.10078052211976953 -0.23622444801374112 0.037492537976406684 -0.23440813587986103 0.1409070645717064 -0.42056886359526102 -0.049404527143101139 0.45567497259154893 -0.22677186805590896 -0.29096075414282779 -0.19070268381106167 0.30280109937651278 0.28280619552496727 -0.03578976840108692 0.34096093633666485 -0.047491703946533514 0.18588923755984804 -0.0098479397185632454;0.065992147079916297 0.091152537665078581 0.38051891488034817 -0.03117761091546508 -0.15364325186677327 -0.11445012420360837 -0.0016085004605346166 -0.060435218224187771 0.30559491603052841 0.85132749722991219 -0.14721305097342341 0.22791222502574901 -0.12333147337511048 0.012586556716812403 0.15423084912711152 -0.51323337520536527 0.28464360058840515 0.26510313097932653 -0.048386891215993891 0.17473164407194255 -0.41391237723920987 -0.10866328802624957 0.031323192730278553 -0.19813112007089193 0.41520357708194688 -0.31337089362581944 0.14809207317357118 0.22802961616354986 0.39658151170259059 0.35710639440764724 0.13361541609965516 0.23640286922105794 0.30938361029025119 0.14695332307871928 -0.13579327405897682 -0.23166217892450564 0.060982806386409988 0.16659998724159383 0.079075499923952741 -0.027906329178890965;-0.13546824482801614 -0.13469701185891553 -0.083769259230940959 0.17391202506120687 0.14337521839543799 0.045672004245234432 -0.22230695758385019 -0.10559269533227587 -0.31766192693431833 0.057400597395928399 -0.066084429746161188 -0.33174943665845141 -0.038773234215692669 -0.1793041274688566 -0.17987896453643598 0.076425657425595567 -0.065368338815858157 0.21474690256345871 -0.27988120024289054 0.040258243522440749 -0.16621462608040521 -0.32382070119903372 0.29998690171014125 -0.47452114833373393 0.21038011317671387 0.34025334845495381 -0.0041000095356642351 -0.28928294793473763 -0.25651055539493639 -0.50449974544214204 -0.18744486721727238 -0.24389955990065387 0.21353340522492409 -0.056199938130096862 -0.28771493575481943 0.26835158739900467 0.11241728265339795 -0.029974915920806759 -0.097080905363478215 0.28393509403514772;-0.11558720163923837 -0.26839713288548861 0.17373822311669798 -0.43234095540941803 0.8104017096614492 -0.15683642169853546 0.084211380074278752 0.12103969979786761 0.093364048269729244 -1.1908347667997479 -0.13491483034357166 0.61408221025920362 -0.71900260934475912 -0.60926683539860971 0.16040781271815854 -0.5481918471293169 0.73406116736877347 -0.65835349823417566 0.037731438661655327 -0.58394784009208045 -0.22536936923308135 -0.70151357819360249 -0.61128190992405962 -0.021977293442423232 0.54552469201496889 0.059067131910883142 -0.37696223300700171 -0.59756815725452661 0.38687747439671277 0.088136893856303328 -0.97223219469610511 -0.32909996227703514 0.045330283578629324 0.59169214507831391 -0.12680648000537109 -0.26568193549996161 0.1072828045433384 0.10488068754228194 -0.067340691484402318 -0.16634861354701044;0.093768816754692744 0.18471426115357989 0.011323139744546464 -0.33286508079017274 -0.070415365396925111 -0.16437931114093662 -0.16233832259227007 -0.33710335705407413 0.16263189182770907 0.29331313351922927 0.043865802167122589 -0.36250294742615474 -0.27787045245008735 0.31867800048520561 -0.025663490654266374 -0.041564940163469413 -0.43625235029096177 0.28517048267504519 -0.40345509145540465 -0.72304827541482186 0.075899476714537562 -0.27733949436830846 0.2667315883009721 0.26644809959316651 -0.70378316826923437 0.14396828893060276 -0.16841421301340173 0.37192549060343871 0.11178151408510013 0.11508303066947877 -0.045612707276954143 -0.35406709140980924 0.32298891128007517 -0.036332815381958095 -0.3743132818648236 0.0082849863193964202 0.144275151798745 0.12136283687584337 0.22123477796022906 -0.040313953212145745;0.049410463814754745 0.1515656428170111 0.15503794469162197 0.025177446221513789 0.18344927917362999 -0.032614022011982317 -0.13061166406327382 0.2106325907864332 -0.13178809664094432 0.043991000663954574 -0.071826429191387001 -0.12393999138796408 -0.17723647749306928 0.21512028207391112 -0.027115858888495787 -0.19098590795214396 0.12853019052265524 0.21687198427539767 -0.20930971436948698 -0.074632315174229177 -0.17957656860976587 -0.019625479553586542 -0.17402705912126085 -0.15721133193856573 -0.012937085281091514 0.070657251277294816 0.076054465126447784 0.064679058202392781 -0.039261019221456625 0.20790528893469135 -0.2026018263217402 -0.12529377038811218 0.094278597973174103 -0.10830994541397457 0.029384064133064956 0.0089648354306866556 -0.089523273170450265 0.17973119207599941 0.060976520314997562 0.097969927980541729;0.26533953727607434 0.092871578272844521 0.21314635478350147 0.036309101060570739 -0.071250169316742593 -0.073967450919759495 0.032182601296743996 -0.28964357640008703 0.37523116287967906 0.43407711314956776 -0.012611755747477719 0.16221725480744187 -0.15694660431346033 0.25552135726537206 0.53696234730211057 0.10335923480259079 -0.064613719638192832 0.13918404553831309 -0.11128787824921561 -0.21501162845619601 0.18839906624663144 0.012193244833008595 0.03071412641875626 0.11300272488598945 0.15111095790342438 0.10188253300760622 0.041927437184465163 0.61914208323774966 -0.060174243883331958 0.037648897702625771 0.16665400059416002 0.13210197981604951 -0.1526403598506785 0.10112617262437608 -0.036380181257690505 -0.19503378917602493 0.34499994212826512 0.1965024763177971 -0.085391317076112611 -0.57357420005529203;-0.2053387613625397 -0.014283960864462845 -0.10426892718581071 0.16953359116753974 0.38761875369047888 -0.095657202092846408 0.012458569902396511 0.49758700529944866 0.10160442961465339 0.66160679769925879 -0.16359143331689485 0.19623487570769185 0.061825097172209319 0.62372814992582837 -0.66533942918404698 -0.37051378388430606 0.10123982741500438 -0.40228909722676104 0.45397654713097724 0.64208442497851759 0.18059179796136243 0.3640165941330365 -0.45975631070257134 -0.14875106631530458 -0.13483755054173727 -0.27520899465603366 0.023509350900898451 0.33636208337665735 0.024484199251102526 0.28154833344546071 0.3220196440524537 -0.66727100041836485 -0.36291627788590708 -0.28332021332009183 0.72036851092482246 0.19400599504221377 0.029679221397210985 -0.08057620840350728 0.67625456782777538 0.38833654737646872;-0.26319205186693173 -0.04092705487928773 0.50420260925908422 0.21917592856537785 0.050796782704338322 -0.021290557491343939 0.53407244415034816 -0.010077732497074776 -0.17906807392986698 -0.47393965029967655 -0.25430978238269014 0.022332300684001959 0.2275690860856964 0.22901545249457342 0.31962621482502679 -0.050576137594024601 0.47568798936860279 -0.13840690383625728 0.11806171116376889 0.28291369472265526 0.059861702861623525 -0.30912519213533096 -0.34395613741575104 0.18010422164789763 0.11143359672757645 -0.34785927967854097 -0.12501498623994606 0.034475584273630795 0.37825303759278628 -0.13309537609238722 -0.19170360147519927 -0.67936351301049902 0.02617956059477131 0.020334703592764739 -0.2899578831069175 -0.45484294186462587 0.14956991715347656 0.19646623125516371 -0.65159233685408124 -0.42210024560634896;-0.095612373487550709 -0.061670085760475418 -0.21970374762979156 0.12958629888619255 -0.2729042032664184 -0.62251174755442673 0.058239650382300751 0.24560275309544058 -0.29315359279535763 -0.29570416640935537 0.057279759240296518 -0.31738207184354744 0.47700970238019258 0.05086497479908595 -0.1918935562632352 -0.49489494198180872 -0.51234173000100669 -0.30620534160458118 0.78503112693185584 0.076460547531862058 0.39916656646040771 0.022485969824349857 0.39676254190988164 -0.22777967467634358 -0.58925542404026621 0.17826986462966687 -0.097122040674705562 -0.011794518858267516 -0.28726525334345926 -0.37916189176659643 -0.030371171279148245 0.13504556604064863 -0.29755107054558988 0.20910808286031349 -0.0059550615442458803 0.32238002565020224 0.043903163412766087 -0.011664772141200761 0.55665254619240934 -0.090344072154972879;-0.0031641665147912885 0.039308396137213111 -0.18419198910746018 -1.0139361257932809 -0.021316047827966565 0.043196517669208671 -0.20068187538473331 -0.2315409180852023 0.061709568940146425 -0.67620331553500435 0.023455903814932774 0.014332020820782733 0.3735834130385936 -0.0087407036430527749 -0.39104616843499612 0.13345877618526727 0.13524966411880462 -0.28827359106364747 -1.2296244328976749 0.16325107238504447 -0.76846874234812645 -0.37425641116062197 -0.28800154212600027 1.0007822608609691 0.0059539144488451809 0.47618997681161018 -0.085180804680486791 -0.63908975381570299 -0.69390755693885486 -0.067198909061083459 -0.094742660964561659 -0.029035616808693987 0.67979857281454714 -0.27015067317738822 -0.10254957204407031 0.37902308850572036 0.75502916527918984 -0.25284987229453465 -0.14929164251827809 0.31486026365033953;-0.17746798812349177 -0.058884585266705501 -0.17033026397363812 0.29296570641563269 0.48666922570580812 -0.088669053874725109 -0.049165937689761963 0.24174776575393167 -0.39676745105964401 0.32841740246176326 -0.087449014810313294 -0.37400410754821911 0.14128365558537895 -0.063105942902588599 0.074025392695923953 0.37535139110655241 0.082445814223586308 -0.46948938250133071 -0.011284938715860905 -0.11731893978337678 0.16899959992763294 0.34145265816948406 -0.13394681390554244 0.092403446760254318 -0.23591448521924349 0.57704371571102553 -0.13422141832250922 -0.0046367583430460503 -0.27369167897544566 -0.20167706377772296 -0.031762364029702783 -0.30491219754640497 -0.08037863348020241 -0.22333056431514792 -0.15804627936532775 0.35587523159295792 -0.37020049899083141 0.27447829895798115 0.12472149930737911 0.41005746370263091;-0.16386851755883564 -0.067387989345483831 0.18603062947204713 -0.14598457673132467 -0.060340914301295887 -0.12547873883353514 -0.083308508847516546 0.026272299504402939 -0.33192435284570543 0.15721247497843105 -0.1098411865711328 0.19889767253495677 -0.093573236056575484 0.28610396655108239 0.31091440497866352 -0.16111202724333223 0.25218697673122714 0.13596179041517092 0.021658162830906352 -0.14456777402285667 0.26356024048900994 -0.079470934490296671 -0.36665989020467354 -0.10261273876556075 -0.026217678846814724 0.14486071768743577 0.054664317731695347 -0.036494145657156626 -0.096097089283345719 0.22544656688593562 -0.17849932990844175 -0.27404675548404983 -0.23275800057590668 -0.079174728648529868 -0.046112529879797227 0.10100197160729099 -0.068744629211446001 -0.15846712703254828 0.14972194412953424 -0.1876194984070865;0.13054137191803425 0.15954625134097072 0.035466082782065478 -0.046794456718380797 0.16411332800329043 0.041743584286111787 0.2331484949830038 -0.15912224979159501 -0.12565680055807343 0.053919889166375121 -0.17477689084071785 -0.073542296607982338 0.18347772346773794 0.23550528291547732 0.21301338705968473 0.066754169887510539 0.014133372434411803 0.21611906832042099 -0.065909861047887486 -0.19333159931335367 -0.11909433052156509 0.16152338691106252 -0.20729813555704851 -0.070075723636096848 -0.07280606683376184 -0.19176445362276609 0.11101126422423238 -0.058595700181117545 -0.16470304118491741 -0.063539781419125391 -0.11017167704550494 -0.13034418669258685 -0.11821826598455712 0.075144350599356646 -0.22007088484821968 0.16968576913878491 0.032214499008068977 -0.23900829047294181 0.26855378195183316 -0.041270832363010795;0.13399891997324542 -0.23740117510616005 -0.055861253549230577 -0.13385617614271417 0.14818411212977553 -0.12771155365680492 -0.1066128029772932 -0.3391128914478771 0.068703926673417431 -0.035964540735543345 0.15366959877867203 0.06864731996191023 0.024814175686448881 0.0091910961448861562 0.02021988250074299 0.081790897648838928 -0.020960870860265417 -0.058273797260263584 -0.15842274322757416 0.24669112281987529 0.035901111479703957 0.10091776463649582 -0.084570289638930499 0.09111192681519259 0.17582852960451717 0.33712631477347876 0.30859077381501204 -0.22447263796133862 -0.39122407608702003 -0.37362197322931889 -0.2683785427257997 -0.3481152485586424 0.12024822473371832 0.15861431264347545 -0.10596225423363483 -0.049500685459881233 0.17344377917132608 -0.23386660391023428 -0.082652804540943786 0.20343692235635169;-0.17623153499753361 0.11157187492247569 -0.29429945816855807 -0.23052821583175367 -0.16506201920460375 0.056248343519044362 -0.031230085608197598 -0.17946059334678779 0.11602833230211036 -0.066272503866422583 0.15007341480103945 -0.22665781995000078 -0.35596912524831625 -0.075650013054479756 0.15938416537782094 0.072283840622593035 0.078384283183631762 0.36874178996787388 -0.027363694915989015 -0.53330256337078807 0.090590607822416611 -0.10244438616869295 -0.13297600546260299 0.13851478037055046 0.2023584073225107 0.11841589970245697 0.059662963917892949 0.23192354643436849 0.089466684967977689 0.40285122495351455 0.20862736755943823 0.12655169817629189 -0.14931377626464076 -0.24133743610663497 0.021412279897819683 0.058494734640516979 -0.14793712503547332 -0.067895510867239259 0.13075862677771236 0.18614027190861226;-0.10965950824898844 0.36026045683960972 0.36801430713551886 0.052218121532111382 0.15298050135782973 -0.30861993787828385 0.34104515797712837 0.39766505131795005 0.13148934614534211 -0.21369761120019337 -0.18261009811570139 -0.26748272931565525 0.19020012488140778 0.31457324844658824 0.086354365417803697 -0.17023403794297959 0.23363535566683685 0.22612291492147063 -0.016769843505475349 -0.2452200460283134 0.28297556203489543 0.081975403474462374 -0.035176637476177885 0.31022578388842403 -0.12541801739052613 -0.45131852604959261 0.016368024487457354 0.10695562678766121 0.1590862442578253 0.19483317448170198 -0.010690368305808304 -0.063440520350993609 -0.17202084448764338 0.014605048132280096 -0.20172315880227479 -0.24703508973619373 0.20619028194057229 -0.27657758924700632 -0.25057643546155056 0.046725483221350068;-0.052964589904060007 0.017322991176041913 0.016669028982996784 -0.20773128422036269 0.17335292468257638 -0.17038622552696747 -0.14706038907591806 -0.18763740497015169 -0.25383988268734997 0.1284678020494337 -0.050932662727025742 -0.008833209387452752 0.25219280148854423 0.19035812745561104 0.30877409229161351 -0.36007482786410272 0.13733935969056946 0.11543469154514623 -0.086860367205913377 0.0077933821212393499 -0.056523700862361276 0.032791028122065316 -0.4556770814194917 -0.1234580262929011 0.090923422241122973 -0.055782961914803392 -0.33128871363412271 -0.20695693233594323 0.25941407060282107 -0.019403413509396412 0.12648028509708481 -0.033393548311834956 -0.31325097083808884 0.30460120585677053 0.086253250543244203 -0.065276678361880322 0.26526546818334112 0.25636569040683582 0.43757774280443024 -0.37473494987491945;0.24034923619143148 0.027528570188959503 0.10262284858672975 -0.00076834899046478145 -0.18946993359435993 -0.14359200329520544 -0.065943798945069743 -0.15350762270612536 0.14648100942607245 0.072930360856654483 0.075109669516643093 -0.12899981660464649 -0.1405841061516826 -0.24184902068655753 0.15509052711188256 0.055753465679989477 -0.25815340195179159 -0.22473326594367568 0.069726912601517546 -0.199490376143934 -0.15987852104712674 -0.17860896582769914 