function [Y,Xf,Af] = myNeuralNetworkFunction(X,~,~)
%MYNEURALNETWORKFUNCTION neural network simulation function.
%
% Generated by Neural Network Toolbox function genFunction, 03-Apr-2017 17:55:33.
% 
% [Y] = myNeuralNetworkFunction(X,~,~) takes these arguments:
% 
%   X = 1xTS cell, 1 inputs over TS timesteps
%   Each X{1,ts} = 14xQ matrix, input #1 at timestep ts.
% 
% and returns:
%   Y = 1xTS cell of 1 outputs over TS timesteps.
%   Each Y{1,ts} = 4xQ matrix, output #1 at timestep ts.
% 
% where Q is number of samples (or series) and TS is the number of timesteps.

%#ok<*RPMT0>

% ===== NEURAL NETWORK CONSTANTS =====

% Input 1
x1_step1.xoffset = [-99.9939;-100;-100;-100;0;1;1;1;1;1;1;1;1;1];
x1_step1.gain = [0.0100003050093028;0.01;0.01;0.01;0.0952380952380952;1;1;1;1;1;1;1;1;0.285714285714286];
x1_step1.ymin = -1;

% Layer 1
b1 = [-2.3468258797926156;2.8389754809006149;-2.8258575709454758;2.8067894522510444;-2.3268542388572193;-3.4972648787490188;4.5542447007393534;2.0647607604366831;2.3321160848986393;2.4977499719666358;-1.5186675680201758;-0.993650702958915;0.25490493033973338;1.48154518571995;-2.6613857403701116;-1.8233840520459472;0.50437302865172606;-2.2575106343548157;-2.5588818835376865;-1.895069946691893;1.5927186851210253;-0.83278881606867561;1.0714868470575509;-2.6160096525016305;0.5282376314530669;1.9936972227283478;-2.2952480548028098;0.50732912016450726;-1.2671741459850938;3.0486192521851869;-0.043022205128185401;-0.1103000903085358;-0.19001157795873272;1.326724719454669;-0.68253929209889541;0.69016695704545961;0.84876805257404087;1.8293921015740846;-0.60473166299672709;0.64749815365535857;-0.31320943630829234;-0.61154378122389941;0.72596511062623048;-0.3423802975587385;1.6393669835965887;-0.34361472475513299;0.57525356733435773;0.36266597829723091;0.38268563698892694;0.38558183317524075;1.9602105784390003;0.826527769975689;-0.79699139172115152;-1.2246452476717986;1.5332389686415298;0.039225745561027189;0.89696212900246985;-0.29350023220834176;0.1135827876304496;-0.059687744224193956;-0.47912305891716206;0.92816125882418921;1.4452496156976153;-0.11149393399763247;-0.25614446764244475;-0.86283062510842157;0.89697477964962458;-0.91412291369666343;0.88867282107857604;0.17584412851272696;-0.29457653157282049;0.86955546045029253;-0.021831132809074422;1.0222507852400715;0.83383276454059985;0.061425811727220628;2.2701605291240949;2.4353619271089326;0.45532327167335018;-1.1722599512584828;-0.39592305998701371;-1.1388343935181704;-1.9046967887177375;-2.0668735507476654;0.17904652067810276;0.055996376777030926;-1.1091331659500898;1.2150209774426526;1.273358720127814;0.24065292391605836;1.3137919288582836;1.0669899344528988;2.5328683452587311;2.0193008088191373;2.2823474503464274;1.3451630048985856;2.1045912216565439;-1.998802309054049;-1.6053310714469029;-1.1361186699559738;-1.2602745437289939;-2.4412110657788304;1.4370908371394948;-0.99546090499369266;2.4264663520189012;1.7405216762500024;-1.8437918591993085;2.2504504700231664;2.2026938173586852;-2.8124767077986452;-2.0625188624356547;1.5251601204190548];
IW1_1 = [0.32555989870669277 -0.011235754907255979 0.082847394515976197 0.13720672648430229 -0.012777958090755485 -0.078735330023373865 -0.032620099547772251 -0.072817973459333232 0.018495834502105186 0.098637168572014197 -0.065653985414244928 -0.036845949194108094 -0.058565843947334537 0.036548821866999363;0.029762463442340702 -0.15145001021132656 -0.081291550417735448 -0.14573014811879767 -0.014569737790309541 0.028576707731516191 -0.19780210913917701 0.044015598273509968 -0.0095873610975911964 0.011112664428571463 -0.08765903463052499 -0.16247846399548857 0.044626108894599295 0.054360060929322808;0.16246462086069571 -0.53201951050102281 -0.015878051289914985 -0.086450331129393085 -0.0075177509400126867 0.03040133608821808 0.050932063367081622 -0.062089894321305149 0.030602636366785188 0.01277158668403555 0.013049505921335058 -0.0084747619385001065 -0.018622510464010346 -0.46901131805750923;0.0047260595421540937 0.0017524338441911153 -0.0057928872228436203 -0.0025018379296260179 0.0013674124036876015 0.0084024229737948777 0.00054586014891766163 -0.019484818444078896 0.0062560038183351605 0.010632974213720208 0.027255838596793102 -0.024935239297106958 0.87071961234446282 -2.082049433127187;-0.031720655318166591 -0.027546167855208328 -0.016522772218740125 -0.01577284277075424 0.0078638455374450689 -0.0011769611684272435 0.024806424994125543 -0.017574178870906874 -0.0079486722589551459 -0.031479330868985009 0.0041425582794082207 0.04308660847869672 0.90138249577221596 0.88723977036240453;0.027595047738573613 0.00035734707812414679 -0.032791965299883728 -0.013257269879064608 -0.0086168767091324254 -0.38801128302695054 0.0084402899139670324 -0.015992102385911724 -0.0079305426602968368 0.008080793443131503 0.0063111397886625367 0.022499857196465741 -0.00049570208139441583 -2.486869417711131;-0.0021608733045256237 -0.00047582051746662544 -0.018270537832700086 7.2668812752672458e-05 -0.0083085902359532199 -0.0040113539565225335 0.0040147592795830474 0.027200276393756773 -0.21302121141191133 -0.2470938886618832 -0.012040613248291258 0.019839820162844687 -0.65356553756501756 -2.9204331175450946;0.0026667728959194176 0.0027086358158672492 -0.020522944045097545 -0.0063830914883589501 -0.0025910227367488981 0.016777992027319211 -0.01602955962520769 -0.029161313139519248 -0.015772972708576787 -0.013875008248073684 0.61701475579450815 0.027426596534997814 0.026672482814152149 -0.9099076931522494;-0.025984214061532739 0.040234723795617114 -0.003969121580910207 0.0071268806303435009 -0.012739289564987192 -0.0017077758577347206 -0.028400320043235443 -0.207018558127959 0.03722563135650319 0.042867627852590587 0.021412974032397572 -0.061502511616097301 -0.14030289602554868 -1.4284097005530383;0.018414988095138439 0.031200359690117644 -0.28090041314129616 -0.0053759031604759602 -0.0081666533852373883 0.037835493099534816 0.052940412040111788 0.00057131912305937425 -0.069425295938047263 -0.048897409317062539 -0.027404748049155502 0.014876474757704782 0.019206082625692067 -0.36873663247962968;0.06338768484270331 -0.044805210666950902 0.002341957778701104 0.054814273244690064 -0.0054714147232523495 0.065270969826643849 0.0017072843754879605 0.047960543965370243 -0.13629786118343359 0.041296147601241819 -0.034743087923443286 0.046800139597848275 0.013400449563743413 -1.6926334642517549;0.0016909827655577484 -0.0040647358030797727 -0.0018388793014714958 -0.0041065627053776133 0.00011599379656236612 0.0077326074458124901 -0.015146890358592189 0.021951482413729271 0.0070110373062023251 0.0063608495448766672 0.24669962725020958 0.033075057021308869 0.01616533064079085 1.803654327046289;-0.022845617084607115 -0.01842665299241986 0.013068405889389611 0.027569627682508733 0.0018273438601434583 -0.0053526946729854146 -0.11291120901066001 -0.0073450063005939667 -0.03986416953916453 -0.033554737995023641 -0.036548394259713679 -0.089098708174066746 0.0004751147230802425 0.96358169115517389;-0.031890397324546876 -0.021424019598030152 -0.010804184934371582 -0.011423865084329457 0.00066105529822349334 -0.0074513138436638057 -0.027770468484670942 -0.0054889392991452172 -0.26733497920650895 -0.0048534803496729931 0.012749822945426533 0.049532203372108577 0.0024588428223617045 2.1745221831669594;0.046428354298920553 0.022112642337462799 0.1044182069497932 0.052393211498455106 0.021315435007688739 0.30108166799955249 0.17425279740846455 -0.039748787957838073 0.2054294624051958 0.19708336170383692 0.034902497688885932 -0.00080394304714184685 0.067933122770169968 -0.34714998047598805;0.0028131774745689558 0.045869339534752522 -0.00044425870233418099 -0.035274713313511986 0.0045506269154435633 -0.013116110401601513 -0.12870375296141492 0.01015288866083382 -0.019284857968067309 0.011320889645060129 0.0052122897596852289 -0.0045178635740554694 -0.0057710928306733203 -1.3827129890336736;0.0064426432136829095 -0.0050014069013302759 0.014945442164885218 -0.017422041818757786 -0.00088190207499177847 0.008781724254630802 -0.53427119297076864 -0.023895426807407288 -0.0023848703370624672 0.020558294397139281 -0.055079110512756865 -0.011371726226615836 0.010871409315269712 0.9959409080355025;0.041011672928639963 0.08409583783572494 0.091832315770272538 0.0049318018555991648 0.0052719711928373462 -0.042328533606576915 0.028758251449323501 -0.015326014527020801 -0.011857044426143923 -0.029603843840015621 -0.36386171005826734 0.018225789489219425 -0.031081418147099006 0.23166128153689988;0.11340309757682747 -0.32742373083117915 0.038720777974140516 -0.044013568315080888 -0.0018440739978708369 -0.057987058190369568 -0.051542914778720132 0.082408479851683564 -0.10710604689418454 -0.047260712268987641 0.082402312308689524 -0.074433830173676815 0.002377942507856634 -0.085489958617933778;-0.010506852639340683 0.0083098045241727717 0.0083273634561248158 0.001626259057100484 -0.0021569773903974943 0.00069349773329427974 -0.0014035802403153121 0.018248878445749926 0.00034080613797360685 -0.021770874370547973 0.0036720561749890835 0.0047502613491037741 -0.83559881617035259 1.1714881562111994;-0.0019726816484420297 0.010826890609593506 -0.029987124241856657 0.057221367718635549 -0.0012420036535151827 -0.0018104544810744582 0.037461007563247724 -0.014761446089486468 0.0098401790457471917 0.038172452622939348 0.046834055570951889 0.077100053246016917 0.0084399768960532612 -1.5432360871989494;-0.0034917970533941108 -0.016673997720067196 0.00071848368333603176 -0.012386250050009108 0.00060628555275265509 0.022794795753637291 -0.032074904736751113 -0.00013929926970870709 -0.057963433490514756 0.0037794392805924623 0.023491297606360768 -0.0037616313143859093 0.019482643462582421 -3.1862821148018021;-0.0026720975106785524 0.0021850066543109576 0.023321084781781062 0.0061579613400337347 -0.0032297912795569692 -0.023562753205792934 -0.012758208116774245 -0.085135589842414566 0.030161797978383795 0.011798064214140397 0.044491882894175647 -0.19614418315773616 -0.039119623566338607 -1.8031960540215932;-0.080105177661183996 -0.1338382258285245 0.11840812742365556 -0.02615165374570556 0.23975849640769945 -0.015206763725934856 0.12677779179803247 0.091186124368167046 -0.085452730830374649 -0.012439158318936624 -0.24513025588589843 -0.022605531271136008 -0.086802430902413172 -0.017593273636349282;-0.0027799807756513093 -0.026513644538729793 0.027683338489659839 0.018765570381651778 0.0016605052434490739 -0.037732245798663154 0.03396098530205046 0.0047703976508823524 0.020602022308662225 -0.019036227505390316 -0.029509000469969467 0.0009165398455980026 -0.012491508211053553 2.1869726063490149;-0.025988441175517327 -0.027792362989195317 -0.023133074830627515 0.13964431388350784 0.022963931678215522 -0.0080215557384859908 -0.12836074479004256 0.02268555419389769 0.015369209240382341 0.030043019161785173 0.17633226238370642 0.066735144254032069 -0.11237498076700528 -0.78914034265313604;-0.0019325974635953634 0.012919226942956925 -0.029246053970426508 0.028341565303424202 -0.003517953061428701 -0.0055930194166241591 -0.021075997262054034 0.017753253360065464 0.11373128999935531 0.066766138850756954 -0.016905356878727806 -0.060948961328240785 -0.15191320185281443 1.8461953706279479;0.021274990668379488 0.034395198839850219 -0.064660330835978858 -0.019305965063788504 -0.00062750793348725952 0.0052475304100393638 0.0070505068742367687 0.033729145185563685 -0.013642582708849398 0.0069574030761022122 0.016862359655649736 0.016759050178062722 0.0069564142681320541 0.52355370491449826;0.0014482502868642777 0.0064858949898679236 0.020593283522182738 -0.045092212218301557 0.0036935475707096641 -0.0037955340795172501 -0.0046760498259833076 0.0040236993912050271 -0.027074696330233246 0.15966605410712698 0.048036021482605967 0.0064816579715141938 -0.0064101896115109957 1.5228824254000168;-0.39511059177250324 0.30537346062862397 0.038160138978394216 -0.12501762513344375 -0.13435785271429776 0.045865262841474144 0.014669723452314189 0.32432628255928031 0.078366423038628868 0.016335965583750649 0.11540804594360672 0.11338309833172956 0.042080951381475613 -0.39965401599589762;0.014209315837393681 0.014429533056989408 -0.0025428619417727665 0.0018212819327809748 -0.0041714725810731729 0.01692431561902371 -0.002443884678568754 -0.017810094075428846 -0.011424714404171662 -0.021148432675264377 -0.014877295637748615 0.0070861250643875287 0.12441273895856582 2.2842844228891384;0.051763384852741554 0.024274088152576177 0.016815784622837827 0.11072939605185091 -0.00011064457449409698 -0.0018555368521621846 -0.035571287754746141 -0.015002694045607444 -0.0056561418373294974 0.0041037941376447949 0.00099883363633628268 0.010225265692406163 0.0053640994475118355 2.2333093428288402;-0.0081850251637006956 0.028540179697972311 -0.10559161488716967 0.0036816635223250412 0.0005266465001573195 -0.027849842840627345 -0.031759489949981866 0.0036349221815450868 -0.0017430377880452456 -0.008958574101989027 0.00034013082183359208 0.0016029387259688748 -0.00085202619122879287 0.24656669019829189;0.01770018552346956 -0.019455116529786848 0.023270800434583024 0.013584278943238782 0.0014084316351232616 0.014670989435331641 0.037674933629395918 -0.0082370893870115907 -0.098897520123855498 -0.0235991523289103 -0.00061966877324429355 0.02523050913186357 0.0078321576796576663 1.6116502554148033;-0.0032238234990002866 -0.045976631264217686 0.013125669761797685 0.010823378017522771 0.0037416352889475587 0.03410390501472526 0.02270765500905551 0.11628878909829007 0.012561580340602941 -0.037578809026991331 -0.076188484305213841 -0.013307206002528714 0.014770857118826846 1.8923717493033478;-0.035060090611781405 -0.085989528801386425 0.046455940154191307 -0.03320613500142322 0.0049550909620716581 -0.012629737249026819 0.069633675791081831 -0.041311468280948678 0.01930018552844771 -0.016591255900043685 0.014809326791508282 -0.00978448219038262 -0.0034884351109178611 -0.29039295411739607;0.0024878223413869562 -0.0025296374431919887 -0.0093900959972655854 0.0031786293004311948 0.0019908416160251997 -0.010293525699414687 0.43331569760165983 -0.37574664397021817 0.016645434697792616 -0.0012996329287971442 0.0021589839036847748 -0.0041288646201665946 -0.0011287501374128105 2.944665146159704;-0.0058911278074357809 -0.017678647396857924 0.039691147974200786 0.040261477870956137 0.0012380858391634855 -0.010641535798578494 0.014906170459130246 0.029305567487046151 -0.0081349235316828163 0.0070033956459831966 0.018755713958221166 -0.0049759852105667295 -0.037052605276666699 -2.2092936277386617;-0.0049072091809693411 -0.013412674470031962 -0.026546530872759353 -0.010574999262345655 0.00060821509355966105 0.008199470937179567 0.13713092070109661 0.00823809276465781 0.033224470853674221 0.025660090199874693 0.36121585971088666 0.017958124574211295 0.0051805068725090291 0.37651784868733701;-0.0042704978428722649 -0.027388535146343283 -0.0017834043316535091 0.15135375715102239 -0.00169789571923746 0.013039240437972001 0.036136012713294356 0.010400634635240921 0.0044597104147904524 0.011091517054195728 -0.0037972119671735465 -0.0041360326296601673 0.0053644776352759051 0.16479815373203338;0.036708421113679543 -0.049084537507850218 -0.013502497777107193 0.032457862023807869 0.00025187722384073307 -0.019673878311193892 0.032394701432921329 4.4757521638667196e-05 0.0090400734659972365 0.019867876394282096 -0.095739557215287485 -0.0047255008772766754 -0.0048686139861329582 0.19977007355828605;-0.015253701142175353 -0.0019262039692643691 -0.024817501415168652 -0.024532135136285497 -0.0008311087003114848 -0.015678684081708336 -0.056865263474466937 -0.023846217235827614 0.014115384800094584 0.029034996662834479 -0.096482601015066338 0.02087063779438296 -0.03120232864761972 2.250671234707629;-0.047975600156904406 0.028419770362279079 -0.01630968587364838 -0.034977029871955043 -0.0018201738191124626 0.010877363792516215 0.02290533255403511 0.030744201329506126 0.0066519500014929414 -0.0041006882842532831 0.00015115780683361697 -0.013282580476977798 -0.020366289992076105 -1.0434348344451361;-0.0020558789339974889 -0.035730518227672307 0.0025707739120551308 0.03042135820709109 -0.00085072033601498679 0.0020361852369849892 -0.060520215609090211 -0.013653950703294582 0.031342760650091173 -0.0028237670033927653 0.023366762396693531 0.036922081705432382 0.014162683140669562 -1.0405234884275414;0.0022606668871190186 0.0032106687445582465 0.048868596988893426 0.020906801866721843 0.0036544158196738412 -0.029335048524206576 -0.011400369253808471 -0.002032610999576516 0.0041363744675439263 0.82142091080907897 -0.015614487176288499 0.016345875788848385 -0.023003578581088091 -2.3477261157977267;0.013621507131995619 -0.00010733943790110247 -0.022275892254247278 0.045844808200327117 -0.00061061131768442212 0.04374230388573818 0.021239149491416098 -0.024550736608366989 -0.0011373098338023793 -0.0037448916616970298 -0.0031068639014900142 -0.011013759498060612 -0.0015831863669211405 -0.46359660961758287;-0.019517224090312153 0.0085352708527436059 -0.066200579648552735 -0.005765972809844931 0.0026973995911388103 -0.004629411996800374 -0.026258434002968251 -0.064579788498041149 0.0069244607931818556 -0.053383227829031175 -0.025658991873033579 -0.0015798017609387027 0.0018489638598956034 0.14521348175389481;-0.010369081108729465 -0.030024523002699012 -0.015356034560666445 0.035910437792366384 0.0057036286252183316 0.018714301206912875 0.1651314021627027 0.00076436078375947708 0.010393092947578259 0.0015243643924360353 -0.0028016607535863505 -0.036079051297424759 0.0088017305456507041 1.9930098808083647;0.0038189645129463041 -0.0024087054949263648 0.025906732260693944 0.06525058692963423 0.00038428928157862896 0.011137826235265508 -0.015176741561866419 -0.0014451908135899175 0.030532951629423041 -0.014148283935029572 -0.016798596553409786 -0.00072658314953654324 0.0095376763686721919 -2.8332347917012517;-0.022168330762568127 -0.035249183720510918 -0.077273232853215246 -0.12250469747953936 -0.0069609964487231156 -0.0042293734536282676 -0.012287805014393584 -0.003616475063607559 0.020377915875809088 -0.0015944468838835523 -0.026222332950782794 0.0028298144606478241 0.003820054370898144 -0.079733302298532441;0.040826945025475618 0.0080000078241744509 0.045361814823894217 -0.0026416521935472034 -0.0030876759796160569 -0.029877003145583416 0.023677791621348095 -0.036984888945769824 0.042569748600826331 0.045604244343394426 0.0052130877441215005 0.0030902886393463333 -0.0025525556531482657 2.2329189638967546;-0.01630317994607609 0.028560766818377579 -0.042250622473062223 0.023276804549162727 0.0011718740875406133 -0.051354774386286411 -0.038724058617405341 0.0018117947871907833 0.025960760808527682 -0.00965069824715435 -0.0057093736389868515 0.0041548702909088957 0.0020006415028691175 0.98227797202694744;-0.0088302940689504571 -0.0011961382024479018 -0.016705461511622166 -0.0019703011860904575 -0.0012548110363396967 -0.36812002047648684 -0.0098230971486343195 -0.016250662092675974 -0.01123415567014378 -0.0085143432735076963 0.01098298265410313 0.0026287311841747523 0.0079145191806467823 -1.8107146360765323;0.0020943421971271452 0.061328861093912973 0.035363451331508332 0.043480103044453648 0.00012529404084118891 0.0017308135350306486 0.011042619914948542 0.023825774148018501 -0.0092852665267693976 -0.03486491025245074 -0.064987593928827386 -0.048424763875918972 0.0053343998268812528 2.157024074224331;0.0069833273016221883 0.026497772665346038 -0.006673981717258865 -0.013419687433604999 -0.00075767061813737039 -0.02495577699350425 0.010825580456060455 -0.034740320248803129 0.036257441261470486 -0.011382110006687233 0.0066127167558541608 -0.087394852245761073 0.0088510829112359041 -2.1657911857165986;0.081655126094247119 -0.043688245403235196 -0.0040755685588984994 0.060153094596768097 0.0029623319175141635 0.0097368415674093378 -0.042030171051884398 -0.0065308450179790024 -0.0014493042437695221 -0.021207176722741028 0.025122464342996056 -0.037601602028873228 0.0050857933964775694 1.8855787560858051;-0.019022009401204094 -0.044301205649671639 -0.01160792141308214 -0.054307404795452506 0.00066470607977647551 0.010553246105555227 0.034496810309191696 -0.014333937320564198 0.0071263155933344591 0.0029212679948142418 -0.04666605104392501 0.00028082293724794404 0.058716996674681728 -1.8831992368923545;-0.024280267739054933 -0.01688332669331177 0.0050586001062681175 -0.049394242388983774 3.3059063380632031e-05 -0.0061979819075500498 0.0099826123681880184 -0.0010636668888952621 0.017110054145363901 -0.037585050868987654 0.011286611186818668 0.0056226107670455513 0.0049793697799636197 0.95571536238204735;0.017829596403211169 0.0055438989076097914 0.063600293667470748 0.014862107777243009 0.0056427985095974303 -0.044531952370677037 0.058417892408264213 -0.016799787706233235 0.026951073803068555 0.022622108237900902 0.013341300860347861 0.026479026621230653 -0.020896108193492729 2.5778115860577371;0.012393043319133342 0.00991929775713969 -0.032016542432779752 -0.043238044117975279 -0.0026302203118292807 -0.0092870090232428874 0.089428137161403701 -0.02281620509157738 0.019045652354559493 0.0072934040101657769 -0.16851582990684841 -0.0067613150629148907 -0.016232819458697631 -0.095542824611926397;0.006961209178937838 -0.0085009240508436886 0.0059447581306374658 -0.0054994072459965725 0.0026787533584262538 0.038172343935959807 0.0087611977700913016 0.0056809698113351537 -0.011456966600077631 -0.40003523363179322 7.1406241035353449e-06 -0.01120420024037274 -5.3190733075448703e-05 -1.1164512074637141;0.031049767446429403 -0.033900697305024659 0.0091431995665839389 -0.024864073293373878 0.0003617067449462671 0.014260448615959546 0.018794681216652523 0.016812259077579918 -0.0055839245739719131 -0.02312604131827983 -0.039737289486398278 -0.040703659931175244 0.025242506544805657 -1.688989756661313;0.067630096084787039 -0.031536380242153203 -0.047289893324338098 -0.032368581916500605 -0.0028186276965580883 0.0087000266270039119 0.064959365713772851 0.0050612703547982668 0.0095135474294551735 0.0017614219423415464 0.038958222482373059 0.011448231863947028 -0.0027824545525568217 -0.74517065609571009;0.10550511521759923 -0.069531721015645351 -0.021290211971481062 -0.039796298796516631 0.00045574983068894968 0.0057072629283230394 0.013011723687697412 -0.021456078642785318 0.014090037198759474 0.0088011228800965995 0.00073981514079650738 -0.010489288331531323 0.0026402476315964406 -0.46863787244419391;-0.0061022779600474544 0.0047796426769800386 -0.018528393542354502 -0.0069507903974317317 0.00086997350285928602 -0.0036286836896780483 -0.045684664933842913 -0.0087499340266895473 0.020288763261144354 -0.0056197346033008558 -0.063465166475854609 0.030229161682541632 -0.02906491780145774 2.1504648854557216;0.028450694067525907 0.078734038021664829 0.0049491621545815472 -0.059890191794256822 0.00027264776365016436 0.00044726604796775415 0.020469343795751299 -0.011183619941143122 -0.017531007318748199 -0.0074405612049287259 0.02152879750786613 -0.026124747549492469 0.026958028238579016 0.11353848566170635;-0.0070339399297761488 -0.019642282415437619 0.019487392572522966 0.024503715057868299 6.2438313970803757e-05 -0.0061073656361394371 -0.0035512236709173014 -0.0023143283879761556 0.272738592353378 -0.0010116890954697676 -0.017745458050337268 -0.0038408669325340388 -0.0054830563190799283 2.7757746282712827;-0.032674302562826052 0.0040081977358115703 -0.00036104934837537483 0.021362798333908719 -0.0015077819823615583 0.0038307460095138779 -0.018571106744756864 -0.017362079352926548 -0.013515124643384191 -0.010069624881487865 0.024814764047014552 0.011894833750742521 0.020956582270136963 1.3087201053508986;0.0087098237046265344 0.0061010871601866476 0.022387424481185497 0.035291853248750643 -0.00019270328837657131 -0.23019125466165805 -0.0091251257325387809 0.024641998729193395 0.034333534772160376 0.02180722103357793 0.003748592873776413 -0.0065976577849676463 0.018996054291672042 1.4403187643956736;0.025742157612224099 -0.024780692661933362 -0.0095943943970049021 -0.11396597460978082 -0.0028570612736839988 -0.0018393840412455416 -0.053708315731988227 0.048046827496324745 0.0051327484927265838 0.011342129646056694 -0.063644856327339919 0.015306650634137877 -0.013686207576586656 -0.039477506468364294;0.03626590235684022 -0.0087555440203751726 -0.094736348034208356 -0.021391654082418717 0.0022733235000877506 0.015305678145636856 0.0041889687950028877 -0.0068077151865861942 -0.012110088918839522 -0.0093958370329766411 0.0039925842669144328 -0.01180296208212967 -0.002615135025282505 -0.58786306355235385;-0.00898206339895 0.0032049607861346823 -9.2088838622519562e-05 0.0015644258749230181 -0.010277467028375781 0.049585813098317687 0.082983212317619903 0.027630251280337338 0.01654924793428977 0.082597879205682997 0.026808204951922494 0.017905853350348031 0.011335269769158527 0.80363559947514884;0.010181456716694931 0.016639288574006914 0.0033678219083531397 -0.023894991138975325 -0.004876668685375841 0.00087625554276052494 0.014661679041665324 0.021005537219402334 0.0023305287457089743 -0.12871377952248575 0.0036110108865097319 -0.0087546502896677526 0.0019260443206691794 0.049367543439215365;-0.00093921996591625533 0.026330372896629463 -0.023630472391867344 0.049324885511052137 -0.0020874413372359555 -0.0037518394699502431 -0.026012130191760418 0.0019651284658422558 -0.03649368286055827 0.023625905186805685 0.021940149338760352 -0.009230977835745547 0.0084854889448503362 -0.55243029420191925;0.01229661504893037 0.011897418664363864 -0.0071140470875788835 0.0024167352916913552 -6.0457889251234755e-05 0.031371865017633192 -0.010827630869461979 -0.019646402368804286 -0.051325318820608354 -0.045850587265175539 0.051885590791825371 -0.0062482631646929012 0.10187509249192073 -1.7911505521609297;0.023522760873958597 -0.06440916087907575 -0.0039391648353787655 0.0003666198102385909 -0.0026058305972875141 0.0060691100740899815 -0.098748776389069245 -0.036133412090563116 -0.023688041721020476 -0.021244329789611976 -0.045824237023930368 -0.048632323060637916 -0.012814512206264065 0.87527059822567277;0.015710779158722703 -0.0013856747305525453 0.024211728322776488 -0.0056308237188295949 0.0025115237031346446 -0.0085564914971109941 0.0071184138258691522 -0.0038803229736320928 0.63592064804455628 0.013573742491399494 0.0033664128632011118 0.0081270783155140604 0.001608654751419751 -0.92114415435653207;0.011564695807901627 0.0068825998342111911 -0.23609983417547242 -0.032413660445091252 0.0020007273905970411 0.012512133569967991 0.021979205799526801 0.027675844326754222 -0.0010099671820238906 0.001874017849887302 -0.0023249820273824988 0.01859246612704182 -0.026691100721435868 -1.3464826105516565;0.0058161317672841932 -0.0064827104606597153 -0.014965120705158394 -0.0064603955724855684 0.0017014200371563433 -0.003260305606406094 -0.0038411665162051281 -0.40636693559466031 0.0076480699306161141 -0.0060013244340024431 0.0065279545983886172 0.42504357968253348 -0.0010580735756987578 -0.11927408833434106;-0.028498572832120522 0.014326559924340117 0.049352760745373467 0.016513886287488826 0.0011050754033940275 0.057419746940105661 0.0061769267341705439 -0.033707614475422712 0.015738024035535019 0.044654081704558542 0.0072602772913908115 0.0076853216102363278 -0.0023429944658648109 -1.8432950610759831;0.00026528590076712043 0.012046886789085878 0.0041519586773531925 -0.079509811077943554 0.0047672410440720318 0.026286393407774878 0.0086925774837616505 -0.039288007731737455 0.029091732304219377 -0.00095092000151351887 0.0075716025166187627 -0.015633135627901824 0.011723072097646416 -0.36367100781071643;0.0002952925539845729 0.0086990187809165044 -0.0014491782422158329 -0.017581824138871875 0.0013755178416679568 -0.36269373500884811 0.032107951014117536 0.030905884533766699 -0.020481380610760044 0.00079954853550043411 -0.013204759750503937 0.0057467909331866615 0.0028399178886123664 -1.1640248811699587;-0.036336973114018754 -0.026445064988939643 0.019934739903588461 -0.0072496753445280759 0.0039621034780171222 0.018260800966206737 -0.0074691373602855078 -0.17364825713376994 -0.03706910253396857 -0.021822409544359961 -0.035747298198065804 -0.21102975820376554 0.0071623716761222457 1.9556521977494601;0.030707822880265682 0.0021034735042809324 -0.035273193703026069 0.0055300303642526628 0.0012410238854409922 0.019031166150692811 0.041523041312729436 0.054072271688004152 -0.038961577980546759 -0.049304404464074081 -0.027185926108435534 -0.060094023742354168 -0.014924666740563428 1.9212055870619866;0.013034861159032088 -0.019016639793732849 0.019031232904965788 -0.017241337723716235 0.0040307647264769073 -0.0047218556170604779 0.0063437083566304621 0.0070233936840314619 0.014818966683370696 0.0042213905742728751 0.0036796314491562981 -0.04813969262909585 0.03957150049787387 -2.3683197113903551;-0.010744405765697063 -0.014333366019103207 0.031886511304716869 0.014001388709357169 0.0032365561076728357 0.054173698462996592 0.089059933163754407 0.086398000505027106 -0.27230659576921062 -0.023589927167302491 0.031720511925156611 0.03413285285567158 0.0093750340293125688 2.4338856201693457;0.018743589579356127 -0.0064792875449225856 -0.051519841092477002 -0.11473708549721709 0.00091797994635882353 0.069485037341955977 -0.016138654372055396 0.0014824358930473178 0.012678082846286314 0.07286430107012401 0.028451447079057349 -0.01124631503097482 0.11128090776374387 1.9413376266351219;-0.0056996817044427306 -0.063003284646400745 0.012012945221419892 0.064963458323637452 -0.0017475138701990628 0.021796895862762188 -0.013453816414889914 -0.020431748405862541 -0.022936570910387605 -0.026579854407058734 0.026060064577717132 -0.01055944056914435 0.033488748613670613 -1.2375085584727774;-0.0040897570981578693 -0.004484916427681741 0.0014175105095071095 0.011367611389054542 0.0031332115538019807 -0.013272969648570826 -0.019820293220211404 -0.0016211787596896131 -0.0072013827578979728 0.010224558733669131 0.74366429492772457 -0.003935245778262317 -0.017688145781858372 -1.1715630550321472;0.025845481546126637 0.01752559692714448 0.023349646176681848 -0.00029436637032616313 0.0020450202496628748 -0.11668997175536402 -0.045248738263275752 -0.025068274089060181 -0.041999611925022141 0.022476399680067514 0.029989748436536831 -0.027847737732410689 -0.057555323434769975 -2.6716427515562673;0.12607872165874595 0.066218649814761416 -0.039219712368788483 -0.019043118432572701 0.0076458364234736871 0.033318479650168327 -0.030273360630146157 0.021382892981903046 -0.012160456535570914 -0.0071035869192547039 -0.012147568789713249 -0.015410529069834178 0.002837987139812806 0.48060106947944742;0.019832066347807636 0.0009902211915874511 -0.080438578870434388 -0.060194913504201135 -0.0087049979926407013 -0.00037546540908175812 0.023107147222239569 0.12367896059184441 -0.018289717028198999 0.026060622822435674 -0.059928004163670931 0.036799415105586535 0.00024556409658462906 0.045715214503839099;0.0016481554649386057 -0.0043965621392945842 -0.023086457344586957 0.010515089154143923 -0.0035910975593277756 0.74287786794472321 -0.01616329683874242 -0.028584968840190864 -0.0097618479147723366 -0.0063450563971300241 -0.017499020891042157 0.0075993397215477158 -0.0058352823984409536 1.4902875153168029;0.010819459560878448 -0.057289770875422343 -0.025367940220956599 -0.052005260322771009 0.00086494746077273325 0.023592729444792449 -0.019975519022355569 0.013306258648449571 -0.049718521357423932 -0.040854896569020596 0.011293918820526801 0.040320880283850183 -0.080983764103362998 -1.0203237767342999;0.00055933994493383436 -0.030348512549008128 -0.0052342951548263288 0.018244963113441467 -0.00061355614164538804 0.0062420626642608482 -0.022076634470972252 -0.023460493599782549 -0.035728004288208826 -0.023661818498208659 -0.051592514457938825 -0.2824783083804332 -0.012917676459344152 -2.1968118502364264;-0.012794962944260958 -0.00042462536220937586 -0.0085402893529418784 0.017230058634069297 -0.0035375819950040797 0.011452224052392854 -0.12442085283787863 -0.31688205151879723 0.013240117238164198 -0.0091918155192900215 0.026712770565355381 -0.049508974480943921 0.0004267578500499195 3.665919645922985;0.024323270250677806 0.026058264152000323 0.0083592522614481905 0.035257726693290248 0.0016400255431972125 0.015016147433504202 -0.08459113980303179 -0.019752481916726954 -0.029136603398001136 -0.033388392117536685 0.79188668732053002 -0.0045184198318511202 -0.010437149142992022 -0.063777733825538779;0.00027231593062305369 0.0050735571859345293 0.0032011019365246985 0.0094512397667601486 0.0026890544995205948 -0.003630251465412486 0.26624299681878694 -0.025627018045105622 0.041672968577241926 0.03405480349647047 -0.015942735389361886 0.028994708855783598 0.0016910066866148057 -2.784140262342151;0.00035794352625769118 -0.013223361387669505 0.0038183720644159435 0.0056953419028921539 0.0019320671759414448 0.0062887030309174627 -0.0026426583004979694 0.021899660148976971 -0.029656447273826738 0.011208391270265173 0.019941143547051194 0.24105187227894123 -0.00074829009701607105 1.9876307345949271;0.026702086230546696 0.0028023320009437354 -0.0029402408718604721 0.010522460877349706 -0.0064763628976488808 -0.00035105159785640074 -0.047406359355456645 0.013732656842610977 -0.45953750485769029 0.019416214801544585 -0.01061578626073582 -0.015204227649689555 -0.0082720919871241329 -1.8177644422217607;0.0034602778349347831 -0.0054479663816273186 -0.0036970928614789614 0.0081831089144371733 -0.0019368828046177364 0.0036512676909917371 -0.013539920219879419 -0.34198590729022699 0.00033562614824527896 0.0061172841546958262 -0.00042457654955357075 0.25409379898315465 -0.0021408044516074711 -2.1433967390677413;-0.029791873437206629 0.010114744837603327 0.013420226830305724 0.017500541251607681 -0.0060977434548229303 -0.018905374010144489 -0.038124171449842176 -0.023605212636543482 0.18296232712294144 -0.51350600193339035 -0.016178949717450233 0.045647188460525866 0.089244269693377953 0.77285494180065484;0.010541057686576089 -0.026498624322219253 -0.0081911742874741667 -0.011827505937823064 -0.0044176220740796334 0.032754304842350666 0.093233175183178654 0.033426112540538351 0.068896220636089439 0.070707785651602462 0.022783539471395508 -0.0081213333437190043 -0.0029068876854261801 1.8866513310739952;0.028686069177462591 0.0071818844698385426 -0.0025234132427934012 -0.011740216640044645 -0.0043144333995117001 -0.0023427450175898695 0.12083463777913568 0.005359478283502743 0.011402308153393425 0.1087425992203542 -0.032949221738552782 0.0064675565532021934 0.024203985802890682 2.814703689739499;0.025687285192270568 0.015033048741014536 0.035906394005277141 0.084229658287046011 0.016027285936434571 0.016998445166386846 0.037769247748845353 -0.13976643784761333 -0.026424941537120033 -0.030849896548653478 -0.018329227760770592 -0.10195915558630973 -0.057567653046548768 -1.7764664941234907;-0.018907252774641056 0.014367673811712889 -0.00021421669944845492 7.9666765539321543e-05 0.0027799632471481174 -0.0080155207429967977 -0.027041444557207632 -0.00010727810965197736 -0.013311512028850859 0.0056795220229971461 -0.37361644646919462 0.029276854838596461 0.045601930328460584 -1.7644084249587015;0.01520532864026277 -0.0073118255674121781 -0.0014359788198591939 0.012626405619281378 -6.2141039607034476e-05 0.023032904510890951 -0.29108831607903701 0.0066199393996866389 0.10474387092036264 0.017643547116762109 0.000992303052196383 0.032441798345945363 -0.0020371628798532891 -2.7104688207651786;0.26435762587014727 0.047110398562804502 0.066450751379599632 0.077827370451623773 0.016678236603967275 -0.1119265631749063 0.039441946817689831 -0.022774909565572057 -0.064045862388043051 0.017308764145839352 -0.083595627631632419 0.033154759870951435 -0.018754596966424428 0.18340165712723153;0.035874941967803088 -0.079116864157459124 0.0011667242149740124 -0.057538868709327867 0.0083260670648433194 -0.01261102859468455 -0.014456352133025058 0.016282364350535143 -0.011314598662511451 -0.055953133129527773 0.0041542893166642558 -0.0032153404393242377 0.0063634139742792762 1.5281454634275324;-0.0092904916753613915 -0.022227317488785904 -0.043881768869936381 -0.0061965735865442736 -0.012942423824152621 0.016821691228004639 -0.0061815413476191232 0.020815412865877337 0.1620933406648695 0.052926477326480648 0.017512187112847723 -0.03590485561374681 -0.14555718062865114 1.8284771644059223;-0.0024878465007238679 -0.0046917497742423884 0.0062114535245983609 -0.0016550766175327338 0.0024073865809950681 0.0047429443499845915 -0.013534896650003419 0.0086949470809414269 -0.03254911304726054 0.20889175069322602 -0.0043729873989847359 -0.032657360923259625 -0.0023047657776003897 -2.7516253207666264;0.00084492015497726559 -0.013593961251894618 0.0090443052771304495 -0.058763021897854685 -0.00086271180565592376 0.037224355136864375 -0.052583440227726548 0.070014308588327245 -0.021572994593681529 -0.046719760700199175 0.17315687219284145 -0.10265403039022575 0.012938437454466328 -2.4551923363489192];

% Layer 2
b2 = [1.5186079565411892;-1.3540861016282282;1.5502222720665779;1.5037885106656177;1.3190876418650805;1.5204262644348627;-1.3496916178864469;-1.2389900318732705;-1.2273981190084648;1.370143593044707;0.96652214557187399;-1.2318823585470688;-1.1826750826433132;1.4016494907245687;1.2944862244564201;-1.3850124965634334;-1.1580039371560746;1.0913267504216662;1.1655808893708932;0.9259299180234376;1.1830249512498399;1.230997900152756;0.74765271607181438;0.82669805865222112;0.83438396190064401;0.96488683589385216;-0.62634735782953432;0.77544758840521211;-0.68926140307343609;-1.0956449181528292;0.6088848155916684;-0.98308688156513735;-0.37207861554162358;0.93589154873492331;0.71833665339118957;-0.24183333111426078;0.94094607556845589;0.59185491767522336;-0.32999722006758975;0.27589819971920732;-0.88512205924918541;-0.34873328929987374;0.19701233320537348;0.78707953581300327;-0.12164476581676825;0.17178458206046607;-0.10093965088654087;0.58271536752240094;0.067857582271492314;-0.13579983906989573;-0.089649630602145508;-0.3540098581318189;-0.25833474646281107;-0.15077328548386709;-0.031937820566623858;-0.0014948581264974039;-0.15852261069185042;0.26571040576741728;-0.10173120994864984;-0.17679722883973623;0.7061682624160126;0.14094707353989708;0.050491307479760092;0.13908783556643833;-0.0077658331890221805;-0.10201745035795699;0.58495945036638763;-0.16876475054816947;0.46546787874401957;-0.26158643431062467;0.51342554924757766;0.49338282179568949;0.45514610057174376;0.77722568530363234;0.87518963548061524;0.97813909920381825;0.2567562052584671;0.4917949514221277;-0.62711798331449942;0.47224851865948186;-0.93700826173749407;-0.55237131650961369;-0.83895238061118871;-0.91893368617064242;-0.90392491208300951;-0.94732806983724827;-0.89755580004686308;-0.78574268905998723;0.77603721092505262;-1.2777832696892897;0.94052844435673855;-0.84782974967492852;0.77992188152789499;-1.6177048780652923;1.2294359344690602;1.1308757813164947;1.1508391284326407;1.0818344415669199;0.88540633026246851;-1.2916407599144057;1.1287111864093429;2.1520947470798926;1.4959991922668503;-1.520597622428274;-1.1542383472588233;-1.2346944415874539;-1.3396985506153676;-1.3941114671744572;-1.5884294690902689;1.4221594690993442;1.6063816285971753;1.5550836821181109];
LW2_1 = [-0.26518768973494788 0.21330724224037004 -0.13529116120447754 -0.078748091402424905 0.16309699128620009 -0.051457564515108883 -0.19522972274099992 -0.13019603059154761 -0.0064086487410423823 -0.010128767597748969 0.13190940597070114 0.095337578996332592 0.068789045391479314 -0.11874962564129565 -0.027378406212285721 0.0197959100703002 -0.096601493115475071 -0.094615956138275073 -0.027346024196994476 0.11257830121854263 0.17844196873473506 -0.22577759209627077 -0.050038819017597561 -0.075397411726722818 0.1365589037052676 -0.10858090042769761 0.071776326412374455 0.056081218323490813 -0.16908995477285405 -0.15388597029871803 -0.027473919317950336 -0.057898028851627974 -0.61601412731176319 -0.0092242787044769046 -0.044944160700393185 0.21386755348699915 -0.11000923592762776 -0.011383865152651515 0.020162103759649469 0.26382474939739486 0.024678283286620365 -0.34165471435998829 0.30581424921951089 0.13315077069843576 0.0050186168918928548 -0.19038389368670422 0.16487997606228566 0.40329156754004081 0.1523945566759215 0.30256654638847791 -0.3195430042376402 -0.094120015795557316 0.16890181102695243 0.0068111552639710787 -0.30952145279828053 -0.17972261289642366 -0.16087178371847452 0.25911914195939362 -0.19917330489059132 -0.069277683372833451 -0.04810667955819941 0.20178459166490625 -0.0022035976980105238 -0.39409923843652861 0.22312660054894112 -0.022292186660878496 -0.015990358418075421 0.33312668654956135 -0.11445777173939088 -0.12753326136328069 -0.024350413570343649 -0.21032215967508508 -0.28662506916159131 -0.097346216469013813 0.24660545411126114 0.18555582878484597 -0.037155652001038882 -0.31679196585405656 0.048283857964869482 0.027437568154262671 0.16022997323338253 0.16289108251933274 0.027760502481095132 -0.029773647605461001 -0.10940813008809516 0.023090538042630376 -0.044950817337008446 -0.043210719570881483 -0.1495232839991755 0.047758321706014954 -0.18571956178681628 0.2108405013772357 0.31510154465477713 -0.1209133350138927 -0.051654676181545754 0.17268722717368756 0.098013035840091633 0.093298305908802504 0.11895967345239575 -0.0071730984109783956 -0.0045266317241472731 0.19389803935254191 0.15279384997630829 0.10689715957668065 -0.21218169433543069 0.067028852030581954 0.048688131212040811 0.28475650016542498 0.24642084275994997 -0.12665263534510568 0.012905059722267069 -0.11314336147325627;0.066447248730192393 0.53607997378810424 0.40847069725290436 0.25103270628378638 0.10468124609343155 0.35046822169965142 0.11416756103985341 0.28537498546306544 -0.065235758685725995 0.14487316194452848 -0.061152485480437134 -0.09623905419433243 -0.046608669451302154 0.01111118160545632 -0.17284603469602289 0.18408858099791139 -0.11679448932392633 -0.30269800592455948 0.041224703836874758 -0.048834179449853625 -0.53109144800266372 -0.023564425918076656 0.17374797320316859 -0.18381233351457271 0.18567790283233135 0.073943732470460724 0.49943636486603765 -0.4132741431051003 -0.1526510793460723 -0.23609879323914543 0.30395575142940728 0.20002567209125258 -0.31852265902353055 0.13592299657785056 -0.15198288652744837 -0.035352677443012986 -0.16525950501518147 0.28163125877813883 -0.20458459814803526 -0.10147498065246033 -0.11624570230940391 0.076964271847402843 -0.14238038357431024 0.046257426970584631 -0.27168997973117986 0.1465392312460802 0.23755835712962561 0.55932695627779494 0.0089351692513832872 0.20299769760509534 0.079237277429087219 0.58123578107540275 -0.047982583305351628 -0.067100019119645929 -0.17938557904266106 0.31478532804008813 0.05016461859037577 0.050010735630075971 0.11489547874166432 0.078191246976548029 0.21896140884392598 -0.023702187437471049 0.75615871042241822 0.51659490107977857 -0.2914994219125433 -0.018112540432720738 0.32254349507374591 -0.20720888047605307 0.19597847984858302 -0.061722348703196879 -0.26110727636330894 0.16339273173676536 -0.65086305823258372 -0.14898564802258324 0.58549361978269066 0.02708579469958337 -0.22478752647646874 0.095264300487522352 -0.051245043799564516 -0.54268985892265409 -0.49194565708589916 -0.14533449228343004 0.048725265895507096 -0.42560480575343662 -0.17761278325083046 -0.15270727453175106 0.13112877915243731 0.24404778016745821 0.013633657447997606 -0.16939983654134491 -0.027003605594195148 -0.065867593933414945 0.16141646991875105 0.24204312103083125 -0.34196656580226115 -0.59465357520068052 0.13924890498734466 0.059460115784650949 0.18213820802358696 0.030082926556861497 -0.010564216441691069 -0.043483484691178763 0.034155152681951968 -0.029488301250156286 0.51893437543480359 0.26744736009220793 -0.11447916481438133 -0.21580101840608998 0.0042117073892227377 -0.11029330365006143 0.0024791759103106438 0.23522901699693879;-0.31274518361585885 0.42161572265898384 0.14090035142892335 0.40709576942047765 0.3169930527005449 -0.21063160215206253 0.34409080665466146 0.32950774953832229 0.27651644565329569 -0.15792901654727809 -0.095311945212143021 -0.20238240756122397 0.090973171304564587 -0.039051827992886638 0.22005803680058236 -0.33639317489955528 -0.053367782335246403 -0.41945600046358972 0.12448204899279763 0.18048478220530179 -0.11688110489360037 0.05757373395381795 0.070938312046297039 -0.10783063584422206 0.013118132714038439 0.20729728747934376 0.34488543244804459 -0.59968398372032461 -0.54108878554033435 0.01934624019154034 -0.15383987173582214 -0.4016221168513901 0.046283393131232149 0.0037524409883133497 -0.071318992457745575 0.52662574244615645 -0.59255326325746782 0.63667516493556575 -0.0017541376133150342 -0.017043495366492471 0.045163933161538397 -0.091628119302902683 0.25078921982128499 0.1378437528243118 0.0580076787673241 -0.34559724242772349 0.041458423008598873 0.10847659297263573 -0.0091525701729890559 0.11461100768075913 0.52479653211557153 0.22333847845923885 0.14339846814474591 -0.41849904898603563 -0.19288028629806947 0.074485805909440553 0.34868710141717474 -0.33186192423776595 -0.81793382549094573 -0.046580022534289459 0.44248775470747559 0.44922059147732191 0.14358576259631639 0.011879934266045618 0.16325587686521037 0.45959972908559593 0.40579365176564014 -0.14668143753650248 0.13414704766862159 0.80760523924072825 0.25643044423796069 0.37131969656716735 -0.09636609064800028 -0.70555500931640802 0.57988667580044684 0.45114306901608953 -0.76089984580415815 0.36085126651306532 -0.12449071365373095 -0.33857204027759158 -0.52884312654767296 -0.54930381499763004 -0.077226358806807796 0.067302426959666192 -0.47519717438575204 0.14587177682388722 -0.15170628263335362 0.34401544452459815 0.26800099661251886 0.67987694706362967 -0.066037670424225287 0.031077937470734 0.52337513893725707 0.38843312031701199 -0.01923552284880976 -0.4154068277831478 -0.15971793870854134 0.4984132220712762 -0.11057530595925152 0.10572803600250757 -0.19706105984869601 0.2208522491494759 -0.18192078393388958 -0.13129506551360778 0.8193897359030291 0.40461244591986645 0.27320527599392364 -0.13238422007880876 0.069571097320474035 -0.12596344883927021 -0.57329209264964354 0.46690940837168243;0.037460831844410757 -0.46611273287828331 -0.23765116198633804 -0.084343389827540596 -0.22756850859817987 0.081023862101603727 -0.85381272764850935 -0.13984686321793546 0.32101764242138225 -0.095489715686023338 -0.38713880584718058 0.26543977348312925 0.15367004801009471 0.99325760585406675 -0.47514920002411182 0.046449202558451384 -0.15361012614194386 -0.26572585328272558 -0.60473842654766263 0.0034216654904687992 -0.74847843613484211 -0.73841522966920869 -0.064234632768456562 -0.53342434406569328 0.64788262455086298 -0.46896881888862618 0.24031888233263182 0.20152355668481692 0.25390274680058039 0.16081819294866892 -0.2444469646006118 0.80167152719654022 -0.7057558661566089 0.1053256350683596 -0.20946518215370225 -0.066274927758689497 0.21059463616921725 -0.92633306423863448 -0.45280971184412522 -0.0037090886245304306 -0.12369796828943097 1.0002577912898776 0.28565013305620357 -0.22284659434017878 -0.282532391271344 -0.1644095630674054 -0.44928376875480636 -0.20914963802366376 -0.63627753124590081 0.27331940125538329 0.89604221133918782 -0.12403489432037956 0.086964642364260575 0.32786990262583798 -0.32563153024144587 0.60143731706646786 -0.18869883201494395 0.51299203303758456 0.43962873205704905 -0.10971363239539987 0.026850544421553622 -0.76845258940591465 -0.33859717972228143 -0.94716786480299042 -0.048900048219583075 -0.31351419929730162 0.21139188962536631 0.28492643904440385 0.5828710300792751 -0.10377406128723375 0.076680050356412136 -0.0096768735601276065 -0.3170721303820821 -0.004531744860008278 -0.90947308158695617 0.22385388714428386 -0.30415039640192648 -0.061437085971383552 0.24947962901097964 -0.19562062396235022 0.45866688715887582 -0.17656785463529109 0.055398523043290411 -0.013533328913071605 0.18646659202685903 0.70317345239899942 0.11203820906033463 -0.58202971817324411 0.48924854793939732 -0.0017654959261479632 0.55071346007180799 -0.025996466013240432 0.25797823924278074 -0.089119095323832026 -0.32058888916899936 0.1493951993435966 -0.095251990872369852 -0.45367048937517268 -0.13914258612784539 0.31385315539410386 -0.37659004585626638 0.13796664175319689 0.010052060419007506 0.28359131884080541 -0.23227133636111164 -0.081002750149324634 -0.71829244729746444 0.22753922339729618 0.14055577517746909 0.15266518504203577 0.20420233092623269 -0.13582127817426012;-0.29676594379422411 0.14727175161893061 -0.67348084442310885 -0.029671397087496325 -0.20953480203442573 -0.50691621311658663 -0.59961296301821432 0.061223419094370207 0.29915655197897273 -0.068398468068744125 -0.17188661463813634 -0.053310926674455653 0.49051173407721838 0.52606116700231353 0.098074640860551357 -0.11446578227636964 -0.19525388399852867 -0.19553599007721142 -0.12947742503648343 -0.15533816253177135 -0.020494422582814021 -0.81819833439849632 0.024513786772169019 -0.052114362206829606 0.046138735316563977 0.48624888061446819 -0.11527820983020663 0.45112813900108484 -0.087879424580591489 0.10197351647862392 0.48031359091822973 0.044294169440023796 0.41967248269161245 -0.21773670338574366 0.055245185098560863 -0.46798627646946539 -0.57081467170625011 -0.0827858142289917 -0.064562809124099479 -0.18769269715202447 -0.40000349876596258 0.54541545349595721 0.18816118706255189 0.32325778653714238 0.12444942399631896 -0.012275586752929932 0.67022576458136029 -0.22225829904848657 -0.078151948503468308 -0.015610724988088503 -0.12935020180360995 -0.29620968939765058 0.042016038361440675 -0.029767081163808693 -0.049762585238789576 0.17146618362323687 -0.27749871735806442 0.13421250847879024 0.70353818004622348 0.27809790432691678 0.19200178696328293 -0.20277996112298258 0.055783560717734652 -0.033474766291631652 0.046329691773898563 -0.051255574129980185 -0.39112772674193635 0.01369748709755777 0.28131854842131487 -0.17859461690863954 -0.088447810997130533 0.021547666266149967 -0.13729078753714058 0.14669426732937813 -0.26087549257779707 -0.056892543030017478 0.55604372284599879 0.067611911493673585 0.042968362127857783 0.33215657701713663 -0.015987831264726967 -0.28469077241767815 -0.18226500210291921 -0.19797123509632156 -0.15995709837115876 -0.070754910809451732 -0.13968321182972018 0.018784861871385766 0.49313521870246901 -0.1510205531742449 0.033852654477354138 -0.045867123467678794 0.202984332529622 -0.15013607334646553 -0.19765692922267636 -0.52396053378552687 0.12366565566012144 -0.091073058555302525 0.12275340873013861 -0.14297502592184314 -0.4280529705558006 0.21970571925641944 0.11576259936608205 0.30070478218615326 0.012704939215928659 -0.23210387043143993 0.13501236818795123 -0.077938643415985068 -0.14539468658378119 0.20132285417117507 -0.23676283821351529 0.04722981823478168;-0.17482107413199774 0.074953017494668844 0.12863700206822024 0.16266800206927914 -0.11800585459598559 -0.062829873386890722 0.1366984484485477 0.072759913163868983 0.38257257977995057 0.007347232602130745 -0.0023135106782173837 -0.24655226421396684 -0.15567565345311307 -0.21139546128889955 -0.22537238743658786 0.1505244233422782 -0.06927799244250632 -0.18345497283754722 -0.033519946354008075 -0.28083798868499443 0.43322265825262568 -0.057990874994780534 0.33565561865984644 0.36136558803819657 -0.019342211469293318 0.20543553577947396 -0.29133732047834887 0.39933422072985775 0.11828099411965071 -0.016497709152933273 -0.29915610377284108 -0.1045261659281623 0.070162570980622035 -0.16604597505576082 -0.34881740455939836 0.19545646043675508 -0.53063680597750118 0.34555491389816134 0.23671284305749923 0.096095675991343069 -0.0048477711088671131 -0.27115898238904629 0.063362536341233539 0.036795110766826095 -0.02310408637749815 0.47397403373481045 -0.19193240128446426 -0.55073587475930519 0.61057470278728077 -0.12121131802423035 -0.52635490412345454 0.18661027577456951 -0.20467094329511593 0.00074302685406784914 0.031016389665098173 -0.60730976491461552 0.06632606744234007 -0.030909054814312002 -0.30584544611041364 -0.27489129010014962 0.26059399985559722 0.22433215020167538 -0.18355048258195472 -0.088473006723264719 -0.018827841813560852 -0.010728543951624951 0.037767196961891049 -0.24393642742484609 -0.16812204083478283 0.25180273394717256 0.23158590268577287 0.032711193649576906 0.41327006129863275 0.32540684816032289 0.21161517271307154 -0.24774220374682909 -0.21605846281122207 0.28431146155347031 -0.10927790905336963 0.54125864284068048 0.56578228668487029 -0.28487071985136164 -0.28245175349812895 -0.29608363524086284 0.26426411902597097 -0.40615423200192735 -0.25652573994440009 0.18876285079124794 0.15375455237117364 0.37518363936354177 0.27861700800291272 -0.1283851958461327 0.068992216576253845 -0.022440275933308901 0.41468238565092064 -0.0076802758926793474 -0.14095852537606821 0.16029226612278408 -0.096989678372980351 0.36884008179677064 -0.01506899878089899 0.12963995452440577 -0.26858426550633546 -0.43521494515248721 0.19771740447307745 -0.48353188744623538 0.05737612987602092 0.085999551892954315 -0.27315013744878958 -0.1358349142386984 0.081087284567101389 0.48962503909069321;0.21304141076362909 0.24475327646752196 -0.10851748766243448 -0.15366353683483011 0.11873711377090979 -0.36032021799397607 -0.065183241279208035 0.14288139395066185 -0.26870000678539435 0.045914757252547039 0.13844691690020719 -0.16398355014417429 -0.21614614916868052 0.082400971841731105 -0.16736892211413487 -0.50055604553543986 -0.083827244495893946 -0.25360162523280205 0.042367777409933693 0.24363346176572603 -0.0048516004741776227 0.28823694544573997 0.039843300691241736 -0.1799323606495403 0.29865160392603957 0.10379407559956944 -0.097180584331569966 -0.16420447690995399 -0.40841475510442221 0.12058203470002651 -0.26650529157258557 -0.14462638905674025 0.046369178529242876 0.011743035790527726 -0.021842527457500711 0.3971876971557185 0.10114092687124211 0.41966718761320598 -0.043426414950457161 -0.22416110998794792 0.32004922540880154 0.069988188442938817 0.059811206876969766 -0.062901813514319102 -0.14473976468761968 0.12885917182499626 0.0722656136634275 0.19896404400900677 0.41181853371789129 0.58420266221888306 -0.55735376897717681 0.15367898319966938 0.12268833612337499 -0.22745590293308438 -0.018900829150977121 0.083991888149459099 0.36274749378766302 0.30409107479632397 -0.61040982364697216 -0.12797770619826582 0.054995188567819084 0.24068861887403281 -0.43752780078124276 -0.58193746300721316 0.19265642331357374 -0.2909386265580397 -0.26156130040659104 0.047890107163299486 -0.19372427620840632 -0.097175105652735794 0.29702921555824852 -0.16143792156133377 0.10900249255393593 -0.0051468382847189862 -0.21441545379986371 -0.36335747501079629 -0.15408286952600328 -0.034193261233126097 -0.11007565059216862 0.44095227425839412 0.29683085924062946 -0.061481453910904711 -0.073403531541695877 0.35625166738046643 -0.33857637577262067 0.1954460909476661 -0.087465004269065866 0.21598168681032887 -0.13118722508641192 -0.19173668286480702 -0.17015073476293399 -0.18009753548456475 0.16890472866879441 0.077452453598332915 -0.11435071758390218 0.16980952111047803 -0.071486462788990318 0.23362251637235182 -0.037755530592190834 -0.033163357679026617 0.16946998000892449 0.20317128726046965 -0.12063050551432333 0.38629809253077141 -0.41802453451391952 0.013517672493737075 0.29108797936050462 -0.23796050916717532 -0.45275539641003537 0.088575351476505179 0.43653278551391195 -0.14879696959248351;0.070348268013920343 0.67890270293039956 0.13249801133306333 -0.23568561016751566 0.31252190220594356 0.29100339929467905 0.59298033282426943 0.1481536638431146 0.21851784863578577 0.055401584420722523 0.28683099968099907 -0.57975863884044065 -0.17114194020156201 -0.28114919442527248 0.092294236642027142 -0.080310308720342685 -0.27030514797772026 0.31514365893606355 0.33570975931554475 0.89938378112315209 0.074472116307603545 0.49736598501465495 0.52766342445697301 -0.13324130265455411 -0.34388322401058774 0.063756417631024881 -0.58860048887972971 -0.38798117449471198 -0.22470229014882531 0.24522545787118638 -0.36353169591748952 0.076968783102682528 -0.25857748648953011 -0.70212670062734794 -0.11979689142975092 0.072956930127793806 -0.28258379489499169 0.041681175900467014 -0.11124370995557147 0.25499327901408525 -0.11062303334539188 0.082573101655938938 0.61414588432108408 0.24325155587192451 0.044983433792948259 0.064216925648297313 -0.13632017123817575 0.048945309176631688 0.4276633952925063 -0.16715538551492271 -0.68917936708279837 0.13646723745892833 0.32183733993145408 -0.060826407102630861 0.020277210858807963 -0.49533572619381577 0.43855400623065921 -0.099065848363034878 -0.46336166524545047 -0.087773005047881256 0.11243954701811312 0.034082266314285042 0.25720743434497706 0.42552836595883481 -0.76346127298425059 0.066941774549031607 -0.3033591840000005 -0.38260189693300839 -0.92617596510889311 0.070135788723866874 0.47877804003776708 -0.19876354320330836 -0.084020737073617735 0.35321666726621109 -0.30009847846428217 -0.0095516830166879479 0.2632712574342827 0.11437598497935021 0.19690144651990085 0.4759310017958463 -0.21578217388532087 0.41463888717751179 0.019602501896806283 -0.10834652714312955 0.37353923960193108 -0.53950234619639514 -0.19725111252563443 0.014662030546465281 0.17668601211202495 0.64349653752707048 0.035163413691878698 0.15900882096592267 -1.0483168604922204 -0.026396436962124847 0.17998833673901882 -0.92015590356240151 -0.16357896890551735 -0.20907327426977565 -0.57006274873564877 0.032534960168504726 0.3982427483894726 0.041580389706709374 -0.047616140579600542 -0.43283894073284995 0.34377734826006223 0.20066366604650876 -0.011250215897410489 0.11771702360398012 -0.57151063395590762 0.01824134163881869 0.31851820218500021 0.39171362751054334;0.17583960516259975 -0.34638198449017665 0.27862943686776737 -0.018779570616832747 -0.24212153809134565 -0.0062848342331823862 0.3963493577877143 0.23119167019696629 -0.021752350749893543 0.31615060807096673 -0.13319725153377693 0.076866707956844624 -0.37680104347515458 0.12453755539733487 -0.071946099837240721 -0.15841618001950938 0.034859073956326016 0.077618102545262718 -0.0148393746001169 -0.17497831075439738 -0.040403412548567975 -0.087959857415705139 -0.10687404588604976 -0.068437008819558942 0.019984665810555677 -0.090768529684582155 0.16804603305757845 0.3413295274034851 -0.035548987314821485 0.081726200179484898 -0.101254841603639 -0.096741772849981325 0.32788502589826696 -0.40774619927472816 0.088436159942762105 -0.033116428548822394 0.16696627908640518 -0.38362603450186589 0.047388444888640413 -0.23556923444848682 -0.18790350833398481 0.13473672870099743 0.060877269201894818 -0.25137450124014948 -0.040146239278928575 -0.075699090281112755 0.1276997968107082 -0.25813831914903912 0.027797438996311891 -0.18008392122657213 -0.03323992317876942 -0.044892906492591138 -0.36453207229965201 -0.029346120543299326 0.0029015103904948577 0.2776470664520217 0.16623024684902074 -0.26257145816459965 0.12949529010698857 0.27832727681774272 0.21560522745233457 -0.045141573206557178 0.085912615924147215 -0.019289954766437436 0.025972978741775427 0.14453583771345488 -0.18407244692883271 0.15856566455214119 0.53535808306606025 0.049347235569198247 0.28190884300401631 0.051242177415436449 -0.23367491144203734 0.37909006535242751 -0.028438270311010708 0.10763176525085157 -0.12126355623195627 0.093861856380286227 -0.030609423252127736 0.070785853239263244 0.29241378161149134 0.029260820749927235 -0.098686203040766321 0.17704044796034965 0.21129489794821249 -0.084252046544299769 0.11341714829780436 -0.35308636256700621 0.094663840726817355 0.23834237619712986 0.31958199960139394 0.16577275782403961 -0.10809906636786021 -0.13602482150108131 -0.011847714021436884 0.16056683078635012 -0.10579315068768713 0.066804989315037949 -0.043947233487105858 0.12523238296308475 0.071336920169331422 0.021626058895351855 0.075833730451885406 0.048765846038657731 0.33330019543774209 0.2120729425079198 0.19688174572691136 0.16145360504786196 -0.14132367464374104 -0.42237350795240691 0.044558022621639846 -0.022482904127664998;-0.28634582780326112 0.53041305024633034 -0.16754518915659886 -0.59031731662972464 0.14246870292490782 -0.28208887343748007 -0.41984560303851687 0.22706354631722345 -0.11473545158402211 0.45667759899243665 -0.066993984714258686 -0.092495462420851382 0.13799337690792252 1.3678791319251817 0.17690513643555419 -0.18899296335836946 0.076931209377318413 -0.40324687347888971 -0.23385488788789749 0.58948084958276337 -0.65400653096356254 -0.52986339493994605 -0.054889552912557017 -0.32007594120302868 0.91774843262294292 -0.25640737815487041 -0.46041602132436565 0.35641904177478029 0.19559372496000485 0.27443811668538109 1.0229789972807288 0.95502652611375982 0.1776202037800092 0.70154227774191269 0.6145524126919969 0.42713298524857851 0.01766808267875318 -0.36882744830468328 0.058957640780385796 -0.38279371925050387 -0.20801518291514937 0.79307527945417589 -0.12374280258116514 -0.87460076715656265 -0.058219058338450008 -0.47660932723419774 -0.0010740767903632317 0.17329257237029363 -0.27869428297954435 0.24975515747107349 0.59145224023575249 0.091862848129028465 -0.1403267382263727 0.1396084312517826 -0.25879227054112464 0.51257335330041798 -0.43504501895788611 0.44879851815574839 0.28790899436988526 -0.23239202769809036 -0.36741024115994625 -0.20831038353375572 -0.2748854954953559 -0.3070461151496704 -0.32805753495799073 -0.25645532936261145 -0.70504727645748388 0.61799883717867143 -0.081772765411467246 0.12469309882523008 0.03196756393425574 -0.15423393783166461 0.11795976714100655 0.051676082302306518 -1.2539108644071566 0.31362834505815057 -0.43388304232148134 -0.261982863819329 0.11821345411976227 -0.19873804869351155 -0.053816869286382393 -0.02088584924582482 0.24500214880074306 0.24767858601425161 -0.055172846880733505 1.1540302446672213 0.36061971834158796 -0.32690098721930616 -0.14655187232119096 0.076772579040734132 -0.021868180778649701 -0.057102843552403339 -0.33639798311791919 0.15268385299580395 -0.33280661657021704 0.62082910858731699 0.19571776514625044 -0.85847267087707635 -0.39655592142121454 0.17368786435176309 -0.25483696090728331 0.090549113653713958 0.12955482445740737 0.14139279974129007 -0.25220417331650208 0.024807038905965889 -0.56914719193968089 0.14175262293313085 0.15679440684499252 0.095098115696939406 -0.03653593059942347 0.057997969338838523;0.078641218000126634 -0.10383575602954778 0.15422876729946686 0.033342875996143009 0.024325295176480764 -0.0014689571450800462 -0.17941516003634927 -0.068593368015173406 0.047630879363677409 0.097400422073658705 -0.15247124523759623 -0.084914671671823191 0.020715044626418974 0.066995143010893238 0.12683750597185131 -0.085698574239526232 -0.044904983677326288 0.17477591674448098 -0.010732424531851987 -0.065229782676448161 0.10832654388653915 -0.055501304397869662 0.016065151614497755 0.20890043017250651 -0.16601905632043026 -0.13543414471894677 0.18138030894730711 0.010546084415531818 -0.032046497747576438 0.056887984460643651 0.3119871271549664 -0.087199671094528253 -0.016115634428911976 -0.044178489998479974 -0.095082008008253491 0.27201420901047013 -0.097213410405125947 0.67654663786163383 -0.074712842534498211 0.00077964783504282022 -0.084030356369043352 -0.31041978522673747 0.18256520144540844 -0.18105204661287669 -0.047516412439219245 0.26422346431360033 -0.023747832627326836 -0.10040206926888313 0.070269158903964166 0.10575196812832695 -0.34820108436618619 0.17283516708732105 -0.029334796349727115 -0.14268492032268704 0.063337060120091895 0.01964346163047391 -0.096362377299966023 0.14042793098662143 -0.41266069593120941 0.0014654335215766306 0.035483212963682786 -0.31915550992622593 -0.39558913629726622 -0.39823276104889066 0.26648842212590407 -0.17924989403597658 0.028453661024960716 0.10376795352284589 -0.062712311551958388 -0.078619401083836332 -0.44067109603044463 -0.068811753144826779 -0.37027275437867968 0.082114864073467866 -0.082019057471185292 -0.01929201083773411 0.26402812286129701 -0.47693453926449336 -0.005833962500952832 0.10039763698061173 0.030998663292711712 -0.072057010052524059 0.044861249969419204 0.39517488823080898 0.15735383127696362 0.11976075348061736 0.13764657837038632 0.059056141294778763 0.088150113862371426 -0.24968840439451198 -0.34967126814848698 0.037308321576140786 -0.14392383715425289 -0.012872619191847508 -0.025509869929570009 -0.16076670719250161 0.13200556851036507 0.18753345118487391 0.042302009489537523 0.020739526330598886 -0.051817861101837497 -0.20828356805477552 0.27163399163934898 -0.051735873851648517 0.055439453710176723 0.012610676393611846 -0.083654516296966561 0.068506847087257267 -0.2887097517759904 -0.10760020101337228 -0.16538476585177211 -0.075262083813684905;-0.039371062203622235 0.026224349839015115 0.035023967064255673 -0.24840923797393524 0.13158604459592096 0.013408216845233406 0.0064815085245328499 0.07200334790939561 -0.24803567335786031 -0.17354900072390694 -0.017260626275305956 -0.059574475857696596 -0.25356911718189207 -0.061116953874738721 -0.14384408240558019 0.034105723682367813 0.075642931310978517 0.11854250768810345 0.17314227338033186 0.17373714591419429 -0.16565963323667118 -0.035706251123004844 0.32259875168251184 0.018654587916195998 0.048029817197665199 -0.076408802087397254 0.46799241645833228 -0.26200125552709186 -0.18096540345054443 -0.22960781545697515 0.060217328847834296 0.021891774164828248 0.059109931996207447 0.072978190844541171 0.17305100153934413 0.006440474475910141 0.17873539742871714 -0.38448474864622773 0.10970851641739915 -0.030225326778250097 0.063747412953956126 -0.21388680762410092 0.0058951911435907089 0.091752827432370898 0.15889962439700062 -0.19518966260592424 0.0076204910258365049 0.21127126946335884 0.034656508191452114 0.30162934141931819 0.026299924011475295 0.081522529194384852 0.068540970357113692 -0.22849427757871468 -0.095138458515776833 0.017582409757932269 0.27884114546924055 0.11517283636505056 0.24503736306635981 -0.12988275851900979 -0.19562921425040841 -0.14609597041391581 -0.25008443683990156 0.092300032930478434 -0.12491599873349638 -0.28697945576403217 0.19420565835129558 -0.2055761764094611 0.15011039259340556 -0.38284879592669852 -0.11222532465356348 0.28760715925118846 -0.051232116802612027 -0.11071566092333322 -0.15131031717896543 -0.12826744450576111 0.20482266958192036 -0.025268394052650651 0.012075411101061251 -0.07717408366329763 -0.16121833379201758 -0.25421398967717634 0.091732308668146176 0.15684383589436507 -0.17312795838014639 0.31371305594303461 0.17422391756811406 -0.00025805472398217913 -0.15611717993006016 0.051566769584295971 0.084014427714079937 0.11382184260698451 0.033595650129674262 0.022684550032525942 -0.23971110130552817 -0.0032223416293627734 0.010690621868702149 0.014778773058752028 0.26831813769203045 0.068747814076190086 0.17892516697259472 0.21345974345267116 -0.045829448088184559 -0.030464157332660936 0.10553441652505792 -0.28024730914312257 -0.094146549510069455 0.044035780385860063 0.006800126125013844 0.34392744545883314 0.16269069356116464 -0.11701499666878064;0.51587451930843753 0.077185318515915716 -0.28546826586005036 -0.19063837210622639 0.28456036850700911 -0.24989315178493762 0.52101504763546236 -0.34771876150313114 -0.37491169380482564 -0.15584980456391831 -0.2170794793922643 0.5215532718198802 -0.081095563683455538 -0.038815191012688752 -0.33637378430151477 -0.35760310510459292 0.62562890283699224 0.14796634172677411 0.49511089840646361 0.10588446911471008 -0.23589158218748965 -0.047507019696127646 -0.35098025817033179 0.6932581245425653 0.055608125691728828 -0.0035717600522773337 0.56463817562963026 0.77494752028251424 0.15521262257862781 0.57185861188577902 1.051851361145212 0.53590061446174975 0.095961273456131313 0.6087360244780331 0.80644870182136719 -0.065903871937775471 0.18008589204409395 0.23306341340292591 -0.12658956659861575 0.053802088913973249 0.50343928012520955 0.037867174803102345 -0.064718293115839112 -0.45280454470778614 -0.30455979358464969 -0.15510496855070716 0.24231666400141497 -0.35450191197506409 0.34176671304795481 -0.32296792176745143 0.29340387478266189 -0.11128022648245703 0.066656204988106399 -0.20108377806189237 -0.82177266659045134 0.41988230684124633 -0.34742616984852315 0.31312338984088389 0.17379420873578624 -0.30241652613132758 0.12775449658898269 -0.31677085049387388 -0.2964064513455425 -0.64776796980723284 0.67148119742946744 -0.27658619305516258 0.20574579242703056 0.40036817145698583 0.50831036156629827 0.94477731929333719 -0.66355076748864239 -0.026644928557935106 -0.2527578089214641 -0.20487800997205377 -0.98343109729805844 0.40497915017394653 -0.78517009148244932 -0.19156538710792681 0.73131138287492325 -0.086766329214987767 -0.023878714958614208 0.40607467936103464 -0.21617251561958065 0.62427529777836777 -0.63387136705865821 -0.062020815488853777 0.29304415808651701 -0.13652325568338061 -0.25062305873853652 -0.73662567531116663 0.14469105027432841 0.043774583499723359 0.79291852257167228 -0.46069794277923576 -0.42324400877731944 1.461867814909221 -0.91954012476080549 0.24210936988901904 -0.32736253295296736 0.17642729373313909 0.05719368320370509 0.21129844283052274 -0.099979883262590871 0.18597982251295719 -0.051753107136528829 0.085381662989000434 -0.41543040486716909 0.10504633915409536 0.31071246637106553 0.045044054408265782 0.026295940798768916 -0.06892677946540314;-0.3209443876783718 -0.18289789910213924 -0.07422227488557015 0.037874124829930356 -0.22244027715817291 -1.0737050874860916 -0.13635763139022836 0.4789731857946572 0.1160590189725557 0.11834546787585531 0.029633334691462353 0.045026030746448072 0.60521419920389374 0.5936843182666719 0.075511228627542448 -0.10786424078223478 0.069646452747100254 -0.27537634040595471 -0.10061288913645551 0.3267543318314633 -0.22670280512787816 -0.63172112404976966 0.3525392153787712 -0.19542969944103999 0.59972545396893162 0.046194852456407316 0.49070589227976347 0.22994716618026073 0.37325888925673956 -0.0022403970398702372 0.20430828706745346 0.1835887962084575 0.27502727508627378 0.25021416831633908 0.17350894010395382 -0.37046124275654363 -0.20328420187833185 -0.069995580661186427 -0.37995011144479768 -0.2384403387606352 -0.27917184467719908 0.53911687484277016 -0.34382640138147241 -0.19065844626912143 -0.09005307184256231 -0.097721024115488497 0.041627168250082794 0.15997859841499532 -0.45165446458496994 -0.19020110732778805 0.3378395534281643 0.2277393872460286 -0.1273187806021954 0.22435643146540679 0.016130702365647728 0.1644407298776569 -0.15407412655701194 0.16343591729910156 0.1804550282504096 -0.45660724518507201 -0.59600321439787451 -0.42236973149903123 -0.28002019926583488 -0.0058733829683890381 0.063049269275869721 0.26866977548737675 0.53445484159247325 0.15390508138354742 0.076276830897989284 -0.077770704050702355 -0.21309033006733569 0.095390066338251048 0.48382253696700106 0.069022071294741721 0.077860030046058543 -0.24116566388920921 -0.49507717051346806 0.21285926796661911 0.10324548755888314 -0.38054952149414922 -0.59646294849016357 -0.13871689155780953 0.24071280832758341 -0.133496290545256 0.13256936081711579 -0.020837315777608143 -0.22862612356229525 -0.0046431541193640334 0.41894965609488793 0.044958147643616164 0.2265721506118219 -0.071885989867081931 0.50743038297869825 0.051335976913962876 0.19701843550390158 0.2742708343053713 0.67329337526856592 -1.1702417753909624 0.07793053869275994 -0.47969374874599652 -0.15795700156937179 -0.016361130262995113 -0.18600680670681902 0.31943344429012005 0.10228208668024 0.054201518895314563 -0.24688385488602227 -0.096485297607133771 0.21620199397962514 -0.32205695668620288 -0.38286612839855089 0.16579627021507909;-0.092695070761647957 0.15137046200502305 -0.032004409117091619 0.11895083974249281 -0.19745108780700024 -0.34369274260976634 -0.062426889693453294 0.29427436143476887 0.10760849829811783 -0.046261129816352685 0.033075878811009395 0.10509528914812692 0.0029542787576045774 0.12115626443240902 -0.081789507169237427 -0.18584928869679349 0.27726726715453437 -0.14187694095451073 -0.12468391600456535 -0.23881270651845551 0.22071071821767807 0.060358318470351897 0.0012077646730945853 0.15404635201806474 -0.035276549822300815 -0.011923088251447951 -0.057194780254242537 0.16850060920100582 0.0053212824289613492 0.20207369767744909 0.18150082017515798 -0.17544984345015494 -0.15981077541851996 0.23779151464239684 -0.13994783714941589 0.33679933709284049 0.15440435088189486 0.025399133697787291 -0.12554223366512066 0.021158239209865839 0.12951610704999239 0.0042807374613913077 -0.099947604876793383 -0.054138789880639387 0.011222906667988142 -0.085172193835784393 0.22410573350458002 -0.084233047868957647 -0.082470201869264834 -0.035177588184979784 -0.050873958147027498 0.20524286290222196 -0.17436362660785037 0.09792448470876508 0.048372950292124822 0.3630366874675599 -0.17718969286549152 0.15760067310733464 -0.10552191364835174 -0.072156087558405954 0.21235309121909288 0.14556417857468135 0.16724168523729274 0.19185582456791814 -0.022209419439715394 -0.011656042951391263 0.31676644149336763 -0.15879504910989226 0.07323251687243032 0.10756130069082609 0.074227283156507798 -0.013235052098650342 -0.052846549830003066 -0.099073602744340433 -0.035525305910001172 0.088024675875173888 0.17322829818211452 -0.16606368151928172 0.036921541431079286 -0.35670882512533053 -0.28496384845322509 -0.32085724657583015 0.022233033138343086 -0.056971673437484542 -0.056673535935103429 -0.037340648838641036 -0.14994321559602694 -0.025619845803103523 0.13827717392514577 0.19253886188003699 -0.017876818117154331 -0.089716700305554009 0.38353938635034063 -0.11876676003248307 0.17795960091369808 0.32899987256860869 -0.015157521042182282 0.040433581209830649 -0.17080711750744315 -0.35715907785181206 -0.19984962803776343 -0.33417077867523287 0.42523154856093004 -0.31951042501879079 -0.019490039284359061 0.15221354644309207 -0.39388689236177732 0.18856790406946949 0.37404395302635829 -0.45270232102719282 -0.060753925908630213 -0.05390705215999466;0.15942107655817911 -0.11295359861934068 0.50586597715905857 -0.14634371891467701 0.24738900916460069 2.0222867454635169 0.30862295003281809 -0.42466633394737074 0.049154057041149446 -0.5779203356813708 0.0044311678021891326 0.16267158514140442 -0.76295031954645109 -0.47550829988951748 0.15765318680454568 0.79353681531702736 -0.12364591574501455 0.6969304507838241 -0.26093800639268649 0.12258242988330012 -0.044588151106371342 0.63992274058784682 -0.016524992459074527 0.15337847832774321 -0.078331886996859751 -0.34314335860023643 -0.1914049250256179 -0.57095783888824958 0.075953763649661832 -0.22874551914533237 -0.54849831283755734 -0.019626232909595594 0.059098316425506128 -0.52593792428899477 0.30998356777493613 0.21795530056215706 0.49190287943806371 -0.27875280120644025 0.19032397764761375 0.14972035142341408 0.40191925841592469 -0.10556720209274927 0.19826140071566212 0.71402120713875439 0.053796699873993541 -0.12092877957653264 -0.044490911438609573 0.11753943087102739 0.31131800229986561 -0.038982915234795711 -0.45166139331333777 0.24735140864433106 0.44749538713266018 -0.027507354140442884 0.40197066171129409 -0.26257746241838187 0.5829181255113971 -0.047679340629293007 -0.45358714201314232 0.41690018730619188 -0.14657620293179363 -0.11498744540987732 0.057050843496381301 -0.17180678273923827 -0.45034522828929341 0.30429567275538644 -0.3568439155402035 -0.27553308165709306 -0.21787763609158181 0.0076417437845578331 0.25620395306685217 -0.71024551259389068 0.29151440754025559 -0.19455084163009645 -0.15677826426268876 -0.48627547350803763 -0.10897206144213692 0.3713354467748835 -0.3847664220570729 0.21214781627740584 0.17979387481127185 0.84516797427531443 -0.095015233025212878 0.32404785317213569 0.075096355366367926 0.14866109169362543 0.11065178267460399 -0.28867612435565249 -0.14047262751539788 0.078362303711981843 -0.48324164813517972 -0.17784814824891532 -1.2331454968154205 0.36240412637612074 0.16976962954938471 -0.33512755788551707 0.020382232491414336 0.53252228916607536 -0.01664210082644977 -0.069903075273508697 0.6362161240574592 -0.10012145092512487 -0.10883828872850235 -0.042669852340865712 0.016543588949933807 0.23303208163879235 0.12258045582958747 -0.030132350198701481 -0.32365100012753423 -0.012351328200769136 0.80603401067771108 -0.14238629488419591;0.54545004275955167 0.38195709206342121 0.14022701197266962 -0.31671451721393318 0.30511388365164732 0.08970286515974242 -0.073992398825784969 -0.26303885590681386 -0.045826340244546925 0.06288267905862914 0.069140228464727602 0.16292745143979667 0.027275297959087518 -0.084090170480808038 0.0042487266179242972 0.11795784113097291 -0.0056374841402335694 -0.053807507785113527 -0.042407449592329713 0.19874262103084128 0.007914613107615584 0.43220469132851769 0.11970451334920021 0.21027103600560923 0.38760478729897729 -0.14368059139074396 0.12459215882474052 -0.31417780850732296 0.096954199317541401 -0.081160115439291386 -0.051456223869857973 -0.34067320569527654 0.10723375143285406 0.32260313278647423 0.49164972487692571 0.57694332712895224 0.34944412648678097 -0.33159518770518109 0.22141755685881589 0.10015408355008247 0.12482363370025427 0.2920855300369864 -0.26225704992895282 0.30235222163031211 0.0091233968421701589 -0.41296382719929842 0.29887069531060145 0.33744845187904698 -0.088385253109516337 -0.0047621799766134074 0.13673271470154399 0.32909761540685045 -0.13793023939855109 -0.12437873364258487 -0.65206487283126191 0.47066119226630243 -0.0032090432054515104 -0.21784923440491141 0.24841888291108019 -0.16489477383354478 0.074220429011587416 -0.37614029018443212 0.11098127943967624 -0.21075794649163501 0.23578324474614973 0.15726332724636766 0.23542058906952476 0.03987655833049427 -0.013419884532349359 -0.11635598013042268 -0.24543871072550139 -0.27702347895357282 -0.34344747169585843 -0.36090945501085825 -0.39993646237168468 0.21692307862307986 0.13222491444605158 0.12947935388002182 0.48647740801383621 -0.33917929571310079 -0.4525857904885226 -0.038433443775982915 0.031194949183449724 0.43278683247902194 -0.68948060766361707 0.3907386062751585 0.042761712748348522 -0.092603962195186795 -0.40795904190748894 -0.25540809834637462 -0.22145166166026797 0.069414183628235551 0.035336874812240834 -0.16182291689386349 -0.41629999584767718 0.14448701356515309 -0.46403775913371947 0.21677807795029799 0.012685216002177722 0.14202484610456337 0.15139893874173993 -0.22292689399153379 -0.18644061734225709 0.24953915937297794 -0.23792687108368754 -0.039213505107761011 -0.15830094137781878 0.20397283463463345 0.13854100813664683 -0.055153425855313562 0.028086004620034001 0.074009143753424017;-0.21349694282775836 0.020935977546496926 0.41068904740614692 -0.043274151991982125 -0.30988336071536304 -0.30069475633500692 0.13825896249200606 -0.17631416563880359 0.17571274735307121 -0.066490282124971725 -0.094106558621073463 -0.46400871950959832 0.07554200520028892 -0.58015746577833793 0.0090798829855301827 0.20078968810853431 0.14288073082057981 -0.05967991306932479 -0.2621160936701587 -0.1189522850121337 -0.0540235357225314 0.23025663551552183 -0.0077999784611528069 0.35389322977879717 0.071399152590242654 0.24864247803270786 0.14095188991849492 -0.32116519099795349 -0.18061481126939891 -0.10546159074616694 0.52221963103884406 -0.10100645784150043 0.075991212994007989 0.50496361325558714 0.39022011920502353 0.06939640435036383 0.19582781542850239 -0.053097030529777406 -0.21980152404076017 -0.073206397034908499 0.21288824320142111 -0.095102390968622941 -0.51163995876000368 -0.18282730563351815 0.17474869438819382 -0.33447702949738323 -0.0090719465310966068 -0.46772453964796423 -0.096524307887626476 0.10660929533560159 0.23503894894978664 -0.061942611150880109 0.036142427898970785 0.17858606038809952 0.083723191928519305 0.39198344275075525 0.069623635493119382 -0.027485816004194884 0.26235998499490604 -0.13217507919514926 0.10494703178521497 0.48604544697512891 0.40332240182035095 0.81514508010788811 0.36169935112381196 0.34082994352343748 0.98492697379245653 -0.38301356650192048 -0.061182547764404571 0.12949738898150123 0.0025177788240201182 0.27871209804968389 0.11152526094956235 0.019913833861637337 -0.11054832676185088 0.25178884129963713 -0.17166428437319214 0.67946984265271504 0.052603600440392355 -0.82862577840010432 -0.38537031900701063 -0.060871102374002395 0.004899670770161433 0.23242564434523053 -0.088875919034032136 -0.43521708694522421 -0.36844511518091289 0.48544442243256658 0.42786960398040569 -0.33339125803819186 0.35691421633976972 -0.16574977793945928 0.53171615171674758 -0.016143111072891982 0.29711626692120097 -0.058074442786794293 0.080593570687160082 0.43649955899694087 -0.32970795834762251 0.11225507089025337 -0.031515619385307427 -0.0079948561876937805 0.069168036686895584 -0.22279126340478822 0.090460688437434239 0.29706025353507037 0.1316426096540316 -0.042506191169159324 0.1826804858974336 -0.47010930996130085 0.20323025767614841 0.010817663899048858;-0.34930847049779373 -0.032104474288849896 -0.052347338979881364 0.40304969093530851 -0.17719367024940208 0.084104815430527863 -0.12224832218688739 0.044117243488202097 0.19015058534298479 -0.29771997421763308 0.12162504929315215 0.028731257631598499 -0.014502313235801716 0.18140942930597667 -0.069035745089296163 -0.22600490924015934 -0.13268133143804139 0.082106381085459756 0.031596727301559685 -0.037681830899329402 0.2153414402048632 0.028807946514648613 0.13570113601221753 0.16902924600997526 0.099033449495376583 0.23458724240033094 -0.23644478345412862 0.22316297796792856 0.12281219948897605 0.23718364568536107 -0.15369263376739345 -0.34089600663856362 -0.24501722631688808 -0.039156820557946857 -0.1427311323675223 -0.18134936056321582 -0.10792094223320299 0.25818210296040767 0.0083622441614611704 0.1158018368731879 -0.013924918630704986 -0.082507298963932801 0.18020830527765716 0.055954186430203251 -0.2543251739808377 0.0038782711534113765 -0.056285439723734614 -0.13633429474535569 0.1551953415138875 0.29201269974295518 0.12340764129071088 -0.1740426450250451 0.17603135293742009 -0.081378637833612363 0.019181792616198616 -0.42316051479829747 0.14621287197177465 -0.047885641065014271 -0.058609597123005279 -0.084890410524232143 -0.22826662529185393 -0.15331101330253988 -0.16099981205437919 -0.17636726991155313 0.2147686090252543 -0.098753622909175179 -0.28239062651597047 0.14138217057134153 -0.16323682828845754 -0.28824780615013562 0.098409516542729752 -0.24218483928833393 0.051213517577235329 0.34913147112702336 0.11258265435566804 -0.31426711744409491 0.3152075176521601 0.12806570431458281 -0.15504137017586633 -0.13666827178111682 -0.067687218410336203 0.17677517085948694 0.041428806120039699 -0.34094477865495593 0.3319652648959911 -0.41363472755572145 -0.11957729313149854 0.07042999854821877 -0.0092827085570837704 0.17446535319347073 -0.04420848135993919 -0.19416434539144109 0.29780288270639615 -0.088644392983807066 0.41856647575736677 -0.29452861263780511 0.038264707739988538 -0.12241447329187498 0.049997773748751195 -0.44689927196423068 -0.21294641122278063 -0.35333577126392551 0.18599893990344957 -0.24863888531774084 0.11410306583509461 0.36180659875020948 -0.081101575967031311 -0.10466252323310694 -0.11593672871931426 -0.29525503110352203 -0.30077887320374702 0.14381812089738286;0.044916313062082165 0.025115859765292171 -0.0044108546735682546 0.054247402188526334 -0.0023527088787249498 0.11898889713691758 -0.087063640016587673 0.058780331071212215 0.033089170229019728 -0.42466839950467017 -0.020841165713601895 0.0099947396926769634 0.079392894727730867 -0.046023568717894522 -0.096972242037246331 0.10208799404175932 -0.0053700141400833202 -0.015612493093791365 0.047686692748126883 -0.033747300132129801 -0.20995241792924799 0.045131978439051403 -0.013493485722575846 0.0032895395263242279 -0.28099221568614302 -0.035916383496947306 -0.038890208628977956 -0.15431209987262559 -0.028842868934085053 0.0144120847343865 -0.046992424215508956 0.055017501105016318 -0.71689740360147758 0.070852035536332167 0.0021471402056083659 0.01362821778359846 -0.002291949219438733 0.18043812422920347 -0.021591728813705031 -0.036786617105526484 0.11632096359752128 0.10376470639848646 -0.024356300645855762 -0.072156852323214102 0.00057692560271516515 -0.051978900385155062 0.12830227291377561 0.042663943637809849 0.1276465517158584 -0.19742675637218168 0.039393370434382249 -0.25994558102854637 0.0020705289802630555 -0.0052999370631749872 -0.064434498236800003 0.047717621187217472 0.0656727226698674 -0.09825679871715777 0.12767145296260454 -0.10025117985627782 -0.014345889825250719 -0.2595507265970628 -0.16350538316143742 0.099129681842177589 0.012840046431509123 -0.017860321398345126 0.054302065211073211 -0.14549932828847417 -0.0056551095741561846 0.10250500947009386 -0.91475491817167576 -0.074763102683876065 0.1745377338023717 0.10706099824216991 0.013939409374800154 -0.078987374839738403 0.0017453487525365 -0.67932402785198609 -0.0069824082942384711 -0.17096642851244326 -0.047937466381853179 0.011005995788276145 0.011561429900672618 0.012641916350398475 0.0413773094078193 0.025324979469703447 0.023780873352749685 -0.11864259634834744 -0.0026309890611379812 0.049545541000081961 0.0062497268476263395 -0.020976724282156158 0.034616824945228879 0.038049190458327581 0.030785949262976637 -0.00015079639549668385 0.024766089244448068 0.013434423404871977 0.009414747458261102 0.017131124957256542 0.024032615794821112 -0.02176827751503934 -0.043174288133392816 -0.010523709708270042 0.034552794837748466 -0.025621745709226269 0.043501144217387905 0.080067534453400882 0.019405319980922511 0.034296041387867265 0.066420580937049598 0.022657822191761896;-0.28076306093439379 0.53336333798960001 -0.30908279795797522 0.51621531481305361 -0.1184236274232269 -0.13121554837976868 1.1405999404089662 0.083974568136499506 0.021945702994895011 0.79250112402640793 -0.51004851824402175 0.17421630095023372 -0.58522117419809982 -0.2813347326886681 -0.018607347507888061 -0.057125255731296024 -0.658530890103731 -0.26237197733257672 -0.44674102059785309 -0.029129748666550243 -0.11313947977977576 0.63396276922701511 0.63954194224436922 -0.20624464105464088 -0.64868127333311065 0.15489353073911713 -0.16139514652804701 0.21764936039875662 -0.74062488034781981 -0.31163194971940633 -0.88752964137013735 -0.34715844055760087 -0.31816910446795893 -0.44043398471500772 -0.69103044444748585 -0.36250522820354464 -0.85440008297727721 1.0016509507853892 -0.29826063829099536 0.063606766983082069 -0.1636364563633077 -0.80715699718052214 -0.10261622507325341 0.28364059437667249 0.19419192433449145 0.16968354486594364 -0.51561217965022377 -0.67483961178465746 0.29248051247480056 0.35605215173238425 -0.91024755630602272 -0.36619050563973304 0.1627614743482077 -0.60453119999821037 0.35636027588782127 0.28993176616580557 0.055328807568096147 -0.14596509186101073 -0.38503269381074107 -0.90400885746241322 0.57270475811989829 -0.19163891612997899 0.055821739697329599 -0.17061535959082233 -0.41126674884087272 0.14919976942437196 -0.85838821946717003 -0.1565435177772852 -0.47408204302710694 -0.073021510538847617 0.45527119666654342 0.30605828844373434 -0.3906625981177444 0.1190419472149883 0.16777288723445252 -0.19348071583402393 -0.013759642703377708 0.27523903871833855 0.059504730865980869 0.45532543739445019 0.36321092990208576 0.47682752780120297 -0.52647956890452352 -0.60104119652205112 0.92071132069275774 -0.62864223590750268 -0.16495428231041473 0.57008027455271171 0.97704882858274777 0.21235671549679822 -0.16310014753031202 0.27068382303121225 -0.48249112987220877 0.48625953548613082 -0.48052766490933463 -0.1515061385015064 0.96753970975815329 -0.84466686751762365 -0.54746481345572107 0.11297865352877666 0.46479713427789354 -0.061536709880672259 -0.22126115220433856 -0.55131465607076213 -0.038956851321390845 0.64157414365410026 -0.10093432176320585 0.42333111895616954 -0.5300567466409557 -0.18991603081616298 -0.1339347463268438 0.74116331672993419;-0.11214153044707072 -0.22378266355815868 -0.22748152034653016 0.083936563200933928 0.051414182211171722 0.465659800234414 -0.20841488798760358 0.045929235409843963 0.13068931738391365 -0.67955884955215262 0.082094033066288777 0.24625203758947767 -0.10250497210145731 0.28183560801493268 -0.22141708040435343 -0.045337682968239264 0.093644660814119138 -0.08304656908352831 -0.2653727073400608 -0.024803904821381107 -0.3103116886626277 0.42219672041376494 -0.052134458464193172 -0.19337139298587433 0.36441323537238701 -0.41182574852488341 -0.046587564204762545 0.05955130525512993 -0.25222514813344687 -0.061252953430647385 0.14819712344306599 0.17771442194336215 -0.1500111912383302 -0.25639814268758543 -0.24319693251624408 0.20404994229595214 0.047913637419111879 -0.46396918456589664 -0.027534928361373022 0.28682394569177666 0.48965542175177712 -0.080203489172375506 -0.13845724729963199 0.15686795749822327 0.32822940456783861 0.26352254407057274 -0.18223740128526594 0.19190290092842782 -0.086602938976792096 0.027781360071316989 0.54945604529726788 -0.12389014393884414 -0.17908403658784361 0.36792107851620431 0.41597775098918383 0.30989415314506791 -0.081019652102678474 0.069820892229058407 -0.013812013918163175 -0.11023298107136448 -0.07807848963480167 -0.62744312082638476 0.33540342408914198 -0.38385477395637124 -0.12954506583718015 0.20982953252777642 -0.12545972976449959 -0.17796522595884989 -0.19954782024869872 -0.099499692934509512 -0.025830463618001769 0.14511823982110009 0.077544570272150629 -0.16754364918264866 -0.29544018441200537 0.14840034604525257 -0.48084726121672949 -0.26059230456864552 -0.21342509544802951 -0.18029647354641726 -0.15449046129687666 0.13959261790816857 0.19800267732389706 -0.43888710583691581 -0.071019052836325758 0.17251106712046468 -0.15558855530629681 0.16499228683947451 -0.28529716733967647 0.92755038491581621 0.22957757281272104 -0.050901402519862513 -0.31867077130622695 0.34022762403203816 -0.10483605343553072 0.89185157443473573 0.005851091300930613 0.08010832403498469 0.24244349823387643 -0.21847182482505448 0.19857766837918225 0.06906639174835516 0.044374233262557426 0.13466444369051039 0.34378856049451673 0.33839641652454677 -0.12669383259764153 0.2495381579165753 0.33634128598425284 0.0068554953647240839 -0.27539033101963473 0.088592755942499241;0.27039449009598504 -0.052088045996137498 0.17381551128426573 0.049148084648380885 0.18768921100418917 0.34455429840546453 -0.3709886373559918 0.20032920492043968 -0.023956388091048275 0.18572512975431849 -0.087345196248078127 -0.49295863574258303 0.17627404520079756 -0.095408560577593518 -0.073063566142276326 0.065427541223194358 0.17639305610713457 0.0030428181799380329 -0.049991694472825719 -0.16222262108510799 0.32130426708241094 0.037748645922182147 -0.17554904319733089 -0.27838320425555502 -0.18448903022229726 0.34408680881908765 -0.0053214368713991505 0.11243054718126783 -0.091956498135436826 -0.16033783476762739 -0.46241532333463586 -0.23112927431095842 0.092098677813155408 -0.2653551074923382 -0.067497367974843014 -0.18336545355328249 0.11920386199922506 -0.44245581827052938 -0.32229042237701244 -0.023906530709647555 -0.20943689902670132 -0.0063505815543121978 0.46637338030683256 0.024678273636246237 0.00038362923838852352 -0.28432227068266547 -0.15750835551021394 0.42700156908127201 -0.68329236851407682 -0.17861464807909788 -0.16184324647160372 0.059023293416310893 0.22477692699534604 -0.28988822389905305 0.19258742274449886 -0.19990798593190753 0.21419318207604321 -0.18840961368451795 -0.22456607625779204 0.31011182404259691 -0.28587694578955547 -0.031476884418516093 -0.094479386842270155 -0.16891013461443274 -0.061547638954377523 -0.21433213682473176 -0.25860669480765686 -0.12135698950383164 0.18192715752945593 0.24003984262573058 0.45885451445521086 0.028253587459761486 0.17921841264432933 -0.0010908228753310724 -0.33679572378309025 0.13585138172518421 0.21838610605722952 0.3138342941569035 0.084824036212550399 0.11431393865170549 -0.12048240451118872 -0.0007011633898069417 0.048143265249708696 0.23190779007800394 0.21334375374885658 -0.1769178664716734 0.18553448872909972 0.011432937130124565 0.24486729803038984 0.17269252846943292 -0.19018522089435783 -0.042530363102240593 -0.15693121391895726 -0.12072194515249744 0.39422401471854435 -0.22120083707461685 -0.33159225558022293 -0.4331608338440831 0.17075169937256085 -0.20637616367809697 -0.29994601831856699 -0.29568434608849609 -0.032564782853083798 0.037192538080332994 0.53589450797429805 -0.12801276037769482 -0.26955853623867382 0.092488201745581367 0.28898013504481601 0.34370800813291991 0.18243964251746753 -0.094675889673781988;-0.25123899584867077 -0.24469795543106912 -0.54381591076028946 0.55526267996731871 -0.42158330160827212 -0.46138613298694636 -0.56132422747890209 0.47215697689491154 0.018454301233483086 0.051190794739678372 0.18779265058272174 0.54810788042649117 0.39142733207639896 0.58719741154961924 -0.088523599812481188 0.17007816302050754 0.12031765449836254 0.078957462968118813 -0.71398948762621395 0.40851453001036003 0.33114028368163273 -0.89363147633370055 0.39044742813801048 -0.52519439882496999 0.19373607656741021 0.32161562789757686 0.10292439371972072 0.49438699893347982 -0.025925984205431411 0.41039371685544462 0.0027660725295183468 0.066534367507113931 -0.066564790774166424 -0.57000664183522753 -0.15595748485799993 0.32438275123155891 -0.38551615956309337 -0.49208075186444578 -0.12203085898173599 0.16993724466806173 0.11607301442059578 0.20851184078288232 0.38005435577486613 0.50472326254103927 0.50548381962522926 0.051287930560512694 0.60119962222398282 0.36063900377231412 -0.3296733084173466 -0.36753531861960836 0.6279778478489948 0.26953887461135589 -0.12495770986674189 0.15410813051245062 -0.28050355176398573 -0.87660968784452342 0.1368140776791654 0.37531317714126544 0.13630981341908641 0.21667636282224592 -0.29348444616968106 -0.51920763927127334 -0.27416744172889368 -0.37072890639998229 0.12245817140381866 -0.1162650060187171 -0.20516572393641164 0.14267839288769413 0.24293925374644698 0.12369031393328124 0.13592765244553498 -0.31246147938664193 0.16824784063088541 -0.34883940951472087 0.24619990499433697 -0.15726695714201103 0.25794170577167008 -0.047471281101627065 0.24148774883188495 0.19472641329430476 0.36350223160305539 -0.10899692724174398 0.048998909455666977 0.34384422767636108 0.2312981610815186 0.15459269376301951 0.21918464968490697 -0.43410736910467229 0.20141409531613583 -0.43228443829916496 -0.16049915631269623 -0.10336738272636144 -0.20099181604812752 -0.36664792088325077 0.085728341051692622 -0.1441613869100761 -0.15250625305237636 -0.22464398695496685 0.0051848414463887427 -0.35239164234613812 -0.1853004740739706 -0.081499870694616158 -0.21193811959472769 0.50255572745674404 -0.33233768487320581 -0.53073700298682935 -0.23022837427771994 -0.4009093999592796 -0.08410122297624345 0.18246470939719819 -0.10269918052153883 -0.096750837013444543;0.10429275472684113 -0.35009780742598645 0.12306860321725295 -0.036481838508913303 0.15184871968250968 -0.14363122950937635 -0.085795263599561369 -0.027949542245742733 -0.11373227867696768 0.0021119657409319034 -0.0075455787598699836 0.19962714873550252 -0.16090443225553439 -0.15140714993663079 0.072903631705588279 -0.071108432651410217 -0.058587085644266276 0.018059803892407078 0.25820686501287887 -0.065661208450944322 -0.25856594784191816 0.13800447191883292 -0.03929809530728666 0.0079630996111416785 -0.10669855869087071 -0.026057839313625191 -0.1051077107943581 -0.20502133011743842 0.010914488136116365 -0.24877822494867854 -0.085611640123628666 0.034880736802674242 -0.12055708533992004 0.29912707403386507 -0.019954343119363574 -0.15486249645371991 0.037591179654125423 -0.076571505327441156 -0.15692058717178789 -0.11170857233842944 0.20893708387114604 -0.058224479406015758 -0.13877486969919667 -0.016099409875655293 -0.031184387683523516 -0.14704893421341239 -0.035142779355634639 -0.024919980540483475 -0.11518140920895668 -0.32317923326717529 0.14223858257339306 0.060379492009995164 0.070192659946142794 -0.35428433361383338 -0.19369638181884022 0.46443660943100418 0.17210729137454356 0.1733642464816981 -0.13240934390439113 0.16773335977133824 0.10171728759108548 -0.19016428986500922 0.033611685587781499 0.38164038809639372 0.12012047693671998 0.061612854504304315 0.18631081334038932 -0.19073953930706317 -0.21275338367793153 0.028450763209404994 -0.0020236126021507721 0.11494436549093244 -0.014134042686880496 -0.11739945753006199 -0.34421049188204739 -0.047519301200857532 -0.032512201673932879 -0.29826755693159424 -0.0086518848979583052 -0.52839896960454669 -0.30522325111626358 0.10010532980623654 -0.049659166016609753 0.13897962322400534 -0.13091973665760803 0.1218060453726361 0.047707796754995056 0.159252760736671 -0.045615432611572221 0.10360349370657559 0.043319345087701043 -0.080065994295744736 -0.17423392398954296 0.20822485235592714 -0.18124626130522098 0.14369226123174814 -0.12640642690450207 0.043168525718574817 -0.0016883599931197407 -0.033010449165476553 -0.015279692070181754 -0.062376025879893535 -0.015194439837650661 -0.0022650520712549391 0.0086125692080273302 -0.31403934937630423 0.11747311169732488 0.023475782035991783 0.18315874605888205 -0.13940874340041437 -0.46087455839101915 0.07849199191595875;0.018670383488623762 0.0067159562845897592 0.1490025501958045 -0.036788339232874841 -0.075414969926155054 -0.40217972994306339 0.056170928800219913 0.028581643261063959 0.057185304659251403 0.09383989057290823 0.1756985167933835 -0.32068913919999348 0.070937173191299996 -0.16200750847172696 0.33916069525238113 0.016655944409122322 -0.12905545680906733 0.25993156672628642 -0.0082851265346536845 -0.11832402494068585 -0.33891143078222469 0.29315331797187894 0.38267243299626102 -0.19134715449131151 0.16140538304412744 0.12987346001426167 -0.37120464379494084 -0.09066747750159071 0.20789357813544398 -0.52862295050679131 0.021109481143051133 -0.080156364444964864 0.082160058929766785 0.12347729754753292 -0.37784176809733611 -0.17257767856983422 0.068201452830855866 0.10882072832845646 -0.17253086553686003 0.3185330600571542 -0.0061673134709742386 -0.32853970704280505 0.04624611963671111 0.052221174210449084 -0.20574577419122089 -0.12299435858583442 -0.74987260601039818 0.2361457271207997 0.2966727779597278 0.22883603408263814 -0.068609387985565429 0.18412097636700753 -0.35373640358056985 0.24030250103600476 0.19946738081717036 0.071299395957083345 0.44613982368286359 -0.29379810380300098 0.33197797440636656 0.12567202832045804 -0.28860959580554296 0.080823973874529761 0.59332182040713555 0.28745036882883174 -0.15893103283740168 0.081691166222928324 -0.0094722029800642614 -0.22087032972723158 -0.14779636933948709 -0.20069048694023639 0.86996049973078404 0.21776442424708753 -0.051670291889355104 0.16423189854170925 0.25278003787883763 0.1772365803739672 0.46172299126765326 -0.26588020744123514 -0.10258206403611289 -0.011200338740384053 -0.41813661280958353 0.211887257940435 -0.17811272510267162 -0.33938345766374739 0.57044708279674705 -0.26706562070162093 0.16970319911227746 0.30375119281478463 -0.023501918321305965 0.52893224552537965 0.048902362239899612 -0.18600199831590805 0.11341091268357388 0.32705128156435059 0.045948571192011109 0.51646687987173068 0.10947553698334601 -0.69625242967168155 -0.14423710248552973 -0.097308313670413024 -0.31489520835263618 -0.32654263868655375 0.14320786342013467 -0.34861958381101832 0.077299695939098925 -0.021987854517093518 0.10136446798502496 0.48412713280975966 -0.084892564478224589 -0.38086202294407878 0.10185018236525034 0.070477068387142836;-0.071357091720690435 0.021093162727241585 -0.27506387976676322 0.13122382848275707 -0.28581633600719614 0.31256818624860994 0.43006986701064653 0.15624644571305771 0.18471097779661111 -0.19594237211052723 -0.10650515249041149 -0.093174292171123593 