function [lol] = myNeuralNetworkFunction(X,~,~)
%MYNEURALNETWORKFUNCTION neural network simulation function.
%
% Generated by Neural Network Toolbox function genFunction, 07-Mar-2017 22:56:31.
% 
% [Y] = myNeuralNetworkFunction(X,~,~) takes these arguments:
% 
%   X = 1xTS cell, 1 inputs over TS timesteps
%   Each X{1,ts} = 8xQ matrix, input #1 at timestep ts.
% 
% and returns:
%   Y = 1xTS cell of 1 outputs over TS timesteps.
%   Each Y{1,ts} = 1xQ matrix, output #1 at timestep ts.
% 
% where Q is number of samples (or series) and TS is the number of timesteps.

%#ok<*RPMT0>

% ===== NEURAL NETWORK CONSTANTS =====

% Input 1
x1_step1.xoffset = [-100;-100;-100;-100;0;0;0;0];
x1_step1.gain = [0.01;0.01;0.01;0.01;2;2;2;2];
x1_step1.ymin = -1;

% Layer 1
b1 = [-0.056508696870055213;0.4311609620707042;-0.48712681619015502;-0.077214091797645254;0.36681373358496239;-0.27730552728145558;-0.19931118249143789;0.5888423642575692;-0.41337597168657242;0.10076678674883664;-0.78981418101029233;-0.24674125529653851;-0.35730425746284511;0.50793885627872126;-0.16185950511648073;0.30992573776773125;-0.19217620741034441;-0.49237636958597097;-0.18686481478999736;-0.22188788408114488;0.030274166648720728;-0.20854480509078971;-0.42619669360721751;-0.10220951817710118;0.23446294141875254;0.39887940017014328;-0.38759450567984555;-0.36382910587231909;-0.12164323224174003;0.42563391890763758;-0.53209793245420944;0.20077643482286753;0.95901263296979744;-0.81248656613494297;0.23855177894415516;0.50353017769623376;-0.73988224064695063;-0.19826633010788211;0.8942545008310312;-0.30287658641938747;0.02099680332746234;0.079308925203240802;-0.077900319915631233;-0.10470380487621182;-0.029604845935933568;0.53710218143257771;0.22434726463830626;-0.54697748174329208;0.017393679543941592;0.016668931885774098;-0.023821314893099261;-0.019783940124640034;-0.0029573673122481386;0.048337770001327419;0.37861901933742464;0.071111188550184931;-0.085728628283784275;-0.006695126378461762;-0.084709341200535596;0.14661526359612592;-0.13579185777114028;-0.03260063081157151;-0.063333170817374121;-0.056062639482331762;-0.50190439660483055;-0.0779283662780796;0.020524067759894474;0.029136120811925223;-0.093994380565172883;-0.069526424848640606;0.015895107832053088;0.070922454432579787;-0.026100841288050017;-0.057600351694270843;-0.13250102513322873;-0.074705417314470779;-0.19727844127024222;0.025837246443511142;-0.071828244562697582;0.30536106514186884;-0.21059958422509478;0.1941084299947145;-0.068030115073406033;-0.082018898124773573;0.50439970148261526;0.28460130361591457;-0.06359247106920661;0.17035236156240358;-0.009688176590362611;-0.70749274074547641;0.49466211771568419;-0.32318030223468353;0.12507781104933549;-0.75683127935439121;-0.39353690830297949;0.11056437763988229;0.17409693110317079;0.64933086871328061;0.48886299253181031;0.36589644893423351;0.61407313776396366;0.38523419362658307;0.21378154590685466;-0.34130242291226981;-0.44651987921579789;0.43948759017119043;0.38737120894271232;-0.56822606753188343;0.10954155204053917;-0.45321707599535327;0.13394229249661138;0.6562385387622417;0.70635097569892846;-0.061820816683785695;-0.82596062498895872;-0.31462063741374324;-0.29209998891059796;0.45240462635990825;-0.7148196007137898;0.68756170106260461;-0.21486345264263676;0.22994589777152169;0.023909001642625407;0.54744461405160649;-0.46213941589019508;-0.14332299077466365;-0.55577651290924945;0.46679237146027724];
IW1_1 = [0.041811547940947449 0.28547690558860794 0.18441890381644171 0.077796973439660216 0.085253579199363855 -0.030481079128558738 0.015211413162792824 -0.15725115449728325;-0.19878094236436991 0.56232772428613487 -0.023550503178883759 0.16329048104052429 0.20573798426300582 0.38645572002764755 0.0080336353082365516 0.26794888092123242;0.58866778374009965 0.02766730602159936 0.067542516838846239 -0.09260728760558895 0.2117858542649606 -0.12564402399241564 0.13872456065450989 -0.26640608667716981;0.07779606318914363 -0.417176218907375 0.013671771190772499 -0.10061845478143057 0.049254495139708102 0.061398885057879424 0.011050574664049521 0.12520187743341035;-0.049420079676090106 0.40091484455946685 -0.08364079396835368 0.0046249586125097332 0.33233055504613779 -0.29912854928209892 -0.28749962067470203 -0.05388023237956481;0.0048570824491170278 0.21849799167143261 -0.22233480064524858 0.250736898972374 -0.35106833244951657 -0.12980966745982767 0.20363243051967711 -0.043431184477107053;0.0090957987363280042 0.15205931745888748 0.064295443242467262 -0.19896381894707987 0.058814465757792228 -0.074436205434454172 -0.034557237322171419 0.10681687205732372;-0.11908774217223042 0.78427679274718753 0.13950244120022012 -0.25154784402764807 0.15792306925114874 0.2162300443453285 0.036961318758099271 0.39453535610491369;0.017759262488312496 0.1319424599769366 -0.0944875974759114 0.31044040104479487 -0.350216229199319 0.19369127813552067 0.20697818738685123 -0.25362737329696039;0.024351461649889328 -0.012856384699146114 0.033869104449548194 -0.0030215236323672188 -0.081425096120189305 -0.03280972056517157 -0.19677611201667661 0.017603010449568642;0.91531453347999192 -0.15765961589442434 -0.11899028647784196 -0.063225620238423028 0.43139306458236826 -0.0074333441655662367 0.42674419132872704 0.11807538439950759;0.19846073745900214 -0.13215686518788908 -0.25159588389843301 0.20146912533515932 0.165837768532032 -0.020908531602638183 -0.10573224908339421 -0.12663948604124248;0.23234674262281541 0.044555020056926797 -0.011237973445974809 -0.064425480597345902 0.14474363656618106 0.18068737138075908 0.15477260633988266 0.11699871879121698;-0.076677915576968125 -0.3410374053751446 0.12670949270337462 -0.023010619719524315 0.060336426917817668 -0.44250490087184119 -0.041057927883126878 -0.41815881305719022;0.18798624814376588 0.21929547941110786 -0.15063378066386796 -0.44484709228442249 -0.24395618737693386 -0.34080469054552609 0.31831837606003022 -0.15645091060658536;-0.42469537336704039 0.05269794359226803 0.12117893050028297 -0.11379097879033982 0.28547516133059697 0.14888715461347149 0.0063853679110367897 -0.28563245159014755;0.33323528114517237 -0.15683501056167651 0.050377506852536655 0.085013768374885973 -0.28116124660711272 0.056977910922707237 0.0073308605716552724 0.24285849502300075;1.0985333939057729 0.55600552836249362 0.26288574094939382 -0.10051808708835476 -0.20155850654946728 0.0041391768129046989 -0.51256333763002582 -0.4157135313430903;0.26249117005630884 0.18947535735967316 0.066750773627361468 -0.13618777196500079 -0.065033195569761768 -0.074266816400069935 0.020843755872242395 -0.00087560490232885984;0.070584443872339628 0.019070766950286946 -0.00071198767442757864 -0.0060406673494876363 -0.11195181693364586 -0.17430734790245728 -0.097625267058023754 0.15319927709377054;-0.19469462604939466 0.089780893903565584 0.20982366185569151 0.23394708136056527 0.25181171784285034 -0.022782286053645347 0.16424657915541416 -0.0062905648296687645;0.096139737786511165 -1.2901070079277686 0.0020538126919633268 0.20700448535895669 0.10090614022505195 -0.074383870368251753 -0.22850520341154176 -0.025435454496039196;0.7212358351816921 -0.1947456356413047 0.9725798378154118 -0.66259203539267397 0.30978231043534588 0.18309864939278017 0.51801658870371803 -0.096008161791020646;0.30524159305663567 -0.31586928957006805 -0.06416876682627827 0.10828104671388761 -0.11465080076606726 0.13910799485460371 -0.033088474053176949 0.18839236182430649;-0.25966448679813026 0.36885512001061188 0.33065184696783895 0.050889825238100456 0.11896650935789578 -0.33802725702447556 -0.12728936918357794 -0.20971718425119554;-0.62052653932664337 0.31983655837955355 0.19207662729749825 -0.005368666480023411 -0.12628425676323254 -0.35857637311954144 0.38654839209201336 0.10169357535115192;-0.050069243433922099 0.93520763809909224 -0.3348201660690473 0.30480050786840918 -0.26495550013572611 -0.33095791104122096 0.19644717866498457 -0.010379599540976628;0.71545761527194907 -1.0421390722284822 0.37543126519728526 0.19252466634338369 -0.27921141169655017 0.44192936659730503 -0.29354959271714581 0.32907727375439444;0.1937694244806035 -0.14774783902775335 -0.19340878364795402 -0.021213730639181163 0.061291328353792009 -0.04401661976403709 0.12241498076280298 -0.097143309458134708;-1.3350245353179155 0.89032249722872092 -0.034992662945979941 -0.042396906005533155 0.21399370043141372 -0.042209827901106049 0.48575888876489814 -0.52415733482828242;-0.07310816435465986 0.3400243543507796 0.2739961678602062 -0.3368200600241435 0.18034780579765511 0.19713669562204328 -0.14226722288794927 0.48210618314217657;-0.5782665080189181 -0.92689780651108566 0.2385961302954662 0.43868919212177621 0.070057540286671383 0.17850306500280483 0.29098330001693862 0.17545409583178168;-0.15230249481345176 -1.0967047791534628 0.0084830004423216681 -0.24258998980040744 -0.27827241147786419 -0.73292088229834385 0.38556775594461207 -0.21041026056998952;0.43862644274326296 0.077124180990932364 -0.70337699677099996 0.60042371970022057 -0.82727644994422289 0.31805332990656449 0.53108891612763698 -0.33564233041445107;0.035700534556383959 -0.43779804169841174 0.0013263789467286445 -0.025881805554765103 -0.065419503037280585 0.31151967680316489 0.029640712301252474 0.22062895273599406;-0.43838066387373559 -1.1035638498239253 0.18901782187470118 0.15536878366034634 0.4118690258617928 0.44745120086973517 -0.12031450438755026 0.34464526095481879;0.92678573266234521 0.060847088314154592 0.016045861856402419 -0.12125261259975637 0.38266573381874747 0.0016144472057729278 0.33250631429451111 -0.12492418395104297;0.68589959106052367 0.26681924716618011 0.19146509081875357 -0.19687111410554006 0.014229821568830053 -0.061796013453856019 -0.1280775558919891 -0.1335978405486096;-0.058110338215470993 -1.2076344546507511 -0.052525273753063123 0.13442677853514645 0.55655266900675515 -0.28793511013547424 -0.61526159403443836 -0.50085157759466359;0.17341402747482015 0.74314567684553956 -0.19790249910066687 -0.63631383158933186 -0.48176545343107796 0.0065887372457570812 0.34105505945953196 -0.26023624075931118;-0.47225563384258151 0.086477699853054507 -0.56321639410247293 0.46556730074277491 -0.13391010478898027 -0.17177003123173956 -0.051456488275066652 0.10008073515385242;0.5507542601993326 -0.094375144046388512 -0.51001427914095387 -0.4831954325352078 -0.52574752533773939 -0.15723931564832913 -0.44109714802886263 0.21193389293172551;0.49492222764203558 0.27396594455835982 0.14777905939810804 -0.037316084055991003 -0.26522347421853848 0.014991178608226524 -0.37059506218128785 -0.20587489678983392;0.82975611980745356 -0.13715931522752034 0.1803154071140394 -0.39835510857668083 0.072389823613535478 0.07372451660725092 -0.068724515272562875 -0.095619440006838335;0.5366760391198756 0.90612434120157581 0.080228543879841893 -0.001545303318820611 -0.22148895846479588 -0.10285156236134076 -0.18328122496365726 -0.20517315124082822;-0.66955614849168288 0.24492812689688304 0.053685512577707623 -0.076384614856944325 -0.38257050081087141 -0.11849028654344047 -0.22178795034564625 -0.13758454271327719;-0.23432049263205579 -0.84232240924141244 -0.045753779664317429 0.1497875081294737 -0.10925413118213625 0.23287077866057382 0.26686257968498378 0.26004264995762316;-0.058873201770911571 1.2055874081848479 -0.0015195651655488371 -0.29064188121749901 0.089766249791873309 0.1341959605272896 -0.0054551207385168058 0.42326351531633039;-0.24783007519482622 0.98654595524837341 -0.24961915575371851 0.28996654676040878 0.13728421162717666 -0.10670737368039694 -0.04947365451334125 0.13449170161130583;-0.21274853713533939 -1.4626693283962329 0.05967118486621955 0.26803252516317039 -0.0068174477079075606 0.013048543029386664 0.13545611102022689 0.098883567751604104;0.70890257566998116 0.17662196277433032 0.38920593005547127 -0.19014587044425962 0.27346762396019036 -0.09299163796094409 0.086476883702027538 0.11338576085646407;2.8590311756379609 -0.10695785653251433 -0.30011092423820623 -0.039064179175613008 -0.1086071440620309 0.30489501185500723 -0.035498923670209126 -0.22144397729714446;-0.081657536422055685 -1.6984050516466203 1.1587081465905289 -0.7241247381600564 -0.01418961814634156 -0.026769232177492545 0.047928946627787225 -0.48732777754638767;-1.0422071918179239 0.18495870876099349 0.16953042153550113 0.059867352208059325 0.020223860862657424 -0.19359311353657427 0.14228264934155804 0.098671714061016158;-1.2520299193824567 -0.11599190473871275 0.026333569394711941 0.0077495272041802309 0.27965763800219806 0.69266020087573199 0.56833781578246445 -0.56327064566364182;0.04192827455213121 0.16389974635833793 0.081641025217893334 0.014940314972219995 -0.27505918646572641 -0.0029873690430632575 -0.21563274488226264 -0.19228386149719265;0.69308960132755004 -0.080056989863418526 -0.054945540761950976 0.002066655221659418 -0.13183156575257546 0.4095702981481445 -0.21130632875414934 -0.30508250393131264;2.0324216262093913 0.34528754286632668 -1.3840805605336475 0.90683334063984489 -0.023014432347646878 -0.14649380917667693 0.61251838654010671 -0.059348504636017471;-0.031229126246477536 -0.97508197011353759 0.10843406285425483 -0.095003847548269502 0.23818387118865106 0.53671806494843499 -0.13875202905618084 0.50058879026288283;0.60006251410254863 -0.80044146610016043 0.16075009388863248 0.34783184585457622 -0.33408590717260872 0.24629163935436929 -0.17612622433148475 0.24511445246302366;0.56977545412227182 -0.20197071786414378 -0.060442445407543344 -0.089815401654343638 -0.026871678377398615 0.010749726591511893 0.14750113691996086 -0.10105044554594725;0.029041515776350099 0.094407216286729351 -0.064730399064110544 -0.1941235004169185 -0.1947843477620787 -0.23040854116871803 0.16990975216749579 -0.23276571617378472;-0.57018166592734232 0.96593634881894574 0.11071192142965523 -0.045132290795462007 0.055836922960950837 -0.11885594049754211 0.22237251870490607 -0.20687646027992565;-0.51256239164983708 -0.62061746252574213 -0.022583225928236864 -0.12138466463183276 0.26060530182135344 0.10072756881754961 0.26373258800843857 0.23696133527634755;0.20883616663729657 0.068620500723075198 -0.42620716704877915 0.38352765274388939 0.53055487011592251 0.47317076333744001 0.13018748466284391 -0.39486840372327958;-0.094710993217517581 0.061605112081011458 0.013779476190960087 -0.033122818717427206 0.02265282724007062 -0.16858366100338651 0.080813825529561401 -0.15832686177435645;-0.13154301865230275 -0.70737239242900329 0.90841298563790129 -1.0290857625234584 -0.10274501456524392 0.010916922656655713 0.18933141847139168 -0.34289211454722845;0.11443386881878329 2.6392414289437642 0.53365131100285379 -1.0079399918966248 0.095105660676676307 0.46471616037740454 -0.14059061722521532 0.10163214979078046;-0.27279987107931342 -0.077411508776507654 0.084485993971640319 -0.13331288206023487 -0.061366959989001157 0.082160555507315491 0.028491782982482162 -0.061901120234577778;-1.0699276104990343 -0.053402396443450073 0.090674324394610498 -0.11218499377752847 0.042890582792969721 -0.22311029228387821 0.21825049924694959 0.22197287979436206;-0.83396149163858813 -0.076359250439435949 -0.00061202932551294943 0.078668082991596652 0.060554325012744485 0.016705749029575823 -0.0052309429553111676 -0.0063749134033457477;0.097258714044346523 -0.95360882087820786 -0.0010079869315431221 0.0024489541786480913 -0.032443885650918346 0.13388950206070885 0.019252665281784109 0.20246544616846823;1.8076284420460134 -0.043699879074313427 -0.1531810896909796 -0.076057215987971438 -0.10118751124766696 -0.16759482906705611 -0.036746449613855231 0.16116045192761122;0.21367453874140302 -0.22223113017142915 -0.078589436938736504 0.024622515667974468 0.032663991354858951 -0.10430467143827324 0.18301289415898553 -0.1015699073239494;-0.067676532456679331 0.35728148184346503 1.2138184028462289 -1.2193415405077492 0.12294677351949204 0.4374143889880121 -0.13475271931190783 0.21275016100209448;-1.1693366702729335 -0.16423578415238965 -0.56005329898163592 0.74836235937849449 -0.48899975769193499 0.13706032807882332 -0.11141873910744338 -0.007072204182557525;-0.15063236449060305 0.66477709209288405 -0.068937892293547298 -0.052294411296734011 -0.085090913338794746 0.20404635159761275 -0.16234699267049935 0.14149579418486535;0.0061870295692011308 0.34249750745649932 -0.16242647429902879 -0.38316229104369842 -0.399474811164587 -0.34649173127165972 0.40135525368452779 -0.39051569293020183;-0.48877241012750455 -0.0031769023443815234 -0.071458049893697834 -0.027020239034541985 0.30807101867230713 -0.021387386375236534 0.33764926756279379 0.1043833136783938;-0.1032325455554895 0.78854806470499006 -0.034915809372193934 -0.067769341328901292 0.30209609998204889 -0.40602970665909338 -0.24058147519986386 -0.32856214515386561;-0.21964208989137199 -0.70186301737367152 -0.26491030680345817 -0.38546523030317864 0.27865533903107115 0.35600173170245114 -0.062026618806375181 0.28189188694652667;0.93605984700991685 0.064857565738947895 0.15752296775436037 -0.41166728948299097 0.24462928193177147 -0.12329831564888397 0.17659576335190513 0.033695491757439085;-0.18224794310891532 -0.50432892574078536 -0.2361704523859553 -0.18091863424847004 -0.045199500817310466 0.29448367715296292 0.017957654214879666 0.014320495288945564;-1.3592302585489868 0.23007328551175013 0.20376690110434292 0.013131183176310433 0.16448739694727779 0.17017113641362036 0.20451962610055727 -0.22823846442094917;0.318362392488447 0.059710568642949644 0.72694668880642643 -0.57017844140437624 0.21762661135525901 -0.2900933779831294 0.39832399727034506 0.17186804491529911;0.55704527047613317 0.13471990503301187 0.049889338798763817 0.022371318123021112 0.014150932446753079 0.28249686923537221 -0.28370698738599287 -0.34972179442342682;-0.022914843778682806 -2.1499229211873163 0.19150641405793109 0.086824565734861053 0.042204439744895753 0.064316024020544524 -0.085974549087002097 0.0079480625354107926;-0.0016212550651993696 0.054696220050394879 0.0015846022118127065 -0.067339443529439352 0.14795681799113095 0.14748505960027553 0.33083265059116229 0.14069670661925796;0.064715153207577092 -1.497299321830377 0.089400052362750879 0.0061230244307535001 -0.016268226351803344 0.16218654351504805 -0.046810395226410222 0.10498436144075682;0.15791055572548809 -0.65050319961022929 0.60228610737815347 -0.26633696509965554 -0.3051357787513202 -0.62052174937880733 0.2646053322973102 -0.23534745672026178;1.1600453259518189 0.79880389878383751 0.029588752973385354 0.021870024779115895 -0.22324224801687828 -0.29803818798926102 -0.42898557714807511 -0.15439604225296535;0.089783618178339894 0.79239066386238755 -0.17550996813314501 -0.071313884420516296 -0.10900404504325718 0.28229978694249497 -0.17398186057699414 0.28349801595304785;0.65336713526160484 -0.13370545510629825 0.058092504069372365 0.19500696474302026 -0.25835178697787869 0.25120804307380273 -0.26125578295739599 -0.27492275217855144;-1.0302289157071776 -0.054241632138529575 -0.1518440945560367 -0.098097835025626148 -0.37840315368335586 -0.31542649147724094 -0.38360314108857652 0.15873263354495432;-0.16003487305795019 -0.19255833005611675 0.35182364340046751 0.073320580635179433 -0.15141836018075433 0.25394742268049897 -0.063590680008032904 0.13346308250610989;-0.22076277019398358 0.11505711852027802 0.1023402652786751 0.30444837937872576 0.08316432697416079 0.070001170615122052 -0.00045249403427974078 0.18426701751555896;0.47740475187071563 0.38842049714308102 0.027795202556812254 0.082286845431738975 0.08954130099367065 0.05046196373698994 0.3337931285563589 0.14855075928444819;0.48600715638407588 -0.29164305775003074 -0.28150643222377197 0.30772078673762016 -0.29662197093989873 -0.42709601002684194 -0.044993908594606599 0.7704973256816473;0.0077196180809179261 -0.070091792239626069 -0.23044287699082952 -0.12693277059020922 0.34066082656648683 -0.39038256142752553 0.17941711223232049 -0.017848135707983975;0.5363189719015703 0.11268310807621978 -0.32783481952439025 0.26791391581155133 0.28114214590591602 -0.0037951367404723455 0.15173541962619294 -0.12241111905332948;0.129168425246077 0.31429852909212314 -0.7006668128085306 0.48846890155875122 -0.56520078190424961 0.099170331529070177 0.52489094136802095 -0.299964229701983;-0.088994840631262714 0.60937004425368002 0.2429645365130835 -0.11910855722777239 -0.19271838290673921 0.0096758198400927337 0.2005193211139869 -0.23555463833620996;0.20891717024377113 0.14878352504361581 0.057229465900367218 -0.0094067576645765656 -0.12956707780086732 0.034733870166311326 -0.18160495650476652 0.089921099149900513;0.10081114065090206 -0.95453613083435629 0.110245121716777 -0.081563768388461855 -0.065767959951301441 -0.14781450085940637 -0.2822614947713652 -0.081324943886961792;-0.018779703474700395 -1.0357055054392468 -0.0094460144254551476 0.2924878058169374 -0.21000859611399156 -0.15651324294988123 0.25310748878675349 -0.29889085951544553;1.1122726818781763 0.031727289540335962 -0.058087653540783789 -0.18920857092685003 -0.38693791646457609 0.24923475235306536 -0.32304757677739127 -0.26182356107588778;-0.16011449850913159 0.12251019777424883 -0.15158265201625545 -0.1635690743948871 0.42522823336327614 -0.34533265007003677 0.098465622630424229 -0.056851679234783847;-0.77600035428078151 -0.74672001588471126 0.58317758202199976 0.21179359111877208 0.27168554608554901 0.57309362521675644 0.36021506122027208 -0.044984712517437124;0.81360612009323485 -0.10554194581759153 -0.18627762037998025 -0.29603311758358242 -0.08494140995536098 -0.045309568500232288 -0.13013760902578342 0.044818475722687531;-0.14722578946799092 -0.036825131483911602 0.53838335083011979 -0.28043790429746734 -0.42976171338524932 -0.15959796643485571 -0.15630773556258618 0.21097247773193839;0.18829491575464069 1.0158782817334646 -0.068268394476554667 0.057381007703769984 -0.075319465877450781 -0.10353782971847586 0.068018888080340054 -0.086385149290402391;-0.14674999971556871 0.61160186628718372 -0.099599031616176725 0.064848465280360007 -0.11997255824040423 0.45322130007231798 0.24783857778085849 0.33841439368680232;0.88758248509910564 0.28433054544645486 0.069149200037386199 -0.5619346949399523 0.49415990659910936 0.0047492938841913615 0.58731471787242762 -0.22632927099687489;0.26223298337612239 -0.30164832008903758 -0.071462945351090393 -0.10682262924306424 -0.066034172100661689 0.13181116551184779 -0.09238082821525119 0.16744378799250867;-0.10661034055467201 0.34148713558092486 0.52689450056811993 -0.80044231624947082 0.65863796976689903 0.5006625846166437 -0.71332462870265412 -0.65261561639581012;0.096929722567877366 -0.11787600082437921 0.083847554448767361 0.015507362871732681 -0.29923852427897402 -0.0096253891661993874 0.2283354117903757 0.065198006921372592;-0.38933734143558835 -0.36624272012262482 0.10835555567311521 -0.048684344441727902 -0.14981080760645932 0.18925442193063041 -0.091071996534005842 0.13027261511220156;0.60946797218900373 -0.89487759225474872 -7.4030482295960433e-05 0.0008762672232132322 -0.097898626705023861 0.068603572864329707 -0.37208591576345362 0.53194701745576789;-0.27303243774920938 0.075145487872319769 -0.70347030571342484 0.70834804658286177 -0.26539062753458259 -0.7031012660919691 0.45342696461428766 0.57795083247253354;0.62937498801409797 -0.064824516231062321 -0.25754218533180873 -0.0042154158277781691 0.41200398863458254 -0.25771200320947935 0.35221702987494768 0.21436579148282475;0.023482476361410223 0.33283267728231164 -0.042289562684713053 -0.042765350946035341 0.029799564231662922 0.13107690538635169 -0.019515790241413387 0.0015759016506883914;0.069159682226909241 0.25991818139697964 0.17538958572410376 -0.39557992628509031 -0.16435764826316046 -0.038046757119755713 0.13885293061633305 0.26541107251342605;0.46754264201716378 -0.32528289775754676 -0.24590931788767936 -0.23933524645850326 -0.22562083633425339 0.077043050916534239 -0.096970362084796882 0.07131627926773608;0.046099418150334068 0.56580515709474 -0.29440378859432398 0.16740164858777853 -0.080942694737690751 0.49279837701364732 0.040504625603341296 0.25707406793324961;-0.2780414328208764 0.44940204508142634 -0.41479070662702655 0.36340141118350694 -0.16629471562542503 -0.43960462574060438 0.22712402538988066 0.22483295458469363;-0.1073340989103832 -0.041149184912893814 0.12520025825994544 0.0041922299821241342 0.060869807423911668 -0.0019494149226512271 0.073091832645951385 -0.039855721446385821;-0.70790056715092353 0.038064905400299796 0.1741195471192192 -0.051820883085405299 -0.25601219230206523 0.18210152648043987 -0.31549984372499645 -0.064545482546779859;0.022615350696899593 0.013005159788561999 -0.028478962769098521 0.061351973226536391 0.028627136609760306 0.44462204783752018 0.065564521745387586 -0.43631844384789581];

% Layer 2
b2 = [-0.015807447197675961;0.048935466360142066;0.067395481267315469;0.06330238251116517;-0.0052595971643337926;0.014108267746735842;-0.048007585875798328;0.10247315476465683;0.044818916348362013;0.062757508856316382;-0.025048362983940479;0.063785110548026228;-0.010577818248470632;0.17802287686240847;0.12144634097698633;0.036452138058425627;-0.051410520525386021;0.070448987979654792;-0.085857906482573979;-0.006335734931871749;-0.08107520931834887;-0.04860645573268578;0.062227027312804675;0.0096761185847988197;0.087740144897390376;0.10319451688270448;-0.047528203937466096;0.067492717818912779;-0.11244117980592483;-0.017730061492507488;0.0019732096192452259;-0.13333630282943029;-0.071256059012637568;0.031988404790547625;-0.070021728973151676;0.044024562500330336;0.079363348735292383;0.16732751426696202;0.001608148384010482;-0.037508911653896505;0.1367167705989584;-0.040192565996452115;-0.0071322422249057785;-0.05976112151689561;-0.10786913122133376;0.037251857976801556;0.15743262976024291;-0.040680836830228537;-0.15915846397357528;-0.0017808517678020832;0.17164818314495334;-0.013178272229804508;-0.060957321821738575;0.033253493698844575;-0.028855085298144404;-0.18253248071862349;-0.10759471342790491;-0.16610331479213572;0.081082658074738037;-0.096390116854841501;0.0012663038452199798;-0.14414157076501774;-0.018885463093857933;0.10728501198557097;-0.012055505480434459;0.11764826386146272;0.13770157846311024;-0.016024867945521517;-0.0040107995910003465;0.017502850424500678;0.017152577976232316;0.095269662039481395;-0.022470730795337266;-0.035625474390934268;0.2341990450310252;-0.08590101921183925;0.038785737738877259;0.014635847173038978;-0.017028964533266081;0.044919068915357803;0.14676894094594839;-0.051904794283429485;0.0091892929564181026;-0.034880224071427976;-0.13835431936484546;-0.044169788992803181;-0.050522396277553609;-0.059287343968340837;-0.17072504677578032;0.012825387560362448;0.13985613927621238;-0.044495257199229282;0.1104550505255269;-0.039936861763593352;0.0023774955359175589;0.02578939669542623;-0.07380499762412962;0.053689922390209595;0.074153472979403806;0.19928270165318135;0.032916069946771952;-0.077123340880374772;-0.051492634137744499;-0.070316382782205519;0.035584522483336746;-0.15916870155071333;-0.066733446825598286;-0.052588871844863987;0.076171306554491697;-0.085384694247921639;0.15698621558290018;-0.02847863240905377;0.019626759455273809;-0.097493240718349652;-0.035475327995575401;0.15392680201089787;-0.040418448543799529;0.047036372081958072;0.00087813470960827723;-0.060452307592673948;0.10459750360232387;-0.010715658167711643;0.072570058708266508;0.06857971282353939;0.03037894165246215;0.016678565351015411;-0.057642445229213086;-0.022769456653071351];
LW2_1 = [0.019016340900384364 0.047252423122810451 0.059407673434495212 0.042678939988412878 -0.045544898573371913 0.06279368895640991 0.077870517985197882 -0.056750036389829402 0.11202546826219405 -0.066974085756144303 0.18181699378907742 0.070654032037166664 0.086547764173395214 -0.17676541807970156 0.077583148612537303 -0.0083854649663725068 0.039912538187351132 -0.076499822219393346 0.083962503976433886 -0.043536081698741014 -0.05446511083557095 -0.026090460621822457 0.069609491993464515 0.026243232470450486 -0.075186572489312459 0.0067007344982464327 0.074708556257459202 -0.068225513798087084 0.034429680097848067 0.11695318826581629 0.10828802881358149 -0.04171313451294649 -0.21398825925041731 0.090151450926326038 0.0029660222933092961 -0.013887571791397978 0.1411401650005569 0.037721876561979936 -0.28851503982859167 0.13330206651415927 0.0076337787154719516 -0.011949976163779415 -0.02423872422922117 0.034507543129363605 0.038307931594662191 -0.13197682032006544 0.032092495910182914 0.15809521073109972 0.047570375856400365 -0.065577886605029251 -0.060717615637287642 0.058005030220940224 -0.18034120379478769 -0.024513327703710508 0.084973411704081486 -0.0052396199919430833 -0.0017584335466598374 0.010900656408420096 0.038952611230879473 -0.011972340548843342 0.053583792448927546 0.0158982264129078 0.015360805099528474 -0.011058798208616171 0.08653054659925645 -0.066947266020495125 -0.11717106955201816 0.03802134342099172 0.0043177889376860203 -0.045076859960112466 0.023152013834044739 -0.051272814183439673 0.022403319521820009 -0.02367014588959223 0.12135414758758772 0.015318746091065956 0.11355173366906511 0.01589878417516007 0.026193147405803963 -0.014124018120156638 0.010883476513024437 0.0049891159590682178 0.00078353941846653549 -0.015293777282805282 -0.098066452133597687 -0.032646146163876857 -0.10941682149027648 0.022508532940073805 -0.077933209724202868 -0.076809146847157408 0.0065020962084140045 0.1045623042821367 -0.028450561349149407 0.1486894610746908 0.0994118826940599 0.012378069810130512 -0.030837525777016681 0.019417419058266522 -0.092112864410732118 -0.030261410823124005 0.030535655759203084 0.027245865930842977 0.018564999707167584 -0.052143527110501443 0.010691879981380378 0.034417499232115706 -0.096727995252575 0.043488550840430865 -0.057531363207917782 0.062745901555989525 0.028930825877727051 -0.01124044198076507 -0.01802869762439958 -0.010910890193744258 -0.014043441931370828 0.042186417355645309 0.069631559900590487 -0.024955329044086906 -0.016608567246188102 -0.1423314759737376 0.13285154596754334 -0.031769068748962688 -0.052033480718993545 0.034162313338981808 0.022991844427638831 0.062971843019680257 0.11860069675247165 0.027160641465755489;0.038593344541818814 0.029698180412373893 0.0073680552232697006 0.020087645251706969 -0.021735415719749379 0.03236378938088523 -0.0062706911599809236 0.026046372223022338 0.020507554873735238 -0.049893276183875915 -0.024827782453073446 0.023504352079444752 0.017320386889921172 0.049468428458057719 0.02577064834573968 -0.0010460164067621176 -0.0074797864284696603 0.049983631442579932 0.0031466998052036531 0.013362748216625364 0.064381075241190189 -0.033758877088981065 -0.014149360977705486 -0.028834773702615873 -0.012154978855093639 -0.03333219098576784 0.029466510973679336 0.0040662554718420476 -0.0027611332434192095 0.013948411264068494 -0.015787261812990918 -0.017586225734678829 0.092313219515878495 0.037932409494411741 -0.027604810060323063 -0.062960081512474106 -0.038889244483349399 -0.013497768257600448 0.10266547341048893 0.015247803224749315 0.006268544938790299 -0.059319073607350739 -0.04056605576771339 -0.01322305043781281 -0.012744602132141366 0.025281468275217815 -0.032096268788602514 -0.060917903485145954 -0.0069841455822702804 -0.013940030418268815 0.016858731440950025 -0.12249299070931552 -0.0050154342017720002 0.032160284276460754 0.01717383513693525 -0.011939256967065744 -0.018172543886713355 -0.059240306497230624 -0.011682310014365708 -0.060093816411452797 -0.0050254458401598878 0.0062795769392193007 0.045354016466273052 0.023422800968539232 0.013121712072164515 0.016884532750133994 -0.040080635311336411 0.034430259156017079 0.020604318368511714 0.035791929396807282 0.022343819265987656 -0.0091735561512560227 -0.077755924490443593 0.0015644990905445805 -0.00042748699764952048 0.024549009889323369 -0.0019247986718915644 -0.0091443548015659962 0.049687360790722238 -0.009227933542960266 0.03611276366741558 0.044002437398652776 -0.0088220150006479165 0.095704148652649007 0.021093755376002755 -0.050818933595127687 -0.016556028917937126 -0.0095651956257284797 -0.013436046234264908 -0.045972392233678987 -0.10557865689074424 -0.02292490017693246 -0.054815030219928382 -0.041423202281893154 0.014339283862334589 0.027942386119382986 -0.00062900487829577385 -0.097076800955664899 0.015010167452455259 0.0068132613812761939 -0.020164628228190404 0.0019021952327479513 -0.019030969897968895 -0.017476796161878815 -0.054389043679512243 -0.11096951900148584 0.033124198448467077 0.11853572314820968 -0.029447306312110667 -0.023921541857369864 -0.0015313462053045482 0.052935645842683954 0.087988227560699711 -0.031404015623655891 0.08451772640333842 0.033620681033940225 -0.02439261783568001 -0.12643189511854289 0.037128630739935359 0.038685444514408293 0.018770516028819073 0.00044861455146691105 -0.056276561533415731 0.025321383650905995 0.04935217128410524 0.030213551617593492 -0.02987739520615873 -0.0180470333816821;-0.0012998039572815134 -0.0046651014976865877 0.010392382192541157 0.0091899743799687059 -0.011036482547763628 -0.0091014788663967006 0.010049578122263737 -0.034362252584527381 0.011782400000007687 -0.0020894798895885781 0.052089126351349845 0.010210003299790481 0.016271723374219955 -0.041907408953752161 0.0068098784218673363 0.010361624778906595 -0.011738472974010124 -0.029589955690431137 -0.0027646024148311786 -0.0046867857549649289 0.010856176080298542 0.0073272923693847988 0.025515488388332928 -0.0036554171061651398 0.0055011100321708892 -0.0024932591125313443 -0.0045763670150000815 -0.01042989841187705 0.010737089107654826 0.011445561598512727 0.025814273532321165 -0.0030522029812048903 -0.057148735224374442 0.0064237401915943427 0.0063524183253249209 0.033114463615194857 0.041330269386974448 0.0017132005011271626 -0.068137946031996105 -0.0027358560473570424 0.0011182636192951089 0.0070723408219511789 0.007732183984489896 0.020873641759850903 -0.01797114710449824 -0.041983641998539947 0.018062306388324643 0.055748977747717497 -0.00087877041068470604 -0.0061734014149082122 -0.016451387694127694 0.024917809675764985 0.010379148346240458 1.3649351355438875e-05 0.017349374368781482 -0.0046356618641606017 0.0064464495818196037 0.018955926506830832 -0.017083457645801874 0.0035744934990378633 0.0078325793096112907 -0.0022542204136024413 0.00015378780504615586 -0.0048120696101870081 0.034185566714819961 -0.0090395809094471792 0.010189761329226093 0.020344859309266241 0.013507193939575822 0.0033983934331533808 -0.01321668740344961 -0.0085002572008307763 0.0075000012974918429 -0.0092842194042672757 0.025189263296273204 -0.006038894659831995 0.0067788483375249 0.021336608994161545 0.0033093402275160997 -0.0020070438663381393 -0.002298681600408099 -0.0019181054173527754 0.00038841589622242172 -0.019214897711674481 -0.013932670199679448 0.018242843073872996 0.010648586604865912 -0.0081381353110621425 0.0033060688951179911 0.018012188255495769 0.017927277745168294 0.03558710099908946 0.0050252213683221227 0.048806799184949318 0.0012939928001817484 -0.011487763852711238 0.0084017120556166627 0.0033243132238112648 -0.016851289230662349 -0.0088779352084544082 -0.0073550330277463881 0.0049689620558898721 -0.0079810908999021924 -0.0047079736337081604 0.022982720489887507 0.014992930780788085 -0.0069433930439976553 -0.024601095646362273 -0.00066198713694761054 0.022098867888741266 -0.00035108561052139988 -0.027915360485821928 -0.0314537118483246 0.011374161852282089 -0.0096390145215111411 -0.0084193937565943851 0.027269550046525141 0.01013073912254954 -0.0077783362288659863 -0.022447353261030326 0.017008342244150591 -0.012298731769143556 0.01481247753179857 -0.030528952327607637 -0.020012801731718821 0.018547768047337938 0.010050618474779734 -0.0099884878777739775;-0.0136573378193167 -0.014887061846512456 0.031097461306992244 0.0080468873096299336 -0.00019684962841084297 -0.0048705295441281707 0.0031733557859877372 -0.012707237011375414 -0.0086314226603160828 -0.0054161327053934951 0.065930434253713047 0.019984192328521961 0.029968700510568921 -0.036044410139507342 0.016114858427445956 0.004795866271412175 -0.00099933253334502582 -0.015200457352855842 0.0038864943451243218 0.0078257429810781754 -0.0071610131859032675 0.0090647731192702152 0.01881337869164066 0.0060507220007276338 -0.0025390705063869298 0.0015618137510811166 -0.0084116283279717149 -0.015697001019764126 0.012556156579057131 0.021161020073014739 0.035587147416603473 -0.011219286225394302 -0.048072479539411163 -0.0051799653678609092 0.011937436399909417 0.022328785837317757 0.05328997662937076 -0.0032352325135530662 -0.076190659429906923 0.00018355119136876201 0.0052100687168175818 -0.01209869592262979 0.0019732853961338596 0.016106256318374965 -0.0013091845728211886 -0.031734361643559202 -0.0019912651692863938 0.05371304354268909 0.010126583999095598 -0.026996219945499011 0.013850292453692445 0.0020960023520247839 -0.0023741075544954711 0.0097194017581607936 0.01134602821801203 -0.017664525914309868 0.0049875536177889594 0.012575461423931787 -0.0037828443054402686 -0.0034236678840326232 -0.0024842823364388568 -0.0069793960105311867 0.006707054023050078 -0.0097688740378628 0.017078631353465684 -0.007184751908667613 4.2350255043084958e-05 0.010049460954018407 -0.0016050520800118247 -0.0053400967937083481 0.0040554860486897359 -0.0040683910520943342 0.023429107903722008 -0.0017569297916533826 0.012091858943972205 -0.017981964981729492 0.016263436684205587 0.01580019083772596 0.0018773588855126311 0.013764390955543016 0.0039299180747513025 0.0016607442126090151 -0.015222817134983207 -0.02351985303829273 -0.0051763268767697733 0.0094005958283546187 -0.025686860832596494 -0.0020629106741304158 -0.0081920092315192969 0.017571299852373368 0.024627492506700762 0.037635369943483557 0.0023386445126618006 0.043705198217335428 0.0097764564375514423 0.0097744955189998702 -0.010446024874728408 0.022095491145218072 -0.0082106009554205345 -0.019062183044901815 -0.0044589870877866341 0.0086629520257042562 -0.011983686217198013 0.0021194324000422932 0.029080717248558288 0.021751370268349692 0.00055762391486524447 -0.023295466086459042 -0.0067516652235188228 0.0097876807106906261 0.0090601398449435631 -0.031929579889207672 -0.026754960002881523 -0.00081398750538630069 -0.011868111184361698 0.0098561129168862616 0.022561063393599926 0.0073614958193789631 -0.001707897874661693 -0.023038877947566993 0.01066439094417874 -0.012678545436035298 0.014356316823130816 -0.025440517981509383 0.010391984174636756 0.019072403845351714 0.032686453219635411 0.00067926193524107557;-0.012573037865648656 -0.0012977403497673688 -0.031553127859731765 -0.049435995181888202 0.02530587075278929 -0.013581687371400019 -0.028172262159561291 0.050780686348583737 -0.064493245783265998 0.026618695132309016 -0.10427021844880557 -0.061777213975181468 -0.056950805626987122 0.1215240778659729 -0.010470025614638728 0.011115451182496534 -0.020706730194623459 0.026593737059474487 -0.038628260613548099 0.028887386396685717 0.025731647845219922 -0.009640271463178059 -0.051048969426430842 -0.013517329307737596 0.013774613985652384 0.018574715682704905 -0.0093622806663382335 0.020721468687165602 0.0018664708607527402 -0.039947978022368574 -0.087059684409510674 0.027453989411479279 0.16893798855625744 -0.021313831599154183 -0.027388389618351706 -0.011935919155750287 -0.087774179569812302 -0.025936625972898135 0.17471473109325006 -0.05523195772774879 0.016688308207071682 0.024259817134616075 0.0087461843313927992 -0.029516314788407872 -0.020524825257840031 0.073518171549751127 -0.036375502025064253 -0.13415587766515097 -0.025065805583849739 0.049691619170697497 -0.0087259485265471712 -0.025791728359382218 0.043194379785218666 0.026688201279027837 -0.052836124139129921 0.0043301450486581943 -0.010354716868763377 -0.013952766622041108 -0.040778974617194333 -0.0058657439668301451 -0.01494628189328937 0.022025693719482205 -0.0040207909851674292 -0.0042755332134005782 -0.057079882105297283 0.046583802106895646 0.039341092613401837 -0.041902962054507997 -0.0083067893644225305 0.012908067436805191 0.013494249625604821 0.052163884371171303 -0.0068954471487026993 0.014240129832513899 -0.056976629879568114 0.00083306740656770588 -0.057573160418887499 0.012387958016266817 0.0016897177702257966 0.0012040847267272394 -0.01263505792890305 0.029246302684624165 0.0011135671392174683 0.011336040158465666 0.042323819103420909 0.004680550723533938 0.047709750367925567 -0.022951202599476538 0.059897004141470762 -0.007747856567598777 -0.011475439613192306 -0.077290530713258143 0.00028513995068046085 -0.082756645328837281 -0.071222182334575113 -0.028177055892319707 0.033434586933470435 -0.0078898955795072626 0.06534924645646549 0.037745791883789834 0.028146569077556437 -0.0064044826984801916 -0.02398032159590302 0.00061023566694490153 -0.014367036180715668 -0.011754591256075383 0.060468032615289248 -0.0096745573057427179 0.035079957729513792 -0.053123733423675823 0.0022695654847062815 0.024112086190443402 0.05770790327101559 0.022425692356468595 -0.0067645101489949419 -0.029507367678638315 -0.061254709304564968 -0.00097709186563824427 0.00082380225132559835 0.077100564029710467 -0.053592436564255649 0.031208247697779409 0.046092195089752298 0.003905940970828622 0.015087364374459591 -0.026880087253491544 -0.069906913725049258 0.0048743335556547182;0.20039647125619206 0.15071017422152466 0.073662022877092143 -0.11010609810935422 0.1401067170752664 0.11516747441422634 -0.0061396601284585788 0.21419277920760804 -0.021243075860298628 0.076022475717177906 -0.017627354087993003 -0.020819797784926146 0.057536841077367597 -0.15550871709517378 0.18541504468318035 -0.008618853483678279 -0.12113768352100845 0.37281783632980603 0.021034285219804161 -0.0065616330056275174 0.055395637516677698 -0.41750214288589832 -0.058428208956629701 -0.089248411295983071 0.0096072050043791973 0.14483227778735239 0.42391020920785139 -0.31604417835066201 -0.11969749477606287 0.1874254264590508 0.028432895957039239 -0.49636548560778415 -0.25362335726494251 -0.060336797585477442 -0.23774067857475645 -0.49922402311829439 0.0097222773979895108 0.2131583346500536 -0.27597546490255187 0.36690466709752478 0.14291972251562923 -0.20238500200400619 0.18510050925954291 -0.013857407132615272 0.49492649557436169 -0.009049619789254287 -0.44551838483674305 0.41418492203552471 0.4638926126875938 -0.61919823035855726 0.071201908209146417 -0.039396828152760556 -0.76680395537314094 0.11594585774591423 -0.14509212320238823 0.020677919700803703 -0.014568948610701881 0.013298497514959286 -0.4187293327264075 -0.44462439660953568 -0.12719903367935209 0.01837360342585824 0.45832239588909746 -0.34986193024879891 -0.066589566291958779 0.087201764472187332 -0.56372558053166522 0.96066316151022191 0.005095681907874133 -0.026098532118220354 -0.037253091328619072 -0.48825659332731891 -0.0064013060269385866 -0.13947760891405511 0.35162665388173497 -0.056272268894064226 0.34239955715000864 0.093901927308595076 -0.011563653738418974 0.34867069050200594 -0.20652736102062524 0.00095035294529372471 -0.24232680758544367 0.1281731738532054 0.044516636498384006 0.055133558002910477 -0.79204991848231954 -0.038493878446126166 -0.63575779611885741 -0.32856653009324205 0.19133295441565282 0.3441594917382293 -0.0079010217911023948 -0.12396500446370078 0.027711218571494518 0.11775646890865069 0.13980663108229846 -0.18955498879753668 -0.11766441599675875 0.099105656643845186 -0.032688516398755238 0.13887559382502845 0.0058415982453375922 -0.27682316365950549 -0.30901950831292901 -0.05620717099935689 -0.018969112224135387 -0.068273086577582479 -0.07397767177531496 -0.034868434605330553 0.38673887053537342 0.034027298030061479 0.098823029694274547 -0.17928088609569726 0.36601351547160149 -0.054208949021159344 -0.1506602825877513 -0.37744242181452126 0.33296970248121033 -0.084471691043771363 0.18543343352085553 0.15763955804448027 -0.20575507392364795 0.043355744422722144 0.2926237218839533 0.032041635638658583 0.062050905227088289 0.14959240469072987;-0.017087930122258461 0.027154094165037713 0.029672998553032636 -0.037551335443489507 0.061057144276269057 -0.098105161697549348 -0.072683466114589812 -0.039113899408380844 -0.034663249724016583 0.010978303167339821 0.077483898295958517 0.033726167684218794 0.013739392207137888 -0.025949907798751393 -0.053177127777892789 0.11256766603408477 -0.06587574729350916 -0.11554854482362904 -0.07940048812394826 -0.050164090394102988 0.0065559952053249925 0.063046996042760317 0.090021902531159312 -0.068112700721000799 0.021796299182079752 -0.076472142309822452 -0.14560419184766854 -0.061048225440324809 0.0060955420088828656 0.08936482535439004 0.037604056746057588 0.046111307652158033 -0.071448349190058769 -0.0877447285365901 0.11157379121433306 0.19178081975866978 0.019921808793730802 -0.046620757283226233 -0.023846691965730443 -0.082036847934730428 -0.020743698491389958 -0.043377560796983607 -0.036692077151497318 0.005905603203894879 -0.053879337360455387 -0.0091933559514083135 0.08116374075398565 0.040272023164490869 -0.030905872750729889 -0.030625444832905253 0.0025068183169724128 0.008459672292420832 0.12519522559150612 -0.018502446461045534 0.13469859907934736 0.0026917079383727356 0.028513637606967936 -0.093385186608360649 0.021924506713299468 0.024985828867365095 0.00021868517312489979 -0.028453264815031552 -0.039804086063620521 0.032006283096651676 0.09376317775615349 0.000926684543539642 0.046760625099430568 0.10338922474980231 0.034158267285990293 -0.027252732510208811 -0.013400868003712081 -0.02140149421377735 -0.014017742409383043 0.0063984939696363303 0.12738611701334862 -0.028531137346413975 -0.0018333722645057944 -0.021146537423802569 0.026454165233633871 0.071817141355032935 0.033031602306059303 -0.044423360643332188 0.01996777977672631 0.0060432002901597871 -0.081421908248522606 0.080075687481956023 0.047669317107382522 0.011337966769222831 0.034796118928848596 -0.024165951605496037 0.050705989378758316 0.057234141651287908 0.0019538065609515463 0.034728443900497889 -0.0050683344937525691 0.0058644079075805232 -0.01715578190436608 0.037247386903897312 -0.019054915213093219 -0.0088761587167559414 -0.015667702954931344 0.0077875067793363555 -0.00071509584124913005 0.044644561143320487 0.011333056019256672 0.073634095505804215 0.0034501008126831107 -0.031512335745814656 0.0061349314897666974 -0.023238673602476365 -0.033096245468934513 -0.047667193019445386 -0.089745560345200509 0.059155632507276651 -0.039973983446986064 -0.079366458813813129 0.066050631205097771 0.13228572683655759 -0.1115928730789822 -0.061694567234406285 -0.037462996847930585 -0.037929259566927047 0.010218189102642652 -0.022612770788745788 -0.10415365877373817 -0.004822344472075731 0.074086871708861191 0.066722421935681259;-0.011505305634420822 0.014197451188437335 -0.021943056003419392 0.0073530090347042687 -0.0085287521237588787 -0.012904997785320638 -0.00090326040309942712 0.018536271075944476 -0.007494308321672187 0.01489311905584082 -0.024507011747130138 -0.0037817450742836734 -0.030130968329559284 0.008942266477239745 -0.012672096539139274 -0.0065820171386004826 0.0056176519927629192 0.01472273328954363 -0.020035940496428699 -0.01211279507499477 -0.0044979106233350354 -0.025207496878532576 -0.014566559518432548 -0.015736921349337935 -0.0015178309152141137 0.0036677658476557914 0.0069253056306891169 -0.0019825218563957248 -0.0043691345492979667 -0.012000421079044709 -0.0021061562043944754 -0.0064793690858529806 0.023683094358893191 0.0022231435652109491 -0.0050374441824219442 -0.011572982804942761 -0.017004683073696566 -0.0062095429061046759 0.036586426081467546 0.0042655156945898285 -0.00063840179514435306 -0.0023695425529057278 -0.0065848800122645284 -0.015727575852905171 0.010553334056403348 0.030730741991313169 0.014700530419705754 -0.034329344378097551 0.013863318035624968 -0.00011252872746474378 0.012342598165368937 -0.007059072642000553 0.0070156921503514861 -0.0067700595177233895 -0.022618529042211941 -0.0085382540207916153 -0.0021373990928085077 0.013402909262755112 -0.011786000980472142 0.0053597161656400672 -0.0027317663503830395 -0.0203715565423171 0.019474830150988009 0.0066850027712693442 -0.0027335265489111431 -0.0062802265431082535 -0.017781422510709449 0.013957323533061816 0.005007094129195977 0.0033521636981742814 0.012469330181376434 0.005559733438057649 -0.0042547650318666037 0.0013232958066470664 -0.011248081351599404 0.009657839671026805 -0.01364585638957775 -0.011366477452357412 0.0079224832370693339 -0.0099724311457442313 0.00087701440047183892 0.0044983898255162424 -0.0074071274045527762 -0.0053650758017482394 -0.0055508546393785918 -7.8762406966329616e-05 -0.0014321786266086811 -0.0026813376143317801 0.0011296706279579584 -0.0067700578488454092 -0.021282599917425583 -0.0053021948613957703 -0.0073380088237311831 -0.037319151545093097 -0.011322669150121326 -2.4928218522087865e-05 -0.0022750437076953563 -0.010927015209736513 -0.0045966912679860049 0.00062188165297271595 0.014913148731150242 0.0043451463160059422 0.0098176560578335115 -0.0098453681256455792 -0.0055339244424864719 -0.0021280822796664023 0.013351284829566107 0.021483163979064263 -0.0035699867259963878 -0.020721206161982263 0.001234290497393933 0.018900731755830905 0.019109556114877826 0.016711416022937155 -0.00070507100793780627 -0.0094636874409099563 -0.014322041885947915 -0.021269472079536909 -0.011692142621421478 0.010017165286162012 -0.023174938208090079 0.0017020223889425063 0.0073171664171780828 0.0080114727948865094 0.012933452523851863 -0.0089384329461874024 -0.010017550748131614 -0.0073943142074217628;0.076734918075788153 0.11806699377699796 -0.32934407953548328 -0.060139938049840948 -0.017051384515096767 0.26222899186247289 0.014149708970154294 -0.11916565146462502 0.27030577890742219 0.021885362382405852 -0.23325514717595267 -0.29395693572838466 -0.11863537353076289 0.14977286958040911 -0.33347300552424719 0.073005719651008744 -0.24667671140296832 -0.27156716825057753 -0.14912702510932471 0.034314252237146223 0.15583488671473103 -0.083436119818909318 -1.0231543240250971 -0.1600438744527001 0.22830586889383003 0.5110221472766393 0.38864942460660507 -0.31209782580384926 -0.13716581118683843 0.53897605217053401 0.17035871307595163 0.19624690023038988 0.12183043090385644 0.52777313738246712 -0.020116064147873605 0.21787286467258496 -0.36265139126098983 -0.44166437961145877 0.53304888619633406 -0.056204866150632471 0.42049293830986495 -0.46865081520285135 -0.29650612689075512 -0.36566889989076834 -0.27827240288378019 0.22472103480114902 0.054288863950080105 0.16597596077233562 0.17159059557334413 -0.033467762002874588 -0.52254350166341512 -1.6732851064975314 0.29609844704070859 0.60925065733531636 0.66382363619834461 0.052585715110357659 -0.45321718355141127 -1.2499529357137211 -0.17548212313809292 -0.39303223102442747 -0.32301484018506649 -0.14032926732978235 0.35203873176492889 0.33515615151714273 -0.51013846475764157 -0.0066384388023836951 -0.25069103798347225 -0.028518030873048172 0.18676875000114795 0.64391822940989385 0.5035239647338986 0.01431944972860584 -0.95781956658175871 -0.19090911019844403 -0.065677315990494575 0.83645827372728321 0.10367970780564453 -0.084614866501856414 0.26408917901038953 -0.089563905834000299 0.2931027625021887 -0.45402601273416343 0.21898316498913004 0.78323245680215892 0.07490853809627325 -0.3953863406446011 0.28343579331964902 -0.10067040140966332 -0.071982001568636739 -0.21824468156533841 -0.88515461736919587 0.19758381494318164 -0.39058997318960276 0.26158120353102066 0.11462225348855982 0.17829218707488276 -0.404476678433146 -0.32926907793238702 -0.16398972259211403 -0.087171731543078404 -0.75732723923999523 0.11314763868801501 -0.18116231094199534 0.19049136369212896 0.07784170237257311 -0.67485016574644374 -0.059721104931365156 0.6607466939870158 -0.60558492762181804 -0.25804245195970787 -0.34231107445062975 0.053888371094555805 -0.10243297539968092 -0.1177765191084981 0.54681993269952778 -0.11029110986380827 0.24755034491477218 -0.5054540203610699 0.37700693540701913 -0.16753796299505164 0.0064157062140786595 0.15478809657092987 -0.34969746413919228 0.053426516892277447 0.27657094494174062 0.093914286014487341 0.19694043791980723 -0.11686121156361198;-0.052707622086853173 0.064130689388270379 0.027043483032162627 0.0024408226903833781 0.081698250894879601 -0.14027177144988121 -0.045525475591376867 0.01184242436223109 -0.12044990228819193 0.034839739598152425 0.22623106669758897 -0.080716492863047468 0.065005428809375737 -0.083553178312745724 -0.017551567401591094 0.15958852421851361 -0.07152172166210205 -0.30327905271888861 -0.046656383440488614 -0.11600899764595929 0.12629257291063761 -0.015562112763428412 0.072420868084018514 -0.10799337053114812 0.062449195604328038 0.17975595424352384 -0.11280575353538448 -0.1360169757273868 0.027263645793053157 0.2286760762326176 0.0665811524632417 0.16754924728898063 -0.1295985684061178 -0.18271351223604251 0.1071647534730821 0.2330485997869739 0.15368550632842326 -0.068490659794829031 -0.16127079294670651 -0.12762110189835699 -0.026763984048923117 -0.068692143976177386 -0.15880868479779794 -0.044553695310813927 -0.076523058608302233 -0.1527750585436817 0.086246076532722191 0.034894868020072606 0.015974026595235346 0.12664006137020706 0.022126388592539133 -0.29137142244935355 0.074741335629229966 0.10320020319555918 0.30526809127839677 -0.086902758090433269 -0.18532341159031893 -0.41873268127178681 0.13895409347078194 0.086227199429282808 0.013419067172395327 -0.124336310449554 0.0099091804248452233 0.12467540486762425 0.10418789332154564 -0.074756384526371261 -0.08882374998301347 -0.36950154704797372 -0.034328343374773189 0.060430079882853947 0.059734773525636851 0.035713539337846385 -0.14997551163789963 0.00098607708370026864 -0.28735220309574844 0.10403071073798388 -0.06210796566553161 -0.063579118331221235 0.17211180163269141 0.073884541218380048 -0.039808642038051532 -0.027712225729102886 -0.05358409180681456 0.039681124460395921 -0.086006114244816287 -0.046731638264434411 0.1498262146036321 0.10784297183706289 0.042256555844564517 0.018030062153358298 0.021620757501331522 0.020003927887553036 -0.20037125791370866 0.084282701899427589 0.011835268445299358 0.073765824754444181 -0.00077667905946441707 0.15416738439495248 0.021632825451317984 -0.023914013470855301 0.042685567782046928 0.14910605819104583 0.051467713516885359 -0.0058933043816568878 0.092140026746854717 -0.035918705210674119 0.069733741478078162 -0.028840424228089339 -0.0018541258349365555 -0.011739032361733378 -0.013368483126700088 0.049121599010270897 -0.022386381808525244 -0.012153562583359761 -0.23614103288732832 -0.050565189335166072 -0.029907665154767522 0.22591001469261779 -0.11673814455611684 -0.077404156160831447 0.043070448397264503 0.061260704984243956 0.042196937431895953 0.041840213954951092 -0.1256091713530253 -0.071470585015356483 0.11156483009499893 -0.023233790204620349;0.03831830870643127 0.024167518172587187 0.027444097295847479 0.033587604138446359 -0.038216403795836636 0.066912776677487087 0.069050276385959411 -0.095801821046849145 0.10840304259444518 -0.057253698395894281 0.11811700723741592 0.03860316120858702 0.089784085772736916 -0.14103774205672392 0.068382457334763364 -0.026758179710438999 0.046952049769854939 -0.043890945171020324 0.071888967275919965 -0.040233494911264163 -0.029789206078534441 -0.018638612985067183 0.085064597115043258 0.016150606932649431 -0.050766719127955155 0.0087544780530898602 0.080469554594198439 -0.05334650251098369 0.019829631974736382 0.13449524456044817 0.087025244474048052 -0.0083588953251829412 -0.19843876051418879 0.10060292663212682 -0.0020654669241315458 -0.021725260832649872 0.08250943695978627 0.045374237444846977 -0.26888728646078447 0.11507814849004815 -0.012127479126555507 -0.020062224595711001 -0.007213375467488058 0.023005905385696163 0.048518130488597162 -0.12425761234144458 0.037224097046369364 0.14526059062190214 0.042854242180642342 -0.041092036617280836 -0.03909933912352416 0.026905875978465679 -0.12920426156807033 -0.0077298137799760936 0.098646195015914706 0.013323430915513178 -0.0099756835729773747 0.057419583255485518 0.023356009080504295 0.010185203895634062 0.0019557618384929438 0.0088054152300191674 0.024916318251299193 -0.042173886185412013 0.06829413405219481 -0.030475915343353473 -0.034823505023710878 -0.032391200371083326 0.013062057592617086 -0.011157924445921346 -0.00085019930642987165 -0.058403570606299401 0.020769467279096777 -0.039752705271103236 0.17929933672840845 -0.0091677461000091772 0.095043729020861195 0.046253194853268446 0.010260163082753043 -0.016418087649944711 -0.048347435337203058 0.00822746096367921 -0.0056222477316729674 -0.013445388644034831 -0.042275953574384427 -0.0084080318586147486 -0.091246391415103018 0.02567688491703125 -0.076396437473949946 -0.056047016573619907 0.016989192421111944 0.081801390060533566 -0.026746554772317074 0.10779528092155732 0.090309403204563557 0.0064428701895760969 -0.028849402553176199 0.011102209577321047 -0.095123740616561772 -0.037667443988070717 0.019198341764090198 0.026819209251559957 0.032872501842851315 -0.04745027122276553 0.019349200389198077 0.0042883505089382767 -0.084529013864684671 0.046105165225729224 -0.043265917588428716 0.068809788110849576 0.037542714414453983 -0.0063277843451369862 -0.053828392865683604 -0.035737356407334893 -0.0035586336653581881 0.060334765929918141 0.039039371490369332 -0.0076675489626914731 -0.018554941632958656 -0.10564947742081345 0.098424078978517876 -0.064341066608135419 -0.047673157582535874 0.020839719770913735 -0.0019139405465103229 0.040625379955382741 0.11753945769096823 -0.014651327567005988;0.019805470134910682 0.034634403655872247 -0.15349097622321836 -0.067128924706184839 0.032842882025635262 -0.02133108770096492 -0.070571039637047001 0.073103862302658529 -0.044771887966428892 0.044597205837352008 -0.24532324244239556 -0.076235806331382217 -0.12283520063586656 0.11404047592786806 -0.14550684652709539 -0.0048919652209035254 -0.034815150088165249 0.039251285864766138 -0.060334269743218358 0.019266879472860161 -0.023425749126699837 -0.056505637680457618 -0.1755401136715333 -0.031218146258056384 0.042502429236591602 0.058292838238411464 0.012830475468988143 0.046582545380738125 -0.10889890198203554 -0.012671397033864443 -0.066409670823060651 0.034882311304476249 0.10671183909180088 -0.046620517945522369 0.028701796274261053 9.0635484373693921e-05 -0.19844963764843443 -0.039163859537585388 0.11029682277396347 -0.0088469819384438125 0.078867528229532025 0.075068212744871743 0.048665733920932097 -0.12039855548697168 0.02350953554721397 0.17536960529815793 0.012767096516907998 -0.10155666572869869 0.012809815647248226 -0.018141426894348132 -0.048172140913585036 -0.21425688203685317 -0.029977221568630742 0.05019079191289131 -0.061036252627083634 0.092625651438339993 -0.00052705469331253043 0.0018356898338162363 -0.0089422858486003995 0.048756705649920365 -0.073269722051748518 -0.006083368694870468 -0.017662451703417795 -0.049214796758494057 -0.092112328773437738 0.0028940480938746812 -0.056749591486009304 0.065140873925124784 0.0024688879626725969 0.10832050791692259 0.086783107434906914 -0.013610996163502668 -0.16643352500357114 0.0098153769054114184 0.058620732915655345 0.088459134388597399 -0.047181276269087059 -0.018229393597423694 -0.090864582063430718 -0.016939941852249833 0.0088329766299120715 -0.054129999374402687 0.046512512252444474 0.093967961712152673 0.034826596007524156 0.027053244005681012 0.017566008754893683 -0.028649818821251723 -0.014918454533469556 -0.073560107751713899 -0.036818536051503335 -0.073422918991760247 0.054193112840579566 -0.024694964429309303 0.00023011176842729057 0.047188461792786664 -0.038070852112576027 0.0041241381374757385 0.034764954214642256 0.019556311830813914 0.044980118879950168 0.045270604703925126 0.04591624454576658 -0.024678670496482032 -0.071382258965220033 -0.045083594018985297 0.040149107578688843 0.066684789213655227 -0.05975924268229689 -0.041736755581406944 -0.0024848768340629723 0.099690908858232882 0.01624691404493523 0.022715004574907202 0.041161277387261046 -0.020302446318065395 -0.00064886815256437014 0.0060717229803767658 -0.014394598526929449 0.034245702375653109 -0.091565621407157224 0.040734584805219423 -0.020378032234929237 0.062282180340280817 -0.015063730184601243 -0.034015786575793329 -0.027247630719933264 0.068640821228099363;-0.010588003744553695 -0.050110072891597295 0.020352086658618377 0.0069339217938123787 -0.017827002693957913 0.014405829147283803 0.058521368593276578 -0.089163617170363668 0.020666581832259081 -0.026973448146746879 0.070234636805483239 0.044102199610566495 0.03649554861007992 -0.081216083133772196 0.0023092619274541425 0.0091538005997028431 -0.0029817680676415817 -0.048978134239083308 0.05798535370827422 0.028495182358001303 -0.044138281896488697 0.058881842295503098 0.028285942525992418 -0.0095732427543999306 0.0033639009621538318 6.3686034698103087e-05 -0.0026348946504846241 -0.016711456924432159 0.017647280735634718 0.031330770438350496 0.046438340261356972 0.022218272354545102 -0.10462954924618453 0.034369172515599705 0.0033121262877793059 0.043615581657622193 0.021929832002963952 0.020267175158778843 -0.13764222509319468 0.016596023912034175 -0.00052996119474040969 0.062766110397716401 0.019228235966633315 0.0012590631776513636 -0.003605768223150179 -0.031149801685383161 0.034212663265140747 0.087015833224932351 -0.01175165149804124 0.0097925092483213631 -0.024617630598970586 -0.12000599090818152 -0.0054553803490195313 0.034337956003769529 0.03051367467010372 0.0081316920241387442 0.0086272742580647856 0.0027951430752434173 -0.01991279266732774 0.023471103500719234 -0.011037037343357311 0.038684969959790191 -0.0115424000785597 -0.0057378215518881781 0.030234148746993036 -0.021580576437849247 0.068354092375379275 -0.0043888414848283833 0.01950884051974389 0.048261159398820044 0.062348989494384603 -0.0084104455552244609 -0.073624481086800753 0.0075471113712512411 0.086626177832312967 0.028002424601444996 0.040315339904531573 0.0243042788882224 -0.012809369898136637 0.017829509521000677 -0.01206545133156906 -0.077797595086902149 0.037079310636836053 0.027941373217286087 -0.016156759110386623 -0.0035576015706041981 -0.0040073187197254686 -0.043652815295467065 0.018070807159411385 0.043567947552626787 0.0128071184853075 0.0056168588284173891 0.004271351358440703 0.18662595791014255 0.026363123813316687 -0.027730156087946566 -0.034892189551185185 0.010655695130045766 -0.045104819022650414 -0.078119538098521055 -0.04419258033018434 -0.042444814264869714 -0.013981852000335002 0.011041398811235484 0.092048157526316121 -0.0076321153227942159 -0.046748069050403622 -0.017770183046691975 -0.058524405358043492 0.076790302295374771 -0.024544060179966441 -0.068158705163199093 -0.14742199737601774 -0.040064367089412793 0.0017381064061852065 0.029371572651389326 0.096242838450225715 0.020300161285258883 0.03654575992941031 -0.12322688538840634 0.042782478772333876 -0.064895231859698851 0.0061407281649007613 -0.055634809062339377 0.018048006852593706 0.041440037388277097 0.13093366246971103 -0.027579151621837966;-0.019090603579466119 0.067787547235493642 0.023091758929424149 -0.0053494490301493527 0.047838283003653302 -0.017016132054014654 -0.068972314970575002 0.12395096488305592 -0.053219713571730769 0.011158821447880007 -0.023438162990363914 -0.044964410082603941 -0.021646887023234786 0.061605161876374263 0.044564654059315111 -0.016357503079285639 0.04795673054020802 0.010056863644642753 -0.062539809756364084 0.01880228360850968 0.076642871815666452 -0.095718843180506996 0.028402333101600449 -0.0071392805236994896 0.016736520966603011 0.011599188031855964 0.0028629045605273449 0.0015582186819052342 0.0029517786670113667 -0.059427392621742799 -0.075067302629594504 0.0039351308163407747 0.094529928038900105 -0.082585710262651907 -0.027100479364333359 -0.0065273287723997854 0.016538658348975433 -0.01948913723516631 0.14505491647993024 -0.018082545973320537 -0.015061354915440698 -0.094551315861433172 -0.023731303166963105 0.029514668772449005 0.0078371175226273539 -0.0018526656274374027 -0.048770455492746709 -0.10093489753921696 0.027990365106976611 0.027015330440326377 0.079265599178766855 0.15876643438845298 -0.033273406501586854 -0.030974482860253828 -0.043110298643807603 -0.036884862762852862 -0.054365614448562742 0.039422834603481872 -0.026353808144048564 -0.055675395069292595 0.02704428484676499 -0.055429578232895786 0.064881358975049652 -0.01952489738223533 -0.011615463337094825 0.023221531835450865 -0.065850024371868141 -0.044448453318471366 -0.053149602357890353 -0.039690272047314623 -0.082868435602232851 0.00080113963622283828 0.13135179870482791 -0.0039153238815726405 -0.12951993860743083 -0.065729418142935411 -0.038401850525790565 -0.044370001905736298 0.034322381842715022 0.050902833513174185 -0.075630189646397852 0.099414997009280665 -0.088868201991772339 -0.039398852012835446 0.081924051218193794 0.034327023379932348 -0.018972525817581513 0.048519296059229118 -0.030031919064250363 -0.02538213637189022 0.035811264262994386 -0.034208326006332376 -0.040771688010486147 -0.20716213786847129 -0.031041313666185327 0.039187886155503955 0.07988846343700319 -0.036132330941891923 0.094694443146864107 0.064611384531966132 0.048922891356824018 0.027469604549753762 -0.011936618137043159 -0.018948751554606135 -0.085736522225727987 -0.021819807788836767 0.10195064563087644 -0.014016990242268866 0.092372741704090586 -0.097979472828324157 0.05078335539732852 0.040724815310205525 0.14018692805863858 -0.0063945227664924491 -0.0096697813822376501 -0.017894831735736152 -0.13457975088503471 -0.026427329570723676 0.025643511728883302 0.20005044096528002 -0.028065169811456091 0.096781885790066483 -0.013432595698119521 -0.0055635250027395141 -0.0055843442187040356 -0.06857769045625918 -0.16808285667866149 0.0022026149096435596;0.0068762472822588459 0.10680170505883897 -0.023192109474595733 -0.034267077968854844 -0.020344315852643093 -0.0097843818549539548 -0.024543360030871417 0.15367669183537078 -0.0078522850840628405 0.026240675979157847 -0.14349668207719482 -0.080599100654372424 -0.080003634485899588 0.058602822478307726 -0.024584541345310424 -0.0092452431944858721 0.011788758482126988 0.062148796509463429 -0.0038307066422667733 0.0075924952514441341 -0.0032030318891065304 -0.1069155682115904 -0.043368490243063579 -0.019052856865404321 0.045543779638932351 0.028732196800679538 0.027607712967502078 0.083502368502327007 -0.025914767296537817 -0.057318641175379013 -0.038616144129068247 0.02347297881774427 0.14904739828599464 0.0023167334418936988 -0.0056390349074146775 -0.043874245011017735 -0.11729015207871757 -0.014219483146184861 0.14471353473908125 0.0023224616584886309 0.0085964695878005676 0.022586274835067241 -0.0080020362482394001 -0.042083383221963727 0.0030144196736538779 0.12188909962114972 -0.0052351128568862782 -0.095841517250568303 -0.0087099405369980443 -0.0079189073586897855 0.030064430852370153 -0.097932301820519055 0.017032263935825898 0.052308318966861105 -0.050471383108911042 0.046171843189460944 -0.015884360991253149 -0.020993540319721216 0.019966153811893719 0.0052014068981131381 -0.025542576282986344 -0.055747520280051963 0.047953696791208769 0.0061917010574080679 -0.11405902660915682 -0.0050943214973550675 -0.028841879234161427 -0.015661068808230181 -0.011087850638649132 0.055427370715542768 0.029940837114594301 -0.012791058089023791 -0.044352287145865331 -0.029180647763627474 -0.034078928645466015 0.017995539900032644 0.002248131896445636 -0.045294811710617923 0.006021792666653281 -0.062196765486561903 0.020750905513647347 -0.0062390001298521149 -0.0071416880160436996 0.076488505501531537 0.065626766103339132 -0.038189355577952694 -0.012052992732897769 0.061871894483614215 0.013162645861797526 -0.042543337443637155 -0.11610331374920821 -0.055639682741009437 -0.017084373887624866 -0.11100731478312716 0.062442612231985467 0.043947447656686706 0.039023256797927057 -0.10055707370468961 -0.057260705256166729 0.024434784937921023 0.018951892883680842 0.049651025017561856 0.0011241608135117115 -0.023438832816589834 -0.071674043688943076 -0.12305270097031236 -0.056953169167870132 0.094111121193908312 0.029951611715678068 -0.011222544967419402 0.029475422159051159 0.11860350046038133 0.080130183098689772 -0.035419127116955516 0.040937623427177716 0.00066201493427870512 -0.035114176643317979 -0.088505584632245962 0.026987481217406888 0.086720984431371662 -0.10616994822932223 0.080443917533788975 -0.015096382396876438 0.036460359981353795 0.034654622138831005 -0.040453620770461475 -0.084735617976496591 -0.014880275986683162;-0.011232079611620253 -0.03917371663544604 0.022695606621389551 0.019738154372515908 -0.0097318216471830137 0.0085502973324757293 0.010861317416846575 -0.027365214186808817 -0.005062235327473328 -0.01530096892672074 0.029765475487496269 0.0049659360756445651 0.020855575357198619 -0.026002070941857407 0.01061456749129226 -0.0055994612591614935 -0.011306368785417202 -0.025705090838761636 0.0078953498339931153 -0.00059474750506489991 -0.015882973436225818 0.032395609600924802 0.018654551406827421 -0.0017841040912063288 -0.00013047047257986347 0.0013536033379761381 -0.0072837206204838167 -0.020040500037983869 0.01718864663605749 0.0062977688581403908 0.012813580234000751 -0.012550359047029405 -0.04572557573145921 0.010099037348921567 0.0035478454930303895 0.027806864880725566 0.014338310420034164 0.0017845501131743509 -0.072127888749618119 0.0036575487996940944 -6.2306496410164639e-05 0.0066577652791690884 0.020657173247623513 0.0038547351653348909 0.018364635773470535 -0.011981964336302036 -0.0033891501466888096 0.049305110622158629 -0.0042991206155755793 -0.018190311639349897 0.0059427004618367368 -0.010876176294825103 -0.0051257546734865319 -0.0080422648226555742 0.019557442752776148 0.017468897189549564 -0.0081409794325571685 0.0036034615641452488 -0.020743198957696916 0.0074249976374716684 -0.015163218192395645 0.004592835956456447 0.012206647506094759 -0.0049452777570199811 0.022462246680279095 0.0027114559640083729 0.025454149615098683 0.0098291057016627326 -0.0017915741242016951 0.014641805713110259 0.013908091855847213 0.013001375129237833 -0.0059044663317967027 0.0096247846451070034 0.033597782697912609 0.0021076790278123331 0.025623012842885186 0.014804172423845104 0.0037795463444255197 0.014996665706829903 -0.020165440206769417 -0.031915060556920512 0.002044271084795342 0.0059382029132169726 -0.018171958318474436 -0.0096619706784079572 -0.00044759564706992662 -0.017775099491089019 0.005564690383069372 0.0218590654691086 0.017281474054737105 0.013457086909167994 0.00608640686879323 0.074907552722179402 0.014152740882667434 -0.022379682740363494 -0.022889353037366757 -0.0025104358980869352 -0.0292471310136793 -0.026552694158635134 -0.03144475372674941 -0.010270886526691761 -0.018099514197503688 0.0084477663772616687 0.022553208989943115 0.010496262111497248 -0.0043460762621671629 -0.016863601306056946 -0.018661505628637408 0.018901374778060833 -0.010824581121385717 -0.042357715909753721 -0.045453620726112191 0.0032642932933403266 -0.0050716510770531451 0.0092640089973532562 0.035717788990451235 0.026055570857132646 0.012124595704192293 -0.05530202898853448 0.013820135181416371 -0.022970853159395663 0.0031205970117131189 -0.010026992235198408 -0.0049597316901580542 0.023710140576875982 0.051420818723297235 -0.0054954222483033577;0.00956229158244566 0.02404713901884761 -0.022158266520844506 -0.01397958998412388 -0.0083868038120119993 -0.014026443604337292 -0.0015296856335094775 0.015299268120298141 -0.0037779806943731026 0.001433489814327925 -0.053301834536190543 -0.0060755882040004205 -0.022661003004107682 0.026473996996538143 0.0037373990983173497 0.014359875493232458 -0.0072005769837390418 0.028202745616277287 -0.0037595265565769694 0.0057118819792051139 0.0078029640884018448 -0.025509795817928286 -0.013664126411420603 -0.015262888179764443 -0.0098800278869831375 0.00075019888926247842 -0.0065662912233911642 0.021770331874302148 0.00016765001881207151 -0.026215014079476885 -0.023387135587541231 0.013414329734093244 0.043657045830527645 0.0068606599192112712 -0.018462422492652487 -0.0082426563010286145 -0.029920585499643364 0.0043609616545607502 0.04333335859152336 -0.011733317778349964 0.0040093614037646939 0.011650995010306043 0.0070991936131151196 -0.014684863642896194 0.00800471172118398 0.042725040789719629 0.0017333727956238632 -0.029530845728226448 -0.0011588203614672856 -0.009382514766621837 0.0069839271201758563 -0.0082597702766556234 -0.0046278898724526731 0.019041124397346846 -0.021780093256439495 0.020909884013123933 0.0069907313637619555 0.0090452297957973049 0.0047606187109090802 -0.016913634722481068 0.0018966484189808419 0.0067376764076735977 0.016865320073820512 -0.0079254183819605067 -0.033317781296526745 0.013067794351218954 -0.0090274437354625411 0.011928008888791575 0.0071737848817815782 0.015180350328417231 0.011559583362576977 -0.015288115761424087 -0.013959020732814244 0.0094299476664944544 -0.025462946560013657 0.0092302636184952592 -0.015551169316537682 -0.020860214743840203 0.0015009086936207878 -0.015885860982066683 0.0050549364643133372 0.017280281230595627 -0.013286918646861476 0.011919284363870688 0.016914842480703442 0.0086304500731649771 -0.0007976709663918293 -0.0023208052177096229 0.0089420390038946404 -0.024232530920488177 -0.031954538364953197 -0.018974918097396033 0.0060610992649376338 -0.049581952927045557 -0.010997067457749221 0.021527648990861039 -0.012262259313908789 -0.029316234789361885 0.013604734660483651 0.010875320227147168 -0.00030455851277304025 0.015735002273443856 0.0087976317674520015 -0.014541540000791321 -0.017156819014063469 -0.0064823766160450689 0.019106177677954025 0.020040691608100659 0.0060437527499738767 -0.012015287907931651 0.0059279569377828113 0.027895910856993947 0.043755025078721498 -0.009123522250397852 0.0017913485932665469 0.0063056105109881491 -0.0090608002744441678 -0.02035562622626317 -0.0001780804242625209 0.014840498954619367 -0.0080548456896406308 0.019433873665795215 0.0069322861333117602 0.015657167974877775 0.009602124079223796 -0.0087175353663907721 -0.016553424936205582 0.0050575311858229973;-0.013739531397409022 0.0078548648369011383 -0.0030564874334751005 -0.0027034554321080698 -0.008351538031150553 0.011985203333228859 -0.0024979046620736659 -0.0094804858581474371 0.0036158239805362926 0.0011220672954146791 0.013140130925885674 0.00260740592725618 -0.0034942071719996979 -0.013712729920420332 -0.0067117463928048167 0.0073438971110349662 -0.01332287272816605 0.014426109127256644 -0.0079116056312621991 0.012058143502840422 -0.0030060783956635897 -0.0019932650052154775 -0.0039133176159893779 0.0067664425415804802 0.0029421302227526894 0.0064675244908829806 -0.0031706685659723195 0.0095615787585302085 -0.0048106724413148191 0.014262099362695575 0.011145807858759552 0.0056306527723064765 -0.012865030262374608 -0.0073141699589545821 -0.011740296703905199 -0.012397785884197439 -0.011631054443474035 0.013532020506806809 0.0044028922383423097 0.00094089262572414224 -0.0039572932820095743 0.0092098958646272735 0.0037323419125157489 0.0018352789406145527 0.011583118907583583 -0.0047451829738765858 -0.001318647216835395 -0.011477116387690941 0.0049890506426578662 -0.011964755331987133 -0.0026478946125376517 -0.0082007968238726678 0.0057299086203503437 0.0082241448621037591 -0.0075947179505115505 0.0090757624135202417 -0.0027425440706531547 0.0039200580346214781 -0.0023626364910838619 -0.0044914081156300417 0.012796568043359406 0.012729984753187353 0.0019609292156639981 0.0089142988937552289 0.0028228490590168007 -0.0024852925348732647 -0.00025676946668345117 0.008231104607955262 -0.0058386278735383119 0.0060843616607003329 0.006650954942995251 -0.014761805007230124 0.0010557868097140683 0.0019807325023767342 0.0012872677571078822 0.0098740187269107087 -0.0070542387015857201 -0.0043723594005915687 0.00023435920238633903 0.0045947217908626284 0.00093636317426312797 0.012337152536066097 -0.0078341699035402931 0.0061499981176766656 0.014111107304884863 0.0020409698804683936 -0.015092975559658214 0.006772935021361684 0.0087833695368148331 -0.011820635782752107 -0.0068640564849669046 -0.0039530404022733905 -0.0089266640349911566 0.011747173295101811 -0.0099311687311892036 0.012756796477728691 -0.00660569519736952 -0.012145976543491999 -0.00070750991612399355 0.0037560530978909038 0.0062573728166936994 0.012054161078542193 0.015283316919116325 0.010474688007932751 -0.010996112586025373 -0.00080548259865942352 0.0094194580988555283 -0.0015175393435592425 0.010317937687007813 -0.014453697292256503 0.012164491880074681 -0.01381265534673639 -0.0065863529534860134 -0.00026326180795876672 -0.0086381755407090987 -0.014193384752674607 -0.010056460711590649 0.00053510072066398589 0.0045076245528689425 -0.00096300994417606103 -0.01438690475148882 0.0087335725496410273 -0.0088732971522675376 -0.012785273373666736 -0.0038596914626000066 0.0010342060330202274 0.0072068714188166134 -0.0023848500899059507;-0.0014020055489079662 -0.032362805335148938 0.043710701135241212 0.00414168038440434 0.0079314637327284852 -0.019098677695857616 -0.0044203751715776798 -0.050330830058001937 -0.019617611369109136 -0.011012127860900039 0.085039939445412036 0.0011665510283210777 0.037100523987494007 -0.05787798094661438 0.022762517191477684 0.025752421092722733 0.0028358971253024277 -0.058545339051523683 0.030616707301926057 -0.001706245326102423 0.00070451305908981359 0.043187771108106517 0.033387718728379721 -0.008254493844462054 -0.0060148077249491229 -0.0062064317169263916 -0.023870566219258385 -0.044939147123867464 0.015710756541578906 0.050378202896786607 0.036205427132362265 0.023407728231958934 -0.092946798011394938 -0.016600379835604081 0.010623799382166293 0.042220174819446572 0.068150697267516561 0.019630785040354228 -0.10975812939231819 0.008927561746964437 -0.0057502661195387439 0.010004948072440316 -0.0013460439322994359 0.0012315201374996764 0.0081347491564687825 -0.055654990147528643 0.0016520763769297035 0.075390959075617089 -0.0041562760931834301 -0.021418841238906677 0.01125849963780934 0.023528483703821202 -0.021126926965828349 -0.021520054904696363 0.057522711931055501 0.004970093224901757 -0.0042956716988377212 0.0091129392121477755 -0.013245587712661638 -0.0020311181436939137 0.014762193436176919 0.01799718675226206 0.0026269755384788068 -0.0067774749791931817 0.042084087224692313 -0.014577305857831371 0.015525813158550152 0.025354140186481234 0.002688177612939738 -0.0097896830057744872 -0.010942819108861891 0.0022433360483441233 0.012462839288811724 -0.0092770833015646086 0.059255336747592403 -0.0091987009787535528 0.031531832336687368 0.021873592321412678 0.0057272349887648967 0.027215182366496789 -0.018169072235184072 -0.017589091891995454 0.0067338687221742688 -0.023488651735450304 -0.011932819314186513 0.013593537916330254 -0.0020053067019214724 0.0039758031955327297 -0.012541373769607456 0.044422515364427338 0.055681027878902577 0.041785538266370326 -0.0097029401263041028 0.060933704732843597 0.0029838091765967338 -0.033886479616779062 0.0016067153973980753 0.058448600211061255 -0.0088110409857377146 -0.041463983569504363 0.0066227811636240305 0.0077839040794876885 -0.019559751119707623 0.0036729725585709018 0.050167921219099895 0.042155927153358246 0.004551217092330773 -0.03673596409471442 0.0043965995486980863 0.035133490696490161 0.0053620619504865154 -0.067746923334616085 -0.071858570508957859 -0.0074792147153523517 -0.038512051206244013 -0.0097386850940960005 0.037664747833813253 0.068436469115717768 -0.008234556209595555 -0.063239582889502557 0.023515470923314855 -0.024531069322601035 0.028847117191903086 -0.040563726530930266 -0.024014925917536949 -0.0024489303741937855 0.046027737875817841 0.014911125009262213;0.0012669872016956441 -0.040112065792244044 0.091649262433116968 0.035084611378328225 0.0022143801598470507 0.021092592404919112 0.024911353532191441 -0.029609362335121132 0.0084498943461652209 -0.04830369196333819 0.12035775569649908 0.042672046194920418 0.074069885960863432 -0.058764722152188358 0.05378514979125263 0.0011155139292671073 0.010315408557768571 -0.01347981697933663 0.036530550686314583 -4.0693741286072671e-05 0.028451629238052407 0.037975532010382722 0.074462368930061681 0.027871789275576729 0.0014503745783652783 -0.035521241247454913 0.015786086513251099 -0.0087617427260763391 0.031712559081079901 -0.0035402744227348436 0.023950712259589644 -0.0064296127081282742 -0.060062645814345769 0.018426264626808683 -0.014737529150996203 0.0074235090548735935 0.10994947475034758 0.030153893651714399 -0.090475471578464292 -0.002740762462173417 -0.011468734697730191 -0.029587388986511764 -0.0067361288860220449 0.033399827853259761 0.0027260322325799759 -0.092024339061318572 -0.020829189539735459 0.047408494377324042 -0.018114234560059325 0.00062857495295738511 0.027413844769434204 0.095609161966174708 -0.0020059822122232168 -0.028225762445272924 0.023143886831516171 -0.034216875696136163 0.00058493333896283538 0.0032318007419289111 -0.0033571013708571401 -4.0612146628237238e-05 0.034013016926847495 0.0069770977787683899 0.01679505371337825 0.001148022448466241 0.075390280745786686 0.012082459763617773 -0.0024896039315153874 -0.0055136176032596924 -0.02492440977042127 -0.025885858925830944 -0.028159752173470127 0.00074548178397757653 0.068846888490718877 0.0010746227591517951 -0.0037742880962987049 -0.036731870126031484 0.011514080519716976 0.00345685489390074 0.027147224366037032 0.024864282797935094 -0.017952235231171013 0.011096309673231086 -0.0088132823543880731 -0.041682257514067955 -0.054961638347585627 0.0065344709932210433 0.0032285264370548383 0.0053352514083702535 -0.00617030999150644 0.052055170700389744 0.032062402891948408 0.018038516922400244 -0.018787307703233752 0.049962395571869843 -0.0073945439354996326 -0.040243441912352892 -0.0053699322329857054 0.013147712165160095 -0.014697379741196816 -0.0087949907685757316 -0.017703433173136211 -0.034217763382153883 -0.0185865455796905 0.02637663034638876 0.035017398621134961 0.034159912300443643 -0.011679225004233318 -0.023858087594246982 0.0036521321845231582 0.0032021891203021682 -0.0051712446761531441 -0.067551562111774835 -0.026892976129809634 0.0026301016185290805 -0.022873905206406624 0.022765122439125058 0.014008716226566442 -0.0079039054082252098 0.025808292485293146 -0.0083114075451137942 0.052538733699910203 -0.047415440288498797 -0.0040438995095538072 -0.04791562739855118 0.020698010758468478 0.021337778276832531 0.031825922211937044 -0.015407494568756506;0.0085821968776569439 -0.020896821452174908 -0.00037984066664158709 0.0016094018458278499 -0.0052388696138968736 0.0037665827992723355 0.012279152130607294 -0.011360170648658834 -0.008948132130715783 0.0068824125914661964 0.031162299987114641 0.022023491552265999 0.020004727257698668 -0.0097932458819419543 -0.0032730526454817026 -0.0065822777499406843 0.00014983377135713475 -0.021862107057245447 0.0086706726849950753 0.0015974793837389048 0.0019283938336103262 0.013843139090137789 0.0057950699893324908 0.0089928551477969128 8.818309983344764e-05 -0.010619523345874444 0.0086392798893280987 -0.0059379359730713501 0.01119089466938638 0.0083220036538967125 0.01224305271413169 -0.0035247543369685214 -0.032592279146760973 0.012962391534740946 -0.0027105733661129793 0.012786345816590668 0.020628898645108782 0.0044968649679073555 -0.048558171862882436 -0.0062410485386963557 -0.0030968573622386472 0.00069494416315525034 0.011246677200469091 0.015440527448886783 -0.011391276417910452 -0.0311299953947566 0.0087777287612200907 0.029016010156988535 -0.017495982450377132 -0.0075363234285986168 0.0074076410866959139 0.0033462996956596931 -0.011633158714961395 -0.014952496223722403 0.013995447582221134 0.0035009967609177127 0.0040050077926191393 0.01059387116166368 0.0075196235869076245 0.00047290383067315092 0.012018724542603259 -0.0067172641638498475 -0.012306437340998498 -0.012623617127979951 0.015450043037789929 0.010953046133848877 -0.0048761849794158388 -0.011455973666779773 -0.013954334844908338 -0.0052622074293552515 0.0089950683206821737 0.018764422976238138 -0.0044162411639745219 -0.010156956434424319 0.013354267308898517 -0.0087518662968112653 0.016066980503044767 -0.0010936062891249891 0.0040155864147730829 0.01835990780434086 0.0069701289075594659 0.0032576510529696433 -0.0066391630662108502 0.0078216693848712007 -0.0062519176628106736 0.010164903813850398 -0.0020431998519368061 -0.011867102615000931 -0.010776427045279272 0.0050327952919022537 -0.0034434222385301295 0.0047389254762728612 0.011641248805786661 0.035954010623061333 -0.00069080110988031579 -0.0065171558981052154 0.0068785709280399362 0.00025349421574451681 -0.016341792084238551 -0.013180557887930789 0.0039119856077127887 -0.0079921313646710204 -0.0091061866853425957 0.017407689337013556 0.034261113489105266 0.018933180981249444 0.0023319751562131713 -0.012508657617928579 -0.00057226676942027693 0.017349686750881808 -0.010719183170857835 -0.014584025035771513 -0.022192211914681119 0.012014798754086894 -0.011154994172595701 -0.0018701834013533001 0.024964230267474807 0.020348655431895894 -0.0069277348254628071 -0.013828867527650694 0.010996037393873779 -0.0034697327362446873 -0.010124879398715966 -0.016266281937850041 -0.0121124133357244 -0.0065130441931729819 0.014226623629280019 -0.0073653380303865127;0.045494020713215004 0.033825797830159404 0.017055040539322937 -0.001987414952988997 -0.039317810153484803 -0.010701187186883428 -0.025640570260741003 0.064657605707388821 -0.016398699363844551 0.00037724419776414186 -0.082113345378652877 -0.04673876243164115 -0.051584649647430231 0.047688456588620032 -0.001314486068723179 -0.018122972018626293 0.012975630232845694 0.043482702255714586 -0.032002083002016506 -0.016789907306706708 0.038087718214285644 -0.033108015116088955 -0.0070004315737146848 0.020788082578184413 0.028424123686224843 0.017382961183391658 0.017008854746343283 0.069327175010224951 -0.025877612212844063 -0.036054286557247378 -0.031809559419728656 0.038984234449092457 0.12401304721289522 -0.016919056601205629 -0.033339487250244507 -0.034958849720710582 -0.054429668718605648 0.011878684530619936 0.1401787763867966 -0.021315310725275295 -0.015449613362994143 -0.057271999223681959 -0.0091239092371541274 -0.015968610201728187 -0.00068663168038148731 0.066375765768639516 -0.003699907838293682 -0.074725341533894554 0.0042095616280851443 -0.0094146363211849767 0.02230800615298895 -0.063593157470195658 -0.0085764632401026508 0.014778057914916296 -0.0098231279547559367 0.027335119195785667 0.012411987689396563 -0.029087586719800006 0.0090276862417801983 0.00040817542246407521 0.011860313450487792 -0.024679109935483796 0.023247932495426695 0.014236368513581477 -0.064554124145984937 0.024741816891272646 -0.043499866992570871 -0.00019866472711568763 -0.021215807290180348 0.015178244173252534 0.015024488230779275 -0.0013766273976961408 -0.026822342220844061 0.012033624508276646 0.004326836786104668 0.031809042071338438 -0.03993012628362836 -0.018595172832136669 -0.0037155836520366549 -0.058191996616720615 -0.026159232132226293 0.023523970847553699 -0.050736354246506347 0.05051455754844085 0.022981078476831805 -0.012316338786750583 -0.017549254222129031 0.025108221831724013 -0.0073788988457644446 -0.031403780602547525 -0.058501156221406232 -0.029615036169803002 0.0052966390224429803 -0.12649929801714935 0.059061633748963886 0.053144039181656395 0.05302948848981668 -0.075167266072723588 -0.038424489992743033 -0.010979028733412988 -0.0089646531990728966 0.028040598017936545 -0.020960339134190899 -0.021999108510886822 -0.039332511282692426 -0.087549395815012421 -0.067141028084167942 0.084611109815730418 -0.0042991985352867331 0.028489329485299909 0.0096984149265103622 0.068822347214326174 0.085128100068948234 -0.057690096150191314 0.051807838181669709 0.026081722994134398 -0.010314220480501091 -0.055004661705342468 0.032209058381309108 0.072034421025839263 -0.044341597870552106 0.053372091718381962 -0.028023163122635565 0.018268753703570263 0.012217381738266104 -0.025879483395690378 -0.030983743541835057 0.0034856058934479876;-0.030568660892899637 -0.083704819851489864 0.076539680593471174 -0.023684612965161812 0.080903357125626074 -0.039128107333690897 0.0017481150054135016 -0.15765521116322537 -0.043960366100824433 -0.0042008196830617631 0.23097027620873312 0.036387111195796122 0.07853375309833073 -0.13875502294226252 0.02847779441635186 0.078464992051238566 -0.06779017665867805 -0.21255367777883741 0.0066883472468921082 -0.018547040696830139 0.0041778259806981907 0.12210593904636444 0.097010004983439188 -0.037191748284421955 0.023017255935807571 0.046948437489070349 -0.0709730592429927 -0.16105310029495654 0.05613923951832725 0.18035958950746922 0.09502192922131561 0.051756313594659625 -0.24742803478573966 -0.039309972055623615 0.053692659717660608 0.18868512644804708 0.16624068408481216 -0.024030759847664132 -0.3051786982866655 -0.05977908491376286 -0.023020881242521489 -0.014045136889503252 -0.029611147419460911 0.034998184487497412 0.0010331377969579969 -0.15124530727361379 0.031666428880075329 0.20311632751363398 0.024989054939350861 -0.0065533948275776346 -0.01942952096843651 0.043237934662549091 -0.033451013115126306 0.023577381253142585 0.15880920330122744 -0.025365829981509901 -0.029216723708620381 -0.0079442370036584154 -0.02925554075616545 0.017481251967334466 0.028075837204498473 0.048859612664521705 -0.020167879476929471 -0.012860266061624952 0.094602253774224029 -0.010030481692136644 0.021055971401775817 -0.0053280709955012039 -0.029933725083168411 -0.0077373962145519141 -0.00092058611833146413 -0.011074297860393415 0.046021968209717525 0.010455421724169814 0.13358701359355665 -0.00063712308996595891 0.049563476833483465 0.080005005107301019 -0.0037462768531035351 0.098504331524543409 -0.07907429045979282 -0.070343224880072122 -0.022018501018890885 -0.042899205275378764 -0.055525193189317423 0.057570294241205959 -0.0098539515587350007 -0.0017823161991512562 -0.0077373587434780185 0.10930597994763613 0.15352280492811238 0.099623275692429042 0.0075324116660382273 0.21961065804264948 0.0062441692548805038 -0.06555197221439113 -0.0074116788581752337 0.16332736380791851 -0.026419100517134725 -0.059030460255063109 -0.017365611103120026 -0.026812644925367186 -0.035241247492322152 0.035765162007054242 0.1936765785888942 0.14315218567725274 -0.0018575177129044945 -0.17447689884696913 -0.004562294581070523 0.086970014574196439 -0.0162166132854543 -0.18002598837108641 -0.19403133484306478 0.030299401189268813 -0.140307653454014 -0.046993938081076464 0.063844373595461176 0.17394047800931198 -0.030335840565382393 -0.16300425123443446 0.050452717836564097 -0.088087862508820017 0.035296704944573931 -0.09446245541298634 -0.074525093109901061 0.0050175452455945464 0.14637993203975286 0.059120890866939085;-0.011313004759392915 -0.073815045692029652 0.025294810598672852 0.0019886664474139731 -0.0010064729102270968 -0.010599192746740066 0.051929768666501737 -0.055816370509146208 -0.020103697872191434 0.0033308143829703391 0.069711140325639617 0.013102794411673098 0.055504123359211656 -0.053119153326020331 0.025643170087293145 0.022110533523842506 0.012306020413245989 -0.051343168333989914 0.060685831588539456 0.025914886538753505 -0.027052284910073703 0.048738304285103194 0.040756663548556865 -0.0032160096022987132 -0.0013721209366133551 0.027593637305205684 -0.015755168426726033 -0.035391325381878211 0.036750121506398954 0.029037764169656168 0.071642742075662555 0.014099055374109527 -0.06873558795113309 -0.0048067200423411033 -0.0086449844805717539 0.027468698249190061 0.04663503750569787 0.028269122578045657 -0.097986350797517288 0.030791712580599172 -0.031910300010902073 0.040988987959762108 -0.0069753747786394779 0.00047458520161101133 0.0062674657399157769 -0.065244748960158819 -0.001030707187364996 0.081367359868896899 -0.010180185006113642 -0.023948560879596386 0.01631750355914938 -0.034624860422633588 0.010594865170445798 0.0067895383025285147 0.0013725316107158791 -0.022287219322497432 -0.028149732785061277 -0.054056019773046124 -0.017865296866512347 0.0090599522271292213 0.011652508334188903 0.027627129086438919 0.004340808232099219 -0.006231137894858272 -0.015139253634584366 -0.011388437894890602 0.04686788005246708 -0.010574420446256925 0.011052045200753077 0.006757581830398025 -0.018267262060288218 0.0038901478120182292 -0.018660781354930159 -0.0089668163830550554 0.082732082768974077 0.009389368765084935 0.038765072448601244 0.057669560867145767 0.005290368110491806 -0.00073939399312065058 -0.0080846505946727629 -0.037339403305227559 0.012291008357780929 0.0017630238150327939 0.0096485677927223464 -0.012545700409403903 -0.0018779682725183161 0.0024916951864742817 -0.0097517946870796426 0.086858080869875606 0.025483308698035358 0.035128267612819605 -0.028335535416460465 0.10878392142632155 0.0016558735292107277 -0.05176695394815186 -0.0090446491134720426 0.031775589487345712 -0.039904512182792909 -0.05168666736218698 -0.059638986273641073 -0.0053043347916970499 -0.023108857494030185 0.0051267095870581019 0.059642295091003612 0.015085025524935656 -0.015425416141170213 -0.028656584507099982 -0.0062897523087377862 0.066421456453493011 -0.015602102555444112 -0.060025124876709135 -0.060886608909218924 -0.017075594505162307 -0.0017196433824395679 0.01578518734927933 0.055183379197377855 0.03756716585095142 -0.014343268027431331 -0.074416981500388141 0.024127598966454739 -0.0058977376122745021 0.015001529695900904 -0.070207323403544741 0.01119596286840799 0.018960915967653362 0.056783168332468957 -0.035073251648571287;-0.0047282105240988226 0.015852328848326307 -0.023865493413159088 -0.01879742044344207 -0.002665207603571848 0.0087541483614885941 -0.011067346723816493 0.030184145442437974 -0.01042028748943085 0.0087849726334777358 -0.041459449480869458 -0.016037049516175794 -0.033620386596875378 0.041674268327138685 -0.018783847484764284 0.0085735746883174833 -0.017244036058079098 0.03213041540894955 -0.01982811208114282 0.0051212736740215304 0.01018165961355518 -0.021278859362052906 -0.016444249927409102 -0.0069805438701654116 -0.0095517150847376654 0.010927936829073672 0.0093941943671972394 0.020082786513997732 -0.025250343601457077 -0.024719413295819885 -0.015614260118673836 -0.001915075863619418 0.044360377533982143 -0.0094368755008817258 0.0042174346948139528 -0.013269221521803147 -0.027370708796381218 0.0078870739935202709 0.073356763310451698 -0.00029147058166158055 -0.0073412905247671129 0.0064996769509705907 0.0074112602926098819 -0.02331153071112799 -0.0017386371475665947 0.036436232200337482 -0.015369501131084186 -0.038593185730269888 0.0060575100647344577 -0.0021189857038015456 0.0050175529973081985 -0.023740615304485874 0.0050159523081480363 -0.0013828708278197316 -0.010533870726811041 0.020244365240901792 -0.0094375868205285596 0.0037784150133072466 0.012883297214147825 2.1919939430804786e-05 -0.020824402235191244 0.0062925687934188091 0.019831910085165237 -0.0036161266486889328 -0.011073450804324697 -0.0068232240327763564 -0.0085269421988529159 0.015197981075929538 -0.00024314819686989503 0.0085480723900312958 -0.0013280875093142827 -0.0060240083941012533 -0.026381679483023144 0.0097380813221875466 -0.024600868471562856 0.01518890606589853 -0.0078931310603162132 -0.025782536784399207 -0.010170291246319184 0.0035090396976949806 0.0047943330950103022 0.0063878551618544764 -0.0043314101029072139 0.010948657897611309 0.029029978930833387 0.008702882470927131 -0.0037593998074750474 -0.0011784031476750215 0.014694814211495353 -0.015368910659819279 -0.022605840640765471 -0.019103900604051923 -0.0048250934272498266 -0.036843025389585206 -0.016120489507248151 0.0039366843852870681 0.00017554287135061674 -0.023935193329379226 0.0059511728491475346 0.0035000775818042409 0.0051957653080514452 0.0034455120492027204 0.0084618981788987645 -0.010563081635150177 -0.024706639868088534 -0.016039920829255237 0.0045235257166723877 0.012043084011315222 0.0037518180011800774 -0.025408737736298641 0.023230189711654841 0.035633762845394101 0.047635490709352336 -0.0012587817526079246 0.013564021957445974 -0.0056168219507635574 -0.029029206702062407 -0.035506643726415855 -0.010557797198778317 0.046520768026798567 -0.028007668487516974 0.017484679079185647 -0.0089059136538665266 0.039936423309140073 0.011668563005033439 -0.0053512519136239617 -0.031481932500765392 0.013086179036004638;-0.088613937776994764 -0.033472823444488591 -0.031685916582375434 -0.071223687620888917 0.12666999989103292 -0.13860227994820087 -0.17286554826580458 -0.043346625763582995 0.0017232807243695429 0.04629308433072498 0.052817012748096845 0.021397291751100254 -0.063595531260112526 -0.11199543515643419 -0.074227447513211073 0.10813488576702654 -0.018588486630083851 -0.022004489862300768 -0.10404564787876378 -0.13991168045516139 -0.13203605365158061 0.069292931886314954 0.01453082046628571 -0.082712110553219739 0.096058152283912623 -0.080099053449659854 -0.16978098234899416 0.11788389074170898 -0.076979816387850689 0.0043802409054141461 -0.018749371631020705 -0.076730828052482131 -0.21421121315611766 0.021362035565076456 0.18077371176089893 0.15352790658795853 0.13190800640054043 0.0041455763331743264 -0.18213950960026729 -0.04196480831372814 -0.010270069961975669 0.13830551045389444 0.18706296073408044 0.050307593666391738 0.051210202661739278 0.10878097735379161 0.010552654821834232 0.096273140452289616 -0.088408041851407881 -0.073850444733497903 -0.024956280329798207 0.46953240371532784 0.20643790117982977 -0.1876506671454316 0.18192402746168876 0.11384039032692247 0.19361598863573004 0.13804420411873647 -0.036016055740115654 0.14594602279077792 0.010514953374213439 -0.045331486141051633 -0.08164616269508497 -0.1426235489005144 0.15313993285804581 -0.062973394944280545 0.050760519497452403 0.10825279792219851 0.060638590879504413 -0.23683811665045174 0.0010783964589398841 0.03923505758873181 0.11781306045966032 -0.014471487157024497 0.0094088496808277019 -0.080466250347084489 0.025571096844048201 0.0034096550700712059 -0.20724935801405961 0.092515452592074027 -0.088542122840494411 -0.025268899980638665 0.10996603308439752 -0.1051043149918859 0.12318498934357369 0.28524422436277613 0.019736866679466419 -0.059424491351319615 0.046550938509373273 0.048682305983910441 0.23262652485293966 0.10424919524114862 0.21471513345873869 0.0034649658553522382 0.023962975444633123 0.0048359462006233042 -0.026594826182070541 0.051531652169802038 -0.11287267515265638 0.023673151949167675 0.079804423854014261 0.12455818764819299 0.028334352237305505 0.084129326138957378 0.017189188693483241 0.31140371052138416 -0.10817329759769072 -0.19748697902581669 0.10701320185223578 0.052069116737922597 -0.007758289368641199 -0.15758919802588034 -0.17849290126329884 0.11324487188702699 -0.052129885404547625 -0.14300963385216475 0.1131541135706081 0.13877656434956823 -0.29419531979477559 -0.1155618568204001 -0.10711461879983877 0.015275250887228243 0.15856743400193971 -0.14313481263064001 -0.28711685117743063 -0.04583004990933031 0.063528992166781983 0.30934855536332262;-0.016404763445597208 -0.019228225159247016 0.012797571293598663 0.0064282942605814793 0.027223708608398157 -0.0066753498956924531 -0.017326743615387871 -0.042632255195440297 -0.0084368474814136632 0.00047074562263249337 0.057369497195986732 0.014930483786760294 0.019064562581431767 -0.025681790670269888 0.0026071839155868137 -0.0047760092096077048 -0.0074124183978669499 -0.05290639577982275 0.0021959386269256712 0.0069703997203277024 -0.01519230990451066 0.010885127995281066 0.023217181673099802 0.0085125597631262422 -0.0084681585541751397 0.015973207897516981 -0.0066449488249996202 -0.012497635939405425 -0.0048318376941834454 0.032750355126921295 0.019518076629401734 0.012255655604759842 -0.06312437212174786 0.00056035519576216484 0.0059782497167954344 0.058653761739430113 0.048501564527546441 