function [Y,Xf,Af] = myNeuralNetworkFunction(X,~,~)
%MYNEURALNETWORKFUNCTION neural network simulation function.
%
% Generated by Neural Network Toolbox function genFunction, 30-Mar-2017 19:52:24.
% 
% [Y] = myNeuralNetworkFunction(X,~,~) takes these arguments:
% 
%   X = 1xTS cell, 1 inputs over TS timesteps
%   Each X{1,ts} = 9xQ matrix, input #1 at timestep ts.
% 
% and returns:
%   Y = 1xTS cell of 1 outputs over TS timesteps.
%   Each Y{1,ts} = 1xQ matrix, output #1 at timestep ts.
% 
% where Q is number of samples (or series) and TS is the number of timesteps.

%#ok<*RPMT0>

% ===== NEURAL NETWORK CONSTANTS =====

% Input 1
x1_step1.xoffset = [-100;-100;-99.9939;-100;0;1;1;1;1];
x1_step1.gain = [0.01;0.01;0.0100003050093028;0.01;0.0869565217391304;1;1;1;1];
x1_step1.ymin = -1;

% Layer 1
b1 = [-0.72556991530147641;-0.60357593716029601;-0.77634570683795479;0.8836204282967175;0.77244633614989;-0.97359276052880395;-0.18051885160124248;-0.30650984284157751;0.55508786107352559;-0.47806667338381281;-0.56229095634786064;-0.73219032816875951;0.034650439357483041;0.54405066281903081;0.07422826796293662;0.41497740420965146;-0.28420672301915473;0.14653585808544814;0.64665214733813525;-0.29541886331628786;0.20635220076831448;-0.00011249353989560759;-0.040985482674397972;0.46382472564303762;0.50037644758117583;-0.0026637868634563125;0.36346316785557847;0.074109899288305581;0.12010437736089542;0.72195304893175172;0.034592921259881976;0.02675321080503951;0.13957388036962726;0.040930995430420877;0.44471211302097874;0.18286762193225381;0.54956404797036895;-0.37990301325219861;0.10476262422651095;-0.38047793620541015;0.18729900683893222;-0.082250110279205174;-0.67454499631883491;-0.48314102193103903;-0.26052186492891233;0.5183979021625521;0.36822681919839151;0.10472121606774494;-0.23501439376615749;0.57630912627708586;0.34073588449247538;0.72175034555760975;0.34363350566118384;0.42608921045289511;-0.67152534757270077;0.67849549704678358;0.6458580437532071;0.50725702923092808;0.62050651936066181;-0.55803831771100176];
IW1_1 = [0.12735365027405018 0.018762418998197628 -0.015340365230685639 0.29573078302024797 0.19400102108958031 0.78773937500029512 0.26548333711141636 0.027273824221729012 -1.0560077599984139;-0.08093329452471168 -0.063860345845961106 0.87489874218233765 0.56410850874919682 0.32479724874948568 0.1319552923517911 -0.27648702255053953 0.2959905945287436 -0.0097286181833388299;0.2748918491088595 -0.12192827912951423 -0.11919185687364613 0.10003984533930556 -0.98485999857831796 -0.07274146823064323 0.15945529869089678 -0.30183959266901345 -0.29842817661577731;-0.023442172575759493 -0.07233388382350861 -0.056053519155771253 -0.3949286517261531 0.12895856752578819 -0.035203628796663118 -0.38436152808341267 -0.70515154716911355 -1.2336697583557954;-0.019595027673385054 0.032174014537045353 0.84043233485389002 0.64612777122781562 -0.086272325529208979 0.14302285876674317 0.075021777366569911 -0.42716228112906346 0.027573494556854032;0.04508808575516738 -0.23928772010729235 -0.25505321753471155 -0.032658524011876598 0.49958133132661015 0.82653801173890551 -0.30329577624411042 0.0069850964306909808 -0.82947103939213551;0.18420141117149016 -0.25183109967740436 -0.24987508759327867 0.72268008959315955 -0.25779776705971269 -0.1266543967836937 -0.239644690180814 -0.48283911577908184 -0.29786055031794101;0.035971812088177138 0.17310910568317184 -0.8018315105370839 -0.28565350676502055 0.73332294739064441 0.23477004830824413 -0.47316139756506753 -0.17007298698077344 0.31198073013995625;-0.068299424078544085 -0.097600337289128827 0.38772145725443385 -0.26430654501443179 -0.26803996142777925 -0.30894019414071561 -0.5458165726858194 -0.40078154715626091 -0.23022462141171401;-0.11936987740569237 0.060747985872962255 0.051837010624580744 0.66396257399624936 -0.47879840090677966 0.069600608138735143 -0.86553386187510473 0.19425341567531501 -0.27004737723127842;-0.022343338729795464 0.0048155377099644752 0.20066239741482764 -0.57369168332438869 0.17686418143146973 1.053085759568315 0.65973145037082115 -0.013102574179907102 -0.57223812224798587;-0.060320594568152502 0.11405139426639839 -0.15604757453060009 -0.68804936221560609 -0.24407950459605166 -0.07248704367268631 0.2067828380387613 -0.83646397318264742 0.33238710533414462;0.085137786663573425 -2.7229039545186566 0.072803799649070786 0.0602237136255592 -0.12097945006289539 0.072318429843145363 -0.0026954262118954438 0.0072111153223013598 -0.052993004723614304;-0.10278239472378434 0.060141902852981301 0.11954756988939649 -0.15625727244438187 -0.78825378923294109 -0.34635555869839901 -0.16927837136094909 0.96145416378185322 -0.32907422290199184;0.13785076967877896 -0.10505465445702172 0.35589359314547581 -0.13284854303600485 0.307508088687032 -0.042104003656097434 -0.75544745615135744 0.11379127428503574 1.1735136088530427;-0.10480427707629031 0.081814242594500139 -0.17462370266810986 0.2466061557266879 0.010406789080574208 -0.11279770945881017 0.71646563835208343 0.15144621257011806 -1.1466750399891634;-0.018641384806217246 -0.32013467868629614 -0.28571602198264823 -0.2522847960384953 -0.96993837057691334 -0.069328683920624357 -0.091246172766090552 0.024898603639403702 0.22102807870869431;-0.43004113443559078 -0.077678595775951667 0.042460624546015818 -0.060382334781651739 -0.80545336304674864 0.51717809428733263 -0.14576908348565978 0.094535349435767968 -0.40653546202715912;-0.055948973209592266 0.028689670717046374 0.28391339663589998 0.12843864943100775 1.2300308390775154 -0.20036926171241973 0.24618332738741755 -0.053810708904358233 0.43362177130558188;0.05472400792678745 -0.17571394596116569 -0.040825051805697919 0.24741273786856166 0.36580106122612233 -0.22867044268456857 0.16463359632259009 -0.63436795375453658 0.45586748595493132;-0.2519848334987223 -0.26482381372349822 -0.26890718789282664 -0.44298907523407705 0.075492998000242492 -0.15588612609971572 -0.1500080218009551 0.19884492307769519 0.48310375186814736;0.23363078893130818 -0.1107385950967416 -0.20229780998767435 0.047648290053276955 0.55919496078028741 -0.017252001290313592 -0.34665490364093621 0.36173095294973534 -1.1206388504697318;-2.8105409007770192 0.24690301543229709 0.12679197938387549 0.091549336458179809 -0.17588118249554788 0.013722304380129897 0.042333192022995327 -0.025609229682747706 -0.020538388933233086;0.21326837671620924 0.14826908853873402 -0.13660944751155515 -0.14852002270708226 1.0528717609828477 -0.040068625227414938 0.0048843470619332292 -0.062761766039758166 -0.058620775613850797;-0.075798825837658401 -0.16475454501815726 0.51726430801563295 0.2100519706663754 1.367463657471139 -0.1191510539166202 -0.029298387364240258 -0.17040600096040456 -0.30670108303665611;-0.050145666200566333 -0.044743393270644111 0.13142590713259375 0.90388190997339157 0.0492572462936633 0.45501142194763755 -0.85305937167865742 0.14015253203166261 0.60291181841591779;-0.026277809564170893 -0.098966748564382742 -0.068073226411793461 0.002412841776667543 1.0981436718043998 0.055867737874873147 -0.0055416796248092459 -0.075074614248136745 -0.045937404599529351;-0.071487380288707256 -0.02527917546599524 -0.46503841877114266 0.40316608740714832 -0.54685644044209547 -0.17919500158530266 -0.38028145118305207 1.0684069465451966 -0.78440128639378126;-0.0033597873376679829 0.28346095617091532 -0.35607743125121377 -0.2318089918303442 0.22445840981201826 -0.090805283587761326 -0.81200573192429126 0.007342244744033632 -1.4532471891918535;-0.098545866190177717 -0.020562717100009995 -0.49134397113834333 -0.24802889640002468 1.0673834167710294 0.264286381915112 -0.22869449899685912 0.029547002265301742 0.18468290844182245;-0.13408139087920579 0.02288177142836377 -0.084352953841715331 0.20995713227335713 -0.63300676242542198 0.26702865151810989 -0.61037336230218453 -0.84547343819781251 0.26274754902860203;-0.010259763519404216 -0.11704422498199979 0.18218859080955854 -0.30750035297779532 0.89760730973305902 0.19879489356207078 -0.17250574482966277 0.23836122119852884 0.011541279209644302;0.23189787480281646 -0.026530110860379121 -0.1309417575742757 0.24402248830983672 -0.53472700556848329 -0.58075457879228776 0.46425870668055852 0.29260216182147269 0.32775734370210047;0.17671720654632636 0.039557066885793517 -0.15910605267617242 -0.069458086648815698 -0.49352384010845646 -0.35951888395817694 -0.082169262406539281 -0.55319613579324489 0.91559692641586132;0.14649973979898831 -0.13148559199779675 0.60970223124228784 -0.40995815457340745 0.030851961668813002 0.58528314020892946 -0.52412331183138872 -0.015218052732134363 0.55177653396713111;0.047720260069742754 0.17765285391203176 0.018895259059334299 -0.068047306547087974 0.29641501433199652 -0.14936899893517971 0.087999054623921852 0.9214135783155698 0.46922250095470636;0.09545148952941257 0.043618722991098632 -0.095166151634994797 0.016092475993832542 0.037062549941382972 0.76535778762084672 0.49467145438817361 -0.83257117734662389 0.25233929308621239;-0.074839686128570504 -0.12625376859971282 0.09355813608959529 0.39594111991081143 0.50109113575318143 -0.61765835776430122 -0.23020596195743628 -0.12747329914429648 -1.1560391924212361;-0.26343074742928158 -0.0937585229303598 -0.51603500474225261 0.569195043042513 0.54669929438343523 0.16216986823325943 -0.62058329990789951 0.12749667828282182 -0.19987332041837094;0.043093453560754814 0.039738410733571372 0.082386992263534728 -0.18419353137939554 -1.0033165111156228 -0.20765968050516581 0.59528408539314637 0.72621715883734161 0.28660044531768819;0.20507030816909386 0.15071405613805677 -0.27887217298220984 -0.049912167106491247 0.87595269991237557 0.79154456834961329 0.64075560181453151 -0.1122270164608475 -0.015629393934295278;0.22329936403344849 -0.0070645315263739737 -1.1366521214407788 0.13905495596804293 0.13475072389316747 -0.18695161083423456 0.55855276004732646 -0.063567555246722751 -0.1194637857506483;-0.53399367811737208 -0.44606675242948746 -0.1643437570113214 -0.1616363013309273 -0.19922232194465275 -0.012520332902298937 0.41039945225966906 0.12781371781074055 0.53619750479778439;-0.25946646903060722 0.48401827734949249 0.081006830777544919 -0.16777677425085796 1.2085700620817168 -0.11537761605013548 0.060217139480256823 0.033269482937777012 0.17594822479060362;-0.21061149938259582 -0.34918514430205172 0.0070688403157858877 -0.057719128111028244 -0.58982248293929962 -0.021267477840833188 0.51937468011950383 -0.17951737364114823 -0.28230527335737471;0.24050026974878527 0.043972719017617498 0.040511210594007696 -0.56399243492335116 0.067534946558503797 -0.30097904226335243 -0.4975635358438561 0.43446413342549406 -0.45249540412368755;-0.05957925667711416 0.10900177178974303 0.022860503752825764 -0.21556505423883129 0.2648420370724241 -0.45576842299577958 -0.72888985359554548 -0.40149968646352713 0.24803679314629853;0.19168320922607884 -0.37553608687145684 0.018468522457638914 -0.11380117649496248 1.1222218601118465 -0.14903593349855776 0.17615069479711715 0.0071201909309203341 -0.047364480533898745;-0.097270133071744105 0.30397131984303932 -0.12099940348013838 0.042224301542118599 -1.0226024585850639 -0.1889014304799401 0.080153801921498749 -0.0436097157897107 0.24572861372793037;0.16637447657146323 -0.13916911275450269 -0.2130162455714906 -0.14008475385260097 -0.39369793196421826 0.29128551094987454 -1.0150191625184404 0.31398692254791671 -0.23007020361875216;0.097582636669726081 0.20404031451270002 -0.056604112578866154 -0.38777112829220944 -0.65482832435273541 0.069260017247957564 -0.39395750374983635 0.15953523353988178 0.10518116633825374;-0.07816709216692283 0.096017616064732567 -0.48880775923220393 -0.24482961623777544 -0.68480969830416016 0.73225452381069267 -0.35927812046542007 -0.29546544157606236 0.14662227229569699;0.26215346506269099 0.049182672036591948 0.011156046594350577 -0.43494113681842556 -0.65709728167793591 0.49832867579644824 -0.20028919671098649 -0.22081683861322018 -0.58814302373835092;0.46288322187048125 0.34866636135740725 -0.12634625437658242 0.0054293357246295755 0.14367158598820165 0.2801281252473003 0.34241814473261817 0.22821129982583543 0.1968291933262947;0.079936930664048764 0.14498381005785937 0.23059080108460647 -0.12594930804540916 -0.46278366273214017 0.62952216446372988 0.50132375828753417 0.028875056243967911 0.44644245873909905;-0.20824090360067574 -0.026928820983646622 -0.40673037831788011 0.24285319278171866 0.67657713040294087 -0.29116433778732353 0.22714788522615684 -0.18843963965776836 0.32246951115553912;0.38078434733055722 -0.47008335409370222 -0.031731969876042806 0.006332407515602375 -0.38518848110272563 -0.15214949785066334 0.73836247715412395 -0.17923534210004485 -0.0047047141060562849;-0.057762245063252608 0.1134003652372869 0.2247951844712483 -0.10294039427015149 -0.49204481859560689 -0.28886970986702909 0.091860546249712946 -0.7353688015313472 -0.77906802496183547;-0.071145071759929207 0.098585377970387092 -0.43145041750839486 -0.22604075407121921 -0.24067963603928169 -0.11474284343308787 0.87709727739220134 0.33256318124291068 -0.25769737317471747;0.10239317139718711 -0.11401029074617133 -0.093415769923304484 -0.26021936717660649 -0.0444157714075058 -0.53978837318346284 -0.3879434551398811 -0.21698237416452834 -0.17556115366606903];

% Layer 2
b2 = [0.31065947229831714;-0.091197953511794494;-0.014377478909228688;0.18134184022585065;0.049841156724327387;-0.18430199300139805;0.03337712769931124;-0.054667246571076092;-0.03344596331769456;-0.14905857869465838;-0.24649177457018298;-0.2766212767129631;-0.072056484151321806;0.05131325271590715;-0.18227704376538506;-0.21722590210944703;-0.043553490835891551;-0.15031043822500154;0.029567114257479717;-0.11069592704693693;0.10601954154260534;0.20897562465104727;0.12405798521131324;0.20963735390215668;0.10920195236397183;-0.19554163919487158;-0.17372002456689875;0.11849369793303455;-0.28667294947930838;-0.11734365274881248;-0.14883342324759161;-0.057995064098592876;-0.057197767521749036;-0.28014497019762474;-0.10209531536342265;0.19925079329596204;0.068151349221393182;-0.1970598874299036;-0.27073944845955583;0.032700155437671186;0.29769145502937866;-0.19853974027416768;0.051833139947732386;-0.11789464886696781;0.24570422414877952;0.34401176122145838;-0.17960415521380432;-0.21034750961044216;0.12269138396742266;-0.29745089624420085;-0.18280427689305931;0.14223532521822727;-0.089843301647197601;-0.069128116317317634;0.22265728026997836;0.1398729988364614;0.17236083834319019;-0.2456740727221966;-0.081146082490717517;0.13194628384284987];
LW2_1 = [-0.125483951395292 -0.10488496419783847 0.12376364578978793 0.25793550392462677 -0.068156613120309975 -0.1368204987748638 0.049505498066388987 0.28774190304778458 0.16853629329746422 0.10112187177301241 -0.1429108264128976 0.15863544095123583 0.12300109806442572 -0.11242180187507683 -0.04889916776322633 0.079063113329111465 0.19271083036038181 0.076315953722489588 -0.051123215032966199 -0.19557273944251513 0.060933515867223877 0.10984209280695199 -0.042563972995719124 0.057379156559094528 -0.21941036976794959 0.099048153081386786 -0.074848304885529182 0.48272150348323373 -0.027510494043157554 0.0076659283196885732 0.23583562829511232 -0.10983158138651321 -0.059047951168218364 -0.059943365722826297 -0.1483935926222531 -0.37854595851668343 -0.21287506833997616 -0.094881509396363417 0.15674230500994596 -0.16837005892555779 -0.055337020578869835 0.20691423051639604 -0.23845453439790915 -0.18304874136120911 0.08029550227550071 0.14676702820187945 -0.021839436576519773 -0.12958650434741506 0.1168308234730594 0.053334372031301869 0.18112734991336429 0.032067757138360069 0.18548357003549673 0.12998942226322774 -0.070016344854639825 0.064620394369828318 -0.024287779688019359 -0.026219666587171141 0.20800157623124033 -0.18082993524076452;-0.076273265996018816 0.15382557469454541 0.19845080795343703 -0.13685087908866453 0.14622657328693789 0.15306611722725846 0.096753756736993962 0.12039736569271511 0.23469974783513009 0.039412297577784708 -0.15432279935924448 0.059646728319398226 0.27242335454477284 -0.20335881564859179 -0.037141409683944943 -0.020778673354932786 0.11394751132215737 -0.22539822417411967 -0.19738523747428977 0.082804701384581111 -0.15488126167074098 -0.25316664083263907 -0.016597400723095585 -0.1409500288480047 -0.12567052041292534 0.098416395970539888 -0.098039447740576338 -0.18906651408588235 -0.1830004968680842 -0.12721722688752252 0.24715790580641808 -0.18167792952872569 0.013672860758543202 0.29779178024545855 0.023044066738263008 0.05914652364791103 0.112962066568623 -0.076217784051150775 -0.0076021919329416991 -0.1621339848211665 -0.075459776184046312 -0.18550043265348259 0.024426411431284538 0.08477205352140002 -0.0088179547547833532 -0.29689799687082735 0.086902579792009285 -0.1109231335756926 0.16668716111845996 -0.10374444348850657 -0.050790826779620185 -0.11852452228150023 -0.0015408942465408428 0.053814207765091063 0.17186359569560494 0.052850727135601072 -0.20946770697755815 -0.067596566687758722 -0.11806685029278235 -0.013416246017112702;0.14284507458303164 -0.072015128845773477 0.091347423041350836 -0.087757845081447183 0.1384798099805003 0.13969818641412246 0.051035117058223854 -0.048639206428592846 -0.063144990430328327 -0.06473599467023361 0.21201246776228733 0.24497981879583183 0.10466898394330382 0.13621926380188557 -0.091748017848353028 0.18591327156644893 -0.028873240936361625 -0.019337275284832138 0.062066350090038344 0.01656895521103777 -0.044128848659449091 -0.19352201013318715 -0.4022968215785423 -0.07906580016089472 0.0067311980223006196 0.086984676687415163 0.011926116726374489 -0.11459694324376768 -0.11201424824057031 -0.16651260645445298 -0.033853604854706405 -0.061959409366131778 -0.092460020374931479 0.0020722471372074639 0.090610725391512936 0.061415218839577006 0.21290905756492551 0.037330055372859688 -0.059646506271606066 0.026374013139202832 0.058261424611826082 -0.28278802067160597 0.1279949710023266 -0.11794163951666631 0.16016610270482814 -0.13334992574619139 -0.077163057484604974 -0.048620815575559855 -0.060604738448178312 0.25473147828093656 0.06534428124088873 0.24547978035739848 -0.091667309248836412 0.01168731009712282 0.1469135178561623 0.067314788638801012 0.17088280597970215 0.063360067765237227 0.28559250683877041 0.022456198059321371;-0.14761688152406291 -0.17361389392137261 -0.39677660004167631 0.50125631429834439 0.31629943088143142 -0.1545200865477914 0.024267330484287773 -0.16752027044741485 0.10477464916197056 -0.053675962625994597 -0.27015381174312253 -0.1324280775774242 0.098031151752530007 -0.17736232030373508 0.038415339642965736 0.21898679685991534 -0.22084704477181638 -0.10953191457827413 0.39685060002912442 -0.056174528948443991 -0.022768149822293051 -0.19419756241706088 0.13346552744779799 0.25667761529744115 0.23798589574908674 0.062263619403187663 0.22297515689945324 -0.063003586137046375 -0.16501729280938379 0.23811830607100212 -0.2139951238504699 0.069374616666590311 -0.062091863274927064 -0.057106721098858511 0.066481387157823757 0.060202036167755511 -0.12993821891864438 -0.16268607037661964 -0.10905832505993099 -0.22219726207614238 0.18221420748414521 -0.14367774310764064 -0.32314075734208497 -0.049027710370662232 -0.089366086043202689 -0.19938362741250501 0.35237542384143111 0.26456310809291372 -0.29605186849685156 0.055489663553169866 0.055223856681449142 0.023096796017595188 0.1924503032493009 0.084872899602769197 -0.21349893560674399 0.21026958784535685 0.4230444964460503 0.28026731964775564 -0.11880846018774155 -0.089761010356571608;-0.16206847278069911 0.26480952517217554 -0.068715046362910107 -0.081607534321190389 -0.19329252586525936 0.41328530643169636 0.062899885856543894 0.16890993585803202 -0.17106645385009722 -0.016679420123354254 0.39914218733225654 0.29045423701948869 -0.081016849226994606 0.043300172384572212 -0.21957680144192337 0.034519437547861166 0.056081440027035342 -0.11857771504377058 0.31805283535647833 -0.088741286820004067 0.16071433374534794 0.15622270364214838 0.025467121453843916 -0.045722291690716184 -0.048370253629890898 -0.039770547889001563 -0.006736380184422997 0.22063713965161708 0.16920955034134766 -0.22963538575235445 0.28769948602510936 -0.031354498094961145 -0.011353952908686907 0.11506908518166369 0.094384767473622511 -0.19219834282725723 0.023874316622925197 -0.69247052410794319 -0.033591755183615096 -0.076428142446415104 -0.096850960889097504 0.030245841800365224 -0.072091642765620273 -0.21851567994065962 0.12522839902975377 0.2603167065696822 -0.21128460604614402 -0.094918318444911803 0.18256457360042913 -0.27840919361825128 0.11569842400451404 -0.14765970457532449 -0.12465748577785685 0.16737901145985662 0.19576718162226303 0.021219541924547405 0.030603273050305073 0.0046853737174344795 -0.060819615632722632 -0.16119035347680327;0.21990964778285654 0.21516265219683606 -0.050101812006530785 -0.06629408354484248 -0.10520098569751446 0.11383534125344087 0.032486036237008784 0.5542586106438302 -0.14501393774023943 0.0057749206344442378 0.040443270130397557 -0.11776821077960682 0.1689897247343673 -0.19795878111936113 0.043159657871285062 0.099518968833030103 0.048461675228744804 -0.36048869721104365 0.153720341368212 -0.020170610703990868 -0.068794324936864854 0.015423855381519604 -0.21785687362343106 0.18893049732680534 0.028209550253471907 0.091145240458356425 0.27122053602149804 -0.0006504741058281048 -0.30948821875849986 0.014896983127302069 -0.099878632225796696 0.38128215715122754 -0.094413327108554615 -0.24647816299969288 -0.041099227253581734 0.11189390035899109 0.26235078869032097 0.30913413078403773 0.23607067232325032 -0.32325528762906119 0.01032373771659963 0.23400359041012156 0.12499640080698245 0.68818124369939715 -0.096048570922580984 0.077072453089938597 -0.17933767926397004 0.54149294334396103 -0.33057574522690547 -0.21048320412479721 -0.22757712411786568 -0.31299280728768114 -0.19080023223013812 -0.19359060118331323 -0.078067470513680987 0.14478209329175354 -0.25436194467479051 -0.09438822260949456 -0.28106843831765094 0.16955533675143744;0.23077607504986539 0.0082834859434586725 -0.033208179349556909 -0.095779072499535683 0.028682497943235897 0.3221113941050357 0.064282026042931553 0.091527645360671886 0.064905277982657814 0.090806792072992193 0.14195290864513294 -0.27871621209102287 0.2273563052291365 0.071590524515384113 0.086423367837584933 -0.24388828646922889 -0.15456186852176554 -0.047608323397556385 0.044246748307150398 0.092777841390024249 -0.067438909792171112 0.10568356275094822 -0.090687336514533867 0.079730323889308494 0.079639070644155832 -0.054119891100275236 0.080943410950437528 0.1403669346610979 0.27035091929766109 0.15280965131455307 -0.019184602256964361 0.066999758588402583 0.11948012608608154 0.056982500009279256 -0.27155136221299486 0.043727364652030698 -0.1327905885186198 0.057410844609207222 0.094133180963724597 -0.12133994319904028 -0.1907257595274934 0.025448347943494591 -0.070456613898592035 0.049290127945929151 -0.33710442425075965 0.089530247238176125 0.27784584595154682 -0.015697264880567493 0.051442675552434626 0.014468473113237477 -0.044220675264747586 -0.097920370144561938 -0.14808694472957137 -0.13483249461291033 0.043135853741444519 -0.0084418913151041858 -0.2402669514290135 -0.079142595967543042 -0.089421169357816827 0.081182305509164873;-0.29411458384411987 -0.026808226455858317 0.14745498674357074 0.46605193435638198 0.052715597412057155 -0.21209621252356711 0.068213641312247983 0.22404820544576104 0.062931432836897339 -0.051566036089141183 -0.20061472773774194 0.17861608492774322 -0.71467786768652097 -0.20049835503672281 0.18496734467207851 -0.35541972865446791 0.20490341599812156 0.26317182566197495 -0.1133846707326842 -0.049453248337949507 -0.0051462430849001676 0.23308555663784281 -0.62025692035155688 -0.34883423899547378 -0.21018026499153852 0.23299400371676277 -0.11285879297843002 0.060876479373985208 0.18188897413986976 -0.36327135131528226 0.0095493522201283466 0.04007186060103899 0.052877769177831567 -0.25312236136804367 -0.11689031040029794 -0.22672707962100458 -0.30297576982659175 -0.18463514881052037 -0.018257062159010247 0.10953464465701716 0.02615761724769727 -0.023864364466067132 0.033437855845352554 0.17654542781901417 0.14647566030612105 -0.31277088892508914 -0.092633181668895434 -0.076585516050304961 0.11422732402000535 -0.21469255626469408 -0.14499260826855656 -0.21925347339360754 0.1289417475899233 -0.097325743477475635 0.20123608761704484 0.088303645346949927 -0.10073405633846533 0.078512830397145961 0.14893684739929211 0.17960592917904508;-0.065247319846712643 0.015982435734442243 -0.23426352554509863 0.05174123086539778 0.059659182701685624 0.20850432248695278 -0.13100384441199159 -0.051888707961952815 -0.067944069020808739 0.045456554730144517 0.073944113062016259 -0.26500295666670853 -0.023606001130367742 0.15566146418796367 -0.1316459220564882 0.23727401394742809 0.02130684856745426 0.13542153189668263 0.13058020249035185 -0.30598253890124388 -0.0062877752286110925 0.090724121347007969 -0.11667891778841666 -0.080481741609558427 -0.034420324495460647 -0.42732021365992084 0.055774656287709203 0.026843346823974143 0.22973325770308139 -0.21030366031680109 -0.15751776208287005 -0.038230411419271484 -0.1284947811431161 -0.17165322666186919 -0.19983076443162284 0.11111469723054329 -0.36056254276106003 -0.15053212489251325 0.21248745044041922 -0.12203218768636714 0.00068210959251175111 0.21729870361609216 -0.065387498971062302 -0.16426975328056589 0.13787508463536344 0.3088955251629566 -0.12481916094745513 -0.042654090452466806 -0.15408412633616919 0.041671394253067484 -0.017294375343367082 -0.1100130694035278 -0.25920851764585995 -0.0042643951024992615 0.076278022165185963 0.12087335932746243 -0.12941879841449891 0.033018989998158492 -0.0028752305784816913 -0.27759358693447705;0.10054813864367611 -0.016850177185750246 0.10272780698858178 0.087931852347625669 -0.1117850271609956 0.035193828858506568 0.16331151553702108 0.033886803959053274 -0.12174436387754688 0.18555697340186272 -0.081588692984217642 -0.06797974359697502 0.052810460406957235 -0.11246149597363747 -0.33469924016071823 0.38242528547557408 -0.019921156837421117 -0.025317182629630584 0.025411505880863054 0.16207010291747626 -0.21512631838788696 -0.25402647902393022 -0.020452272904120519 -0.17901605357346878 -0.053773510388157079 0.16415399467648933 -0.10991225882790066 -0.045331288071061633 -0.48148485953011649 -0.47393093113198975 -0.11492051755841184 -0.052061735153671032 -0.010946264264361192 -0.014678861032117546 0.036872573947096351 -0.10637967752342353 0.058050241107754023 -0.19897037901369727 0.015693153568478602 0.23773868621284716 -0.20542011912008343 -0.0035597766317768996 -0.093913950368115048 -0.13327300361112893 0.17347667334317535 -0.12129149831766545 -0.14766585503844906 -0.14000209604819022 0.030294516410727283 -0.31612108353533908 -0.10813737307835961 -0.041537713344386308 -0.18983806757079427 -0.035095978767951633 0.15316197216238581 -0.059514862492131261 -0.088633466231319444 0.18078179172271211 -0.18633969147267559 0.0045842804710286783;-0.29654188385510893 0.048463291088350825 0.17738566373915268 0.057628774290304212 -0.059981598341412756 -0.1893425792275332 0.030832025705538915 0.4010342066589313 -0.012795013745216187 0.054934225556481413 -0.2227869043200979 0.019331916653137878 0.20800464354287029 0.005803745427479079 0.0061055495377791034 -0.18648994313972411 0.18297455731954573 0.086260084786728419 -0.090934443615969113 0.09446234034535661 0.098773811512114298 0.0059842364447213877 -0.20373767597921191 -0.19532951204744992 -0.21559342947947105 -0.046906721303370168 -0.18313335948736664 0.37843924450970673 0.067860255868690059 -0.1155264724226826 0.082420485590725359 -0.062554171015159657 0.15285599496208088 0.17438131869046544 -0.21816041955920956 -0.095806735268200105 0.050424936559199239 -0.0073332452307849705 -0.011154483985983699 0.21822145021111153 0.072383392547063677 0.095006154674957488 -0.061316500075896091 -0.11325002936033245 0.082167517087033029 -0.09629496445283639 0.063677233904929978 -0.024029140430429637 0.20527515584489342 -0.071113591820521904 -0.091373866622056571 -0.31920206292159858 0.15638740303684878 0.05931537931348748 0.10195612068746888 0.095500413110109969 -0.034002756577548129 -0.092942954938427177 -0.033829409100133691 0.11586034734153668;0.16802565543626485 -0.045523618820230559 0.023569284211417591 -0.02462183732756246 0.17378294264607036 -0.053785358087627799 -0.020968317356239316 0.049266385034472421 -0.096235053716550473 -0.058047280914352219 0.3039933454810852 -0.098315929045850126 -0.091328037111145219 0.24955350789745506 0.018651454070180869 0.072837485731443913 -0.011285738190870635 -0.21249958365051314 -0.060163602619070632 0.088887008528988024 -0.033773865383097144 0.095109966455470957 -0.096205758168957711 -0.01600404285688695 0.040833628262809125 -0.15546812092542289 0.067663534430517827 -0.30004782030588495 -0.14200105431033114 0.13337507622852063 -0.42463562942334138 0.084994612709403547 -0.014611488863812548 -0.10050593471644691 -0.1289246279027742 0.085158277376066613 0.32154977329330131 0.067257963423748623 0.23300353842788687 0.41016814299616783 0.34398561509979769 -0.11230566352053864 0.11329383515037585 0.40792850820687732 0.10908308778120414 -0.046887548785743215 0.052456599542451673 0.30721158138013793 -0.0015687700880837835 -0.03196904406987236 -0.11071889576447914 0.083327062343557912 0.016996981169669443 -0.17178305612915137 0.005998378422500901 -0.26078314655351237 -0.1355646356644091 -0.092387826770293474 0.12656673533806567 0.18530372707999876;-0.16429731037234163 0.098089614376147202 0.14348033777099162 0.048948275742828437 -0.10858985787248426 -0.0059153604644304669 0.17079097477243649 -0.14221728507298698 -0.061651291483726854 -0.065963373424268959 -0.38737607847092687 0.15257378343762479 -0.010417429305045457 -0.023235000212891023 -0.11047301620893545 0.13142475238068052 -0.066162494033972272 -0.041683636093703763 0.039488755473631384 -0.085473148400189533 -0.13633153909128823 0.09298432807459614 0.054446072615189495 -0.032114185062530352 0.16697663204188207 -0.075290105739858559 -0.049454665416609256 0.18742763541566515 -0.12010286355607658 -0.17939806387788951 -0.21074010817938882 -0.085018033720552472 0.15759805770545715 0.087447294853557872 -0.39652709139232795 -0.13622546960655957 -0.19823012258890579 0.3441488511738422 0.053876115112595012 -0.10869286573812356 -0.22260489035312175 0.11813739334096542 0.15453575970327499 0.053964866466168368 0.18836686523347362 0.03999315902711003 -0.15450713692755827 0.061036132137595359 -0.026910474815797312 -0.25132382444233065 -0.080485635645287351 -0.35095921209931047 -0.026754291420108246 -0.069854927381874016 0.090051975436865786 -0.011210976381267867 -0.066189048478908399 -0.081057206055146436 0.057839318688978868 0.15032054828239327;0.22001849647638203 0.0087051753684767273 0.296885794301112 -0.37909336570907104 0.03712458168602531 0.36727599112126064 -0.18652948486817433 -0.25882732026383409 0.018612116809755601 0.032705118243015439 0.15958739783668985 -0.10714665314906345 0.15190230246805908 0.33399675670422213 0.043295152048175183 -0.2222639222676514 0.15475023145660977 0.063520131979027575 -0.31046695798185531 0.045151375635515231 -0.082720797289985576 0.10307637139570952 0.073013520340198132 -0.15162902289592742 -0.13327538743588987 -0.121682132693803 -0.096807621883628625 0.33601650809932465 0.038607324659809615 -0.20739584258656527 0.070256130336845191 0.035243771371660827 -0.23330671080991608 0.033093004750329315 0.13813690976719242 0.2239589306528218 0.14777582840538467 0.06819703404158256 -0.066924592622231299 0.25562886877851931 -0.066598256126727956 -0.067024215911565058 0.028966337807342108 0.033878080646880457 -0.1260158745331568 0.2718652265546232 0.039399820106627979 -0.11121313349557899 0.0042835598146835335 -0.03704879474648036 0.14172650162272285 0.23493421432216552 0.021904265465017437 -0.22154596149977324 -0.079818278709002877 -0.20690090997803609 -0.15577143334802129 -0.086241416189212924 -0.065061890320220445 0.10406737012060034;-0.11139745285485789 -0.1336574918910598 0.27747519875144872 -0.52649256633048735 0.39857083948593347 -0.10770305382432169 0.082422003746406333 0.022272748727424907 -0.23670796529564297 0.1553243190037786 -0.15031977508416627 -0.20340251452450162 0.077907039904830763 0.21923262112523403 0.34390202097967476 -0.029000223503305944 0.14836012240400553 0.13627812999071226 -0.38169984034749788 -0.035641773791726374 -0.094329795112805315 0.040581218073450595 0.36913610315250506 -0.25879577648059543 -0.20379744411902528 -0.10931507365270463 -0.14782637290695191 0.23252971960100416 -0.18585342205861377 -0.21535143660693046 -0.24663110739273689 -0.17098228356683415 -0.091458224022255688 -0.094078765204667472 -0.0047210240745944815 0.0095580580218686019 -0.10769464115281668 0.037265305245319083 -0.19984069483737718 0.22903492647213822 0.068727643533882235 0.093049410945702377 0.33487904935709611 0.15700511374024986 -0.054261562678005977 0.048920214068659248 0.048844937210273866 -0.10256590932872885 0.044484042502519305 -0.060369346574566551 0.097925598333290564 -0.077750909827570464 0.063397958373490576 -0.031709546514991485 0.15305589103404035 -0.05277629212868977 0.12354544539461759 0.0017718996961663415 -0.012137293670444655 0.027663255635103964;-0.0025887472669042242 0.25622256760909756 -0.1722666792812062 -0.044213548904493992 -0.16771066411169849 -0.1037742760329223 0.02777554769371559 0.23507875514230225 -0.26687417573596445 0.063008145387249345 0.12508896795303923 0.1190673121531273 0.58151023049183403 -0.25623616404200805 0.25525853983271429 -0.18201897569374773 -0.17642067414604062 -0.2945282006537287 0.13531695810691077 0.26783442346097369 0.076747053448537217 -0.23417206272398658 -0.45625059442645266 0.11968298078804282 0.035975951750378356 -0.10976073909275388 0.13101646687956361 -0.22911150783408149 -0.12875819146151538 0.062376467457880801 -0.033004389582563638 -0.01589321995973381 -0.030582681934465675 0.016252008656827247 -0.01621174066008791 -0.0564053198696342 -0.12269769488397557 -0.085187175233939538 0.11780077868041328 -0.13298956302332776 -0.048406695804486304 -0.037592162739886206 0.018628971705038331 0.17224316891166 -0.021175459490125323 -0.21523917984113611 0.043460186341632796 0.12825035213745303 0.060382120412640003 -0.082774850543795325 -0.08998402199291497 -0.19014851763425894 -0.16823090239597932 -0.096031610631560113 0.057289604795168793 0.076105357647482816 -0.0757649025594644 -0.14361823646999961 -0.12278645458742805 0.07320613930447481;0.21504577440716219 0.12942105685695116 -0.14104555198319141 0.17817557503998113 -0.087236664258239879 0.37575168462729525 0.030679985054835778 -0.058902226145230892 -0.0083270835753094866 -0.3198368846127323 -0.0042161510214410369 -0.064500670448648184 -0.10114192264180287 0.052275461790611336 -0.27629877115326434 0.10703291080280945 -0.51828155341150695 -0.18778472212891989 0.18670974277186106 0.0041817754799340643 0.02251186579840277 0.51142894551749096 -0.039036334916612271 0.48554183216582991 0.585729213259507 0.16160466990718067 0.49056330579757318 -0.0069927940600238965 0.43002808229733319 0.54800766127222167 -0.15463285242238076 0.34824437548132348 -0.40680125929657379 -0.46206460849698117 0.033855644751830873 -0.10607554945624167 -0.050349586533098858 0.029321380559428893 0.26677213029825764 -0.53817703836109021 0.032127724918207305 -0.15626447499229973 -0.26280102131173311 0.2255408482221157 0.0058839102346629462 0.20422805302412997 0.13530939411260179 0.40001802036824169 -0.40963211399904698 0.13306203703215189 -0.043145276645990806 -0.13588954116734361 0.050765922019278271 0.12786933579422419 -0.45257050402701582 0.33963956196493578 -0.13119042253817109 -0.12172934525447957 0.24370231918077701 -0.068447742377761661;0.14272655609010973 -0.29289271024641078 0.21878313815107536 -0.4929520473150984 0.18322707350607109 0.13353732409834068 0.13997818786606836 0.078243582347652968 -0.25326801904138979 0.17210647104440541 -0.085838192785953144 -0.11092344198850819 -0.081558046829144332 0.093915898145410848 0.23528096461825745 -0.39343844325786309 0.34783994742917695 -0.053161299813734415 -0.22423880306522925 -0.093768444389412814 0.0012159932690839433 -0.13021897318718856 0.040315532935050295 -0.34285832717682546 -0.59631294960671755 0.15415984493439455 -0.27352761468506781 0.18358958277618012 -0.12119052467931654 -0.25633988171490196 0.25848685684399331 -0.081472606783273088 0.081033902371979716 -0.035696796603802504 -0.23549718818590623 0.041967408614951074 0.075863002738376706 0.054705715991848723 0.042051716110033992 0.0059213930649514874 -0.37024743214476807 -0.29054297767794113 0.018916894473793071 0.20148215923036727 0.067606367142271098 0.1385218068689188 0.056902481636154169 -0.2180643914423718 0.30179156158600023 0.052097701081092754 0.13775415238282004 0.07697396178689607 0.050156004761197075 -0.073933442435090577 0.20198170837100557 -0.36339779733247157 -0.11600790071193254 -0.18150474539724964 -0.059691538055979688 0.1596876618502498;0.0045900018534685829 -0.026906065402345098 0.15972433608481551 -0.11448864547344395 -0.0048451277147630607 -0.40402390089710827 0.14250016787480543 -0.14235551721475098 0.069703780475636301 -0.0062283059829552701 0.1682648298231641 -0.072181221661702169 0.54997872977600359 0.18738724530601442 0.13788414939721297 -0.30132392868181818 0.15011826891411048 0.2379993068527276 -0.21481446274396054 -0.085674501588085678 0.061369681527219326 -0.050882398605682166 -0.46156202368257016 -0.29610836850395283 -0.23908609488207686 0.087676652369671024 -0.19315855668762827 -0.063841731627568107 0.35860560029092048 -0.0085873692401981453 0.1180663618481209 -0.29064418258510449 0.10379361228269959 -0.16063200877177852 -0.3272362753664631 -0.099573578216917966 -0.015162248523087354 -0.1104103198922454 -0.34027807169856156 0.097440623395396511 0.17997405634007335 -0.11920232724310624 0.096507422832543252 -0.15255700532899771 0.20507009369353782 -0.11648037484609108 -0.03497472055507355 -0.076053889612797271 0.20551288327259978 -0.028009089480970487 0.0019089543349166502 -0.030505238192477371 0.21061419712012661 -0.11444821133092405 0.16760889392437117 -0.094470099362192972 0.12209425262136196 -0.012968030271321887 -0.0017440625729039023 -0.0075021011945042831;0.16610358499209812 0.0072932801092583273 -0.21792846866637508 0.32774794124665463 -0.091831108054799146 0.11187905558227247 -0.015138299805233374 0.079118998733083618 -0.059447695191315736 0.036265659581842649 0.30474098285997614 0.10311450393701893 -0.15207780024128376 0.075785681328419563 -0.068237853481437738 0.15397445381918232 -0.22925012736137185 -0.21146587115119533 0.0013645433588342138 -0.0094468369955006334 -0.057633723268139307 0.40876924648231167 0.11843963748600767 0.20044945157038291 0.033929493117681571 -0.019594072786294017 0.20896876027556918 0.16223862269104758 0.28909029948296466 0.16700751079488893 0.11763480336563334 0.19439810266034696 -0.15557199144358447 -0.33603788982657157 -0.2644895173716908 -0.10820160609159483 -0.11168305545264286 0.08697628268839909 0.28611708733953117 -0.41253677819473067 -0.097418416070813654 0.10990159533946343 0.066606952215584034 0.1513467902023192 -0.14159761959368486 0.11333362942270445 0.036369588461374162 0.27841277249066748 -0.16669171247486311 0.13793504439777429 -0.061373016646262442 0.049792459275503104 0.13334360394509301 -0.011624607755114171 -0.2066550203974713 -0.10294965944100741 -0.066662366859863528 0.0078343464141689412 -0.18905860176713282 -0.037920715094519844;0.0009947254431501133 -0.08372597084587334 -0.07386501748723899 -0.36924535967767413 -0.22320247473324178 -0.058802313807663424 -0.13764991524518808 0.15603033177071399 0.14174048476938247 0.030748438601412301 -0.17752646669407718 -0.14416064810231322 -0.29956875894231061 0.0096062572023981711 0.31492193082050829 -0.28897363177959973 0.10037738174211316 0.023935894762468771 -0.048565042671001278 -0.050272840798338388 -0.12892347921409109 0.0018666239613309998 -0.12429512903173918 -0.20286776898256617 -0.17654761421041379 0.45362402906488475 -0.14495504766993714 -0.25405705630812819 -0.13543748765108507 0.08276026694427252 0.28155928223643018 -0.096065521226307529 -0.097921172713632876 0.1435299294801374 0.068465143651598781 0.085563281383487497 -0.22166907772562588 -0.27534790440520396 0.17477810056116699 -0.054364563301827637 -0.30907042403480905 -0.15120828903312991 0.076736552788031251 -0.072555350609509212 -0.018665443674658611 -0.15699288442870035 0.0029555437993977938 -0.12694118575804952 0.16355384631876813 -0.045928409920232609 0.018970567501599221 0.073400359584562577 -0.074853409504134646 0.187896319941592 0.18106834040058614 -0.17262364315552922 -0.13573997570624341 -0.061665289735127499 0.041469038026771418 0.056954818022096163;0.2442588068742293 0.070513840931202235 0.17201962607787635 -0.21310830611073828 -0.025391515127162378 -0.13722366908876815 0.089613297177454948 -0.12721955931156689 0.16291160577776384 0.031765569536071972 0.049901783301924046 0.16083105568816841 -0.19887692593173581 0.29749485379980206 -0.09761978637845696 -0.19856920046827933 0.35072151551332664 0.36787653631683281 -0.14916444138045437 -0.052875142085297137 0.035184900383046995 -0.037959920035222229 -0.36276701365093483 -0.26832884638311821 -0.38530047589089167 0.11881209841758036 -0.34000742771536435 -0.020974606285110255 0.051604927943011678 -0.14592540860323183 0.020793526373253966 -0.29579979635750359 0.1536624868619306 0.15960324556468464 -0.060356888951039751 0.12865414337534287 0.13320461710064976 0.26296693450589353 0.11752112472286892 0.31062785387037706 0.0085314043552256174 -0.10718473030739903 0.17796420703832641 -0.32507365999930715 0.032730766378964382 -0.12107421928729362 -0.13356982146878471 -0.30382259521717986 0.20896317191109373 0.081234407125463245 0.13244735506907004 0.2929850935782235 0.06525292920742759 0.17938918043730717 -0.0028356956910426966 -0.16344596943217748 0.10382483848116598 0.14227019065707155 0.010211820836056531 0.11142242655219939;0.30053447301303693 0.048552157713114955 0.12295814826325853 0.11756739572738775 0.054971933774330288 0.064931774320402272 -0.071296961855406141 0.0045152901569198677 -0.095082247324806343 0.035240513108815243 0.0028328730230781211 0.0060071671948513268 -0.61362382181069663 0.022933655590257222 -0.087822277658180847 0.35748116533937518 0.096936742314925009 0.042659901537814321 -0.17899733633158818 -0.16765638548657488 0.070203016217855782 -0.13445505487572187 -0.70148689180778068 -0.13021833354672052 0.15606280534568948 0.099373478167649951 -0.084384866338693909 -0.016278135399556415 -0.30812345020719606 0.075962148521513548 -0.09457872995507681 0.0059578397030974088 -0.071855915586371055 0.0570668455378225 0.018980456720694677 -0.076664419767935199 -0.10737657276673628 -0.0023445712668323957 -0.030381016648448861 0.18795318158302241 -0.038575748421135501 -0.0173636211324577 0.066066844953621584 0.13302638221126675 0.19452275799323804 -0.18346512396030024 -0.097674187390149908 -0.059333722014814079 -0.048534041698778868 0.24375121916007106 0.23937861493305118 0.11434502845927538 -0.13023888876006406 -0.10278692056330538 0.019655025967926214 -0.041633751911851646 -0.0039583687110692836 0.36802258744916994 0.18817943765397807 0.15959837964322673;0.26220903836217874 -0.17009241031506647 0.030837962541211163 -0.32269582062257018 0.4634374172227731 -0.047424144678939961 0.24660478407894779 -0.39244176651269741 0.31506135329107432 -0.028831845652192524 0.061115966516657939 -0.19169922514545126 -0.011157504154917017 0.21438994011583676 -0.63651043678367769 0.04656970129989977 0.4215220769178325 0.42773682570983046 -0.51805524125793756 -0.095890830837711938 -0.035178806631818861 -0.59815869140833844 -0.012479141092128667 -0.58147844116953584 -0.65081794809161631 0.079645978282764235 -0.69352815763479181 0.19418392981382662 -0.18779119562588595 -0.3521445623954006 0.35321835391713835 -0.48146300255265057 0.52282114532941015 0.27930770347560829 0.09070380115703483 -0.034260445105324618 0.18235543303704435 0.21072332470562111 -0.26537471333046153 0.50093316119420983 -0.20856312214933057 -0.17223206712258027 0.18032055339100558 -0.72618382096278711 0.18086816863171989 0.06867799904652544 0.11242458659389894 -0.55216666666684977 0.52980645986763331 0.68690922604861715 0.54164151522590076 0.47088064710257715 0.25716786723866225 -0.0013278653584778838 0.0057449757754340566 -0.43503230511690172 0.23815026839901618 0.032186244333864966 0.63867255143065049 0.089534476265584598;-0.048641820753095692 -0.081509259070191881 0.17458494069387478 0.25863690637648951 0.012834331974572968 0.00597649775838299 -0.28109916130477713 -0.092168051723920938 -0.0087106268570793476 -0.28961500591433043 -0.36902934472958793 0.075154314365817557 -0.18163899044318249 -0.31633512838268685 -0.23276634808413904 0.20672277293339836 -0.10589733946242927 -0.032079048323764819 0.015011400684298839 0.088527605278555355 -0.0096594351249340172 -0.051116997254562264 -0.030309497592222564 -0.012862771387711311 0.23457391254886198 0.096567521175764878 -0.0079538479710759263 0.16174721365449088 -0.062976995729868687 0.053463074904679969 0.12119810305739859 -0.13863137329037295 -0.17243762207250801 0.12438322009197568 -0.16779637364635044 -0.02081853981721829 -0.1905417844363328 -0.12652533901362875 -0.3039534364407353 -0.088895827638350772 0.10964432683206371 0.10416266021415553 0.23172600612469901 0.13974901688127489 0.050935588479970699 -0.1878445252011974 -0.29540131999945546 0.07708892626201741 0.17499851418494844 -0.12997989804996646 0.093517846568778665 -0.2069545581358348 -0.085467651752839602 -0.083410948070831423 0.13229407068935692 0.2234410556286397 -0.061983238965393546 0.13635963867738202 -0.10106091707861332 -0.15125301221287266;0.47852866279694972 0.30993075324516456 0.11263541001505788 -0.12360033726785964 -0.094002769290289348 0.52145380969863386 0.21623770245866972 -0.0061233945696897623 0.085882541504591667 0.24622028874378704 0.37194831389378186 0.052463949076406016 -0.046941703376341862 -0.15892168585381811 -0.31384317523864064 0.063746176690035683 0.057177167260343019 0.040108566134158273 -0.1924988650798474 0.15040361686903192 -0.17410378132967705 0.044567757168601688 -0.0080929950052319264 -0.033418487357669696 -0.088706794678883233 0.11664368879153064 0.029857665043300802 -0.033497624412822398 0.089258337076189256 0.035035119160804734 0.18387519428409271 0.13566716513881324 -0.26041357549046057 -0.13360007054681139 -0.043850676316302052 0.048359701690548186 -0.06283057439865937 0.21510078491648055 0.23364461341538387 -0.085709354467075533 -0.036528916595737128 -0.17495102617964889 -0.057875800701574782 0.10447158677443336 -0.061674915133425441 0.0063361471827524801 -0.27755706873660729 0.081213059029878298 -0.11021608119525618 -0.090553245602755392 -0.13770580240169397 -0.12753822999244921 -0.083843034322231141 0.016052020967617462 0.066748816084958598 -0.15330088988643137 -0.25893625596623138 -0.072738669498220013 -0.042416104903270357 -0.021904205957209905;0.27128476329803736 0.14428900841098249 0.31084507584360227 0.22752693809829241 0.031703533582219771 0.40645001129987862 -0.093072997490955198 0.055860079559626782 -0.23500918121850101 0.32350742744729993 -0.12456272146121289 0.45545023693524628 0.38630512362753033 -0.089870295114306026 0.1367112934224135 -0.024815748066759478 0.26748597974849592 0.048605280453126246 -0.38227578989854294 0.0025963534661555049 0.058559302247973143 0.1273547781571229 -0.1208057805513256 -0.2022008768364435 -0.54060515300151835 -0.069408204432290566 -0.27466836912378445 0.10337761556611909 -0.1773906521590439 -0.16439082353621892 0.09385413237238957 -0.033903142759224653 -0.011963103665755698 -0.12710694947135665 0.074039734223473541 -0.11567985063456307 -0.037686942930407023 0.093413911454837809 0.011271032318031756 0.055179016057055628 -0.23860506359754904 -0.027671460724314777 0.049305683167434951 -0.052950753913207457 -0.058864193357791 -0.16425763952263253 -0.018225058963615638 -0.29533949076598981 0.17997901839682509 -0.080538459924697159 0.094078959333421211 -0.13823184551562598 0.12392641111684569 -0.18413346790947144 0.26368369680607334 -0.4786467327760745 0.017164504000425587 0.24559318149978315 -0.064124509074252864 0.23172986060835926;-0.28233295595109376 0.07736325485993574 -0.34302750215888383 0.067221140392849626 -0.1894144709348235 -0.24872024348474267 -0.11242675574365937 0.056462723585281281 -0.18994739901479749 0.16630484831114756 -0.13020961443700796 -0.085343191228972326 0.1960686817027546 -0.3864745284538349 0.23812598007407215 -0.40442767551967757 -0.2354496188858998 -0.12531857615875955 0.24654675586878128 0.0034656121176640598 0.024601230687537345 0.073853949014392239 0.014283245531047706 0.20634747940303522 0.17858902343770994 0.18107788501673758 0.13239764294377768 0.45865145705140359 -0.027862775530859727 0.061879513071953079 -0.18186046487246563 0.0022412316760513813 -0.142248623185247 -0.029817482658190599 -0.051767613592676939 -0.16902448742860501 -0.13536729485832602 -0.010919708138406281 -0.081606640367811373 -0.26722738548708458 -0.2708129328338007 -0.033311679310852112 0.13309280911731364 0.0023308484646595009 -0.13269001706392267 -0.099563607456741435 0.060189007217485289 0.1110410111865143 -0.039276866940641295 -0.041279258951067134 0.17022813592672303 -0.031934635385292336 -0.0044659596866267505 0.098604899778738486 0.032441743154845375 0.17464615911796169 0.068624034907592182 -0.27309909940725047 -0.27097362458420621 0.058366160094850954;0.44685607803378852 0.022980587527708613 0.38033413031980318 0.022254125933985552 0.14880785134372831 0.16371405844147457 0.025201925201607609 -0.10483264898774358 -0.19922324638289821 0.16958309839934801 0.29763472406122105 0.054854458367152137 0.17000798947537032 0.11396654354254844 -0.43025361791878103 0.19903230729915763 0.14638606986028851 0.36582189857907077 -0.5078124766257669 -0.062840093588797927 -0.18779869136928631 0.0732931514400708 0.2488909692089164 -0.16766514611729447 -0.20729334037748626 -0.086826615765554116 -0.21878553559101604 0.12788680121021181 0.28497194269655307 -0.21678914117736706 0.11154032315231842 -0.068867592172937434 -0.0038023644505586845 -0.1014895577681858 0.071329660685454072 -0.088766231095647199 -0.028271750323025608 0.2825729077149961 0.07991005974054223 0.0097597540518476258 0.037851611084240046 -0.19075907367815823 -0.12476009049355567 0.002192669461913304 0.087937271239981601 -0.16814535021116306 -0.35708353425217926 -0.2114172562550026 0.15318886712310967 0.037054044643965681 -0.0012656439951088745 -0.063353760062787867 0.3620995322698195 -0.10183330339826228 0.11308927139378187 -0.17029981937073341 -0.0093520792876742587 -0.0021635950898351874 0.093758927987223184 0.017900985324587476;-0.049134127583470119 -0.21613272127751906 -0.2047752798000205 -0.039376827991673607 0.054071115282413901 0.1418160843939465 -0.14060843582215055 0.21425500751276086 -0.15207970966523818 -0.18447746609652663 0.25360625769283424 0.092179479807426634 -0.046691846530902345 -0.2958834563251872 0.081126784269874352 -0.033664279542979937 -0.17308377680160536 -0.13230211364828126 0.3109668229536019 0.30294058160576998 0.13544857850153158 -0.24778444066347771 -0.15756425506030031 0.066685014309439183 0.013840619760426566 -0.088213772425657921 0.043901978265847443 -0.28112507858428887 -0.09644216907955637 -0.017800672027262682 -0.21235129543292786 0.026692658343714783 -0.043006646211744298 -0.033178266044272334 0.048928683720956517 0.087023118879723152 0.10912243137954117 -0.27109314942983792 -0.22034334630757896 -0.16405705076673074 -0.0072716083672463979 0.0096011080532459794 0.36391786251763469 0.099950230755261979 -0.04579616900981491 -0.11177568152929014 -0.01279400881925094 0.1003947660541835 0.0063763202454820466 -0.22357219338524811 -0.015188182097852004 -0.14210208398646129 -0.19367362768498289 0.060642655486649134 0.36194413372476747 -0.0044814827374961199 0.20909374287905391 -0.061431614524587869 0.04618992217956415 0.052110159595794424;0.25043244869249015 0.1563821700150832 -0.10167004318841556 0.065603294704426593 0.00056967913369042745 -0.025891812153499741 0.14449881282661903 -0.070836634936625481 -0.31058148332501662 0.039872639964879081 0.070111218302659678 -0.25955717499289022 0.34515378643858918 -0.14186920936899169 -0.029007432624735173 -0.012731962220459176 -0.094318923012381192 -0.010353104977195108 0.22900724217589422 0.087592178753857691 -0.20773603219062259 0.0048316072705323326 0.13869343726406386 0.0016978288420783031 -0.1628558034260974 -0.051334074097353639 0.029983414815977289 -0.071275012380530828 -0.079381089139084815 0.073654324682621106 -0.34010776367234063 -0.098504443065862243 0.046288507816763247 -0.23153971261952622 -0.056114951439941808 0.11396338215982083 -0.06622433564635842 0.071393172399209767 0.038957814193228461 0.050447531744166725 0.18257345525388463 -0.14796025485460512 -0.00094579258544220468 0.083756651311110278 -0.046042564698547783 -0.15639850924657739 0.065756768716170269 0.00056536356984487695 0.093400172631122325 0.1239365115714018 -0.14219324614325007 0.24428174883766771 -0.12285451428438553 -0.19742456395008762 0.052693999477828997 -0.07651104541608604 0.087102608503704257 0.035287764947650457 -0.094573157400923355 0.031681632673445578;0.14959188393800699 -0.052266613373951117 0.076948724097311405 0.037333829409179196 -0.0094194747969058908 0.015212592209201802 0.051788462396595659 0.0080588939062446654 0.1257269518674782 0.38835728268927633 0.38301130596230759 0.081086492817534425 0.21331029491722381 -0.010547872739575914 -0.20909425788510969 -0.21725036490012312 0.2473338391273304 0.18317959498110087 -0.19981951977051776 0.031173006058700683 -0.029679779241959945 -0.24564471167221102 0.2404175044190929 -0.26620464701770791 -0.14651781788929794 -0.036512914790505398 -0.16314319458813079 -0.21066852711679726 -0.07788507562523736 -0.04023134967915367 0.06795678845715708 -0.086892740036913205 0.0083589288170106465 -0.087037856159878121 -0.14497368086022908 0.20122681693487646 -0.088176770935246965 -0.11262259581541322 -0.11993553167100322 0.26984645373720323 -0.0071615120826327263 -0.02449844922261132 0.017754230760971802 0.011219707605129888 0.14990909120778417 0.19550026330484802 -0.21665067776516517 -0.18642670276916193 0.045064666668336896 0.073066229555814016 -0.0031398103853954524 0.13257233311814495 0.017120504437439201 -0.074735564085333842 0.095290932880133045 -0.039352416482477427 -0.0072516926700478034 0.015326146984524889 -0.12381179544239916 -0.054359059851229498;0.097025228126051508 0.096775634760444762 0.08049729389540014 -0.22995877056739839 -0.09027096181491498 -0.082686198785996035 0.0014648393011068052 0.14415512867766359 -0.3379434673818229 0.035176968917226603 0.23199829660999538 -0.22734754816184197 0.011232334412218107 -0.072140307218513861 0.029044581621417796 -0.073178994205211803 0.11969359117724271 -0.064247449566744413 0.018258237978686833 -0.27932774363037771 0.006439662105963335 -0.19891706958303221 -0.13836480901968659 0.042155354265669881 -0.13716759221075545 0.093672180296517513 -0.036391585349580785 0.31306978659603246 -0.29279998875249585 -0.26242449314613248 -0.15545003332239007 0.029505912460979566 0.14357655627589486 -0.16365471548847338 0.28355019226376488 0.042613407852209649 -0.1394030813357546 -0.22199557331988373 0.094261508692295409 0.13882203861808898 0.15709021358278716 -0.07642145789069249 -0.028664135818444677 -0.014700285309555583 -0.033074190319442177 0.070034700380232295 -0.32664383376719591 0.15152188336862962 0.081954864896091939 0.13421724834177265 0.010536772442412383 -0.0063123911199690083 -0.16824068183452134 -0.00015619484370984333 0.25504558399496136 0.1435192214187575 -0.053508849145701858 -0.20737193853814581 0.067739425502402084 0.039062667848051312;0.12458123953002748 0.31447260805784832 0.42789541822498162 -0.23963703685240242 -0.28527801641057804 -0.046699225266251317 -0.063849069884696005 0.090088691503004359 -0.15433827390555974 0.14071989138504401 0.1484689182961981 0.18925567903106574 -0.082438296730009339 -0.1145475603623632 -0.043657810966222538 -0.41996195272336079 0.17603278518358759 0.10825416890969369 -0.48155968368695112 0.11619136192191122 -0.11723643453134526 -0.10522326589420594 0.18748694169281382 -0.33072037215025207 -0.26635193419550041 -0.27006756058492976 -0.37069824955588332 0.2213334792193945 -0.25437193634952815 -0.49923660364508199 0.022447010617111594 -0.13452810364099696 0.1864674937997487 -0.11091905108623092 0.013585159634512959 -0.29407146906458825 0.014861263653484265 -0.011066152904910594 -0.19254801493913512 0.45648734477561015 -0.12605748859545732 -0.17349088073015048 0.11160718940889154 -0.06093192847019558 0.064933450410148932 0.029466507213135731 0.065021187641832512 -0.19000851352653594 0.18793787518410932 0.10552484482106803 -0.070297600839475297 -0.093675403071759589 -0.085674476704620833 -0.15540793345583301 0.36851980636711473 -0.38462160466063566 -0.38402123421481577 -0.099422148370590602 -0.019142737255337699 0.3228135479659115;0.13706748106045816 -0.050091642786710903 0.0010852850772269601 -0.070920125738269169 0.13468554483238473 -0.13616593114125933 0.089838654124413692 0.097952439303688063 -0.15314996060914968 0.0095021225807374946 0.27545967521693832 0.012587224476135583 0.22544742313895999 0.06309498936977477 -0.029087086181454162 0.030805560238024415 -0.094981225652586806 -0.061653127272117775 0.13489200718439567 0.22428262346476538 0.031850506014625711 0.024825981767985845 0.65850480281190638 0.16360865887916343 0.10182347370260175 -0.12373091522482804 0.092269259274887369 0.17661300194560248 0.25239031707802284 0.17917772623258602 -0.25452170029471438 0.12803077981077832 0.20827379812316602 -0.22648273949326672 0.034704265693819909 0.11381325709049769 0.44748825112725443 0.15502510695224681 0.13917763835406433 0.24377622862219198 0.13875494550858417 0.080510800146128852 0.099692489508910395 0.33818627048084965 -0.12307148133895594 0.013525971992935232 -0.073726871988161108 0.094937237515693898 -0.061364426898149388 -0.27132564469516479 -0.21144435157498576 0.15439654485856213 -0.082039994800714652 -0.076098498455238958 -0.16002839346570089 -0.093925712941049122 -0.069011418610240391 -0.21567983939307853 -0.028716916238190091 -0.05335671382527353;-0.31072427449682366 -0.045043817469307385 -0.13131750090513256 0.010219899626292028 0.14938324865021971 -0.37817954131090997 -0.1297897404457575 -0.053441629559580581 -0.11143321175402936 -0.3805014696323083 -0.20559109186060076 0.11921477395979492 -0.11229469351021024 0.14761936073745685 0.045676600297859957 0.1056972014021095 -0.015573931167263924 -0.02508277532464756 0.19205247910374704 0.045578317700805664 0.16030313375851798 -0.0080082373987979526 -0.044350927759404843 0.063204801987054263 0.11703663595874553 -0.73578334506391441 0.036162068436660401 0.010151704591337284 -0.15840787384300109 0.013438639170471917 -0.17439473628163377 -0.037972835597614947 0.23128195244639138 0.15990150536020312 0.018269810325143635 -0.017622804005727143 -0.021909652696053751 -0.1554049426499455 -0.21247482484949393 0.10280474879187299 -0.047383820328806628 0.14883591709021232 -0.20919087591619226 -0.14521932635253124 0.13121099857117677 0.055868440988085424 -0.039431888616739588 0.084984820226454538 0.034609273348821357 -0.0099782858344817024 0.038662802162765408 -0.057575377703935345 -0.018240467703948444 0.03020659042037338 0.010411585462535932 0.16978756847800236 0.31767622836192166 0.080942309790511452 0.2410985353275879 0.024169317580005956;-0.2228011449152052 -0.10099826071599112 -0.18153617178982881 -0.19617026144817265 0.13979516666191275 -0.24651715783131975 -0.093308611295071855 0.092752418916595192 -0.055863459351032506 -0.17059887535498472 -0.035591025800398225 -0.099828720323678441 -0.2539172252388277 -0.11260782774231594 0.11473928538186406 0.039192821188600541 -0.0072788164028623368 -0.065173372601017646 0.22230966724438658 0.1064442505449877 0.12139797763473621 -0.30044076096492273 -0.13582980912392145 -0.097205714963971734 -0.081572166649142269 -0.014903341450497879 -0.05096039610962444 -0.084593603458311808 -0.48472843462460496 -0.0072488912252041083 0.030727169841516539 -0.086323402552466705 0.097932889691439512 0.25638829109988892 0.39402669921265365 0.15866762081526078 0.024224080770424056 -0.27090517277864817 -0.096041620626863944 0.27557152681962072 -0.083754457964935219 0.027112643848028414 0.054308104954919556 -0.18406915959894293 0.085522850976068515 -0.31298699020922932 0.034596538460323907 -0.0564057404804564 0.1671950854602498 0.13483569430338821 0.021867370999763169 0.059781957419706433 -0.15886964373232332 0.14187566839754401 0.1781062844035225 0.12998380743046467 0.022593899134455701 -0.16053516634748993 0.40459484081717934 -0.0051419757451331358;0.085565422625756837 -0.071420636819667885 -0.02448529728172133 -0.065159562765904511 0.14714905442792711 0.13740409569591544 0.18305909303595239 -0.13404666157225581 0.09242151761322652 0.23622272164263766 0.21890590288974185 -0.047535159103727929 0.23704471977314848 -0.46583827360298952 0.1459056031677915 -0.20618062689712019 0.094758292525135485 0.15973783921321758 -0.19705974823976227 0.031820947632237792 -0.065500349500503471 0.034628488733750303 -0.058172573241369679 -0.24339009731535369 -0.24297458511082534 0.042242960645622434 -0.081667249828363389 -0.23317664162911686 0.12850751410148478 -0.13802400747381272 0.17787498793562298 0.013896534291994849 -0.21784230723170059 -0.053120741639714066 0.10026571652430381 0.020057270236223789 -0.048379829865527059 -0.39395113194612286 0.0218037324484332 0.055096463280434514 -0.18121012979880774 -0.084287425526701987 0.0071383419200038946 -0.16264393788839573 0.038463772688886066 -0.081046570272130775 0.11627581995179624 -0.18129651044715839 0.0054488744880978436 0.043476985312308911 -0.14760656384956528 0.1638315231854563 0.030362084592872259 -0.11621303599694964 0.026915308118218722 -0.22658143310602966 0.077292831155572297 0.13599194852105059 -0.11312937422554252 0.076007026937585057;0.48561077165926397 0.14251720529085085 0.2584493246881302 -0.045680258815494576 -0.24302536763699967 0.23267326845643049 0.1592723255220638 -0.20517878897331515 -0.27156072041469376 0.12729204780630546 0.18002726604487909 0.19162940501732528 -0.04758189327133798 0.21960773532760633 -0.022162553225949934 -0.060870253239819365 0.071937750592124858 -0.10125747352023932 -0.04989214436643457 -0.014092489875351466 -0.25112182551433759 0.0031057817944082611 0.14604640553757631 -0.063694487388206003 -0.19616488048432779 -0.094389205801205092 -0.084297153382994164 -0.079410460859855952 -0.071149530875508862 -0.23708483554670878 -0.0071897352593165986 0.087712530725211638 0.03259476443504996 0.13176626899393995 -0.092721527042270518 0.19315241577565509 0.42785181246627652 -0.22024671663743145 -0.30772600564288088 0.16048172241588662 0.24594413580565294 -0.050319956745541912 0.13357594832856601 0.016424888255965699 0.27880107083878958 -0.21157105126191864 -0.24256294968263728 -0.14955047676697114 -0.043012154144760867 0.043798387008892124 -0.1109776600737765 0.21364495914435772 -0.11575154315085334 0.063664235696053506 0.3456500446647473 -0.040039719752887705 0.029673453270017792 0.23430596973672041 -0.012922321866245381 -0.051979518115289482;0.03150413415023294 -0.04931131710744615 0.15037339978286227 0.036607588394103982 -0.06001439919488747 -0.059939816533015645 0.017605116409106673 -0.11869593935415701 0.019168432644436264 -0.090825615990915792 -0.42172270354458696 -0.10977646211803034 -0.02789448833919541 -0.10114782284491662 -0.47042905563918685 0.22092043456788921 0.00137502656203947 0.064582891597789738 -0.15300602934497093 -0.00190113991384687 -0.13624456143970246 -0.034731626340978539 -0.040496700623843966 0.007111446273331665 0.10668898023170545 0.22884031780344111 0.058781486284649319 -0.023172774263531159 0.017642907153027479 0.12260859588995064 -0.056420652062420688 -0.019024095150340543 0.030469944977825722 -0.20858328166544726 0.0052069400456852301 0.093220266860506593 0.22415409674877773 0.11577801519951572 -0.021321437667731039 0.20493477994066558 0.23039777647997123 0.25471997556714243 -0.11879030026592663 0.16418942170803499 0.23008916875631116 -0.095605892049679175 -0.12666041031138178 0.18464042087278684 -0.022984255847599819 -0.059741852371948283 -0.22482198208666934 -0.063865255150590203 0.18174957265328312 0.069049065729654566 0.022770334259573217 0.0093740539254509991 0.15495810009146116 -0.086694063205492042 0.1840091793770636 -0.0033796472424648173;-0.23033438507190032 0.46043445966296326 0.047328685529727459 0.23499381640293415 -0.099416658437265368 -0.38031013754526743 0.017176121922548061 -0.090935832383938098 0.18014935210839311 -0.16811162900969884 -0.057905822700822132 -0.01265567670276648 0.050876211678701988 0.044398609254732768 -0.092617420727351463 -0.013351960485432461 0.080619359987168307 -0.0016926139831387518 0.14346779427686832 0.021317490419442791 -0.078337669873053642 0.057465721005010822 -0.0030941256195667444 0.11837691667642573 -0.049874648930594193 -0.34321326771127503 0.012241913412623673 -0.39439711413494349 -0.041302991729030493 -0.0079196000741594361 -0.00079318636421656769 0.050039788292455041 0.10909697976881585 0.02045083806991433 0.42522553796197893 -0.092104068655540342 -0.021908306892341172 -0.18910513811718829 -0.14788116376126012 -0.10057694544060476 -0.21039027855133877 -0.43589990792376193 0.01792661001847955 -0.01559088058982713 -0.081663713986207503 0.30819257855105225 -0.021309024479193906 -0.096186585417289583 0.037359485849225063 -0.14377019958579659 -0.020360248243730443 -0.17083178560105577 0.10675658771243078 0.035912209504803734 -0.016739872667956825 -0.14738753606518365 -0.029534423889137996 0.23682624083052606 0.016368870628946094 -0.18527225526412791;-0.23449440554226944 -0.22658195894152217 -0.0087539865158326475 0.016490497438851063 -0.16474229271637514 -0.13968825636084148 -0.29957619204699548 0.27299255386166205 -0.085795419563686554 -0.47841105265095446 0.22653926004207248 0.15893047435031527 -0.019976109264402828 -0.12233982755033782 0.079738546455551659 -0.10632455576700706 0.24505037389861911 -0.16428464657179057 -0.035535209635956924 0.21899538639193414 0.14737458959735053 -0.39730833842062474 -0.1203361934024377 -0.078869021785426027 -0.27269193464305169 -0.31446369123962564 -0.12061398836768884 -0.22795453950302746 -0.37429095073179464 -0.079671140935002563 -0.068095653241709839 -0.069937910393320785 0.15657036976550545 0.26615327232219249 -0.097076157575950242 0.11731929914341316 0.11454584292185972 -0.3045041982661571 -0.30365369764203609 0.13450094788174238 0.020386797137557266 0.19035897520571637 0.31689221142903268 -0.021352014159275165 0.034343778462594378 0.089708318780563553 -0.06922997033720113 0.053829553754803479 0.19941773863834061 -0.15944498518930955 -0.034715486115915857 -0.084158434042332919 -0.046609115858684609 0.023750394095116874 0.29604338824065124 -0.10196761138777137 0.034124456336312788 0.099166976676725582 0.019346844050097369 -0.039885794608868749;-0.1502342364772804 -0.060247948301126571 -0.033142362530490216 0.15636202069376445 0.019799706004518445 -0.028231487100345107 -0.049201331650005259 -0.14609539075129946 -0.10010972519814525 0.012907806690354311 0.13125844030346165 0.089623126059553498 -0.09121138738786308 -0.10071001607189545 0.1151826650797069 0.091995735739145768 0.011836400238538391 -0.029076300058199233 -0.2706209953840229 0.0017159314949565371 -0.095241189415028515 0.0083818100005366557 -0.19397057240637725 0.055585013102225869 0.054974030643211755 -0.13855223031570382 0.17666535186422724 -0.18091912422658593 -0.27231066928617159 0.14270958901975656 0.008729095164380701 0.13405651276409367 -0.079056584943021008 0.018981606841692238 0.14899776641137236 0.10288360067222797 0.064131118418543562 0.20869258807390106 0.18766703161682005 -0.26629849117395915 0.22228860239773457 0.14873838955783245 -0.021063160564779589 0.099189042144643594 -0.054786242060327631 0.104399972435544 0.014874134911289921 0.27516209691188698 -0.067819211707152688 -0.089995936529980211 0.15470344911813316 0.19066062911596093 -0.26522662465237362 0.078459512871277226 -0.1848250927718609 -0.16932677367329418 -0.15126362150706227 0.13685066683125241 -0.18292596074784878 0.05446145106201139;0.014112366092184083 0.10474997275642944 -0.038278506190601053 0.048469294673487331 -0.047475989651662935 0.12254963230148906 -0.12796629329825862 0.15391793165804313 -0.0061698850746449057 -0.058866953372107102 0.018281606915205247 0.15833538232125233 0.18285909368976425 -0.13808919312989831 0.14834516676388343 -0.11345796693391058 -0.060405820873720102 -0.11066347271223949 -0.023736959154564637 0.02574932924253406 0.098525768649632708 -0.022429785184884761 0.25347059282855233 0.047829594167600645 0.10045189893451209 -0.060819802414596051 0.062401698327220319 -0.1382006806728561 0.13336813335213663 -0.0076247350700422867 -0.060046989722643364 0.097725324440584807 -0.18764088555023473 -0.059553206314490771 -0.028338653908308833 0.00072307679623603534 -0.068453498191739376 0.052319728436902864 -0.024583533302014949 -0.039178002988382359 0.03354450139071926 -0.059233191409071836 0.12638627305013583 0.28131206724691143 -0.12262345708829857 -0.094178926928958226 0.16677299439771037 0.066755494989755568 -0.06866513166824835 0.023204780557586693 -0.017132681293887085 -0.067182656279306668 0.017426655829877978 -0.06391689622083227 0.032462556007220554 -0.077391688473699136 -0.30414603097443571 -0.12345483776172492 -0.072429631709713033 0.075973186805678064;0.049807426749081986 -0.055873505201454211 -0.015087023384161008 -0.071126422324649288 -0.11705222948414765 0.18551601239526513 -0.056287601391738502 0.079806343569579385 0.029510910596706033 -0.067536906090518753 -0.093123790924975941 0.18268351940756494 0.90651619954330442 -0.11679065979828253 0.0020345342389143433 -0.28603902320124436 0.010206785400597289 -0.028879549384560575 0.1962025118117382 0.071313246121279567 0.060626087479604532 0.18612122998583255 -0.35481206826016842 0.090818299071439554 0.12764944549046664 0.10169964505478936 0.061777666831020428 0.17870605210939025 0.23846515019272013 0.21010716201757926 0.076855317585005314 0.090698217097804193 -0.12279294791571711 -0.20024680797614341 -0.091834708971985632 -0.077054758939958168 -0.3536015263444246 0.20073720333203648 0.0015705720659261041 -0.071240455339590461 -0.084570579034319235 -0.051642690487862609 -0.052634985282451613 -0.037078983555754459 -0.010961972468962695 -0.070895766502301102 -0.030912459748931278 -0.00075785990967950734 -0.037433539121335263 -0.18000523310144997 0.030036832377131853 -0.20621756793135801 0.10124892251863465 0.033558944456464755 0.081468529518480368 0.10294817635746294 0.061108773787997756 0.096223244625785437 -0.16127151843528773 -0.089996571921210702;0.03455184509278883 0.067641222067651691 -0.575237241163427 -0.48448650720343406 -0.06140501756932399 0.21008075726610601 -0.24535212574244575 0.3013360573142897 -0.052070371652954806 -0.351430275445552 0.0025282961607714797 0.048171431726092659 -0.095058390323960129 0.010127527359753573 0.29777234047553819 -0.28094236443310089 -0.26787347527044819 -0.2804259620946114 0.68311753614917048 0.26453701752670689 0.21515892252956076 -0.12442625466542978 0.023892726168772787 0.37661553218762001 0.44318511997095927 0.23035269055835017 0.45737388265854262 -0.14459591138387667 -0.21837395273694477 0.66168831083056401 0.16468589825083482 0.3521585783945268 -0.093308979142216419 0.079954769779903886 0.13532945051962231 0.28870570267610141 0.010081220783915953 0.32051503675683363 -0.024798485279186197 -0.37240359922962107 0.3319602346008837 -0.20430021420938729 0.17130052875278173 0.083921318436758235 -0.23258676425470923 -0.14107450294391935 0.012341317039108648 0.56432011300181917 -0.2536284446012661 -0.28769881533241254 -0.08502400343749876 0.05293865750564427 -0.44300932245716917 0.32491799412272065 -0.31979268840516395 0.16268163327711638 -0.015700307823208085 -0.45259088203716125 -0.064730138814113353 0.031223528230976239;0.012142628244751893 0.20752894582856418 0.14602802498907924 -0.72425917151132646 -0.16580501299370856 0.18034629651673528 -0.013912931535207554 0.13053391660387206 -0.13062653277942671 0.0041885072247083892 -0.064576230333003359 -0.11153647007211243 0.080899660315685018 0.23831288904825523 0.16097210928414404 -0.28725829482571275 0.24800394803198841 -0.054963934637322721 0.0038921262200875533 0.049130658260465948 0.052798338997518249 -0.074456723990166132 -0.056165924452723386 -0.11556312089977538 -0.46322438892204737 -0.013156603562748012 -0.12732728469931062 -0.2200838822767818 -0.21117162580648799 -0.013871978945482262 0.31135031041009364 0.093537890471929841 0.2295228939005616 0.14082233770877947 0.030041227703415142 0.13934999816673532 0.07990349374589796 -0.061055385897764644 -0.12676082138655259 0.080564199846315757 -0.027386071870520199 -0.25379583220228236 0.33626791012885471 0.046339553422691103 -0.14228574417989009 -0.031576604239520197 0.011649341615631525 -0.11565468525916915 0.16652386573839931 0.003544592257618941 0.017339813164245217 -0.023041749047978375 -0.34264273376438853 -0.085126968736003769 0.21757927408948174 -0.19258464229949429 0.063054380254599376 -0.17501896890164398 -0.017108829333509844 0.14642112257887691;-0.078951349129438644 -0.0011630840937238136 -0.055236501391855 0.16835941464629497 0.057769849216104667 -0.19147823642383907 0.084812317660176495 0.13116773414671637 -0.084787360432818079 0.32038073513529158 -0.073001653610519024 0.038854808195890267 0.097988195712655726 -0.22284465895854058 0.41248726368510968 -0.46420172260572545 0.07257012279161143 0.16945646276764703 -0.063641879485048972 0.0052069348792112193 0.25343897628826295 -0.067750728247812531 -0.066395289658175954 -0.097490293555173455 -0.19621762570446438 0.26514819728637101 -0.16417904647383039 0.13208403563370899 -0.16993884135794335 -0.28684030407600541 0.1924942279640684 -0.1563325372870793 0.16267767715032433 -0.014063585536685555 -0.11005500091109101 -0.043291436736926404 -0.14727250038112763 -0.069557412119354595 0.13397996994773662 0.04871481648166473 -0.0077081961677142215 -0.27829702772654302 -0.17893252224844594 0.018181325071168944 0.04105056496235486 -0.16934391266220356 0.21054321238155368 -0.21925148830041075 0.11441294869951031 -0.12112206283313991 0.040170409716416167 0.040283624364548874 -0.0036021956532738745 -0.007087496648208803 0.046979741744841028 0.0054852936416967535 0.11787065928765124 -0.12348889521266943 -0.14198662174165733 0.15109108355444925;0.13308495821725788 -0.060415646817506746 -0.26998509033228268 -0.28122446486486358 0.25096774341486905 -0.091109585560516668 -0.12757439222163744 -0.044171432963865484 0.0031923225038302532 -0.046010898660167207 0.19560873864614409 -0.1528027158038136 0.29496156573903048 0.051579831607520721 -0.18101594775674199 -0.012405029926090324 -0.36493678715156014 0.0042455250810551157 0.33718509564770255 -0.095683295786301026 -0.045206578708061572 -0.014109891340061265 -0.32243190266446692 0.27269129708843454 0.17579529834016436 0.032660042223880636 0.21550659746305365 -0.10807048894706758 -0.034055376332113932 0.34571502051022757 0.091427698116518116 0.13443632733073654 -0.19449373342423645 -0.14262698470500554 -0.030742391580962682 -0.005785571303741294 -0.011641828958978258 -0.13807847036949328 0.085028225054694248 -0.0861315455419258 0.12728290196649869 0.10496240581245989 -0.10534543746957618 0.058898234206132057 -0.045401186507399376 -0.034771179751133412 0.01578833398284233 0.0037314366651431006 -0.20172002632430755 -0.024259920134948116 -0.078453210120252068 0.095441424763925031 -0.03171312839950418 0.040871324014966966 0.0017554879823223541 0.10657885514749862 0.15684419843986452 0.075664020966727516 -0.07021483330942388 -0.22804801514122272;0.11600623544180333 -0.024095863082126367 0.10163755603600362 -0.17372748899928439 -0.14131769332470429 0.27819353963266819 0.031743067658300608 -0.030335754753626949 0.11276847315720988 -0.23904082579771607 0.025882595817587426 -0.087659865285823466 -0.0034349266305197168 -0.13640347235239714 -0.13466296939476874 0.027125579651545731 -0.16796188716829413 0.038363918331870979 -0.1206077221305373 0.12660216063153237 -0.17234041484889653 0.16231278732649806 -0.4583357867886626 -0.0079028873788126452 0.19040724600290249 -0.1522561885991694 0.099879673211032555 0.089536811728145219 0.49233290192111007 0.024216582800519422 0.016186966671775202 0.19116067468791825 -0.10922656696276234 -0.20701604553713543 -0.15935358318577753 -0.15029217705822676 -0.069302064187091159 0.25018225108137843 0.15021603508555464 -0.18512157125238748 0.24828911609809179 0.1212607065331277 -0.11675828983038591 0.47813226024190342 -0.01661794569369153 -0.044905723166915344 0.2655182430411907 0.30998734398695676 -0.1506310014628319 -0.10163260082345364 -0.14826796592926306 -0.20458959342917063 -0.19944283442857427 -0.14920408947443844 -0.082186885876047069 -0.25612756135450143 -0.093172266973253814 -0.082116895219000854 0.064978292450685732 0.21429343910123208;0.23118677334719154 0.070203042260767276 -0.14242581490766915 -0.19204648991354104 -0.061857388865710697 0.12595994663128787 -0.087803949143405835 0.025965826704462586 -0.16302684673276371 -0.14543783126710125 0.29132208429116679 -0.083336587549723534 -0.089192309432433323 0.18660638639911797 -0.15689015247892316 0.074146283786782549 -0.11145817809848693 -0.0041367407995206345 0.057570545806186604 0.18626123531228481 -0.10280131213220341 -0.083408104537468955 -0.32590993673583746 -0.0015145890376343386 0.017116195776016543 -0.086090715842898513 0.091641773794598244 0.15462321301076049 0.11334040014457143 0.12108773414175895 -0.18235951716576826 0.2346378654793336 -0.015374796515309446 0.14896082940284192 0.022287245177809441 0.14325580157172638 0.33084540900976211 0.1310973224266592 0.045115794173636883 -0.0057659362448128559 0.32168999740072657 -0.14231303753797656 -0.076194266799655269 0.16375292125408447 -0.11528377799056634 0.060785671790348522 -0.21466052747309911 0.082001178616170692 -0.016312850983199571 -0.13253526033270296 -0.18461138255937626 -0.12001614016760445 -0.018428308140124004 -0.25940496985826622 -0.15987410676579769 -0.067377219643710795 0.10735910982882103 -0.34321050646676565 0.058418622420315106 0.023640045752866178;0.12591994071497159 0.083486369189901877 -0.072997111311048218 0.27543083897924048 -0.13041570415917617 0.048305306006883063 -0.0075720445552207097 -0.049832286630368726 -0.0022145721467380351 -0.13257417589617673 0.0147932191457019 0.26713107568508071 0.19519818881101128 -0.24457047970994825 -0.37490501705771134 0.27302488060853886 -0.12744121509456538 0.071752577430071962 -0.06664250133788828 -0.022433271081495863 0.052978371234247826 0.3084205547796191 0.79349579899258782 0.16302283261104236 0.16653835143485624 0.013407548115243931 0.069679402913670793 -0.12335201415887263 0.14127545461605506 0.045850227065626713 -0.11871848601071353 0.050868392677615011 0.035530585477517584 -0.26734709991553396 -0.24899933264992696 -0.15127549311256425 -0.34107444773645962 0.35885275557772539 0.048707190643494783 -0.1295985674356257 0.10438266865761933 -0.037609161809821906 -0.13854340985777833 -0.042749432109499802 -0.07926505976114627 0.072107407267092583 -0.061935453774715016 -0.0068759555810507557 -0.084146157958139622 -0.3000648073168698 -0.09460962429946157 -0.18824419585591495 0.086097046994943804 -0.053001197800416594 -0.058998177448546699 0.019167681947036799 0.2051736907483962 0.089961702695682114 0.07595771611248936 0.22665148377057948;-0.1735381204053158 0.059745880232300257 0.30231339031271454 0.035519023852347516 -0.16246939318383519 -0.23976238890181523 0.01831096917467585 -0.20960119832452873 -0.015620478370803197 -0.074358985480588419 0.0091796811262383742 0.26929948324818159 0.13898906124583346 -0.21214154276698841 -0.11367353075654958 0.024383205750337453 0.067639843006919317 -0.060306572327333059 -0.21631835784230224 0.091921573366915726 -0.043175836027648712 -0.039585374636244133 -0.060057320193881755 -0.18139405116479868 -0.015528880149836919 -0.10233597593113843 -0.17264921538733968 -0.32308058774570103 -0.037843568797381349 -0.36215963950471358 -0.14631350991650782 -0.12388944090338397 0.1830293824809249 -0.0025827964169266434 -0.0066547227346865617 -0.11535605086529739 0.0281864593819156 0.09498106443498773 -0.2640634854733549 0.12847696331425093 0.031430395025245909 -0.0042615345019059343 0.11674315644741168 0.062537816491779891 0.32329661090727391 -0.30977345819308144 -0.064075040486779394 -0.10938594055556165 0.19089584134866608 -0.050019399749414037 0.11206349352269465 -0.077266921537617675 0.10120017426581009 0.009925272740882618 0.26180280705893105 -0.078229188068680927 0.1235172302917622 0.06810446298778694 0.3315114381219077 0.086586688850386548;0.11936641194733698 -0.064887045558461476 -0.17184638280265024 0.23350061199371142 0.072804772786108043 0.38154808781679245 -0.18349468819900983 0.38761824764251834 -0.096827692987211916 0.28890680357469606 0.050899988494963765 0.33742607657936136 -0.16827017347796103 -0.39601343128710281 0.37682410829991875 -0.147638317522827 -0.22609434721464655 -0.12263970183610028 -0.015879109202647543 0.21890677513434104 0.23200022094194148 0.061130754044310655 -0.15327634908584328 0.12968918010034061 0.20919950036218343 0.15185995564632296 0.12271815243456242 0.18524062966475552 0.48240407862527002 0.18382820362568744 -0.15360939639386365 0.083450636122735705 -0.033152799809217176 -0.019674899879017563 -0.29281048663499543 0.14305467422658638 -0.094093122484607536 -0.070266837497172024 0.16146518438901883 -0.20891456769971389 0.062146716648302409 0.41206910862434004 0.12446895182205957 0.073322364002815832 -0.044146688762744427 -0.022214760618476364 -0.0016219265966334509 0.13907229296925752 0.0067969199234200759 -0.26948344800789042 -0.095822292400507839 0.075511239148191578 -0.19836940291135308 -0.0053176372083874801 -0.0090979207075251398 -0.061941567937778393 -0.1212668062128659 -0.26180766814818696 -0.24364695865540228 0.025725516242606519;0.16586417477700358 -0.010350198625766222 -0.025264353946130941 0.029039217847814353 -0.1000565703858257 -0.25662851540620479 0.19682041130828037 0.24562389959241612 0.13242102900325789 -0.11054120116415669 0.15875506799263026 -0.24342686665027588 0.060332606767315791 -0.016246887989603758 0.0097425135105134297 -0.038935117417095474 0.074571744058181941 -0.14325031586014983 0.067236402106412921 -0.097416523965677418 -0.19585310203019557 0.041034525279582242 0.010553088936203126 -0.0041521920544552587 0.011477681562520029 -0.12342337943285558 0.13404535237695311 -0.19435982940617644 -0.070200345361346742 0.071812133894410143 0.19575089619021704 -0.078939197220970203 -0.055992914203780657 -0.19118160598588968 0.11780338170660008 -0.045169538087706351 -0.17847727629187685 0.12077581998118334 0.15450565856312692 -0.13598857329472186 -0.32212243579224253 -0.29124036096871203 -0.24495657805867099 0.016615183866601938 -0.066267672578551443 0.020628705781785949 0.042501232466356613 -0.013492031476210675 0.12920906640865445 0.22482337237403199 0.15220170811712591 0.1407162893462291 -0.035274516924586885 -0.031220050116772174 -0.10521906997596553 -0.01084601613379365 -0.083819033238990009 0.19062497630298017 0.11995766318267204 0.045557581010832085;-0.015755151916338847 0.025552635335684488 -0.0044310255169848793 0.56007697902536868 -0.19043982320526312 -0.13586665799693043 0.086842609783622293 -0.14938517821654435 0.2123707197540261 0.069951962807588697 0.18455159185014211 -0.16496392609551833 0.28338805291926361 0.047050106955404125 -0.037919933588191956 0.14306143313676153 -0.028765367082024727 0.14968701962671099 0.01817700642243595 0.043807820862297002 -0.19593621710202533 0.083828535004314073 0.2383995593321464 0.02136961202182627 -0.010072087561641135 -0.12201253977939151 -0.042530959240092321 0.016516750095138782 0.093471069724969338 -0.10115446360386209 0.027416325384551112 -0.16302697592257856 0.062581757199926841 0.097799983047231573 0.051733962143867419 -0.21081327487757184 0.11905717770899991 0.059350151240227002 -0.049079219098623256 -0.20192295483899145 0.048157374915993707 -0.085284026306305966 -0.063846813277575548 -0.14057485472393993 0.045622326326584528 0.02078811367340103 0.093094054418718292 -0.22162584641065311 0.12914495953431604 -0.079560840474167255 0.2427723326232436 0.11368495452794686 0.08898873094814401 -0.21849357687532495 -0.085620783049710616 0.15812178406389862 0.052908452206768881 0.45306096282594849 0.13108837048491268 -0.11510012022991503;-0.23849198678369757 -0.027706787079621459 -0.22988191496717106 0.047096437539111753 0.26369570395658226 -0.24300947343019158 0.047376765160617965 0.185458891958307 0.14738908767525788 0.0091566689756054174 -0.21702663380386814 -0.025233333397348724 0.12695955834084843 0.018229473788574941 0.30554160896569516 -0.14007609814885644 -0.091026849038046795 -0.012398164733691392 0.2152353075219946 0.036814435667170478 0.089703206681313527 -0.14684781339292349 -0.25139099832716494 0.21694698072044691 0.017458870456403552 0.27544923547939781 0.18649018867331082 -0.070413798688442955 -0.21059566773161745 0.28984375629427989 0.071482526301614918 0.066841368692825823 -0.01660614925078405 0.022588013135269234 0.058066456597672809 0.039688467864755654 0.024248073218123379 -0.081100927896263664 0.14638123735784359 -0.19241188414878752 0.063537115606184066 -0.029298509640296937 -0.025598647956558251 0.019165141775294214 -0.44896932335365464 -0.053556712391479841 0.27496500460482282 0.14050722092751666 -0.25716397392447027 0.26628596726746179 0.24251586472543707 -0.060893006880865304 0.098258337146810856 0.23149587642308284 -0.29466977062093896 0.21304900934786858 -0.038644397677112863 0.13133921496717957 0.063850721803345611 -0.068948773574602232;-0.335188067468975 0.28451904316518672 -0.047943262775939299 0.17081078938013664 -0.13304731517162344 -0.069391539846695133 -0.12957084767909671 -0.087386947576421722 0.06375404956878658 -0.18966292426180173 0.38285904329156389 0.11182609732226743 -0.15153060198019744 0.0008271489513865624 -0.11047258091906123 0.15093571063027378 0.031012604128940691 -0.03276713896592235 0.0021417612508140118 0.063335758883332163 0.1083019528715076 -0.024786238591004404 0.0087748507787126125 -0.10056199905379025 -0.010413333689360317 -0.31309662680701716 -0.0096946439291438306 -0.22476215516200218 -0.035926350278862561 -0.14850452810656586 -0.17650234156507949 0.083050462819049389 -0.057454721307574903 -0.051988322160192973 0.15370715163233797 0.18154443073087653 -0.10476672557340813 -0.010143690957642115 -0.10085456910265282 -0.16879595078400533 0.079020693451873278 -0.14712792678205869 0.039637669275705646 -0.065980283428554318 0.0065528529935184156 0.30201060239460287 0.046808488801050645 0.060065512629772916 -0.086659701713930573 0.03377954928081054 -0.029503696729407308 -0.55860702936707363 0.075381774111036831 0.013840288954203731 0.0048596726743560343 -0.064674024823795181 0.10429243948974365 0.020092178251269494 -0.025563192397333585 -0.018449042074056329;0.11013273976195634 0.16249138867782323 0.020089601039347385 0.13719489285504352 -0.18566982467735957 0.24183286939862844 0.042309997549706893 0.17377220203847732 -0.035739097837996933 -0.060474727508991334 0.030125907860981082 0.11704767852617426 -0.16271683323574224 -0.46510223893755548 0.005443577794268838 -0.090565878022942331 -0.12645990776743832 0.068336607308197905 -0.1223961106683983 0.087887613912742329 -0.085564115580291034 0.081942431156251758 0.40842424424095719 -0.091068176757718805 0.010542686954038734 0.20979454156009605 -0.010630005713377773 -0.16676301795812221 0.043048671972079434 -0.054314511592816819 -0.030772810825471144 -0.070486726520688853 0.019609505636858201 -0.024503229190454633 0.13795921575490691 -0.25710670346667241 0.024050593011451998 -0.041553755632251811 0.038866158793029723 -0.015764102977674301 0.03005886740580203 -0.10405314890503607 0.16164454501338188 0.15052940561621755 0.051081468354778344 -0.23946759578387239 -0.025503792335318031 -0.066908207038265805 0.025897912777508438 -0.17385226719769398 -0.10017341811827524 -0.064167073615141984 0.076055338454268373 -0.016928275199279488 0.15340351319150577 0.040753818195064483 0.046327963681895359 0.24942345315904615 -0.14311657138908843 0.018050240175060225;0.15891492555671519 -0.21425450033265592 -0.023208643568843907 0.19487911041039982 -0.038367526108320782 0.1562165583148363 -0.3325441232977383 -0.058879594664362746 0.053521715149248056 -0.20474266827737467 0.10578814433045063 0.22135480345394012 -0.12958041206182794 0.21960211560874807 -0.20964954179907544 0.25902413034132671 -0.11529327539800309 0.0059164550499954064 0.0029154389550498845 -0.20530028516442292 0.14174921564654874 -0.24715138458631158 -0.13646209901724154 0.058239143619173393 0.14819339769157255 -0.1593990931472278 0.016012585099944514 -0.26606322195012633 0.0096018685360192268 0.084697255558345827 0.11341905197634762 0.034406725672672424 -0.16276797286391648 -0.054031063107129525 -0.027967369243981903 0.013326789979589906 0.070216686138958775 -0.13996346778199092 -0.23944285694636477 0.055749850886357859 -0.17267664364998322 -0.0036599135493547577 0.10363691811721405 0.084211042160837093 0.073408059214240762 0.18704899742078532 -0.092832295197822989 0.078495085417244093 -0.13984510820208756 -0.081195665249500226 0.10105926294879686 0.14178307742011756 0.082313432403264608 -0.03643151335021548 -0.029606542381355384 -0.15458250851093872 0.092998167431180875 0.27278563199935973 -0.028944905174954225 -0.11129723843424331];

% Layer 3
b3 = [-0.13371358095338481;-0.13568941938719489;0.16268848935733793;0.092811364508613534;0.071786918036319328;0.036456560331516522;0.011408432417558857;0.030040829502484809;-0.018720241672263493;-0.0060335415919575783;-0.077799598985501775;-0.042369860181844285;-0.015981254420343271;-0.0101466377337957;-0.24229706686469571;0.023492903987288146;-0.068319474017830673;0.1829405485093846;-0.082401583274966855;-0.04795508506309866;0.099524529792478542;0.16501925535541923;-0.07671416151094107;-0.10912272322285671;0.0089306872730261985;0.092227486281023549;0.0074130596243533074;-0.32322669853956765;-0.14630744345113222;-0.10948463070670142;-0.040658018500013382;0.0027223760763748573;0.010871194411619961;0.08241924068757793;0.036754118328177002;-0.10350583997175775;-0.060392660668022534;-0.089907303624852566;-0.063347051159537426;0.021265200881448856;0.038427467411360008;-0.040172746567954151;-0.022017901537724253;0.032671495446108811;0.095241843229824555;-0.017445289563942784;-0.08125626345311858;-0.077208516983183151;0.036735577511563172;-0.028736142830412325;0.12647312633520502;0.075878989479798556;-0.0092035184474731097;0.11815203561100589;0.043685625064962028;-0.12836062528054831;-0.024829667954594327;-0.043168279131139076;0.080278794841603954;-0.010737654740752455];
