function [Y,Xf,Af] = myNeuralNetworkFunction(X,~,~)
%MYNEURALNETWORKFUNCTION neural network simulation function.
%
% Generated by Neural Network Toolbox function genFunction, 19-Jun-2017 21:38:04.
% 
% [Y] = myNeuralNetworkFunction(X,~,~) takes these arguments:
% 
%   X = 1xTS cell, 1 inputs over TS timesteps
%   Each X{1,ts} = 1xQ matrix, input #1 at timestep ts.
% 
% and returns:
%   Y = 1xTS cell of 1 outputs over TS timesteps.
%   Each Y{1,ts} = 1xQ matrix, output #1 at timestep ts.
% 
% where Q is number of samples (or series) and TS is the number of timesteps.

%#ok<*RPMT0>

% ===== NEURAL NETWORK CONSTANTS =====

% Input 1
x1_step1.xoffset = 1;
x1_step1.gain = 4.13086582947786e-05;
x1_step1.ymin = -1;

% Layer 1
b1 = [-89.617659813634418;86.764099281448765;83.907960806938561;-81.065708267009072;78.235773059980872;75.37864538885357;72.557324131974411;-69.703316041508515;66.839300248191563;63.98192745628392;-61.147083005401569;-58.32349905626107;55.471994715613519;52.627819407357272;49.769682302108791;46.923484553836992;44.064862316582179;41.24440982484613;38.399016528290296;-35.57467525630387;-32.698137787831463;29.838983483321552;-27.020891357304446;-24.184086453872851;-21.345372647402169;-18.391677395944733;15.64063670195636;12.804322245447363;9.9556680554411283;-7.1110167920972378;4.2768974570523079;-1.4165182582885216;1.4167712528937477;4.2469016458180482;-7.1095273314744354;9.8727649203269223;-12.798592107462085;-15.650829367257515;-18.490622181361726;21.323327414194011;-24.208880010855449;-27.041553732674757;-29.87621401472132;32.782704522214878;-35.376878268646756;-38.391178731533259;-41.201769917242046;44.08776311781623;46.932483428766844;49.772078261602402;-52.64128438681005;55.372677995718682;58.340354040705513;-61.074811941956177;63.982237816510043;-66.846995573731405;-69.68834675436797;-72.50595111156116;-75.374286779821432;-78.226223845195634;-81.038456269808492;83.908595245066962;86.76391150931849;89.600333217880276];
IW1_1 = [89.582376525033112;-89.591691183472605;-89.602953372135275;89.600839126364804;-89.588130442022646;-89.599228584599615;-89.580569946002598;89.588836658795188;-89.603737537911115;-89.612875770254774;89.605771758437172;89.592105808235289;-89.596671755536846;-89.596613927332001;-89.604539413864785;-89.605069798121178;-89.611996164356526;-89.599903845820435;-89.600587763396348;89.592414680584341;89.604746968472085;-89.609287087310605;89.600277324119958;89.598251196183185;89.59711432406759;89.620182608335099;-89.600597204489688;-89.599295455132534;-89.599945951549714;89.600068864922449;-89.599393760107304;89.600119159427024;89.600064133300947;89.600854242671574;-89.600137177177686;89.608884025688383;-89.600166145074112;-89.598811993299535;-89.599461144063156;89.602311145447743;-89.591520100473375;-89.593840100633173;-89.596828672492776;89.573377722952969;-89.670296773500453;-89.603681063728772;-89.619734860366123;89.600559744870267;89.600353771428701;89.60307742357395;-89.588680812479225;89.658142559949582;89.580857131928468;-89.654652352327304;89.612445967441602;-89.598159540049821;-89.600429211709269;-89.622063634876397;-89.603044179250858;-89.596449094426347;-89.625599347574962;89.602339898059498;89.591779363301072;89.599655682196101];

% Layer 2
b2 = [-1.4961439967026888;-1.4357031229360953;1.3951148103418136;-1.3407464277267773;-1.3024007564273765;1.2639374764194458;-1.2048677253936428;-1.1618373166345817;1.1052070293915222;-1.0577489383217746;1.0261277995718094;0.99379323091785043;-0.92312595887439897;0.87788390429039231;0.82986346446683568;0.79250018054550719;-0.73052840362706639;-0.68487394911543109;-0.62996442632762195;0.60125027050445989;0.55660148850370228;0.4965474435836994;-0.46421085756641739;-0.41488584981429483;-0.38654544236831695;-0.31292176085942863;0.26012678815670365;0.23619649793114469;-0.16325548233273041;-0.10733293698995275;-0.059442972444451257;-0.031741325752483132;-0.048782420254888152;0.058533327208008454;-0.11946381804111027;0.16546252277548562;0.20852969441730007;0.26839710954105284;0.31301577671104885;0.35588420661206022;0.39945414974161692;-0.43203663921312324;-0.50615233561450113;-0.55560097497116889;0.58698502365988181;-0.63735532263939265;0.69497859819248753;0.74237458268676393;0.78409104700209675;0.84373672821647883;0.89127572939727007;0.93174068090733608;0.96903290536530429;1.028594681429323;1.0512122499365555;-1.1211440600894425;-1.1785373963288528;-1.1990476132070569;-1.2343938833545436;1.2988960688677591;1.3702301248908242;-1.4163336392724377;-1.448635200778646;-1.4941219291096641];
LW2_1 = [0.11181698487607869 0.057643466138598186 -0.28433682109726616 0.16679415446886064 0.046797042218171492 0.28062672504198266 0.098039666345973095 -0.27192644477169525 -4.8997099281541991e-05 0.23572428378816143 -0.3123474629285522 0.026962316608556088 0.17360028151856574 0.21396673016222389 -0.12069955211729515 0.20451165045780653 0.22276974461733809 -0.29872358335223981 -0.17750902119910844 -0.013847722487507217 -0.074412218105536235 -0.014186151241361701 -0.095820328442514202 0.20800631043033732 0.14772631257939214 0.12036337629548116 0.10381894811993143 -0.22189733139858842 0.14657865067017939 0.085921159657042834 0.14577958060100846 0.24903732323671116 -0.28251111503102244 -0.25926046610137282 0.10259658855053135 0.2277450760746193 -0.171330351832119 0.29192868803082123 0.20687641743859408 0.27126666506552571 0.24493649669557466 -0.12576085364694475 0.21149938153171172 0.063716896151714247 -0.22909273358971141 -0.12272449019029337 -0.22872041870869991 -0.0086497570114916038 0.2788299173108833 -0.053860495272257579 0.10671825439624018 0.1226892698915078 -0.16984598331736658 0.047223473585319933 -0.30471219765109975 -0.021090289440808752 -0.24304065589356394 0.11651303323961443 0.017688017417265747 0.29965050858355574 -0.072224106156642862 0.1205241782637668 0.29606368394140969 -0.19909682135595877;0.11827516918224609 0.22954608505445551 -0.14730667841224127 0.23511854373394558 0.26133762562668766 -0.29818538405746398 0.084472441991894007 -0.35091768536757117 -0.025900109800606943 -0.057460697327112072 0.33708961510674784 -0.1035786411901802 0.23752351818988399 0.063160906166509767 -0.25336202599012914 0.056072789697202911 -0.22642772877004605 0.0047752812093306016 -0.096241799060915428 0.24752654933443277 -0.18911166525150827 -0.052235101095415029 0.31540618949954075 0.25750882811918258 -0.16037761531807249 0.22198304899197008 -0.091948984203321413 0.27399161369789016 0.093966477582175634 -0.031462623551133564 -0.29893299456797257 -0.023762670208624069 -0.22602538266325109 0.27952771032260437 -0.17361411581444849 -0.17882845892482796 -0.16589150043618051 -0.013397364478502795 0.21633290103546307 0.12059055851960743 -0.086833983443822468 0.12649877611896193 -0.23092052178993172 -0.054207387010339884 -0.25311248377327328 0.080736863660575836 0.073639508712713839 0.13238462332464798 -0.050134139164202264 -0.041961708189838492 0.20052713154368387 -0.030274199126993234 0.32645249883267252 0.13348516038749697 0.17545331802809197 0.027083423889588211 0.22120407667699615 0.11780472252559797 -0.18995371133361388 0.13342120115144557 0.24983892396741358 -0.12231343778465811 0.30903248524216942 0.20695757174895985;-0.16727070868929134 0.16792044089320299 0.0027491726889866943 -0.11264426717577751 0.095123258892785431 -0.2581437620315789 0.2466751495054367 -0.16124630036515228 0.19598057843616531 0.22130485214706969 -0.23962724486257858 -0.27563141529103125 -0.012626876456239444 0.010439315779808979 0.11582561641397968 0.34419922373542361 -0.13611010068177273 0.19823353276523872 0.26566420953597941 -0.29671356816870204 -0.053020879920464954 0.23335104164625156 0.23763336728343251 -0.26434961028423831 0.071594383416014359 -0.051938757082307371 0.19023295329958101 0.22586268958207389 -0.13400449816850388 0.031180036477706209 -0.25844154595102287 -0.33118382477758479 -0.04120318478416863 0.2117678507726039 0.29438659048371135 -0.11401113448883836 -0.081219511320275148 0.18088299154615106 0.02288991063759304 -0.19344235940152704 0.012982482399684657 -0.052556921467928563 0.24460423540162041 0.19854488363935516 0.20684418060102441 -0.17961894621297445 -0.1348807945980324 -0.27845522649783461 0.022454860613571801 0.14994537354659987 0.2765543425423454 0.20855679234555258 0.10003843734474309 -0.075962774205490288 0.31159838861229155 -0.198685955630824 -0.0068568557839105617 -0.17055018253995474 -0.066399475165551683 -0.16301637530410817 -0.14625123735510565 -0.12310122517256618 -0.16851376820917474 0.20838116405662513;0.016437799411183843 0.18674502041299637 0.12314724350129111 -0.037960202899012807 -0.25194868472934312 -0.016318712957051222 0.33260804210846739 -0.010915317091251504 -0.023319707685632088 0.23868744923187579 0.18766919116684716 0.032083739204115433 0.065487498091011481 -0.020830012195411175 -0.23875058833966634 -0.31258558882710141 -0.039225164556143048 0.0087261800214037469 0.094062296227792427 -0.26434092219081495 -0.09235872950273076 -0.29304484258502933 0.28674735957135694 0.23752299417591902 0.19889692935110731 0.17682916457914385 -0.33109626646077073 -0.09449877554980432 0.10025962659959047 -0.14707905673847596 -0.15094688138344214 0.23872507538318929 0.34621251057309865 0.28558401582213483 0.2467212252529315 -0.31473389287972903 -0.18206903072572739 0.077038993469316544 -0.1656989355240128 -0.074673335462821552 -0.19092064509375928 0.11310094544712061 0.043190565757291403 -0.22658556163552618 0.13055499626730724 0.20891145346497966 0.10468566207118743 0.19942493999875344 0.053718134101781286 -0.079963257201967911 0.27357763233211463 0.13882216121061342 0.16138942301199757 -0.0094883937732747111 -0.19994643871517695 0.30433203042914797 -0.23495555426042677 -0.2283942179415675 -0.22543462288180663 0.16769904543439382 0.052855278183466463 -0.064173991324718391 -0.26792091273418805 -0.0039192112356862072;0.20714564429401561 -0.17705527044003891 0.062237494866407499 0.22723882279196772 0.10165704566761367 0.077436342215743373 -0.19792277706367797 0.16376527768707902 -0.1911600830157518 -0.18213347981445899 0.26547724744663775 -0.20640407513278261 0.25210639211527658 0.2820376177772867 0.26469727218174299 -0.090896324883952162 -0.28447953541806753 0.22280589945032442 0.0072729037963603829 -0.27922503971592139 -0.01061221670869667 0.18418450310391637 0.21723117994714725 0.070473017046914319 -0.28400432296765915 0.27475856015370825 0.29922401054851561 -0.17663021831085962 -0.2274933931642194 0.21629158282825198 0.14680915862897195 0.092913975438015467 -0.12623815700550331 0.24859955071006354 0.17131972328014927 -0.095120351092424366 -0.20962700987936461 0.25741615979279298 0.0013533741207696467 0.25864695828733114 -0.25053240452678593 0.0083517040043073754 0.033021242744024425 -0.1605267456892607 0.12066724726645442 -0.17029848311468507 0.21954214076800146 0.00065619482084296112 -0.096878173697571845 0.26410960294754005 0.10086154833455166 0.2131289209970427 0.021321840877383626 -0.22566130429176343 0.045536124853137523 0.1654662433183394 0.27452897713669511 0.15051307727223937 0.21739251218938629 -0.018257170130287766 0.15625129717755235 0.12878968407650185 0.0020712732432742447 -0.1980536067461609;-0.075298396548017649 0.0071672391112371009 -0.26416508893535462 0.13163451982742905 -0.23221789751965968 0.3139321699275866 -0.083234362988068133 -0.019254601772217828 0.18852645828831585 -0.027077172739429656 -0.055554924412358091 -0.29441166146138958 -0.14330774455040493 -0.22268975847242689 0.068961986418553625 -0.19989734827189895 0.043179365295019818 -0.11552835590497154 -0.15368339828578823 0.22693190749993408 0.29785429400201741 -0.065314965853314894 -0.2953541714477218 -0.062313511433268201 0.046851824340722957 -0.26909679366395517 -0.10341616302364766 -0.092300265737123716 0.14986832231584493 0.1623562909875455 -0.11778882497449547 -0.29414423775535747 0.054310895639360958 -0.045093428111233944 -0.28467264250145674 -0.10989422926873911 0.14480124472993861 -0.1387377760396287 0.23437426983306867 0.23765151638573692 -0.26579865017315418 0.30030865029868947 0.17183067310877562 -0.28612704594069388 -0.26780082175741199 0.2150058974282473 -0.039124652190819904 -0.20747003552526089 -0.0012443029486567817 0.3284886931930826 0.12954794748925241 -0.21808985447387774 -0.066162789537196592 -0.049241728933764856 0.098455227735736603 -0.1633274106728394 -0.28935935969405141 0.054067090721974354 0.0020621470124552784 0.26186822825625033 -0.32666715478292879 0.085020311582235039 -0.13626853595992655 0.092663108153794596;0.12310603902256964 0.15431213116505491 0.092357460463068974 -0.08820860176066643 -0.020600108487721577 0.30552125654593959 0.036458168864902503 -0.020978430263370238 -0.30271287696614102 0.045962292823869225 0.13808115727857995 0.09931307440208309 -0.076583630991752069 -0.16114648904852485 0.071318202658512742 0.24686366466575704 -0.27176764167254225 0.10406192080588827 -0.20381079302474106 -0.095456987285372122 -0.14795268100446801 -0.0048475274127360943 -0.067698138182489848 0.23082658424061611 -0.01203043991205832 -0.015362763421017016 0.30940798835106215 -0.24212403988826994 0.13184038225892011 0.20418380205121389 0.12420212585867399 0.04294335267657972 -0.24717368540883111 0.099118252279782396 0.24508378899170566 0.16751755234673676 -0.17252789395751228 -0.24717286758641605 0.20327747559598716 -0.27925618512259598 0.32942207088161934 -0.22599286193330642 0.25366418790440842 0.1657070232871605 -0.27988212095757092 0.16492210424656861 0.020410313496265771 -0.12085482601558348 0.018009395433276367 -0.18062294996720479 0.31586904146588074 -0.15880095802108291 0.24735237107402636 -0.27574271318484195 -0.28793287321975691 -0.041822158979399872 -0.050142809317373034 0.23643053299244035 -0.1838033215387628 -0.24078378899671304 0.031545437836397579 0.11089081833321091 0.26721763749547861 -0.25364431156492823;0.04380663042380236 -0.15141956574040993 -0.12353331963106755 -0.024274482932120756 0.28098939992667921 0.20977259231739181 -0.19379695199387509 -0.085283400581073684 -0.26651951073210173 -0.08542895989575601 0.30878005810955028 -0.062024416517222486 -0.045926688888332748 0.22628135262476493 -0.28824104001651868 0.2206267981742599 -0.076084881231744408 -0.15632199013305001 0.003911014096284156 0.27454994148067252 -0.25780821216235389 -0.099020582460239634 0.28643643952583742 0.15469071491299644 0.056635701412413725 0.064257143284183582 0.19943431629066175 0.051357605597941974 -0.039495646790656203 -0.14728015936908587 0.28984100143331459 0.12314601115134387 0.30867447521208813 -0.086018832327542885 -0.3039801659488357 0.066887068465720109 0.22560567786876265 0.22059427660096287 -0.028836697621655367 -0.26235651825649442 0.095955259272680574 0.094797268388455716 -0.17725997196457446 0.15208795479199555 -0.10513649096104073 0.16897256866571289 -0.28728643347536731 -0.11810495893387044 0.24633777415545535 -0.059037932130181769 -0.15302888745391879 0.23057616034544948 -0.31950577911156536 -0.015791854813328187 0.25178982608335732 0.26970617888753268 0.11530797008369174 -0.19148143321557035 -0.16818313257992173 0.027520529965695015 0.18000072482669838 0.18321891548069208 -0.29924716489925923 0.11065341800965857;-0.27280650327780454 -0.22272009814771049 0.16322149458869994 -0.071152963516229434 0.071022394541152264 -0.13385001260001889 0.068740326598159318 -0.14226665240222883 0.16583075115879273 0.048293537256514613 -0.27333562411669282 0.12273389856263282 -0.034889666594041767 0.11586394565928404 0.0046881163356085383 0.14997742262256705 -0.18471388707079622 0.18437836801162166 0.078614960789574292 -0.25766330266202869 0.23258597904470976 0.11152037816225059 -0.11162923364940018 0.28998497729042766 0.28805047962622088 -0.021622834544985068 0.14409001950360129 0.18544291912202585 -0.16366307131370486 0.011397040532835363 -0.053282922429996674 0.27342654378158493 0.24485132808166471 0.10345343296519677 -0.29259173941470773 -0.17062143688158438 -0.17354658823293631 0.27087118679773226 -0.00038714693851453084 0.15534312948677637 0.029569658930442212 -0.12443756876425138 -0.28115955144691623 0.27592196485007953 -0.30822510353005017 -0.13872152381705621 -0.25569923453069848 -0.30826562164124366 0.25248725494818058 -0.19749980306772355 -0.10247516686119912 0.20280794745837405 -0.23890497342549533 0.27367500097051828 -0.027092857929493886 0.25990270090855477 0.050757423930442615 -0.18358070138753824 0.24533414231741979 0.091214541877664299 0.31005381282517191 0.24905436708995757 0.021492905326856486 -0.11508135515455553;0.3165629445177543 0.031514545857164927 -0.21898822008873386 -0.29211609830981805 -0.25691862848949409 0.09222487927034391 0.038969765919390047 0.27431638375567835 0.049205693714944911 -0.11125590538178784 0.097637022673962987 -0.24052356052242757 0.25025866839791217 0.07618549546161249 0.08950445477515509 0.19907602388333456 -0.17112533244803688 -0.26107399965903083 -0.29424016516127327 0.034904970963733267 0.15376052946093896 -0.22531032392097439 -0.13143911248930076 0.075401706237816918 0.21657798959588159 0.022867731497419639 -0.12017853677152796 -0.055224627466252417 0.14988826696301935 0.18542832762952813 0.22216607889597031 0.323568956114965 -0.27878152266021256 0.076697659514086594 0.20378072690065144 0.20649192095027788 -0.17275959844447814 -0.094910130655001868 0.049058642931818768 0.025042687247920827 -0.178542119408547 0.28796280198723173 0.061521470814265594 0.20985284460191414 0.10068971910594864 -0.26075337213134464 0.11364822280857224 0.034653603158388509 -0.1796726001431988 -0.20505043969955999 -0.2273808205683826 0.27166428230950734 -0.017233654042405702 -0.28786709668840665 0.15385986301937513 -0.26489150766846392 0.12506992111115531 0.004350771863049897 -0.088371992656332096 -0.22430260357837936 -0.037111759962599293 -0.24975346236671875 0.26555857032901353 -0.20732054337834616;-0.16397929909108402 -0.062400594708092366 0.15804646742723796 0.17127998462832533 0.10358006041356504 0.074292495341852449 0.30971948821668416 -0.014842905561839502 -0.21358494936869918 0.19335847425453515 0.28866537663214253 0.024132603569013242 -0.012749695697712381 -0.0083981488534867251 0.15692701690907415 -0.17924544455007843 -0.013247547326522398 -0.24664584261472827 -0.010529615364643072 -0.22416110892886928 -0.2943859250746399 0.23828000056439613 0.081303955574222611 0.16427770749294995 -0.004660583019490439 0.12629600123399726 -0.016787394749737203 0.20936773345964094 -0.057002353898486437 0.28807184709484235 0.23986353635009419 0.29025227067619652 0.28728361585209056 0.032675131597959643 0.059332163566334667 -0.2679873897371095 0.28595332737796969 0.29071547907832174 0.10015531354334775 -0.16950887341052623 0.24899063451487718 0.28923226260463991 -0.24993289534658436 0.022041913088225895 -0.0096458024234419917 0.21540745573196865 -0.20184750612077229 0.19772113926683946 -0.18120038032144195 -0.087138076019424318 0.061219964653353082 -0.10947116290615733 -0.16276554192573359 -0.057132744331182816 -0.23735757447800621 -0.18060291593552352 0.28229219858122051 -0.27860294344321135 -0.11593994180255453 -0.015634996990513992 0.15112133573092915 -0.22974748852047328 0.2367563319823193 -0.20047594288822909;-0.31001426924633341 -0.05765571386927363 0.25854579393047122 -0.21999954039098854 -0.11958259479360304 0.011645126130519975 0.20983666236332127 0.17488722724830869 0.29519173620239153 0.03209172887333292 0.018420021723526466 -0.2311529808454881 -0.18921814599655176 0.095909266494121542 -0.1986289401641573 -0.15515698379310941 -0.24208874231027813 -0.034971848181320868 0.012374671382821044 -0.31669385416250034 0.18684004052828238 -0.099418322727109099 0.22464343424805228 -0.30374191270607553 -0.14038379900614692 0.26065260424829129 0.13375825571613528 -0.26973162736263612 0.10414020432633928 -0.1413562511546102 -0.15541064787505868 0.012546710311283333 0.28080092691761044 0.070836090459548029 -0.082760236132031914 -0.34895142648308797 0.30619763332642624 0.14690967725823986 0.24231757105287094 0.11803350988074079 0.12022095880600514 -0.14517522461348856 0.018219517131777992 -0.14045121037624042 -0.30598430035438479 -0.21268961184848467 0.1708968106933047 0.21885649445126784 -0.17645539362961257 0.1028543267964937 -0.063806743194520302 0.24163079672025969 -0.030672408018948067 0.10685197626161395 0.071989890987769242 0.26033822181830685 -0.1269495320830788 -0.076183506201415799 -0.14203071750230789 -0.28634658536568625 -0.032390137815135091 -0.25754215440584072 -0.1731781568957787 0.045018616521290328;0.22358198925276218 -0.21845662863973489 -0.042737540757946627 0.015725730873029482 0.13379518241740096 0.22787795990459575 -0.1124959334062612 0.13384796747404981 0.20457495067597792 -0.19883412815217211 0.2743619708981444 -0.090956663629406062 -0.17417542602324401 -0.02001673640946805 0.043109538258451631 0.036612515406606622 0.17843048834885461 -0.31221921788393042 -0.26056920175275361 0.10667439042504905 0.087133501004685782 0.034295613732505725 -0.076012659392230758 0.29280902221830601 0.0046209543943976821 -0.073523209419866092 -0.30394255025217348 0.082904008583950611 -0.01494541627599625 -0.18776559018870803 -0.30899194878841202 0.26559686049329723 -0.041403090898914856 0.18434739519555934 -0.32454657669621328 0.096697549385815512 0.3276601668191147 0.1613133382035955 -0.17612144249722742 -0.020243591149031539 -0.13137768096506197 -0.076762704507816179 -0.3185875419167315 0.30713052758756371 0.0399135074557323 -0.26884210200548175 -0.16900497183212584 -0.31193029331692207 -0.18986371947602051 -0.18938162912048975 -0.1639469431517418 0.11354810346794197 -0.24778646238076907 -0.062255893256615853 -0.1309902141341884 -0.29350988623001473 -0.06762547461264036 -0.22265464487699171 0.10070627896682721 -0.023549827161433896 -0.30448848818402519 -0.039773886123358089 -0.073924331188611705 0.15262539812781575;-0.15478259929032545 -0.23672557445558565 0.26854198067292245 0.23622609302873834 -0.093087055529128201 -0.13904820181441355 0.035453257718907741 -0.3079212435824466 0.26995101222602907 -0.27486569734741145 -0.0080081525682499238 -0.15624438769438267 0.16882788557140896 0.18256792961936696 0.21262065635312025 -0.14378846509429849 0.017106390001086512 0.036454684453080019 -0.17687342642557985 -0.15647343188969365 -0.32844704537752101 -0.21997291313843528 -0.089353855910387053 -0.27717594228614512 0.11122675021830813 0.22056937306410873 -0.082921479054050659 -0.063896795903762751 -0.11295577227176322 -0.044586659217281908 -0.16059907328467804 0.22382111621251419 -0.23102895704887369 -0.096120293764666895 -0.048942928499585606 0.075776174890231654 0.33547076421546018 0.18522746344325589 -0.098898835174598854 0.25198809509437187 -0.031197834635101354 -0.049741473793230274 -0.32403174411239694 0.16083403272972793 -0.10814421234585539 0.20322034396195351 -0.078576279299978222 -0.0038149842816467073 -0.20666168102880811 -0.15480207500433266 -0.14398114236485146 -0.06731213800915041 0.2731982775809278 -0.22431909497845862 0.32905350407066841 -0.34050528415405201 0.3015904152243235 -0.18873826534311011 -0.022627004316609224 0.16549157058642397 -0.16207238938471613 0.00063796251305285546 -0.12935452056260388 -0.075430773180351643;-0.186129384399909 -0.10123953146684045 -0.04870935469423715 -0.29500721117190121 -0.27920153605872011 -0.18005289332123434 0.20046291219118095 0.23153319345901072 -0.019089598142484981 0.12859639502278883 -0.14577087820940079 -0.24937475373228282 -0.20952963297291136 0.0042348949442259417 -0.29716034462877522 0.27676328450229992 -0.19079860458938561 0.11617175061381446 -0.040227401976441438 -0.23197401965956529 -0.22450468923219477 0.011253674375807873 -0.099182153564327732 0.20132275143910394 -0.27090531708315702 0.14644271847164775 0.26705432140694169 0.098790981020427313 -0.0057216960747734393 0.077740838275187824 0.21489432284468524 -0.051540229654926238 -0.20423116805853653 0.21575707145315146 -0.17749861640290382 0.19909521875034275 -0.055693877873489915 -0.26531716755919649 0.26632546424791559 0.21864994107308494 0.037660486116020242 -0.21769057962788751 0.074934628349545757 -0.27839040086902478 -0.080751449150152366 0.27734628067819389 -0.24488626976838526 -0.037744370361386302 0.25901420503641326 0.017578745844837072 -0.26849346416216158 -0.2683838979727271 -0.12898590204363763 0.24194204556731091 0.0025109204647256957 0.010529546534419522 0.03365619608370387 0.01428405299924532 0.24176687430457591 -0.19404696481387204 0.29504289084377922 -0.014023913213583539 -0.23679865510999304 -0.086608427138538335;-0.29490025504855438 -0.052646786414506166 0.22919800852848971 0.27056729523164835 0.076516668926550138 0.10515221730086487 0.33752849457142414 -0.17339432428711851 -0.051658453619706522 0.042799486301622162 0.12040537239844616 -0.24138994376660558 -0.24939898984239106 -0.16707934994900064 0.053655418617186285 -0.2335430856351571 0.040836113457520383 0.20670681038261074 0.3048008403360849 -0.15241001833945228 0.11756975394681191 -0.26950811048676543 -0.25957420317948005 0.15557114102549982 0.10997765746611672 0.15686990660934974 -0.18258522552431281 0.16217143295227171 0.196819358360387 -0.12319067959063537 -0.19238910140016208 -0.058863628814741463 -0.26296386218459877 0.25019116710917472 -0.13912888895896225 0.14110665141624115 -0.20152234622469037 0.11437019026878067 -0.1740902176665767 0.10528109163163343 0.21385998585862212 0.084524922512970238 0.23957369384981281 -0.27236957838043879 0.1117214396178593 0.128058582283165 0.28406345555640589 0.059321327002619606 0.0089866602145434321 -0.29417190808297339 -0.28370783777480885 -0.079160592655828935 -0.1364632564793358 -0.31158035763450265 0.029085890702405491 -0.21813125095250468 -0.29755266082555026 0.2042850073279889 0.1171002413740718 0.092183092536892983 0.04398470143309445 -0.060757275279392918 -0.039798307536602517 0.19181706105102891;0.085973955619990008 0.085874740415032708 0.045238132678948273 0.15029179512800242 -0.21556302526677001 0.25212407465323594 0.18416479831289886 0.27211272174617979 0.24464604080494604 0.22921594991897942 0.12575182055802395 -0.28745346589652226 -0.034413269646867271 -0.22250864748865118 -0.22456356004237149 0.11529112163401736 0.28037281592724467 -0.1242792218636531 0.065283805510212345 -0.28233678866652295 -0.033645735091299533 0.23411744453337485 0.20208666792667357 0.13617255577433551 -0.093285821045709011 -0.085076104626031657 -0.052110326721374355 -0.087534341303079993 -0.10385486623949232 -0.0413181793446111 -0.066408817972749112 0.027192988623934794 -0.18266616773927757 -0.28241823047583736 -0.023395323743740322 -0.12507063812990998 0.10040612320384482 -0.10094260796485591 0.2781668562920015 0.2723986461515579 0.16571905560035802 -0.28642259487653188 0.027369035172406062 0.27028179497029131 0.29895122745781316 0.045856141669639361 0.19278124943977318 -0.20509789083168636 0.23671150035591582 -0.069044475406975919 -0.097214493110604053 0.26322065544057754 0.18060384583642786 0.24573578689680015 0.28911779550186667 0.22770676941882914 0.24818532740590835 -0.11245620999803356 -0.14228715828264185 -0.19196461211964322 -0.21316584738446478 0.15234149561602522 -0.12224422976247597 -0.25933428845344797;-0.0038164773309680741 0.33742142457193586 -0.032047815412830132 0.10543594801925527 -0.083537233697023025 -0.28069232508333886 0.070136923210718072 0.26564821596954385 -0.19186831914688554 -0.16161826835950746 0.058568193132009241 -0.29249982773357852 -0.17124532882229065 -0.31300523507661998 -0.015734890728748254 0.030541912932787369 0.02427943871885065 0.15049816710766561 0.31852043294335214 -0.20103374523808959 -0.27331300743450315 -0.013605275970474817 -0.086080483416124787 0.12210989299574161 -0.081215664704616414 0.15610119736009603 0.19926968109017007 -0.29850013511087209 0.030034432212128905 0.069276986406933749 0.27084938421323929 0.089088085700151295 -0.20485401199210268 0.24292738957786233 -0.0047357916393296583 0.24305280847236704 -0.03726861682702981 -0.28996649475678904 -0.28549719947667979 -0.22399808608344168 0.12277378790834717 -0.050126601756547748 0.070104796625862761 0.26467762539908879 0.051976485978260954 0.3109641589920551 -0.16028368794008604 -0.043697550543085939 0.056583943633333224 0.18341970823590423 -0.1347864631477442 0.046910231625910966 0.35019966375821265 -0.026521237953297264 0.34216549198617735 0.084208618596069873 -0.040123654374906524 -0.29875948316417456 0.023434133973922418 0.23293193207745105 -0.1677006902689398 -0.16436995788584519 -0.13226433016499592 -0.25223942894756751;0.10224764597096149 -0.23514993399327444 0.18182752334896685 0.020746457827207569 -0.16330354119560675 0.2884637891963015 -0.20302757931904947 0.26545945236381885 -0.11020527648837698 0.1229373090363598 -0.092986160791228165 -0.21126766344111403 0.13208736699031404 -0.17877816253268033 0.23672608129765849 -0.24364456266727647 -0.26392659511266031 -0.10429699828008138 -0.075793270984674629 -0.27467502539689764 -0.0011416206587294591 -0.089106749689500275 0.24659201572135134 -0.12273028480268082 -0.27684644353237442 0.13433939261942057 -0.22783335875647243 0.095153411890189998 -0.22274815299638387 -0.17334656036770141 -0.16351686757813394 -0.10386387302454458 0.25789365017247057 0.25856775567664458 -0.25345913815370952 0.027055616642735484 -0.22892016012726843 0.038081138457782701 0.041292812686270712 -0.19879119576859694 -0.18627535665551573 0.26869418502522696 -0.12508380716173356 -0.14457567559582243 -0.104026361979635 0.098139090458653669 -0.082157207426370921 -0.22895820938326827 0.2959946286205925 -0.26515240059777934 -0.28163723625383991 -0.2277335921632499 0.28437809279216258 -0.16158983701775612 -0.088700278933118826 -0.12338791119751744 -0.13512576863667053 -0.078493835055630151 -0.23167354362710352 -0.11679464327959109 0.065698457933779722 -0.18469865429621124 -0.25012488098512653 0.15243882440811357;-0.28834861427653891 0.32570104704574132 0.047544859766761843 -0.10164655996609799 -0.36192004434666974 -0.064302690649022304 -0.13998751330307199 0.12178348082051281 -0.052116831926561219 0.13468421564334015 0.15331112016053833 0.09994139466437138 0.13904069388055176 0.14817260097573559 0.20731937793722005 0.19594790289224159 0.15778195363539305 0.26131272234980191 -0.17647709628509803 -0.16182954531141361 -0.32760889567067236 0.27269022055555825 -0.29307606023834204 0.076660018091360305 -0.027676658614951895 -0.34856034031193139 0.29868317199173589 0.32092995415517178 0.27446502461348438 0.026623040122405694 -0.2354652471007444 0.32701729216819003 0.15696121673410582 -0.083836932332488553 -0.071444874520537591 -0.13007982689381145 -0.088684700383500167 -0.074521439289361155 -0.20790250414197006 0.042799043069850079 0.060405827329435065 -0.055054852755375916 -0.042060018322906921 0.23138784742630239 -0.35671907054156138 0.21242824913992825 -0.041145022523484932 0.092746239431469354 0.062499336771221124 -0.0099412143260396903 -0.097213614915372337 -0.019176135029646688 -0.050053669818635363 0.083682284871102131 -0.27150546287482163 0.074837170683729845 -0.18787157660875864 -0.052281422081916593 -0.025797708721817449 0.07092665106040201 -0.25694898792610382 0.28439349071417425 -0.14642678305345 0.21795158631798384;-0.1984980301041796 0.20142983927534902 -0.096959959871771972 -0.24325815957914154 -0.25070613118030854 -0.25797716417074529 -0.0074082778951817009 -0.073826861501063934 0.30093378436218765 0.051922622694221363 0.053977628848871528 0.013284538752499958 0.2266926318033704 -0.070489418587496536 -0.12146412288197782 -0.15420259095012895 0.28049224369072046 0.16071641335762821 -0.1679992315422919 -0.29412204929226798 -0.34492177903337556 -0.22043517571474514 -0.00045430189742889839 -0.33623418943922612 0.22119538096192126 -0.049020634200512399 -0.071625768773265486 0.19818430287455291 -0.080841754240849911 0.019221255934473925 0.29297271441217826 0.054292995066048393 0.21560908597198866 0.19715559055204629 -0.001081119383131564 -0.24764827657600899 0.21882414507270023 -0.034773681134825665 0.20123371464846349 -0.21645045928611448 -0.027446846604288019 0.011861732241454941 0.18512636765177298 0.044308559771864285 0.12322584711841106 0.23068773656851088 0.18759992237821646 0.20828644898075085 0.29005624760458582 0.012090592597013132 -0.19813204059967088 0.31449800524005272 0.10342172039850643 -0.10725309405319799 0.14516912913266833 0.044398172794598241 0.036389132519035083 0.32378251802334584 0.15736366581546948 0.25333392455787729 -0.30963521642483138 0.092127930333427088 0.16492022292617145 -0.026460961149362132;-0.18217097824634679 -0.22821105814979831 -0.034643447998734749 -0.19116728025843852 -0.21419703060811926 0.17782320322322154 0.26559153130652846 0.21063223472144993 0.14967843269565131 -0.16882183006172588 -0.10460106144600179 0.1391924748548258 0.21154834027013913 -0.18924314727468311 -0.27254694794453077 -0.15568759118496359 -0.15915842056358817 0.12363386150734215 -0.20268563071008172 -0.28437855456070493 -0.25626112306205834 -0.10803677488857252 0.02039285433704557 0.21230254109371482 0.11397423330805935 -0.23042894746323517 -0.21153726107636106 -0.25609881373192706 -0.24653446482392902 -0.27379519974666489 -0.21770121647488253 0.2226658550268743 0.19176018342447301 -0.13381906278474714 0.2491415694623991 0.19076732798975021 -0.14720489790292177 -0.045780676994105172 0.11323312107779206 -0.14352359934833067 0.15158783079955007 -0.080698976995017643 -0.19643462016556132 -0.28924428704525917 -0.16401130962288513 -0.20255841601865487 0.00084634213097449929 -0.18355581632610074 0.016180922570039204 0.18969361014293251 -0.0060719172246783276 0.20428232297381035 -0.081246254892931122 0.2333331594529586 0.029549821744679627 -0.19613575551868936 -0.26408010416974526 -0.10966393031092972 -0.22377924724305434 -0.15874808382309255 -0.16214183434122389 -0.22813233867696822 0.24689224249967209 0.11741728802366549;0.26006813397855499 -0.017467397159255438 -0.1704719544988236 -0.015138844301040471 0.25348150282447701 -0.07645479105591052 0.024242354130730476 0.29892726816922155 -0.06570763443823624 0.2767450997698826 0.029086270814210013 0.2791089934053822 0.17495781873685404 -0.12165556453671104 -0.29820035563192349 -0.14663638394937897 -0.19116491794361448 -0.071869886234115735 0.15387237063800774 0.28491970768511166 -0.26983370269754575 -0.0058789821254956118 -0.067424707016797064 -0.074098768324717554 -0.19908329347245823 0.13663214863456971 0.28909483388872831 0.047768656321162437 -0.070468826445244465 -0.17026898352712166 0.086874656862521632 -0.14436760131923596 -0.28695974729047047 -0.261803361791347 -0.12182537598711525 -0.22352743348766191 -0.18301598474103867 -0.13292877894714553 0.2852433889035485 -0.27464912829284827 -0.26440748102509598 0.13846170080454268 0.094559578754275661 0.058391710149975129 0.17667188694747951 0.11956185898212997 0.35551281086655667 -0.047571994939478175 0.042297932058967612 0.016354430610637401 0.14767843693924684 0.041154231545575785 0.018764000532967545 0.13491449203033706 0.13306884410505451 0.17143551420213388 0.29642018969026768 0.22581399984131262 0.04031860234359276 -0.29556147651878989 -0.0058973816259825533 0.23955253990286787 0.29169393065192806 -0.16755519271115446;0.27723709814157571 -0.071772827379384049 0.25584067733686239 -0.17473947038443702 -0.13774935266429891 -0.049461128702240648 0.27671967003520137 0.30908358086177268 0.018434318782206464 -0.25335159128163071 0.29416115634307666 0.21117279756600979 0.27544776175277985 0.23380653136626944 -0.063357806431013713 0.13232931124913047 -0.29446338011751116 0.19762142206441835 0.24647945910154176 0.10255376705642015 -0.13754093087112951 0.030087167907984082 -0.16370538778734114 -0.080337077452878589 -0.10984722753669221 0.11129985910777664 0.20143599785192584 0.17877727118283571 -0.012841035404200543 0.24237300957601488 0.092547688685199664 -0.16687880305166633 -0.24818369611729069 0.23465313527813864 0.25892786282429353 0.27534595807576268 0.28180782742856714 -0.13421701466108074 -0.13268435508223889 -0.17900931473562234 0.11394575718566889 -0.10818283917171322 -0.091880320566391935 -0.17452682467851191 -0.0081697014583862679 0.19843797840838845 0.20355703914865064 -0.08975417460480091 -0.049345361161401168 -0.021976307177216815 0.29458818373408235 0.31909245713194762 0.20347476548996155 0.25404110821048093 -0.19708145384178066 -0.0087450406329445847 0.18714499866803291 0.14589341265057393 -0.0078161666666979393 -0.035993959208194114 0.23608094540718358 -0.30557348101515147 -0.057895061140798162 -0.13152288226150899;0.26716979733135521 0.11299623125442071 -0.079033170883249182 0.21300502016275072 0.13725775908173588 -0.23017427428507636 0.28778591595688813 0.049592704796185834 0.14822855074271618 -0.18179887694120583 0.30670839251640269 -0.20548793865576012 -0.22054919865049005 -0.080266505929470558 -0.038357229299997096 4.1919113809914492e-05 -0.092090139683643144 -0.27183118700031483 0.26326201017957251 -0.26416008254591788 -0.0085267878768579553 0.22267227111847443 0.27960820151357424 0.021991392567815276 -0.14028520942218059 -0.21075497470332299 0.2386841822753423 -0.25533626880112648 -0.091634601056555132 0.19688038901316485 -0.21264643118521903 -0.27592452203680362 -0.043874025578097803 0.021868707860876857 0.29375966812867854 -0.30108948727248175 -0.033802569851278198 -0.16127565023555943 0.17401236169683562 0.1370222848219779 0.087174165806532589 0.15739950558418442 -0.13595509805759645 -0.27629764831084247 0.28670156048155271 -0.14854296059723029 0.16338282790492917 0.19564596750628074 -0.32316756411517061 -0.11244873864013641 -0.016667134636698396 -0.054443585151134483 0.259062773585786 -0.17991170847752513 0.15329154171148412 -0.073897563227024343 -0.24615466950803883 -0.14746394170834767 -0.14394227754674757 -0.021456057863197563 0.11925988281224117 -0.028231625395257278 -0.27375139055853542 -0.1914775663410114;0.094639914991571095 -0.063803069456960959 -0.029657695004010862 -0.01146045029045102 0.12026268917329863 -0.083525595992885046 0.22077520714743121 -0.23614726212365456 0.26926612592595728 0.29962485312291481 0.060020637328326056 0.13008403903091131 -0.29506304674358985 -0.074754946559546939 0.061683169448947139 -0.17193539613325065 -0.053895968098415688 0.30323604762763001 -0.29341980845333909 -0.29652055551143985 0.01746376022970238 0.12589362966815179 -0.20100593978215922 0.056726680721245634 -0.08740746646734561 -0.354844181965561 -0.12114421147443169 -0.087823694114964615 0.26678118219756713 -0.080007027772775588 0.14300715845757617 -0.31106443595593686 -0.2461425905593686 0.17620479377182252 0.041857779025683141 0.055303218149328953 -0.22590072070361317 0.32067234032408698 -0.12232642887610677 0.13531335684275012 0.17032008725029577 0.3120064123166128 -0.059454223209286554 -0.30249948409789079 0.11551776853888721 -0.29047059799721597 0.0082647089163178176 -0.28470767043312539 -0.001957604016860846 -0.10314744523807523 -0.023887786536272888 0.11396325496823841 -0.18314757176586216 0.32370749251394465 0.067498043842724884 -0.17723523166847874 0.17223791535907107 -0.24920190105638557 -0.12718846392303559 -0.024762027727262052 -0.25124501482608624 0.078087191953849333 -0.095774934022044442 0.25219153592545318;-0.012622566283189621 -0.2410837338775812 -0.036287222237905363 0.21737712816244059 -0.10720533396835874 0.21644194745760043 0.24290843334520426 0.1414205119100751 -0.2046889749204466 -0.11923613609253948 -0.088021471800907788 0.043229310654969696 -0.25131170508428352 -0.1090259253467584 -0.091612668130262045 0.17431401070981337 -0.0747803150023644 -0.12826259134403359 0.10232768211683932 0.091690261383743907 0.31854149033606755 -0.26927348505911874 0.11079165630996772 -0.014096473699431466 0.26683682937098324 -0.082563029035986044 -0.05489702619978104 0.11928637447885308 -0.084307125614811823 -0.13263514183037761 0.20857907652714167 0.33370686197540284 -0.2840444335191919 -0.19352379699696662 0.10291132898006401 0.28582967492461397 0.15736524708707611 0.066095019992779946 0.18664361362329998 0.1416376733912158 -0.27598824900788865 -0.19009662994269905 -0.25906093193523255 0.32455058326632807 0.1440430121168936 0.32772661703918843 0.12703820121028134 0.093885184494236038 -0.054089997642680916 -0.0035615365039151463 -0.24261394152608953 0.26588898659692767 -0.16064391031273612 0.038536109815189915 0.10837651524302891 0.16830943796040745 0.33002363209833457 0.15307114476382899 -0.25752869000939294 0.24172640226720399 0.1700874582800409 0.044921540619913838 0.26122036066559595 -0.13924694632380968;-0.32649413878822792 0.039950149049867968 0.31280541651700494 -0.16097416914818238 0.011551443995917973 0.27737466482963669 -0.10306957968782084 -0.16005584403747564 -0.19950508087435453 -0.11850130735803535 0.20546678841493848 0.26044027470864328 0.10067532260010127 0.069512523157010439 0.16373457307292541 0.021414754413454997 0.16242305641662988 -0.0070403191184915575 0.18286590252608956 0.084240616495302192 0.19790186092806847 0.061812371785603629 -0.013757617029089893 -0.25812212359727349 0.089099034017405584 -0.1664401339434454 -0.13676217711127234 -0.27037304937902373 -0.072025801516730548 0.28757016566185928 0.13354271112682212 -0.064545128637410423 0.053004669969003507 -0.23993286381618764 0.27500933737480499 0.0089171999838953443 0.17574019123048865 -0.18215480411835389 -0.29395146174864095 -0.093417928331217995 0.075453265658398896 -0.28665698325522765 -0.17935635038201164 0.061675866893654827 0.2000831777820524 -0.12577235362968717 0.065062060242914915 -0.2183411034619322 -0.0043718290047802255 0.21656339209350228 0.11487251992012984 -0.076076193904316941 0.22956817315448558 0.3073498901009652 0.29286317334827794 0.22435469308974199 0.29109249446599417 0.24629117582160207 0.035793354052437852 0.19536702890357663 -0.21014097835438858 -0.2497531049870709 0.27298139684367023 0.19864143153367914;0.10327249011014092 0.11383585226637589 0.1310767327982984 0.23493951546957956 -0.11375891294703989 0.22485562605007328 -0.20183882543622567 0.20526017405992769 -0.2449274647507631 0.33342011565678537 -0.05062486542661393 -0.0077108629715675597 -0.21617112584754258 0.1795847412523113 0.04441195511620178 -0.22315097298835124 0.1397686752049625 -0.039417294151750798 -0.29483759793657377 -0.24546012821403629 0.2666318139015314 0.14617241433969164 -0.26817593379637861 -0.23517401827181961 0.25124148188399525 -0.25943087350746258 0.0019390181709728154 0.12268057742425428 0.17206430350779547 0.18593603183366267 0.17391540589742197 -0.27032709657274989 -0.27306719720102263 0.019116780108138512 0.14365705499206627 -0.048032540942344597 0.13065028057468914 -0.011402899328555649 -0.24143349552036517 0.24003724985114464 0.037231817704672619 -0.21404773924309362 0.11876202803288315 0.095899520769981164 0.14057633825926244 0.23613511831330219 0.19350863301605301 0.036609740450162256 -0.11349089895991733 0.078165036983268099 -0.027228168004494652 0.24108965703365468 -0.28612936132086786 0.076932263123805161 -0.085705334554200888 -0.016454958893937256 -0.085711063157889303 0.19705706373923368 -0.24072297879337359 0.18629385635822784 -0.23827217809601267 0.31633882648010792 0.29015327744939967 0.026980246003427785;0.046650502808253801 -0.041691367306214464 0.038683238697959553 -0.08772880864417773 0.26096161616948294 0.31117987253599128 -0.09714892108682921 -0.26930266891970428 0.056938495341669407 -0.089388200155009645 0.12399913643560441 -0.29915059588164078 -0.21505980372382197 -0.22040697989575436 0.026429149660717837 0.24289448684204962 -0.038846308339462392 0.0048640177673780656 -0.17543692605701117 0.29421367769357004 0.11944165685115919 -0.018406978177497549 0.31207939068534013 0.33242293659493183 0.09635150034132349 0.3290594269426016 -0.08425803150970522 0.15853092228288376 0.10815101027927268 -0.28047550340854505 -0.20162475276439232 -0.2421308590956559 0.20789975078746584 0.23485116770981451 0.014568150917233532 0.29398997086020062 -0.0058277470759371943 0.14045324418025243 -0.18764827671289341 -0.20531262487715946 -0.12298897030798449 -0.22185541272376824 0.3189354450661927 0.18816014405429465 0.15140922907630627 0.25033429953207159 -0.069627290928945137 -0.12303922393603982 -0.07866640959746854 -0.088003181050789261 -0.040353269114181273 -0.14391120244109593 0.17592282098697251 -0.056351250870544219 -0.14124376054881951 -0.34873218692305447 0.029361746744180961 -0.14298994073944377 0.037815650529413207 -0.12353785459664396 0.19039803930397128 0.27368768944508781 0.079832692681143805 -0.29849678766955279;0.070696317961992231 -0.24698070683026171 0.055869015181542303 0.1102911383613478 -0.23852509227829616 0.22781315800142032 0.029645984076901215 0.039798042941831833 -0.0054313991150587958 0.1696965295983533 -0.14199678615083192 0.0029187210865333074 -0.20155268683831207 0.15482073507602051 -0.14026926671315965 -0.16382697248958181 0.089790508456888268 0.25687641013450246 0.17072614624183757 0.032225713102237132 -0.29457441058296702 0.24575841942318311 0.27655442510592543 0.15834029382212222 0.28106242398809428 0.14302127897417125 0.20353566763518208 0.010153339297637542 0.12996813281899969 0.33398549996960719 -0.033874209701048874 0.30907256425848789 0.32319057383335786 0.13435831213563448 -0.22328119344261829 -0.11090608515966016 -0.084482540725038746 0.15232615187445828 0.18102869311959557 0.10231983464320951 -0.25548479658525441 0.082651029050770333 -0.22315852150310614 -0.30141736980645251 -0.30351567029767201 0.23949823009544191 0.25815387474771667 0.029371253377981615 0.27806302518025028 -0.056266739303263626 -0.23407255891634823 0.27111870804646926 0.19601622544324668 -0.17948086057467835 -0.022289054014197673 0.27946102499145026 -0.19594307769039709 0.16151567908552641 0.11946753085876453 0.0096317298603633729 0.13277984658779018 -0.047339706668523357 0.071672939784667655 0.1221786102673024;0.19228514107736347 -0.18931217484385615 0.2768041076320979 0.098737183748638518 0.27568738265842702 0.078207429285893568 -0.047580623937207939 0.093698236817184144 0.056001300690394426 0.014464572586336348 -0.16575275771289266 -0.27264291068434898 -0.29224098835831736 -0.12735429796909167 0.11144991030006834 0.097381971785975269 -0.19600327289581401 0.096892277998775367 0.065151962949241138 0.041576859442611871 0.34016840224810752 0.12918173178116593 0.26701917920210022 0.22208195882432891 0.23834664384589788 -0.27511920047709593 -0.076047605479383357 -0.10036247052406598 -0.30079605999190495 0.22926907957293308 0.13068155442419496 -0.058405449789819083 0.19316042589601823 -0.11823243737053371 -0.19643043138826127 0.067942675077838008 -0.30730395198103461 0.1294630359015754 0.2878899693713225 0.053520626368342032 0.18467974031762091 0.15800781754486606 0.021150537225587844 0.26347349294043299 -0.11483369527905486 0.099104382387232084 0.19553080371526493 0.10076715223728068 0.093178506840504299 -0.25551189385443207 0.19794387118498577 -0.33605941942590967 0.26486139662209385 0.30025882276810711 -0.30573536823756836 0.14797565752885705 -0.11593607696661527 0.15178102289843973 0.042039601575761178 -0.14218164131161468 -0.25138917036939379 0.23164307224221761 -0.012309955266192819 -0.080602839568234108;-0.16431109020934181 0.13347695715958538 0.093494836270847675 0.088563618948505729 -0.086547591316362346 -0.3221560511934467 -0.032144368633691335 0.083205610100598598 -0.16846103048662597 0.2056408734425558 -0.29985021265627565 -0.28409112697690408 0.22178953210438082 0.23196667886349176 -0.0088973360212291769 -0.2614502848028874 -0.083254346194190226 -0.32388529119447562 0.051081594949030196 -0.14159701183043669 0.33233990860648183 -0.11104758805651292 -0.29900809724103955 0.19472546457424783 0.28740077207396952 -0.08264070219341009 -0.096776095141702184 -0.30362107144276301 0.20411945002797724 -0.078549434507662261 -0.29467729463556724 0.34096045144916254 0.031199406637573073 0.32013758086244692 -0.037643865906424462 0.35068415017363019 0.0035179461884799782 0.13249132097154603 -0.054154453093109525 -0.0075957908076067426 -0.086648126521622876 0.1787309259795912 0.080474524309323822 0.26602707031029477 0.21838934268502724 0.033983774544064441 -0.34906743514508237 -0.1760127175121709 0.093359861416464407 -0.15117011959364321 -0.10338493834600608 -0.088754217138964392 0.094326267037064288 -0.070707333761876462 -0.086837581224105551 -0.26697076711582929 -0.12469119378256505 -0.18587137598152875 -0.1311923414713832 -0.22462391261855724 -0.064088633580213356 -0.022209116643855852 -0.11957603625932964 0.0254554213594071;0.13859527343177661 -0.19326817903004287 0.15853680047470073 0.16759610675662609 -0.12520257110755417 -0.22700797041516813 0.10508400484707787 0.037401907020489705 -0.22571245284844635 -0.11630206195479863 -0.2763038164021 0.16733941202726946 -0.10840559843650141 -0.081567851686268969 -0.14365118688493361 -0.28271540718993859 -0.08561062205015578 -0.19105349170181865 0.10196435228876026 0.21350226918484408 0.28626078411848654 -0.16694262619795872 -0.26845438413137446 -0.10787953016242034 -0.018206619868726411 0.31090482019807492 0.12959006251863245 0.12323859536984268 0.25076703847033255 -0.068424486620575584 0.081685164085415665 -0.09321227358457887 0.035003297737855599 0.099348871495495761 -0.30128333097713683 0.2887311177045917 0.27374886843416313 -0.26483111432624301 0.085592776550105512 0.2710380518432623 0.08547630733785537 0.11691971594770575 0.076357824206377642 -0.18615379761737497 0.32868520069163243 0.15712265682642984 -0.27022190230919363 -0.014342756053754929 -0.10689349805674334 0.31381335105045605 -0.18071974653114256 -0.26301562000175022 0.12400169092743257 0.065525470188680629 -0.12454319725964973 0.14997334546568233 -0.0045897927854897389 0.2530215419664078 0.23757872868463806 -0.25205042561097307 0.24158935110987959 -0.10845607462812125 0.13385072174793686 -0.17217447947653194;-0.24159194530330597 0.27593148420503022 -0.067147965808456694 0.0086897428895056413 0.23731101971618629 0.17815666889972237 0.22048132510986782 -0.18181924466858296 -0.063267606095582643 -0.11841520508136247 -0.27450254683888375 -0.016214652627451535 -0.035066984674009871 -0.086499543745047591 0.13111898149298346 0.032218059604366522 0.072984002900143785 0.13704591018945989 -0.24593114126260451 0.18852258464470084 0.32335718285577986 0.19815706228509458 0.259536774863251 0.076701200245440304 -0.010918084712335539 -0.25613824288783305 0.31245855352671897 -0.25419548596714986 0.22426408631125763 0.14609365045554767 0.046903597547269457 -0.27928999590312931 -0.070972257048726908 0.01060150919219318 0.26953662871739065 0.088251481880190968 0.05689364144317146 0.18013110309208261 0.016199053906749545 0.16230098399893048 0.1879854384093198 -0.18603965278568796 0.020377675602644373 0.17405955434950288 -0.066296284600298572 -0.18734980726194808 -0.042489208533367268 -0.065432072430436666 -0.12042560849389414 0.30363659873362636 -0.11707473885247104 -0.14596632900559611 0.23119934900930855 -0.25905112222332033 0.24274473302831329 -0.31614667774694272 -0.281827075236669 -0.26302620605852378 -0.12366432526863379 -0.2400273659962904 -0.20587971729365659 0.09844238678780004 0.32153462769328661 -0.0042882734562061089;0.26881885351625145 0.30628138550301526 0.08370530719949533 0.16170786991307842 -0.2221157551049231 0.091042706130441367 -0.12789242613045243 -0.2090370038253308 0.11614938419917883 -0.27191862634646136 0.11209769082245945 0.14024967330979929 0.057996572850185175 0.22502997900672431 -0.26906419731677217 -0.28403238646204315 0.19470993615582688 0.15606000110567972 -0.29109049518366681 -0.26450477429053981 0.035535924865966947 -0.097959553176664854 0.27611149797201645 0.1042493019620887 -0.0079526958325074597 -0.15307109751265854 0.13236802607600143 -0.12560919563302342 0.21907900196041721 0.16830581118473686 0.22614292918120496 -0.20600815904422323 -0.2402634939399324 -0.26281128411232602 0.20935407156162442 0.035223315760709265 0.11199281827858687 0.27378160856205053 0.043322316546811394 0.32100119774415992 0.21949776425514292 0.18439471079358197 0.0067005336028769132 0.28566388835020889 -0.17604273430186551 -0.14117994331513567 -0.16315770302558436 0.23028550463627601 0.051883524983067683 -0.079853133974261414 -0.30511508030744561 0.18819113417701305 0.25721823068629979 0.2619552292039955 -0.13604119044175758 0.094807841868476059 -0.10616459495290181 -0.0034535029698425338 -0.095436899279766244 0.23164956744779827 0.09009046245575604 0.12420758198309853 -0.040176629081506619 0.019004634573525275;0.053884367418446516 -0.242777148841096 0.019497332989212014 -0.15056031350820145 0.25634298972882058 -0.16632600534419925 -0.12690924231062423 -0.049651461561479017 -0.20000759109834954 -0.1293818674799779 0.22185718578865188 0.34415926335297953 -0.33203842784259269 0.11003942208728131 0.19673338934492293 -0.029448420118237038 -0.20018223091424311 0.12167805416322566 -0.18912683129280669 -0.2660502275952884 0.081127098557404603 -0.3090794707615972 0.27174334907211239 0.10067702675144458 0.24241545413343948 0.13792222439219795 0.082490890850447862 0.051696057309061877 0.25872363039273982 0.25978179856570899 0.27560772735803057 -0.15555161378465826 0.21546794231763672 0.1373344503213608 0.23092149174168528 -0.1569960047618571 -0.16851404612075807 -0.12652175904604046 -0.10706884666789637 -0.14595972581372055 0.24446383207188677 0.079671841940942748 -0.0019360591267409194 -0.13150157026636614 0.17017653371688904 0.13138964959922292 -0.18529506832215736 -0.070699983498576618 -0.069597296456122476 0.29037773248026227 -0.31027839474610386 -0.29710608941436079 0.00011743152826892469 -0.25022159671400374 0.2675341620790348 -0.13969678029621552 -0.095858607980810473 -0.24720647492844755 -0.14523369255447457 0.063547014444665664 0.25412854509958982 -0.10850276474283939 -0.27301239551964923 -0.0052457373173626096;0.11536821081331022 -0.28459989356874066 -0.043977126457695075 -0.21045544042615483 -0.2867772714406156 -0.12558703988305572 -0.29916562007963715 -0.1056729955973944 -0.13862494270974834 0.19055479577995454 -0.063962406525035598 -0.070859639323131426 -0.13362507756757933 0.14402726242559799 0.22069561304727978 -0.29407105193888755 0.14553206409586089 -0.20846867928637899 0.24956888091005056 0.27666119310007375 0.07027939474601981 -0.28207093594185978 -0.093896177495919025 -0.087852843921411752 0.32547945842822584 -0.23238586252470508 -0.25029889813521022 -0.30911699986981783 0.18405586147195502 -0.15702498882300872 -0.06631748668029265 0.06455449967075802 -0.18710793252688826 0.17806901785533291 0.28478207844816295 0.086532697390064375 0.12022181823855692 0.22182620186282559 -0.1588712853071434 -0.19159631277308703 0.016750935591832158 0.065216514859537028 -0.33023244079682734 0.18340685704869411 0.099829730507450323 0.14038590993530303 0.051913412527238786 0.2985865707348751 0.19998747899890543 -0.035737783205400456 0.14398687508352934 0.066197770062851213 -0.16994271739691405 -0.053800259114058571 -0.26686385933547729 -0.29717749120678316 0.096393979724907125 0.063563108649327432 0.078774420910883922 -0.25593728507290908 0.27691123093230147 -0.013389003623422597 -0.039965910804788535 0.16264718952060112;0.3242004991372191 -0.050735707270311035 0.29080854041211912 -0.069399751236733656 0.15417154447460082 -0.073499452760610248 0.058921392671504855 -0.04576932907157983 -0.31223284340439417 0.17039967562209204 -0.14673445983928188 -0.23160910439056695 0.0036170332741346715 0.0054806676904844351 0.068818517614935654 -0.25639193906304597 0.1921328734525839 0.25774681302037433 0.24293456240463254 -0.1418681449627365 -0.24720387245108622 0.20215879939156337 -0.17911420256096619 -0.022475869638632882 -0.28234107059488406 0.11306111764027371 -0.076210531369717921 -0.067909730528595558 0.08135797865538319 -0.22462566263929329 -0.2025850414411185 -0.18064444525745887 0.012890161809527702 0.22325307925025192 -0.29071141989063276 0.10248188310658439 0.009791435691414288 0.20274191874696745 0.10938882586877419 0.14463179578131349 0.28429915352042745 -0.075675335827185941 -0.12152674078801669 0.29843611953355742 -0.2040526753385376 -0.091561996755952099 -0.057645668373053911 -0.21058637567203731 -0.16564116246113633 0.10723340686697848 -0.28477749648545952 0.28394753861845184 0.31981621707446906 -0.07726729200001467 -0.069252469175604695 -0.21215366611778386 0.13786253654420877 -0.16732797626957449 -0.20589221718239928 -0.30988421096253349 -0.10189973057366047 -0.30477917417248795 0.17801063089386215 0.0064558711285940158;0.052625496078220833 0.28659777078577381 -0.12002298763583905 0.077720352344698748 0.044160511711086738 -0.17390643824301846 0.11688365574444308 0.14447232465329707 -0.17393715848865771 0.27172819136404658 -0.26588035220229378 0.072208335841640894 0.32190954213393286 0.20924064502305073 0.27713262034771124 -0.060299389511465018 -0.23942355638488333 -0.22434376305552103 -0.20802984679847444 0.030367393090356298 -0.10452942221362035 -0.081617588675942987 0.050614358572848628 -0.01085128495886422 -0.10798807950939283 0.035751646940719868 -0.05458216206611307 -0.22269680768001782 0.11352443740615945 -0.14070526937477681 -0.015278667296860039 -0.098546824936314059 -0.060618842756695809 0.1806541471984365 -0.042285409499476838 0.086456758083920573 -0.18576592062571284 -0.14254570758395144 -0.2998840945413116 -0.038743870133403351 0.32319601111077523 0.30170269005929662 0.31562959672655838 0.28039129778926686 0.22359711800021931 -0.28762760426267558 -0.26476028413506247 -0.26900066739663997 -0.13605671402236147 -0.04800214153472989 -0.13032716308785697 -0.27411792161092274 0.16321976433969476 0.18951624539695228 -0.23539527411130531 0.10014526080110342 0.19456988297225231 0.28980088237341856 -0.024144573895726756 -0.029045675382666353 0.15956301239969925 -0.12063070188874178 -0.30534909310528224 -0.22566554020771334;0.032339271526307195 -0.078896471809188184 0.020519473200372809 -0.076174177280488573 -0.053883576782372801 0.0090759330551633387 -0.14281472538490109 -0.048530751390540923 0.30264404048911431 -0.12949817337731248 -0.11711037333188166 0.26734771791129641 -0.12344538820892122 -0.09920951639852639 0.25953363535402391 0.29326794530535888 -0.077438406246269409 0.2437483305537001 -0.043185474868619358 -0.24715957132640673 0.25720328702783074 -0.080194949790623291 -0.19356975318462163 0.18302372199090278 0.34822512915366244 0.046100997602491284 0.13272557898087631 0.28435034182781971 -0.11845311319298625 0.16381302342896126 0.20559866713370917 0.26847378012977319 0.19526275693163761 -0.10714770406974579 -0.026407934373848314 0.163226002317159 0.054739570955009149 -0.12638476671182969 -0.32306076896147712 0.13568328632227217 0.20494196956832988 -0.2737026775818136 0.27376826547239308 0.088321085203401373 -0.22168548391307491 0.1223207641806241 -0.21645181833931487 0.12422016650029773 0.11725298082616648 0.06851997683419557 0.3191117192774281 0.25933806168903012 -0.26870392818206479 0.020054711226728583 0.15730908384980916 -0.25939356860198981 0.00047626288175837105 0.043718985811294277 -0.29672950340069526 0.325609565655892 0.0086666027658353541 -0.11143618431845434 -0.23052836909287855 -0.1602479234460511;-0.20529520465285209 0.12515614609607581 0.26104338206341304 -0.18869333007145223 0.12683525043517904 -0.091379411425505666 0.0023680529433498516 -0.38725878128024183 0.28756565549691582 -0.17432277446834293 -0.26455792878725415 -0.24226375860192037 0.026488980696428587 0.21922519021210959 -0.074010245918942244 0.040626820052125236 -0.33664145263955025 -0.34274473625353225 -0.12332988555396178 0.02586913528331625 -0.17606589321365879 0.10851956884470107 0.019121613206395209 -0.084273856039317932 -0.084480040935384984 -0.3375539689472592 -0.28962540070084725 -0.17515129434518112 -0.0370403320723506 -0.035166278173332517 0.29883733988096983 0.056484764904865391 -0.30253717627812388 0.05905249824547127 0.17402926159230317 -0.043048273205029457 -0.2844823897666241 -0.24385944889136327 -0.17433341819116413 -0.056374556573729813 0.33164798139794488 -0.17617335242496401 -0.12407819910469822 0.16240273777593142 -0.044186729919554302 -0.0089640839865297479 -0.085775535000241501 -0.1157610161455405 0.12639163918122234 0.14463913044720622 -0.27100805540778067 0.027535376059345279 -0.092840077055478698 -0.095107222030246644 -0.21585014327192537 0.17214018710539131 -0.087147531117834701 -0.025360153572182638 0.22064235315627631 0.0069022650321847621 -0.23727684376352398 0.34257503716025589 -0.24092542469397843 -0.019559869359774273;-0.15655047825500312 -0.14194967821472329 -0.022461062329229179 0.25330420475306409 0.33104759280024953 0.089532215705247289 0.31455863883572049 0.11303103138370504 -0.045909295141129632 0.26654377028908466 0.1997187705558926 0.29895787230085918 -0.16652245275227198 0.11016766147650162 -0.047155024786058881 -0.042254887027454655 0.20068789056197511 0.22138111280843428 0.10239466099015218 0.12487617112650715 0.099595887037884911 -0.17453755753447339 -0.30111877180691105 -0.15139471637147139 0.061877517560469539 0.067668311978607107 0.0047697064105164588 0.05062401730794721 -0.22001992509931448 -0.13150969763251899 0.15218921661177348 0.24637655816620527 -0.23446014767499526 0.21783268052342636 -0.1435154788365158 -0.33485471349007051 -0.26095522411000166 0.13452299013501967 -0.27575227900897126 -0.07299624741828592 -0.22415849286097658 -0.32271433599553095 0.043987775928627626 -0.19867947550738779 0.064210744528862135 0.24056022662446627 0.062130948565980365 -0.004399775613325759 0.15138423392204087 0.085194220102255178 -0.21919297801970439 -0.27139293514482488 0.15886037155413563 -0.25587269250719991 -0.24465203361560359 0.3283630951829864 0.16871754357032193 0.019314040055028844 0.084014369876007841 0.065477473733992181 -0.13095848202073582 0.20797352933877289 -0.07158346502943605 0.086644288565570882;-0.18669752379308785 0.25799570391043886 0.055728714417781898 -0.015137531217634049 -0.177891985105503 0.17741846456150398 -0.096350504364751052 0.27244257869202765 -0.15442769238221343 -0.26817255973459608 0.057642776593248631 0.18524396392809558 0.22872662697835142 -0.21423140144261099 0.27644417197420645 0.19894767563110419 0.31173390949511148 0.2573276492835504 -0.14235015365192377 0.067056378357114227 -0.071511714598508941 0.12465205811573322 0.19897150890117407 -0.15368872795763613 -0.10509302015417864 -0.025635944696541117 -0.17400971628066567 -0.26071995431527617 -0.054869169736906184 -0.013197240517425633 -0.077132609054032242 -0.057536034248261779 0.04949546455171383 0.14172219433888958 0.086228906662219815 -0.28563965353645265 0.2984134151412452 -0.03953241697481473 0.1744079155208445 0.29732691802586403 -0.17678441865069544 0.055105183476304054 -0.30569966682537519 -0.28600289365722131 0.12212716851020823 0.24538974794498689 0.16705731181992031 0.15457359993182904 0.32439755867700099 0.012071786790380812 0.10259793809980533 0.037473469648832136 -0.036500774495868894 0.06281997555748893 0.31004284063574211 -0.13103608626057242 0.11377533786962882 0.24741641246208557 -0.19009711258051643 -0.15768783956913665 -0.20882880372048351 -0.038807043928646791 -0.32666440472118724 0.21067124916266655;0.21870336827803594 -0.053181951038504628 -0.14206210836405841 0.2550118323267076 -0.18198556444382136 -0.086444059216356256 0.019276914022380791 0.014917468590932266 0.17427314403525454 -0.30574717514952604 0.00061375669209326347 -0.2259078918512186 0.14277321975288032 -0.29157287207588228 -0.24786158747668721 0.26818817831319175 -0.28528103931944593 0.24899701083251746 -0.16346527153511148 -0.23436679151240283 0.16487727065177643 0.16449828475503162 0.14553617145366171 -0.23853049083925401 -0.21095196158839055 0.011876411804874223 0.18878809639459473 0.2196492808287194 -0.1534527329186969 -0.13439630502921807 0.21444256893277341 0.20843559348823848 0.029179432107379156 -0.13869641336252378 0.25596789514678991 -0.18657276926164748 -0.18480263132619437 0.19420726010583159 -0.091568405962411836 0.015142088055560575 0.22627440738120458 -0.11190536959940772 0.32403355582558979 0.20859644702972183 0.20941971282852831 0.22791685399839204 -0.21928836921644465 -0.073695328672292046 0.22721274274227254 0.23618377658766282 0.19450832164399348 -0.036206778931535677 0.089805748373933889 -0.015329854946490121 0.18933788139777519 0.043311341484254209 0.17040479856634194 -0.25773971676880797 0.23554534506278813 0.14088275766384722 0.051195314794841899 -0.15735898529426456 -0.011259624976585392 -0.25866018193718082;-0.088460676962551235 -0.30087731974993437 0.3107734780893861 0.15310079215372882 -0.050504629012254235 0.2592482905065055 0.19596915799523568 -0.15230735430146422 -0.31930274860780944 0.10720210031897784 -0.23494089402509011 -0.075646685701485028 0.32504779246826382 0.069545804192053876 0.030184363572610354 0.12014645144125356 -0.035236659374467662 -0.082590806443506207 0.034463687908903723 0.1779486493208611 -0.18112987597714736 0.15573406226325848 -0.092376504054269212 -0.29226567888915211 0.23515876915896222 0.24531385808181397 0.1866371369455736 0.21969963323784594 0.0028780234506269923 0.060486354959165406 0.20034438128241377 0.050268229054182788 -0.043736979129166131 -0.35636477966634117 -0.082471031239410381 0.16494679631445941 0.18592343046880044 -0.33387366419793824 -0.32660760632260621 -0.26372020511151956 -0.12911862577845432 0.21359438014650459 0.32509315127814392 -0.30152691114463981 0.1395696588560851 -0.00080040501283359499 0.13550683543074402 -0.28674217706521504 -0.062255387032821054 0.0096843100114893839 -0.17006590210088912 0.13148408528685826 -0.13145780509896793 -0.24946787639535076 -0.099470629204516825 0.14970987341562614 0.26594184090600947 0.094253583312649991 0.050075048137810406 0.090825666868946012 -0.13372262803498358 0.04721256108612535 -0.11502027305834976 0.12054966141083198;0.0033333356974391865 -0.095059077392353974 0.27333128471440121 -0.18819955666986454 0.016890432309006918 -0.0049267812219959293 0.062501531166333113 -0.092217153355685727 -0.19212383123241894 0.14229425117659414 0.077738406270711449 0.22845877487477317 -0.077087422674377584 0.11067337105613947 -0.036468209272039975 0.094968767718173433 0.17381693578379978 -0.16884054722931929 0.089867916540124132 0.25322928118952515 0.19483398410389866 -0.28133443443811479 0.20449501681115129 0.24441578897518085 0.19746569607231221 0.13863883585921011 0.043732511011656788 0.25381501979683574 -0.23949622639839041 0.25587707812412114 -0.10769984628323323 0.25498102996122274 -0.29359603508151411 0.15248003258252624 -0.29602102388629686 0.29331294575601335 -0.0010866819647566885 -0.20138941352597914 -0.14579351500632587 -0.0063206437711289462 0.23088383609494084 0.1763534001679023 0.021920229821443926 -0.36419275873703433 0.12084063145906401 -0.28657658079986364 -0.28890603425607841 -0.054753847977808474 -0.12797592947626613 -0.31813353109361542 -0.22788415663324157 -0.042780170287975559 -0.056296436617143439 -0.27728067329663869 -0.072217138645511506 -0.14442979856364965 0.072272260270525052 0.2814475090956195 0.16926146310769408 -0.23466997892041017 0.023211347458125867 0.21171286101969514 0.19937913023864912 -0.037038057671583524;0.19920603577991905 -0.25979806993461335 -0.14313345247286516 0.037916729613948055 -0.25872845789583382 -0.23872736379781059 -0.25542264181462287 0.21372182846791668 0.062554809614111015 0.12721308898574243 -0.25648491493340253 0.099377510893998947 -0.23404142798844757 -0.24310608919981033 0.021518734805300511 0.20583741101431557 0.26965916291323183 0.14371734409318995 -0.13500797890212585 -0.013880945060074089 0.12672797414265877 0.14135367373654964 -0.21924217583167774 -0.22316678949275659 0.14846197011171952 -0.029034998193954234 -0.15827236694946306 0.040533993873158612 0.012151872817210994 -0.29161619292856761 0.07062214361529999 -0.016283041504052558 0.0308095368234182 0.19934916510467121 0.19965287526593334 -0.30165864131089415 -0.26314425550382764 0.20903092911076493 0.0094241737093884309 -0.30526531353103414 -0.025253493305330822 0.16770673743672573 0.14281004980460904 0.091764689486020207 -0.12332680036105605 0.02816248243274036 -0.10935342785619426 0.28955139915868644 -0.23760319200355784 -0.24452927510943334 0.26237309295380823 0.18184756961806223 0.16902220424914799 0.27782474459010031 -0.29609813070882712 -0.26539014440351494 0.17085637867516096 -0.059202581137076979 0.051912287166242896 -0.048886489152604344 -0.14541205443769464 -0.058555941453003836 0.23928569514781323 -0.26791616664534718;0.056458455417784152 0.28076627726040859 0.23220793435291931 0.245489274882907 -0.26132805519380403 0.072096380009209274 0.13576802366193924 0.21169555417914845 -0.17574031952397284 0.11693006201546337 -0.08420118946704333 -0.17544877711543702 -0.12921979787660975 0.019158733679067366 -0.11897014652647542 0.25045431441417187 -0.1368933242818266 -0.14766885968401211 0.15795610650685388 -0.10158888700552465 -0.22009691251586752 0.2016466695839062 0.20931788672063659 0.035868301949797766 0.2270505523917592 0.19516370997083407 0.24720154402098216 -0.22370461429451602 0.10973310588071777 -0.14714374374210332 0.29734390537596939 -0.19098442796066836 0.26147524526710697 -0.083497671210019567 -0.046830513341160722 0.24429983174259748 0.29898680574246661 -0.074717056415300243 0.25314318095565452 0.089151711540518055 0.30763231472821767 0.16482971591685225 -0.14907208649176704 -0.086923910641300547 0.26306727806482133 0.22349239878735846 -0.15441480489886816 0.25061956843709338 0.030521270442627875 0.2926908458635315 0.15562396094997943 0.079041107528979748 0.12450912340969494 -0.15170093245158092 -0.020304239518246923 -0.28379925180689192 -0.060699061196347125 0.13801215110169709 -0.072825988132776007 -0.1770024236253899 0.25969510350064584 0.1547403425232966 0.27113352263190232 0.14964325506069126;0.31382272098602443 0.077589504353770919 -0.30521306910144019 -0.11540031111018288 0.28527493858210273 0.11210633292540854 0.165038802010879 0.26036458219733827 -0.033849943125403723 0.1074787417106608 -0.29862850657717094 -0.27461416459205323 0.11274356285707096 0.23557970797559918 -0.13444902343714432 0.082243413207514243 -0.10752540350191356 -0.0012278148340442306 -0.28493269804679611 0.2359831486755887 -0.25469899233542942 -0.13009570656189443 -0.15066374671891711 0.13648422241636557 -0.076464213697744948 -0.096550976184670387 -0.20330708193672314 -0.25979910768487979 0.013594545511673396 -0.083641596104455512 0.14487702020266757 -0.095713430652181006 0.17096556939623928 -0.050253703064841379 0.02306827778127769 0.073360137045953011 -0.029501989974752015 0.042801683935678667 0.1206562635547954 -0.0039869833299988567 -0.22515732631089835 -0.035985483717804939 0.085447680231952275 0.14106829334435314 -0.2907285119530264 0.17870705085723856 -0.071209561040869507 0.19974930036500732 0.24197105414127196 -0.044659144024100414 0.32001485035372829 -0.021278106753388971 -0.23779001104416572 0.29233732921667055 -0.22364281589749374 -0.29321540508205551 -0.31501339281962265 -0.12772837705048373 -0.25241729117463757 0.13932328203465949 -0.038360328088143818 0.22989114023548587 -0.11218024130610429 0.34750875508140855;0.069084475560522635 -0.11948536239378439 0.027058422522047494 -0.1147210788978814 0.027731366942177905 0.021328969535234162 -0.049406016889374016 -0.15742751425403831 -0.30893136176189728 -0.02360933760347465 -0.32498054398254483 0.11845877816779991 -0.045516907915066032 -0.26534687766303483 -0.16293694965839933 0.27944933561188384 0.20622087880579115 0.15416779216318074 0.22988661349374895 -0.29698166102652879 0.25798203476599579 0.15466318250351022 0.22769991358455519 0.10366166202896479 -0.28997137045783122 0.23612568234715903 0.0094709994964265864 0.26717418643706287 -0.23903835893708753 0.25006577837070104 0.29213046629287454 0.1275011926835567 -0.020046528555521061 -0.2339536634942527 -0.16129792944022925 -0.063425884610394209 -0.22909604892152408 0.21603058691825799 0.24785744775511429 0.22559898446013008 0.073746579322922057 -0.053716953561419492 -0.26786594412363585 0.029839466195643042 0.17746705521440742 0.14895524215444372 0.17767316723576107 0.17008020710235752 -0.061109667047422919 0.047056114436392821 -0.18438758550350814 0.048876139822007468 -0.23077629257998661 -0.050909841000470454 0.24003960052348106 0.17935896281970262 0.2934532062127081 0.069036042053515878 -0.26967773055027072 -0.10036980504934934 0.20673345326872111 -0.069105329760755993 0.21669563515914977 0.1684773315790892;0.10905486745756747 0.16851020832757307 0.039907575128012913 -0.12414911073378655 0.087457049982939669 0.19854882310072577 0.18591010811613562 0.087335562470489778 0.21730347128427627 -0.22764027668613201 0.24923140935306337 -0.086174256403964047 -0.32439080643624801 -0.22024274364757068 0.13701977034231039 0.21181256876204474 -0.067591619677730558 -0.28565109461470373 0.33248030098304843 0.056156696951831613 0.27081264443304787 -0.25626276883685495 -0.12494452473113246 -0.23569008203495426 0.27287879245701469 0.21449592237392046 -0.31179248470197174 0.22560008099182366 0.13446616392614349 0.0029321963336882049 0.14532085714542201 0.30027641943923844 -0.12802988733024151 -0.30300958933851985 0.1035914039351996 0.21111179986509182 0.21293373970048679 -0.31258034770019666 0.25229391512680882 0.061963308401614452 -0.10289347547071219 0.086019197713007922 0.22740413037817436 0.0051596732287452311 -0.078582519510451976 -0.059899438792971875 0.18386930207407468 0.018472313550926475 -0.21867890142787147 0.043778859079610842 -0.20176832296977726 -0.24685421194921184 0.019484923662065987 -0.033771715183775107 0.13812466554363942 -0.0048646195457558283 -0.035982602545992511 -0.066406393602576316 -0.10191928043208566 0.098849722071926049 0.25015084144339045 0.23628173858864004 0.12302035326191681 0.25645282180665363;0.035819316099906816 -0.18474521352155091 -0.18936689777914459 -0.2639994009043613 0.27893426999551385 0.25276871114534438 0.17568397749543438 -0.1920699386317771 0.0063017672946859326 0.17356258805251112 0.096299314456417859 -0.037415559955010301 0.11412788638660701 -0.13422663697555429 0.1879359942517197 -0.19850839118564026 -0.15595970194836981 -0.2059294836026849 0.29839255542783305 0.05651941923716744 -0.12614862907188767 0.16763222090229771 -0.23325642167668204 0.093516466976951498 -0.10262771892867908 -0.21251180026799776 0.13832843626002092 0.041387986691075407 0.26870103939149631 -0.088111477720186168 0.29487266074694196 0.01795583116134597 -0.059221183057030752 -0.015881986688094658 -0.16120271733917838 -0.019399792883140921 -0.14525511933448876 -0.20344471029231032 -0.20435105259075254 -0.24973604619362882 -0.024489846035186377 0.22239673192905288 0.096426114243080951 0.14685040109502159 -0.28218485395852383 -0.24356389346323806 -0.20587418384896347 -0.25172695543971207 -0.21431873279008271 -0.29645043895350209 -0.18652448529232288 -0.030702995382449107 0.27928101662905824 0.23497585807712143 0.28294942063081674 -0.27457198208312056 0.28591554187884055 -0.015781874742780828 -0.084720950364733413 -0.076861179472715785 0.276064143497595 0.24173243263221836 -0.20505991239510815 -0.0081170050090188569;0.076950044608947929 -0.30319332160635409 0.2106718591826317 0.28268145805290429 0.24508713786906891 -0.19423781633560983 -0.034289182572755636 0.14657128550336843 0.10058859805105828 -0.11436856729425882 -0.0001636274305007307 -0.17173296520728795 0.0086426142403540612 -0.195130942706567 -0.23370653278576228 0.014925648830810717 0.054433430502145226 0.3359833309702363 0.31296775573973468 -0.15055442620834403 -0.11679650898745494 -0.022825996710539379 -0.17465579730506373 0.10010294177156433 0.041714088917875002 0.16653811693565823 0.14134959491191038 0.0084671387205039784 -0.096564478826795433 0.25499237098738831 -0.10873331918806808 -0.16953952755496771 0.25950669396983678 0.20552722039345733 -0.19616647795115061 -0.26123490339246375 -0.31265166672617695 0.12710379442172559 -0.02363196609761031 0.14219653616437525 0.23992418702958196 0.18889137400389955 -0.10188860272713118 -0.23814372563126054 -0.29597913431551731 0.03853878728025352 0.33264569066222943 -0.2111098811995635 0.038017448858282996 -0.010052943161104631 -0.17713438639870779 -0.20619568366194316 0.21199554760384737 -0.2089652471336583 0.17789947746283497 -0.1817950566425974 0.14738588732920541 -0.13793529474953797 0.057870346485705451 -0.026157270079162385 -0.22298921949126113 0.25572656619331657 0.30543005241956628 -0.17755891003867061;0.1466455942492044 0.1402769020666966 0.024231691975977299 0.26769562425282917 0.12620761535924593 0.1844474138772258 0.006824223410934885 0.031645678796868013 -0.20908678943079073 -0.048802156406228189 -0.080160651064585225 0.15952256230302495 0.25251044160159092 0.12491750835646634 0.20365439400561572 -0.18228976165328031 0.25786651193047516 -0.17274326692202277 -0.21001417668288933 0.045161809016543063 0.13794188491925113 3.7888848057290447e-06 -0.20408154092874953 -0.25711242910706794 0.25830312090032859 -0.027824985685107727 0.10213628155427142 0.30429270069435416 -0.17266127748211108 0.19192612251712124 -0.23079238155509743 0.20032608493519449 -0.27640576565272207 -0.2315135032559594 0.13299578216738372 0.16013267122915054 0.22566828592491822 0.041040197439270468 0.24455382166562345 -0.051870203384195263 0.25414340042528977 -0.29634281606249113 -0.22831687179313495 -0.30204886350457444 0.014822345254900915 -0.1091215077373564 -0.041324754058619372 -0.27092845222763201 0.02068150185554159 -0.26299757035176285 -0.13392846529457794 -0.032770076414973072 -0.0052362937559095437 0.25330346529937758 -0.31997065147793319 -0.26402487583305195 0.26063589303134582 0.099501838426310996 0.31237137106123486 -0.0030516500917830949 0.012802999709800372 0.12912078719585909 -0.25430537683288662 -0.09009120262558426;-0.28686516204028556 0.2655954026885734 0.12464195764624159 0.22807601134747646 -0.1475942434550144 -0.13355734431179475 0.20611607211763211 -0.024916929513227212 -0.15759248156770669 -0.1707279442323828 -0.033463362343074128 -0.17865668466700832 0.26498619223223213 0.24537494914654984 -0.19342531223811249 -0.22225463035678092 -0.29600648601304269 0.12709909244253129 0.017058218422826423 -0.0080667250754064643 0.27142412563425922 0.0062690788172118875 0.19992556242407838 0.21442527809597275 0.29246433173874775 0.21194439002423585 0.14331070758752898 0.085486285588746797 0.18341476276308499 -0.23486126717180128 -0.013155746389183969 -0.21138114059394897 0.11179718202324594 0.28182094721382284 -0.27238715528366292 0.017504940290266655 -0.24826144231291999 0.0046799404760557292 -0.12185946893869014 -0.13773154737872187 0.11706463232311121 -0.30870015062432182 0.24434189346415461 -0.25119582887530179 -0.049788738479928249 0.21425228374931335 -0.15358496113139844 -0.026872592915356711 0.1674419011346823 0.19053466803427105 0.21829351734147254 0.20860271054613677 -0.25250051683619751 0.24664810469136025 -0.0612253601879863 0.12322301370272812 -0.29793052246335067 -0.075271682033987028 -0.020726178283833208 -0.17477597368272915 0.15327381929421152 -0.22401675975312033 0.083049808690988158 0.1199543414532788;-0.022923301418642385 -0.084190766652814081 0.21068740309211051 0.13114979495620394 -0.22793229571984799 0.20181637612213796 -0.071827630877916174 -0.15311183050155475 0.14673682774515187 -0.12816946826855344 -0.066405398662222656 0.30338420700046975 0.17193781075105763 -0.14814182203072984 0.068298230129463899 -0.096469938086438833 0.27183235203420619 -0.22551571151614253 -0.29403673691808363 0.23671980628099532 -0.11129672544246877 0.18652271178879051 -0.026498231193922646 -0.084058701140138248 -0.29101271705864618 0.18626408667870425 0.27230911824297083 0.27670367314211697 -0.19601582631154901 -0.14642744084917142 -0.039138491729953429 -0.097800271328488661 0.28215811778952882 0.27815446107877317 0.0055996581154293089 0.047624803303792401 0.30543638387362243 0.080563935834859879 0.1283180278580732 0.23391905321261791 0.003580204883990992 -0.081209060756477894 -0.058632306915092171 0.19368427924471596 -0.033652079381476005 0.010024741342509478 0.29555106074734044 -0.2692429319436937 -0.14873493783752884 -0.27525387787781019 0.18320404110702435 -0.36057357006266821 0.30706764476282372 0.10240086304226835 0.22547767680507233 0.023603035399396146 0.05824810711304193 -0.23429605520778662 0.24459636725150649 -0.30584042467164974 0.14389724170786464 -0.0063418194066621591 -0.09708327284323065 0.0033395225285485679;-0.13157625649332894 -0.14852840832499645 -0.17972562705411099 0.017759791202534583 0.18634384322887029 0.26261224633378499 0.27424476223889127 -0.045743602784642012 -0.095011753287293943 -0.25053492592873539 -0.048626981210102123 -0.2731179435420415 -0.20187839498562726 -0.037765730869894223 -0.10548429360685946 0.056883431388608595 -0.1047973566366843 0.30044378676440175 0.16773458454448195 -0.031284364465732635 -0.1940479462288868 -0.17434061506488119 0.033527296607267137 0.09468891822645685 -0.088857369309061504 0.11477719309371109 0.04369326592891136 0.23234903574753255 0.089295369577466324 0.329061183130266 0.23194517482644958 0.17919208379021789 0.31475111882037465 0.11982917292987307 -0.14125944659296902 0.35029325995158905 0.028718789469688859 -0.25566340344086441 0.3068024231648801 -0.31760158335181915 -0.0077362975822683564 0.030932024876754127 -0.0053737513469754626 0.12478191823844366 0.35668732400562414 0.050576947581073131 -0.26768685422000493 0.10252891720945219 0.31998580811865363 0.22655235994530817 0.10105982106710876 0.21247512228853091 -0.083311773935980701 0.018344310040242874 -0.26879564672479112 -0.32984328105847482 -0.080759809065678131 -0.0012790922364233365 -0.14949954615134939 0.16682448492228569 -0.036576625785330615 0.28274850300606408 0.20288154956800733 -0.26044090192094393;-0.024420895980928402 0.33619391155735862 -0.22225818791751953 -0.1277782848571643 0.1492613732252577 -0.13068932952021203 0.024819567677745857 0.10309650332246688 -0.11795976065727039 0.37730573217217039 0.26044945563712835 -0.24078895494768807 0.18863813432480586 0.20178646675968032 0.068294080040245495 0.065347027367547592 0.011600998317814576 0.14053337816593175 0.046369938428027266 0.1243786923374139 0.011232507701867274 -0.059691686702216862 -0.055718480415031642 0.14195527511278447 0.012178213058881181 0.36499625494648752 0.091553136503657997 0.11514881770703368 0.02887634040256248 0.078524139932524648 -0.053176135960950582 0.34222023800326268 0.12399657322348395 -0.10567259806763486 -0.22802745813060651 -0.22932005593301485 0.10761536369612558 0.15982944273934968 0.039905492345677189 -0.04755112874712019 -0.32635763586402711 0.029608366851612763 0.26713443906074974 0.19098067883760658 0.14711646970584913 0.11087999495550757 0.22211789903232682 -0.23662590553635954 0.12779681821011657 -0.32293683012420038 0.28129908803066783 0.23761926628120589 0.1032995339266984 -0.014350199026378182 0.29065269284691059 -0.1049777501342125 -0.33601607494748498 -0.34399275520296851 -0.12434349603539677 -0.27044394767797297 -0.11644019224259848 -0.28782745673598054 0.25376182567948019 0.11829450586113718;0.154143713803854 -0.090855315845978724 0.30434617156540816 -0.2049803760870183 0.15691116971438523 0.1894991832876273 0.091955276601395311 -0.22955690829976483 0.1694526955653485 -0.29057244567740043 0.041290117897096593 -0.33023202062701557 0.16268784666644864 -0.16228160481342052 0.28498664693713954 0.037819024798181826 0.24657636799078392 0.29987826295775039 0.092617536743973813 0.12451533365305106 -0.09666836196739427 -0.21727843736941857 -0.23668293690389378 -0.096589590293767069 0.1621648859383823 -0.01111206753431963 0.15916636914093263 0.15268516896353043 -0.052239521104345647 -0.13004070023437975 -0.17404368918983007 0.18498655731026337 -0.14816128229898085 -0.26565544337197405 -0.23303975476707084 -0.20677640516301882 -0.11509792522042041 -0.11609713367660138 -0.20596448750588855 0.2934606077161801 -0.21072675428872881 0.17206092383682145 0.24304288464342616 -0.29663794101323471 0.07657413059382516 0.21256409756599562 -0.2133517384978855 0.084602509773205617 0.050779742516252009 0.1869574380253699 0.072952161574856886 -0.28944234307493133 0.26525894457422372 0.13920709192157235 0.025717810935988215 -0.25086525039066898 -0.10983545096584164 0.0029697187552832757 -0.05283404210902997 -0.24105103341584735 -0.05122051925268517 0.31645692727798946 0.10786555755519547 -0.10089808711800718;0.014124277777979657 -0.054715627285571444 0.11737787442966729 -0.2685569423776043 0.25697308118000728 0.17311574710152378 -0.23516084139589241 -0.30760452617857648 -0.20938964460854098 -0.00015155115947326924 0.16789633551013311 0.10948936785412421 0.242681128854765 0.27103667663360448 0.31762326191601514 0.21505770881045649 0.037662383964307503 -0.035231751080470351 0.09217409504967787 0.11072744190470972 -0.23437064619524933 -0.028793126991872267 -0.049834366444628554 0.1550044243146616 -0.33004549787946652 0.19852192719109912 -0.097849647600360648 -0.069818256689149621 0.096019327266357868 -0.074707770430684786 -0.23396595186642544 0.24489713316800396 0.31869112696488389 0.081754141503805736 0.043200394273873843 0.054859448255945478 0.29723840953471942 -0.090767686636749403 -0.025921312324978112 -0.0084486331016254638 0.23487502312185943 0.26948361424355394 -0.15625264535831426 0.0027385494671384267 -0.18726206226065686 -0.25981907264328741 0.16765042569449753 0.1258173655489549 0.12471881542041609 -0.033049383305218762 -0.10940270787107309 0.049157961409766131 -0.28453088300282581 -0.23537999663364684 -0.3024018940669565 -0.032988574872482794 -0.32516811044735544 0.26376776154848597 0.20379812040800782 0.091482631847847995 0.29776900996674377 -0.070686681874295054 -0.10264190920385335 0.090835388346672138;-0.27095068410468287 0.017975411546053602 0.071947156880566812 0.30660242552883349 0.14104694617741731 0.24209923561068319 0.07891841155226785 -0.20092223921233673 0.23235251683849975 0.26619390684420491 -0.088920527540516978 -0.24493861953107357 0.08902943573665853 -0.18693177133677125 -0.026314210815281142 -0.018894815457885333 0.018182162488954896 0.051542672761621472 -0.32521152428867678 -0.02653755883159983 -0.17651252885513966 0.14279815830535286 -0.017702605159541068 -0.26929641362328649 -0.075849458345703252 0.24148024760701522 0.18543435468638558 -0.10689721971680376 0.066653451035368558 0.077332757256411269 0.058442403781849721 -0.054919393233537041 -0.27208466659043173 -0.01382719961371779 -0.063601416874441499 -0.28745769250563097 -0.28387239712094792 0.31864825161973465 0.33034809308284041 -0.12144021886485665 0.012841020099891106 0.2619270417877696 -0.22379588865845584 0.023091969373271098 0.084896441141931817 0.18631906984862862 -0.14884494683883931 -0.22984808933576092 -0.32310954613518178 0.10293572331324893 -0.074112777098823579 -0.04266982729380777 -0.29060538293354371 -0.14566265287146665 -0.22679792327751816 -0.1262475821849717 -0.24117246661899133 -0.031830599399859522 -0.14208080905165171 -0.045101095196972488 -0.25649362002536225 -0.31813290440216069 0.13832633954096468 0.20881647917748597;-0.19737520794864905 -0.22046701174773065 -0.0093286903490508548 0.14158283838411012 -0.09965443184629813 0.30213475387162014 0.22979506073466452 -0.18182394272486077 0.23173417758680265 -0.23308917609830901 0.031856725397609698 -0.063898454560133724 0.28838861458157661 -0.19716862323085807 -0.14770712041371289 -0.061734092566684134 -0.12954359088005593 -0.045308572095626311 -0.2215820519390303 -0.062357053322250826 0.2469638434931879 0.28270933924263997 -0.044129933892050305 0.11594114683159663 -0.12907127009382235 -0.24139381827107517 0.2252645745354433 -0.19649991618100454 0.15725780914043413 -0.072554034228998629 0.2205292684086248 0.27196332876040402 -0.18884723544775278 0.054953593552373094 -0.14168309353006545 -0.062659117990642041 0.082869442626632359 0.19877459095900826 0.17111393367847866 0.2847090481518304 0.11304147189996339 -0.1898743085453177 -0.19969727700773726 -0.2583946257063352 -0.22022598381148428 0.11631711801221536 0.039242499245354563 0.18839570605540124 0.11140794989851893 0.071698910323802392 -0.082961808910927679 -0.24326168323993605 0.25420583759751147 -0.11139081550279439 -0.012972363007966827 0.30555133600088752 0.0039468535768418011 -0.25132166397841749 0.2323339617630808 -0.26210518412231504 -0.0036211920901538649 -0.31356309825372891 0.27852521446457468 -0.12841662312656826;-0.0096558639708289925 -0.033628506461297981 0.097420367561766211 -0.21799379006473141 0.095879206103431328 0.17728921321476498 0.12170180546896064 0.09559903420114399 0.23385642759360406 0.11458705417163337 -0.25346534150906302 -0.17902254541142776 -0.032100151046322051 -0.025151369822693982 0.034575045996039104 0.028237873774920683 0.25110549061101056 -0.30730869331657024 -0.19833415820622685 0.089380581014497459 -0.19790769112317935 -0.19498453631514556 0.14337641056338121 0.24258003869863909 -0.033466500855731766 0.15398311897315003 -0.058228169257203068 0.24288565255932756 -0.24979781209676888 -0.12568722303266197 -0.21069072948985429 -0.00097913792527086095 0.28039252448307872 0.16334827084219153 0.31086831543110888 0.24704232987199348 -0.12876007215328694 -0.27586819785012545 -0.23395018364752157 0.27995492351877316 -0.18613450110575086 -0.15945275195707312 -0.23612942990929311 0.034185917686056021 -0.13328774216240716 0.21257041550647185 0.097817611853475039 -0.17955316064702551 0.17977163169514837 -0.099948210565211471 -0.075285451596324313 -0.2593048331256011 0.18839193489214351 -0.2317094302997835 0.16670292203435269 -0.22003615796973203 -0.30681222414547865 -0.2581122792603302 -0.27780801476215744 -0.069318587280821034 -0.24418564597687489 -0.091261609519692949 -0.084751191735302725 -0.26259569141841688];

% Layer 3
b3 = [-1.4981490739533454;-1.4482916400890957;-1.3968320448800791;-1.3429759639553502;-1.3113115614326418;1.2665818214512343;1.2265529094337533;1.1605346346239422;-1.1353438283200414;-1.0631657846625087;-1.0389820910472549;-0.97946137773668984;-0.91832536108828089;-0.8780021497879904;0.82129464243964578;-0.79287286369193133;0.72663146175055726;-0.6977251537911463;-0.64862603819817055;-0.59924820038283744;-0.5504895941306458;0.49818860784695818;0.45471401841834885;0.40696867571943829;0.34317456780932792;0.3165975840963422;-0.25975891362981213;0.21702200931113394;-0.14360908956074506;0.11627930494589177;-0.070768460096929151;0.015847531986910125;-0.031074699745242029;0.058772051529737773;-0.11588050126641786;0.15885210332942579;-0.20565450955375641;-0.2617655956110912;-0.30430887580837346;-0.36709677676862301;0.40875496551023383;-0.46397627982707668;-0.50574615062661255;-0.54634847254482133;0.60318430584812732;0.6390266573987573;0.68994122282284442;-0.73736777095556461;-0.78575907267449852;-0.823012421940438;0.87420278686247233;0.94159321135560214;0.97658673020599751;1.0272775392532436;1.0424962295844109;-1.1102030903254563;1.164000597585247;-1.2047432005478631;1.2372852310585787;-1.2963672798889909;-1.3519445111788739;1.4023456455913803;-1.4544780179630274;-1.5019351750032541];
